437 100
similarity 0.36698 -0.15102 0.63779 0.49909 -0.15694 -0.052749 0.073049 0.49266 -0.45659 0.10568 0.21512 0.32765 -0.20461 0.15669 -0.16019 -0.65222 -0.3945 0.20975 0.15458 -0.21462 -0.040021 -0.30196 0.27999 -0.14881 -0.79086 -0.16824 0.13899 0.20131 -0.085896 -0.71867 -0.33856 -0.18342 -0.06834 -0.11878 -0.636 0.38783 -0.071161 -0.39668 0.14747 -0.047329 -0.0035154 0.11722 0.29068 -0.43565 0.20455 -0.17853 -0.010448 -0.48954 -0.22802 0.63857 -0.087367 0.1424 -0.052863 0.042029 -0.054282 0.23655 0.51995 -0.25462 -0.25874 0.23674 0.61848 0.12356 0.082538 0.28916 -0.10891 -0.18651 -0.3709 -0.079725 -0.32253 -0.099328 0.12365 0.40853 -0.23254 0.66223 0.22183 0.38716 0.042181 0.24972 -0.22527 -0.005298 -0.22761 0.10163 0.22331 0.69349 0.23327 0.090715 0.22225 -0.4951 -0.13799 -0.063023 0.0055457 -0.036398 0.022504 0.27369 -0.24207 -0.046582 0.2138 0.47955 -0.14902 -0.10218 
dollar 0.15477 -0.70546 0.47943 0.44142 0.12283 -0.61223 0.14937 0.37183 0.25567 0.51118 -0.12113 0.19462 -0.38393 0.020484 0.15688 0.027967 0.52855 0.33352 -0.10244 -0.89471 0.52617 -1.0739 0.46816 -0.35387 0.099733 -0.48384 -0.2034 0.18661 0.43738 -0.53239 -0.23537 0.47744 -0.39648 -0.26689 0.37224 0.27203 -0.14147 -0.73005 -0.11602 -0.24752 0.35405 -0.68815 0.60584 -0.35282 0.235 -0.16677 0.0002216 -0.22582 0.18704 -0.24089 -0.4446 0.073039 0.12641 -0.086413 0.11209 0.12007 -0.056376 -0.35347 0.065975 -0.47713 -0.77718 0.62141 0.16899 -0.065375 0.58243 -0.041761 0.0093341 -0.53961 0.37905 0.20974 -0.12402 0.062132 -0.49984 -0.018351 -0.11061 -0.24267 -0.084373 -0.70951 0.38578 -0.60871 -0.69496 -0.29061 0.059477 0.18285 -0.55309 -0.22042 0.066907 0.26151 0.11534 -0.31346 0.61593 -0.1665 0.67408 -0.0438 -0.80861 0.099315 0.29485 -0.2605 -0.42117 0.22015 
focus -0.12069 -0.22173 0.39087 0.10918 -0.11328 0.18614 0.35061 -0.062854 -0.086188 -0.1585 0.20118 0.19065 -0.37262 -0.05161 0.097143 -0.25172 0.3153 0.57367 0.043635 -0.46296 -0.1308 -0.061718 -0.0094919 -0.4257 -0.2318 -0.045121 0.15054 0.054169 0.22779 -0.35805 0.17975 -0.3484 -0.06472 -0.18093 -0.3023 0.21943 -0.45429 -0.41408 0.07467 -0.19794 -0.20797 0.091577 0.22067 -0.12686 -0.076591 0.11317 -0.028222 0.077326 0.046705 -0.035719 -0.27369 -0.14716 0.10582 -0.0042204 -0.24434 0.083497 0.48879 -0.096851 0.06579 -0.22331 0.23067 0.21598 -0.20557 0.031634 -0.29694 -0.15108 0.086377 0.10916 0.51402 -0.1281 0.21475 0.052803 -0.087396 -0.046284 0.44824 -0.31959 0.18009 -0.046602 -0.42478 -0.89336 -0.098904 -0.052139 0.10933 0.21856 0.25474 0.11781 -0.3841 0.16555 0.090561 -0.089376 0.048507 -0.13268 -0.18947 0.014181 -0.13759 0.10806 -0.62796 0.37181 -0.28287 0.027056 
month 0.55118 -0.23918 -0.25879 -0.12872 -0.2297 0.28347 -0.10999 0.13455 0.17406 0.37258 -0.32594 -0.17143 -0.12774 -0.14792 -0.03506 -0.21665 0.19482 0.10941 0.25135 0.065274 -0.26808 -0.26331 0.38793 -0.099421 -0.37016 -0.32963 -0.44895 0.58283 0.37102 -0.33992 -0.24231 0.028468 -0.12649 -0.27398 0.0090745 -0.063792 0.25868 -0.16613 -0.13204 0.32152 -0.058105 -0.27253 0.19792 0.38035 0.2722 0.23431 -0.088306 0.20573 -0.17287 -0.081653 -0.1374 -0.14001 -0.051978 0.24573 -0.16516 0.049814 -0.19098 0.1814 -0.26411 0.1002 -0.10979 0.12998 -0.11725 -0.32647 0.1474 0.17402 0.12399 -0.35807 0.15852 -0.25955 -0.51274 0.59474 -0.18803 -0.21767 0.0033652 0.0096481 0.27398 0.084341 -0.032621 -0.38628 -0.39195 0.072667 0.16551 0.17529 0.14859 0.15722 -0.20784 0.45903 0.062591 0.18454 0.095139 -0.17206 0.5662 0.16828 -0.10264 -0.095667 -0.33114 0.58175 -0.11745 -0.30434 
mile 0.273 -0.87183 -0.31816 -0.17457 -0.5252 0.48082 -0.15588 -0.026806 0.014134 0.043392 -0.29872 0.37735 -0.7967 -0.14321 -0.24798 0.16025 0.40022 0.22143 0.32586 -0.12438 0.0054034 -0.0058468 0.05676 -0.31178 0.4123 0.04335 -0.57817 0.0030928 -0.37991 -0.17751 0.13817 0.38126 0.29507 0.015998 -0.15721 0.33427 0.10275 -0.38666 0.34723 -0.13389 -0.28826 -0.42028 0.091571 0.20411 0.41235 -0.1943 0.10449 -0.2347 -0.13909 0.89811 0.29657 -0.12041 0.36288 -0.12907 -0.31156 0.45913 0.0082211 -0.36786 0.13253 -0.10226 -0.11296 -0.27092 0.14599 -0.22092 0.21469 0.091123 0.3506 -0.84171 -0.17408 -0.049064 0.10222 0.44644 0.014194 0.089337 0.012882 -0.15436 0.77079 0.26423 0.16116 -0.012531 0.45306 -0.41426 0.15632 0.6921 0.94574 0.3065 0.0052175 0.42667 0.39194 0.010836 -0.27575 -0.48484 0.704 -0.18923 0.32728 0.6338 -0.22423 0.059438 0.12661 0.22549 
computation -0.043362 -0.40995 0.017951 -0.15511 -0.079217 0.47733 0.4332 -0.067411 -0.063624 0.333 -0.65987 0.503 0.064718 -0.1001 -0.0024089 -0.53719 0.49365 -0.062514 -0.23704 -0.039 0.20679 0.027016 -0.24883 -0.24729 -0.57055 -0.33752 0.7234 -0.070283 -0.11489 -0.49192 -0.50453 0.0082596 0.21255 -0.12201 -0.12183 -0.0536 -0.33047 -0.54995 0.4954 -0.45898 -0.35184 -0.31323 -0.14636 -0.2223 -0.014562 -0.148 -0.59054 0.062109 -0.093979 0.81124 -0.25868 -0.37958 0.033794 -0.23335 -0.59107 0.17465 0.82623 -0.52144 -0.70841 -0.27407 -0.27355 0.18185 -0.43229 -0.039123 -0.073871 0.27375 -0.18393 -0.10027 -0.26863 -0.047627 1.0861 1.0068 -0.44411 -0.041651 0.080332 0.31221 0.028041 -0.22598 0.10225 -0.5228 -0.046341 -0.018629 0.86027 0.24481 -0.18152 0.25251 -0.094691 -0.16774 -0.11149 -0.69917 -0.038464 -0.5907 -0.024865 0.37583 0.17171 -0.11225 0.044601 0.11701 -0.57162 0.16021 
skin -0.12225 0.34468 0.12656 -0.026104 -0.20331 0.16102 -0.21026 0.018959 -0.057058 0.43785 -0.14095 0.14033 0.068117 -0.28363 0.19978 -0.019052 -0.086698 -0.065959 0.24744 -0.49242 -0.10798 -0.24109 0.47304 -0.25787 -0.43522 0.26139 0.16375 -0.47998 -0.21055 -0.67154 0.0083601 -0.18912 -0.14013 -0.17482 -0.038671 0.57021 -0.13521 -0.10008 0.24257 -0.67976 -0.081605 0.093297 -0.1197 -0.50312 -0.088813 -0.21623 -0.021703 0.25148 -0.46803 0.93979 -0.14716 0.095289 0.062274 -0.40938 -0.16882 0.57111 -0.21885 -0.66106 0.20667 -0.92543 0.5297 0.1744 -0.1982 -0.22368 -0.0083156 -0.14792 -0.38693 -0.6223 0.45488 -0.73437 0.78168 -0.3523 -0.27676 0.049141 -0.22476 0.19103 0.68035 -0.12354 0.054052 -0.34549 -0.90633 -0.54918 -0.17367 0.099169 0.10645 0.14461 0.24593 0.013484 0.47864 -0.48995 0.37445 0.058775 0.45964 0.76365 0.33193 -0.081367 -0.45612 0.55607 0.39909 -0.61932 
children 0.40888 0.056224 0.19877 -0.32978 0.083872 0.081102 -0.19174 -0.12946 -0.11781 0.54125 0.09318 0.15742 0.33932 0.24807 0.12436 -0.11256 0.049008 -0.19497 0.14185 -0.33856 -0.48166 -0.17791 -0.29946 -0.07007 -0.12846 0.33291 0.048668 0.094373 0.041129 0.12469 -0.029647 0.17973 -0.086182 -0.068146 0.10971 0.52078 0.034525 0.011639 0.063993 -0.24876 -0.47343 0.056991 0.29353 0.39391 0.23134 -0.018896 -0.0079425 -0.13442 0.038483 0.56151 0.039295 -0.20521 0.12265 0.024812 -0.22522 0.076085 -0.079394 0.22368 0.34564 -0.55479 0.005895 0.1943 -0.072359 -0.1062 0.22615 0.3503 -0.44525 -0.51616 -0.43184 -0.51327 0.32885 -0.83767 -0.66128 0.26211 0.2575 -0.30895 0.38532 0.15422 -0.078444 -0.91293 -0.040132 -0.12641 0.55804 0.41392 0.40501 -0.26878 0.095514 -0.29954 -0.58148 0.59784 0.21185 0.11928 0.28636 0.13479 -0.37839 0.10794 -0.16314 0.26523 -0.31748 0.31562 
row -0.17582 -0.075551 0.13418 -0.13649 -0.39138 0.17147 0.055446 -0.014961 -0.22844 0.117 -0.10129 0.035426 -0.0051219 -0.044032 0.05284 -0.074097 -0.45669 0.062956 0.81256 -0.14513 0.044702 -0.52514 0.31444 -0.39403 -0.2095 -0.064063 -0.31174 0.12759 0.22364 -0.25428 -0.31371 0.15677 0.093351 -0.29312 -0.27575 0.055364 -0.18968 -0.12691 -0.62145 0.76751 -0.23586 -0.15555 0.23428 0.10672 0.014939 0.25645 -0.43334 0.083407 0.37489 -0.14621 -0.14232 -0.092577 -0.44015 -0.059921 -0.25757 0.34617 0.14804 -0.21523 -0.14418 -0.014595 0.20491 0.11194 0.042194 -0.12318 0.49169 0.092411 0.51194 -0.47024 0.21942 -0.35657 -0.59227 -0.18694 -0.064805 0.22607 0.23696 0.53164 -0.1363 0.25361 -0.12741 -0.37308 -0.080739 -0.13577 0.1043 0.46491 0.15672 -0.014611 -0.22095 0.17829 0.29403 0.021723 0.26934 -0.034116 0.77918 0.046438 0.1415 0.25308 0.0051532 0.28568 0.48595 0.063526 
wizard -0.40792 -0.4075 0.11155 0.19931 0.28466 0.38719 0.41876 -0.039909 -0.34567 0.79756 0.34635 0.13922 0.15455 0.53882 0.16112 -0.17375 0.18002 -0.19589 -0.36625 -0.23684 -0.22809 -0.70658 -0.21585 -0.37192 -0.3634 -0.31625 0.33841 -0.11972 0.17536 -0.56643 -0.012254 -0.56931 -0.13212 -0.90093 -0.54516 -0.35171 -0.45694 -0.36391 -0.12754 0.060024 -0.34963 -0.50641 -0.24352 0.58073 0.19883 -0.25721 -0.2928 -0.015493 -0.63832 0.91651 0.011028 0.32893 -0.62602 0.33142 -0.39859 0.21651 0.71168 0.16163 -0.45351 -0.12717 0.021585 -0.24155 -0.0010215 -0.41822 0.57249 -0.42293 -0.31601 -0.4072 -0.32759 -0.14797 -0.012467 0.23234 -0.47536 0.42398 0.11511 0.099877 -0.10311 -0.17001 -0.30076 -0.46387 -0.183 -0.33684 0.086381 0.32327 -0.36041 -0.31802 -0.19917 -0.19288 -0.66589 0.38112 -0.14207 -0.25348 -0.0089569 -0.061158 -0.35217 -0.27637 -0.078444 -0.4326 0.75657 -0.015025 
disability 0.56413 0.21384 0.27292 -0.26096 -0.3306 0.41834 -0.046856 -0.030737 0.23776 -0.33397 0.10685 0.71001 0.14633 0.08122 -0.26429 -0.5795 0.12288 0.023335 0.52507 -0.3129 0.081325 -0.23908 -0.30011 -0.27405 -0.31674 -0.11243 0.25656 0.24465 -0.33193 0.12686 -0.29894 0.0078281 0.49296 -0.013182 0.39068 0.071472 -0.27384 -0.25904 0.099479 -0.5406 0.28399 0.18654 -0.13223 0.033992 0.2412 -0.36142 -0.51498 0.85469 0.23532 0.55263 -0.5009 -0.34123 -0.24388 -0.19682 0.13968 0.0040968 0.046928 0.20542 -0.45261 -0.9478 -0.23557 0.10299 0.37712 0.005252 0.60913 0.20219 -0.31412 -0.5525 -0.099382 -0.69843 0.76775 -0.44843 -0.31944 -0.53637 0.27149 -0.20361 0.30064 0.19991 0.2591 -0.75073 -0.26206 -0.20353 0.3302 0.62502 0.069174 -0.012417 0.028591 -0.36941 0.15944 0.30883 -0.16442 0.10227 0.90609 0.35197 -0.20991 0.11754 -0.1515 0.045944 -0.40675 -0.23525 
environment -0.15481 -0.27301 0.29409 -0.086766 -0.0084273 -0.082924 -0.077397 0.019671 -0.051096 -0.00065585 -0.57044 0.095186 0.016589 -0.098599 -0.38164 -0.51767 0.29274 0.58028 -0.39948 -0.075128 -0.62687 -0.033136 -0.14152 -0.30547 -0.39642 0.28012 0.31424 -0.010141 -0.024756 -0.52005 0.12339 -0.12514 0.28051 0.19626 -0.27168 0.11669 -0.16807 -0.24251 -0.3303 -0.1521 0.052057 0.36619 0.61931 0.19065 0.36818 -0.011268 -0.00093041 0.16608 0.14932 0.13112 0.16261 -0.64612 0.16739 -0.021013 -0.26843 0.003397 -0.030584 -0.31338 0.15461 -0.2996 0.24651 0.37444 -0.080038 -0.26325 0.11191 -0.095807 0.14262 -0.49712 0.18882 -0.4354 0.50195 -0.45106 -0.49065 -0.37461 0.3409 0.31213 0.41821 -0.0036475 -0.21087 -0.33699 -0.30195 -0.23455 0.14713 0.4113 0.071526 0.41609 -0.48651 0.011045 0.35899 -0.37282 0.40416 -0.35976 -0.39712 0.53392 -0.33159 -0.59588 -0.17449 -0.22112 -0.35947 0.19866 
terror -0.48998 0.16843 -0.329 0.59507 0.25738 0.032669 0.060747 0.031434 -0.20884 0.0067169 0.020125 0.10346 -0.3561 0.19745 0.69164 -0.26872 0.14656 0.059765 -0.053933 -0.5797 0.22094 0.025872 0.2028 -0.34514 -0.33537 -0.27194 0.073129 0.88595 0.17873 -0.27738 -0.64365 0.10858 -0.13794 -0.14933 -0.56396 0.74658 -0.13504 -0.59799 -0.58015 -0.49238 -0.52583 -0.32948 0.17412 0.35077 0.35335 -0.077369 -0.03745 0.2328 -0.019041 0.088991 -0.11583 0.21387 0.63631 -0.32765 0.074055 -0.028025 -0.057973 -0.48664 0.026175 -0.060123 -0.26767 -0.10363 0.42235 0.10277 -0.29911 -0.01219 -0.60919 -0.68696 -0.2084 -1.0493 -0.077453 -0.47853 0.33109 0.15497 -0.17822 0.19059 -0.49627 0.16316 -0.062918 -0.39095 -0.11424 -0.035314 0.46747 0.77908 -0.028933 -0.84564 -0.59144 -0.23228 0.59793 0.2455 0.14434 -0.018694 -0.06873 0.24221 -0.52722 -0.13059 -0.30082 0.1361 0.37053 -0.37716 
smile 0.0018672 -0.057471 0.61317 0.33742 -0.15407 0.63196 -0.17523 0.45576 -0.416 0.30515 0.048128 -0.033599 0.18614 -0.2489 0.10733 -0.016338 -0.20872 -0.33516 0.47177 0.11518 -0.41761 -0.84281 0.20158 -0.26888 -0.52397 0.19769 -0.1715 0.18122 0.17003 -0.24312 0.17591 -0.04388 0.083608 -0.29775 -0.66967 0.15809 0.043106 -0.2432 0.10198 -0.67242 0.33985 0.038705 0.0261 -0.17027 -0.4425 -0.22187 0.39291 -0.38113 -0.47926 1.3804 -0.016577 -0.29656 -0.405 -0.30935 0.015908 0.11727 0.24697 -0.41277 0.50808 -0.47846 0.2047 0.24402 0.0065979 -0.26754 0.22476 -0.57594 -0.15923 -0.36547 0.38248 -0.50601 0.13845 0.059525 -0.80657 -0.068459 -0.13599 0.015939 -0.18962 0.14113 -0.12473 -0.48792 -0.38988 -0.22656 -0.04776 0.36355 -0.20104 0.47937 -0.18242 0.19011 0.42964 0.071125 -0.15899 0.24603 0.47529 -0.18495 0.17204 -0.14832 -0.057707 -0.26563 0.52723 -0.25106 
woman 0.24246 0.53409 0.30435 -0.099339 -0.093745 0.50251 -0.36165 -0.21448 -0.24614 0.14246 -0.29769 0.34863 -0.29881 -0.19389 0.13417 -0.127 -0.50225 -0.46187 0.27345 -0.52639 -0.63909 -0.47397 0.42862 -0.12213 -0.2202 0.34634 -0.21374 0.19626 -0.17549 -0.37246 -0.010791 0.050346 -0.080303 -0.32445 -0.47905 0.18172 -0.13986 -0.18405 0.41263 -0.029318 -0.25969 -0.083161 0.11504 0.26112 0.20369 0.11757 -0.3983 -0.51919 0.51809 0.4086 -0.14501 -0.067289 0.37975 -0.035123 -0.37225 -0.04218 -0.09451 0.11492 -0.020381 -0.96178 -0.040669 0.13667 0.049218 -0.19126 0.36745 0.0022138 0.023724 -0.67834 0.11045 -0.56952 -0.2169 -0.080156 -0.47042 0.16702 -0.17368 -0.029332 0.23836 -0.264 0.23314 -0.14194 -0.15372 -0.51572 0.059354 0.41041 -0.27022 -0.010435 0.083719 -0.39733 -0.56715 0.27713 -0.36542 0.67654 0.51255 0.038567 0.25399 0.18886 -0.29369 -0.010645 0.082069 0.071427 
string -0.41187 0.35039 0.015174 0.382 0.15349 -0.1312 0.14398 -0.10157 -0.23733 0.22138 -0.37832 -0.090998 -0.70143 0.22819 0.38291 -0.070655 -0.34146 0.21871 0.17798 -0.31326 -0.15105 -0.6082 0.50027 -0.032991 -0.40576 -0.65741 -0.3344 0.38534 0.29902 -0.52898 -0.56449 -0.17396 0.11362 -0.24444 -0.43922 0.63583 0.082454 -0.23533 -0.07759 0.4769 -0.31578 0.18003 -0.17161 -0.079902 -0.042445 -0.023889 -0.013612 -0.058202 -0.5841 -0.22355 0.018206 0.41181 -0.31684 -0.037539 -0.27971 0.2589 0.24865 0.20419 -0.16875 -0.22377 0.41296 -0.020704 0.073127 0.064166 0.28761 0.016683 0.16897 0.037641 0.31809 -0.058552 0.08095 -0.14321 -0.19493 0.2304 0.18517 0.7305 -0.22097 0.54255 -0.239 -0.83003 -0.40587 -0.19499 -0.041812 0.26855 -0.11185 0.036814 -0.032306 -0.060136 0.0022167 0.39794 0.094372 -0.17282 0.057458 0.034756 0.27423 -0.19211 -0.11286 -0.043012 0.1474 0.033631 
Maradona 0.12639 0.27806 0.25569 0.47789 0.50972 0.62743 0.15064 -0.11322 -0.51728 1.0342 0.14392 0.58593 -0.67747 0.91165 -0.46038 -0.21809 -0.03734 -0.070735 0.067436 -0.20611 -0.31261 -0.015365 -0.20465 -0.075758 -0.30557 -0.56976 0.12821 0.017663 0.042471 0.49316 -0.36789 0.50378 -0.40939 0.092726 -0.58356 -0.34505 0.13287 -0.76681 -0.39487 0.17329 -0.20717 0.63522 0.49386 0.077938 -0.25469 -0.61133 -0.3324 -0.7854 -0.065075 0.96636 0.11802 -0.6962 -0.54071 -0.19031 -0.17811 0.54909 0.20128 -0.25829 0.49853 0.00323 -0.088133 -0.049451 -0.16568 -0.46151 0.018273 -0.23685 -0.40464 -0.97274 0.61967 -0.91409 0.15491 0.17668 0.32447 -0.32018 -0.37945 0.0082772 -0.30069 -0.59097 0.27108 -0.37342 -0.66904 -0.31682 0.2813 -0.49357 -0.42731 0.087995 -0.0026432 -0.14353 -0.028008 0.35964 0.20955 0.17463 0.53346 0.26982 0.4987 0.31534 0.010462 0.64246 0.32558 0.63988 
liability 0.16354 -0.21245 0.48418 0.087752 -0.27494 -0.02696 0.19485 0.49176 -0.19378 -0.20904 -0.28056 -0.066498 -0.27317 0.033463 -0.40648 -0.33503 -0.0077639 0.59805 0.057996 -0.43456 0.46162 0.40724 -0.03885 -0.13605 -0.48343 -0.29808 -0.086462 -0.0064197 -0.37804 -0.18758 0.0018934 0.2666 0.56294 0.38819 -0.067351 0.19344 -0.21008 -0.45136 0.31547 0.10098 0.28599 -0.10882 -0.097961 -0.013003 0.4987 -0.28667 -0.38362 0.70926 0.10646 0.087039 -0.09277 -0.24187 -0.17785 -0.057308 0.11183 -0.26208 0.24738 0.11339 0.10726 -0.54198 -0.32221 0.15647 0.49813 0.42161 0.2411 -0.032606 0.33431 -0.50433 -0.12052 -0.24964 0.55405 -0.18303 -0.12893 0.20486 0.51351 -0.078377 0.59179 -0.32287 -0.091144 -0.70455 -0.25866 0.099079 0.3754 0.44876 -0.85367 0.094888 -0.38289 -0.43173 0.31085 0.057441 -0.024832 -0.34504 0.61558 0.38286 -0.18803 0.35715 0.26931 0.27139 0.31257 -0.11877 
ticket 0.020597 -0.45692 -0.32139 0.39785 -0.055315 0.20833 -0.41121 0.46103 -0.66683 -0.21632 -0.086983 0.48341 -0.32977 0.56114 -0.13389 -0.50845 0.32549 -0.12145 -0.29631 -0.14996 0.26627 -0.61312 0.12008 0.065184 0.15154 0.0039641 -0.63073 -0.17729 0.41728 -0.38413 0.27525 0.30081 0.16848 -0.085902 0.13351 -0.13859 0.062867 -0.69119 0.29361 0.5328 -0.33785 -0.62741 0.084953 -0.82345 -0.31879 0.18387 -0.053028 -0.024585 -0.027365 -0.18193 0.21328 -0.44898 -0.062005 0.28709 -0.011264 -0.033568 -0.1497 0.44365 -0.06129 -0.041318 -0.38366 -0.68154 0.53773 -0.24288 0.087499 0.27274 -0.18813 -0.67019 -0.1551 -0.64456 -0.15454 -0.025625 -0.56405 -0.039557 -0.17172 -0.30578 0.36012 -0.23573 -0.23429 -0.25447 -0.1661 0.018296 0.26678 0.78438 -0.32717 0.47135 -0.66301 0.11906 0.099229 -0.03171 0.053939 0.10821 0.59687 0.28975 -0.25716 0.30962 -0.25527 -0.19678 0.071552 0.019569 
school 0.55268 -0.029666 -0.070079 -0.07309 0.18252 0.4434 0.11745 -0.15801 0.044405 0.13801 -0.015193 0.32617 0.03539 0.50001 0.41444 -0.16776 0.032143 -0.039303 -0.13544 -0.14499 -0.13955 -0.15683 -0.21831 0.30895 -0.014097 -0.25895 0.26113 -0.085732 0.047044 -0.2158 -0.011054 0.12003 0.088488 -0.29201 -0.19045 0.27729 -0.239 0.0075843 -0.49097 0.31816 -0.44337 -0.054407 0.70102 0.26917 0.22641 0.20131 -0.24964 0.11694 -0.28717 0.28055 0.020903 -0.032927 -0.069136 0.30865 -1.089 -0.08554 0.078221 -0.20344 0.089803 -0.66511 -0.34726 -0.17909 -0.088953 -0.29604 0.17829 0.093241 -0.37737 -0.057147 -0.048913 -0.65012 0.038916 -0.54685 -0.72317 -0.12796 -0.20426 -0.43705 0.28321 0.35859 -0.024807 -0.64416 0.30652 -0.17781 0.43314 0.33023 0.35207 0.21608 -0.069322 0.006969 -0.47725 0.42307 -0.15333 0.030097 0.56515 0.046974 -0.23724 0.41277 0.11063 -0.37228 -0.54725 0.26369 
gender 0.4231 0.31192 0.34424 -0.39122 -0.099329 0.24479 -0.02689 -0.08456 0.022917 -0.25787 0.22977 1.1779 -0.48385 0.40077 -0.25951 -0.40382 -0.096736 0.2754 0.28166 -0.32044 0.22827 -0.57503 -0.047142 -0.31465 -0.84583 0.088617 -0.037862 0.1879 -0.17952 -0.023927 0.082652 -0.18311 0.10977 -0.37991 -0.0064216 0.32708 -0.37555 -0.34336 0.28502 -0.36775 0.23178 0.22582 0.83328 -0.48179 0.066751 -0.28514 -0.69198 0.58012 0.19286 0.55927 -0.638 -0.68701 -0.17776 0.023055 -0.15244 -0.014052 0.37117 -0.362 -0.34166 -0.57091 0.037118 -0.16902 -0.34759 0.29296 0.21787 -0.071417 0.15166 -0.38534 -0.26817 -0.96496 0.4366 -0.3643 -0.52835 0.12011 -0.34004 -0.11392 0.31011 0.42738 0.023185 -0.29359 -0.059347 -0.68127 0.90423 0.24765 0.0012176 0.015745 0.28518 -0.2087 -0.032222 -0.14721 -0.0087116 0.2633 -0.0050875 0.37211 0.03714 0.7096 -0.27933 0.4315 -0.34076 -0.42208 
brother 0.2517 0.20597 0.38342 0.24542 -0.041099 0.30434 -0.11221 -0.042434 -0.048692 0.29138 -0.097701 0.25254 0.12273 0.12869 0.26059 -0.3299 -0.19878 -0.27833 0.080957 0.14809 -0.38749 -0.089903 0.011544 -0.44274 -0.13382 0.55404 0.29856 0.1274 0.1978 0.1255 0.22555 -0.059799 -0.089643 -0.83452 -0.47651 0.45973 -0.033161 0.060728 -0.068661 -0.071575 -0.26427 -0.21646 -0.33066 0.23141 0.28187 -0.29324 -0.061962 -0.24636 -0.012494 0.48776 0.05942 -0.18681 -0.11209 0.0091192 -0.2949 0.017539 -0.33186 0.51372 0.13396 -0.26452 0.16224 0.016502 0.2425 -0.29476 0.21486 -0.18309 -0.38275 -0.70406 0.10565 -0.17589 -0.44537 0.25479 -0.010406 0.41618 0.55878 0.0040909 -0.15712 -0.55677 -0.084694 -1.0493 -0.48728 -0.37799 -0.025012 0.67247 0.073676 0.016801 -0.21746 0.058451 -0.82032 0.96988 0.0055979 -0.12639 0.33333 0.1873 0.24114 0.0031741 0.50566 0.025018 -0.038647 0.19298 
team -0.013945 -0.014555 0.051701 -0.076691 0.038764 0.37635 0.64898 0.16869 -0.55559 0.1411 -0.32283 0.26485 -0.19266 0.14588 -0.55426 -0.12702 0.41295 0.093485 -0.071382 -0.25251 0.071379 -0.31285 -0.10403 -0.038542 -0.21274 -0.26265 -0.20296 -0.31228 0.37549 -0.4223 0.32497 -0.16084 0.051466 -0.13278 -0.53102 -0.056881 -0.33201 -0.23797 -0.38757 0.29412 -0.14812 0.24249 0.38859 0.16287 -0.23559 0.16257 -0.16597 -0.082296 -0.012471 0.1245 0.16798 -0.26718 -0.14177 -0.39851 -0.70086 0.14983 0.060829 -0.10994 0.21366 -0.48038 0.19834 0.012016 0.10698 -0.2849 -0.0074585 -0.27311 -0.5881 -0.44765 0.02877 -0.42373 -0.10414 0.15489 0.41478 -0.08848 0.11679 -0.070271 -0.1243 -0.25164 -0.12666 -0.40145 -0.26335 0.12427 0.17379 0.27997 0.080775 -0.22546 0.17114 -0.026482 -0.28512 -0.013352 0.11315 -0.33228 0.25573 -0.054458 0.15976 -0.0041365 0.048064 0.34823 -0.18063 -0.072109 
mammal -0.21763 -0.34543 0.3342 -0.52239 -0.68569 0.33931 -0.085416 -0.4206 0.062104 0.72107 -0.85034 0.16685 -0.8051 -0.26358 -0.36006 -0.020075 -0.038324 -0.33205 -0.12752 -0.95307 -0.32946 -0.23877 0.15233 -0.36674 -0.76761 -0.095097 0.45299 -0.014112 -0.23641 -0.54823 -0.56109 0.7955 -0.25606 0.15709 0.30583 0.053963 0.19354 -1.0556 0.57143 -0.11403 0.047095 0.40448 0.38776 0.19396 0.56312 0.59286 -0.27215 -0.14574 0.14672 0.83395 0.18088 -0.14875 0.83481 -0.45098 -0.071671 0.76545 -0.10261 -0.5888 0.24461 -0.41417 0.19163 -0.19814 -0.28636 0.00387 -0.34609 -0.33286 -0.77134 -0.84206 -0.52914 -0.58263 0.42665 -0.031561 -0.09702 -0.074634 -0.090617 0.4878 0.4903 0.084639 -0.049931 0.15008 -0.51888 0.085218 0.37952 0.17812 0.19877 -0.15939 0.66766 0.109 0.17142 0.51715 0.31288 0.19077 0.13181 0.57165 -0.31109 -0.53704 0.34901 -0.20027 -0.17321 -0.35813 
round -0.35874 -0.068663 -0.0080509 -0.10664 -0.17889 0.43749 0.33278 0.24921 0.15075 0.16125 -0.22433 -0.2675 -0.23623 0.067485 -0.17899 -0.10177 -0.20359 -0.53825 0.3199 -0.19316 0.38497 -0.48277 0.75977 -0.29157 0.045218 -0.32439 -0.041722 0.0045559 0.57918 -0.09336 -0.085745 0.017212 -0.37306 -0.5468 -0.29753 0.052784 0.25278 0.10553 -0.32656 0.17338 0.17751 0.051879 0.17699 -0.33858 -0.10507 0.10315 -0.38089 -0.26831 -0.090833 0.15977 -0.22733 0.16195 -0.63006 0.32304 -0.44273 0.42896 0.36248 0.046722 0.1092 -0.2369 -0.051772 -0.15484 -0.28203 -0.1081 0.47944 0.17012 0.031172 -0.66125 0.24074 -0.51853 -0.11965 0.047937 0.086138 -0.27266 -0.0024909 0.50185 0.35758 0.077914 0.071302 -0.55946 -0.20398 0.23371 0.30096 0.42385 0.3337 -0.047096 -0.046184 0.34757 0.035472 -0.21251 -0.24602 -0.10093 0.10067 -0.65286 0.24162 -0.076326 -0.53177 0.028639 0.16848 0.3392 
clothes -0.15846 0.051684 0.10051 0.016915 0.0042936 -0.24718 -0.22153 0.22418 -0.013953 0.56625 0.41107 0.13344 0.040661 0.11094 0.39804 -0.15208 0.61197 -0.24362 0.43541 -0.34985 -0.70312 -0.27506 0.44869 0.044006 -0.25196 0.27666 -0.075323 0.0027991 -0.11698 -0.47476 -0.40934 0.023832 0.17866 -0.61355 -0.2757 0.50097 -0.012801 0.29348 0.29539 0.032206 0.2384 -0.34376 0.097006 0.0013162 -0.51077 0.51926 0.49185 -0.38859 -0.039613 0.17206 0.20013 -0.3355 -0.043196 0.0044682 -0.4632 0.06143 0.14657 -0.19847 0.3765 -0.2239 0.15986 0.001719 -0.23734 -0.17426 -0.10488 -0.3036 -0.43207 -0.7257 0.0081531 -0.75891 0.73073 -0.21166 -1.0128 0.054518 0.15635 -0.25269 0.55769 -0.0081517 -0.036403 -0.48863 0.19072 -0.37774 0.17802 0.44312 -0.28265 0.25063 -0.20465 0.41801 -0.26088 -0.013142 0.16381 -0.099061 0.066245 0.48048 0.35034 0.61604 -0.060703 0.21503 0.28523 -0.29826 
carnivore -0.21845 -0.82525 0.29132 -0.32334 -0.45634 0.41789 -0.012917 -0.42487 -0.61034 0.59604 -0.48563 0.86672 -0.82691 -0.42394 0.063098 -0.22006 -0.047739 -0.48547 -0.18196 -0.6693 -0.093815 -0.54138 0.1004 -0.4594 -0.82726 0.47239 0.086262 0.0070275 -0.59454 -0.70672 -0.25626 0.56813 -0.03981 -0.21323 -0.31599 -0.089629 0.54138 -0.94375 0.39082 -0.28712 0.10877 0.54029 0.12078 0.2519 0.83653 0.38007 -0.38182 -0.46321 0.050824 0.60847 0.38798 -0.16841 0.12224 -0.21628 0.086494 0.66424 0.11894 -0.56532 0.1079 -0.35682 -0.1953 -0.43894 0.031868 -0.24273 -0.50766 -0.25255 -0.78755 -0.35759 -0.33564 -0.44063 0.3238 -0.087239 -0.23622 -0.02429 0.15682 0.10263 0.28017 -0.10494 0.14983 0.12936 -0.62894 0.24622 0.20401 -0.28453 0.34421 -0.12871 0.52831 -0.055355 0.273 0.029825 0.053624 -0.18862 -0.099231 0.6504 -0.56101 -0.28326 0.32964 0.15959 0.27567 -0.13666 
sign 0.3114 0.12616 0.39624 0.31517 0.12522 0.2049 -0.13244 0.79708 -0.2286 -0.024659 0.04091 -0.081685 -0.082834 -0.055036 -0.11252 -0.21343 -0.1931 -0.0090706 -0.20243 -0.032595 -0.20562 -0.27873 0.16392 0.13564 -0.11595 -0.5264 -0.18086 0.06993 0.006272 -0.15393 -0.24352 -0.16517 -0.12727 -0.20264 -0.044745 -0.03208 -0.0081248 -0.29555 -0.016369 0.34209 0.087406 0.019689 0.48771 -0.10751 0.2625 0.25276 -0.1377 -0.082426 0.049384 0.49114 -0.19997 0.19625 -0.43274 -0.20731 0.12806 -0.38558 0.19359 0.024465 0.4689 0.10655 -0.19698 -0.02255 -0.43932 -0.10774 0.12894 -0.46299 -0.26402 -0.19794 0.43334 -0.030456 -0.16304 0.4195 -0.15629 0.27564 0.33272 -0.47689 -0.10138 0.54064 0.11812 -0.41482 -0.5225 0.097044 -0.22507 0.927 0.10914 0.23975 -0.22167 0.0095526 0.25367 0.053572 0.2621 0.1276 0.30298 0.066951 -0.38741 0.12985 -0.46313 -0.069467 0.16052 0.038598 
street 0.081542 0.17148 -0.2097 0.24663 0.16079 0.15727 -0.072038 -0.143 0.06816 0.24915 -0.046202 0.15742 -0.59297 0.070429 0.55689 -0.3644 0.046315 -0.4545 -0.0094009 -0.28791 -0.39622 -0.31076 -0.12132 0.044403 -0.22041 0.12881 -0.094795 0.0078787 -0.0288 -0.18279 -0.15758 0.059714 0.048696 -0.53188 -0.1358 0.67175 0.19861 -0.22798 -0.26995 0.38815 -0.0062293 -0.20713 0.12581 -0.090666 0.071234 0.19597 0.027301 -0.83909 0.22791 0.40442 0.25625 -0.27846 0.086082 0.11903 -0.29095 -0.075067 0.32154 0.27333 0.49965 0.21223 -0.23077 0.10099 0.26964 -0.083804 0.40979 -0.14726 0.072966 -0.27481 0.35854 0.085795 0.17516 -0.074343 -0.72041 -0.38171 0.081478 -0.0093914 0.41658 0.59204 -0.069064 -0.27456 0.23852 -0.26952 0.0083249 0.65996 0.49748 0.061825 -0.33579 0.23921 0.24112 -0.27207 -0.14433 -0.044712 0.73411 0.2498 -0.15441 0.53749 -0.20543 0.027209 0.28728 -0.09387 
video -0.27793 -0.30665 0.23929 0.62575 -0.222 0.54975 -0.14408 0.16491 0.073382 0.47409 -0.086967 0.05997 0.20403 0.10337 0.24992 -0.171 0.081889 0.24925 0.16627 -0.28053 -0.32715 -0.43698 -0.24919 0.63539 -0.20153 0.17212 0.093337 0.36887 0.52922 -0.35981 0.075276 -0.13478 -0.16886 0.17435 -0.12723 0.0016087 -0.087877 -0.57259 -0.043717 0.3577 -0.2209 -0.39572 0.064242 0.20962 0.33688 0.20195 0.16015 -0.11531 -0.11277 0.1898 -0.11754 -0.41075 -0.034554 0.012597 -0.24832 0.032722 0.37407 0.20079 0.097106 0.19052 -0.28987 -0.39268 0.0025747 0.099776 -0.27364 -0.18627 -0.64598 -0.22025 -0.09345 -0.24633 0.76688 0.39565 -0.23558 -0.35642 -0.41755 0.62865 -0.22262 -0.31314 -0.20067 -0.52505 -0.029252 -1.0192 0.031667 0.78446 0.018358 -0.12692 -0.55135 -0.028763 -0.4749 -0.15688 0.52022 0.19333 0.21031 -0.064061 -0.22192 -0.38776 -0.37946 0.35652 0.21635 0.076986 
lawyer 0.19265 0.095008 0.54132 0.399 0.067079 0.2947 0.0057669 -0.20532 -0.11873 -0.25188 -0.15209 -0.22343 0.16915 -0.19363 0.15175 -0.7148 -0.10423 -0.19253 0.13369 0.017865 0.091473 -0.38249 -0.0077924 -0.079147 -0.59842 0.18214 -0.12497 0.35584 0.034726 -0.2516 0.31225 -0.035185 -0.24506 -0.79357 -0.75088 0.51139 -0.16288 -0.2196 -0.17004 0.088144 0.42744 -0.084276 0.3403 0.74154 0.51232 0.26259 -0.083757 -0.016498 0.35069 0.11779 -0.097816 -0.17528 0.077942 -0.22732 -0.27485 -0.045855 -0.048207 -0.06667 0.01787 -1.0362 -0.031439 -0.62301 0.33434 0.14785 0.023712 -0.072312 0.17881 -0.54661 -0.34203 -0.078147 0.38682 0.15926 0.24145 -0.20023 0.6639 -0.30563 0.34769 -0.60247 0.49516 -0.3557 -0.33021 0.16315 -0.30264 0.30429 -0.73179 -0.072386 -0.6489 0.016369 -0.26102 0.65343 -0.14399 0.083162 0.48247 0.3879 0.10245 0.23103 0.4499 0.18897 -0.39325 0.06001 
depression 0.33606 0.35994 0.50432 -0.0041627 0.34638 0.03694 0.20107 0.26069 0.37243 0.39245 0.28407 0.33768 -0.34737 -0.2967 -0.51941 -0.48835 0.2569 0.15645 -0.1177 -0.24012 0.27306 0.15499 0.31524 -0.35215 -0.3522 0.13628 -0.42867 0.038408 -0.28467 0.0045047 -0.38046 0.10833 0.22346 -0.035615 -0.090532 0.43508 0.29074 -0.15255 -0.21034 -0.56866 -0.35409 -0.010062 -0.29072 -0.13108 0.25273 -0.024511 -0.64183 -0.15154 -0.17717 1.4874 -0.56707 0.31227 -0.26191 0.23145 0.090811 0.23444 -0.26735 -0.37386 -0.1245 -0.50966 -0.26978 0.86503 -0.11786 -0.30703 0.49851 0.18945 -0.0033789 -0.20533 0.068381 -0.7268 1.0448 -0.38937 -0.39277 -0.13619 0.33522 0.07863 -0.03858 0.1174 0.059286 -0.66675 0.037876 -0.41311 -0.055012 0.23473 0.67905 -0.36031 -0.19783 -0.29555 0.092702 0.48559 0.0051559 0.32264 0.50705 0.090845 -0.83361 -0.28703 0.049976 0.11274 -0.55441 -0.34976 
index 0.35292 -0.16141 -0.082228 -0.32917 -0.61536 0.32302 0.19116 0.48524 0.79173 0.2501 -0.14038 0.98359 -0.37909 -0.10668 0.31922 -0.17867 0.80295 0.81995 0.23699 -0.95256 0.67313 -0.13972 0.15471 -0.4138 -0.57305 0.057162 -0.39047 -0.19586 0.27995 -1.6645 -0.47043 0.247 -0.64168 -0.68467 0.5816 0.12367 -0.092767 -0.11788 -0.19998 -0.20676 -0.13432 -0.5948 1.1775 -0.23651 0.31459 0.12277 -0.0055808 -0.76287 0.026365 0.2464 -0.021116 0.23391 -0.19206 -0.47666 0.1559 0.22021 -0.70872 -0.00064641 -0.73489 -0.10862 -0.35663 -0.10215 -0.20882 0.00061188 0.73741 -0.69578 0.34417 0.092443 0.19255 -0.46213 0.63738 0.24106 0.020592 -0.79292 -0.19871 -0.20288 -0.65543 0.31009 1.1291 -0.30107 -0.47506 0.034592 1.0713 0.81039 -0.30758 -0.33152 0.489 0.78455 1.0357 -0.4017 0.53382 -0.11843 0.34462 0.41576 0.069374 0.4632 -0.13327 0.29974 -0.51338 0.34474 
sun -0.37081 -0.41713 0.28954 -0.22163 -0.049815 0.39198 -0.055107 0.43857 -0.21075 0.48067 0.06617 -0.24594 -0.49188 -0.17687 0.4667 -0.1891 0.21872 0.010664 0.4907 0.12211 -0.6762 0.13993 0.85865 -0.19651 -0.21348 -0.091495 0.30634 -0.38477 -0.42787 -0.33847 0.2601 -0.034709 -0.11378 -0.10055 0.014487 0.62598 0.13909 -0.16321 -0.004658 -0.20291 -0.3583 -0.051483 0.19186 -0.23101 -0.023522 -0.36275 0.21103 -0.63059 -0.56361 0.49245 -0.097477 -0.45664 0.17994 -0.28109 -0.31528 0.61587 0.24482 -0.84688 0.16009 -0.53932 -0.24233 0.17678 0.024968 -0.3159 0.22662 -0.26229 -0.033819 -1.0644 0.077488 -0.37758 0.61312 -0.064336 -0.32502 0.14508 0.19997 -0.35539 0.19193 -0.068886 0.40212 -0.098242 -0.010208 -0.052407 0.25635 0.088149 0.45283 -0.098038 -0.1057 0.1192 0.31258 -0.51894 0.64031 -0.044587 0.61994 0.023876 -0.41536 -0.38547 -0.19809 -0.2798 0.48548 -0.16022 
cell -0.31341 0.20402 -0.45481 0.26649 0.23274 0.64107 -0.27955 -0.058724 0.38407 0.28244 -0.58358 0.39965 -0.01635 -0.58618 0.21266 -0.76997 -0.35958 0.4909 -0.039018 -0.0014275 -0.27388 -0.47437 -0.2189 0.076823 -0.39062 0.43225 0.25443 0.31448 0.16763 -0.514 -0.010479 -0.055102 0.20549 -0.58361 0.046617 0.84142 -0.4998 0.076579 0.33764 0.14027 -0.57491 -0.3454 -0.29522 -0.35234 0.14502 0.25144 -0.16893 0.092023 0.3185 0.47499 -0.033809 -0.24253 0.60991 -0.018898 -0.35482 0.20244 0.1169 -0.66383 0.25011 0.26946 -0.20863 -0.21594 -0.52848 -0.074428 -0.77163 0.41926 -0.53546 -0.4775 0.08967 -0.58623 0.45809 0.26143 0.37528 0.04457 -0.1477 -0.024505 0.10354 0.28207 0.34885 -0.68901 -0.68629 -0.59817 0.35086 0.53883 0.01825 -0.41471 -0.18352 -0.2844 0.31045 0.23245 0.071543 0.028145 0.46689 0.45622 0.22854 -0.21117 -0.30514 -0.12631 0.089596 -0.12065 
nurse -0.0034207 0.38712 0.62729 0.33059 -0.2062 0.61579 -0.30606 0.074688 -0.10418 0.27718 -0.40264 0.14162 -0.069418 0.084711 -0.13022 -0.089059 0.11143 -0.64577 0.0030486 -0.22008 -0.49151 -0.022729 -0.1325 0.22645 -0.30093 0.01976 0.16803 0.057322 0.29814 -0.32151 0.086892 -0.033759 0.20165 -0.45252 -0.4621 0.073892 -0.5432 0.21534 0.019784 -0.16225 -0.23675 0.20177 0.022213 0.61033 0.014856 0.39048 -0.52131 0.13557 0.21615 0.67664 0.010307 0.46428 0.046524 -0.46738 -0.068358 0.51088 -0.17819 0.094252 0.35558 -0.96801 -0.1919 0.35733 0.084975 -0.21764 0.32481 0.183 0.28721 -0.27345 -0.2943 -0.88899 0.34703 -0.065682 -0.46221 -0.50506 0.086307 -0.4357 0.23098 0.01181 0.47962 -0.55882 -0.071716 -0.32066 0.15316 0.28215 -0.052691 0.15878 0.1569 -0.31875 -0.29004 0.53066 0.053619 0.19124 0.81268 0.018929 0.12751 0.59397 0.14223 -0.091452 -0.39231 -0.16194 
bird -0.014702 -0.42827 0.27355 0.087877 -0.36987 0.16765 -0.23612 -0.28022 -0.25931 0.39763 -0.23537 0.28478 -0.36708 -0.050468 0.30862 -0.16836 -0.06755 -0.99524 -0.2279 -0.91598 -0.043861 -0.024261 0.19495 -0.49058 -0.7154 -0.41032 0.54783 -0.079009 -0.097785 -0.9264 -0.12681 0.4179 -0.14977 0.086203 0.26773 0.26415 0.25865 -0.75773 -0.057759 0.068122 -0.10885 0.066267 0.26562 0.1345 0.21386 0.33696 0.045489 -0.117 -0.52472 0.44219 -0.034543 0.33276 0.5119 -0.36904 0.18787 0.82384 0.028195 -0.32316 0.41544 -0.37789 -0.21775 -0.19881 0.20178 -0.27638 -0.015222 -0.061119 -0.64944 -0.67721 -0.27788 -0.37117 -0.12821 -0.3247 -0.43426 0.090636 -0.42907 0.363 0.40607 0.16507 -0.10749 0.17561 -0.52749 -0.45179 0.063233 0.44354 0.1369 -0.1797 0.43164 0.04179 0.0002589 -0.017552 0.40555 0.2086 0.37774 0.27996 -0.37469 -0.61561 0.11132 -0.14495 0.047386 0.29162 
water -0.1255 -0.38379 0.36377 -0.1798 -0.020602 0.25211 -0.66026 0.042889 0.095531 0.71287 -0.75967 -0.037484 -0.768 -0.11323 0.1266 -0.058307 -0.17772 0.047438 0.081235 -0.45034 -0.37136 0.63956 0.43537 0.089445 -0.32259 0.20404 0.10932 -0.34302 -0.2408 -0.21314 -0.035624 0.33118 0.23512 0.25723 0.40467 0.21913 -0.36103 0.0032025 0.090133 0.10953 0.015996 -0.31698 0.3538 0.049348 -0.29808 0.096677 0.031742 -0.14841 -0.3847 0.4787 0.068895 -0.12079 0.25425 0.046498 -0.70961 0.12732 0.02433 -0.75271 0.65557 -0.58537 -0.17577 -0.12497 0.0076207 -0.35067 0.077556 0.059378 -0.30829 -0.76247 0.15773 -0.32067 0.55374 -0.29218 -0.26058 -0.10904 0.31904 -0.17117 0.35306 0.27475 0.37993 -0.39557 0.37218 -0.47319 -0.19684 0.084969 0.26659 0.42124 -0.12063 0.19326 0.2086 -0.36703 0.62347 -0.50471 0.17805 -0.37648 -0.26803 -0.13498 -0.1153 0.22275 0.17202 -0.11671 
baseball 0.083968 -0.24067 0.52493 0.069615 0.71004 0.68529 0.35263 -0.26972 -0.16474 0.28276 0.059366 0.36263 -0.79101 0.67378 -0.36962 -0.42669 0.63215 -0.25738 -0.056359 -0.46586 0.05239 -1.1812 -0.1635 0.20173 -0.43771 -0.61329 0.35012 -0.28722 -0.18017 -0.27098 -0.078026 0.10248 -0.059208 -0.17981 0.17182 -0.071392 0.2189 0.01568 -0.33917 0.29275 0.27135 -0.075473 0.45735 -0.13645 0.18738 -0.066654 -0.21018 -0.43936 -0.11087 0.28994 0.20167 -0.60341 -0.0075712 0.041611 -0.62565 -0.10844 0.1243 -0.20215 0.071074 -0.23865 -0.22692 -0.5779 -0.13345 -0.083266 0.49828 -0.29855 -0.79716 -0.51021 0.39172 -0.45265 0.020872 -0.6411 0.018713 0.13286 -0.29153 -0.071367 -0.46368 0.075822 -0.2401 -0.59908 0.32499 -0.0033088 -0.16836 0.38429 -0.13814 -0.023305 0.24805 -0.18114 -0.16592 0.12165 -0.16137 0.1449 0.52541 0.16929 0.072648 0.054476 0.3509 0.46524 0.58986 -0.41609 
change -0.14743 -0.14649 0.18792 0.21734 0.16529 0.20263 -0.12115 0.26723 -0.28955 -0.13855 -0.093337 0.27952 -0.13465 -0.067948 -0.32437 -0.4571 0.085514 0.33572 -0.067925 -0.38502 -0.24041 -0.045597 0.25191 -0.7243 -0.25884 -0.1408 0.30773 -0.0021603 -0.034428 -0.16056 -0.023284 -0.21366 0.1996 -0.32053 0.044666 -0.03285 -0.33197 -0.31599 -0.16848 -0.080261 0.030027 0.35774 0.24382 -0.15846 0.20209 0.15637 -0.092429 -0.026491 -0.11628 0.13334 -0.68407 -0.24751 -0.26362 0.0089863 -0.034953 0.0081346 0.070372 -0.51468 0.13957 -0.085194 -0.30026 0.11933 -0.29164 0.32046 0.20472 -0.14241 0.17857 -0.57731 -0.09359 -0.62795 0.23027 0.24904 -0.094336 0.060865 0.30479 -0.00085371 0.24998 0.36406 -0.29703 -0.27632 -0.30557 0.24425 0.18752 0.43121 0.045724 0.38958 -0.52146 -0.099166 -0.074005 -0.49952 0.24602 0.086492 -0.15486 0.19196 -0.51106 -0.048941 0.055245 0.21596 0.062148 0.078653 
buck 0.017531 -0.023747 0.3127 0.32394 -0.016172 0.083469 -0.0027493 0.41809 -0.48338 0.45651 0.24284 -0.14603 -0.33792 -0.28126 0.193 0.053616 0.048536 0.25421 -0.059205 -0.98137 -0.20536 -0.81567 0.31591 -0.08002 -0.23851 -0.20114 -0.09789 -0.036653 -0.069499 -0.34828 0.079204 0.044064 0.30115 -0.64152 0.21202 0.096674 0.035506 -0.41126 0.3396 0.12652 0.066778 -0.38986 0.095145 -0.20526 -0.029214 0.096158 -0.30798 -0.15758 -0.16909 0.22642 -0.2093 0.11266 -0.18675 -0.042988 0.15037 0.085589 -0.17793 -0.10713 0.10787 -0.46687 -0.76142 -0.26286 0.16585 -0.4268 -0.092521 0.057024 -0.16329 -0.20096 0.25827 0.16497 -0.24661 0.059466 -0.80069 -0.13803 0.08317 -0.23271 0.42934 0.0040766 -0.4 -0.23051 -0.072771 0.25803 0.24038 0.72664 -0.039165 0.29707 -0.17124 0.32982 0.45096 -0.24297 -0.01514 -0.36099 -0.21631 0.081207 -0.12154 0.11519 0.30915 -0.15769 -0.19417 0.48844 
substance 0.23517 0.11421 0.065507 0.28511 0.57038 0.35404 -0.26926 -0.27142 0.24303 0.18624 -0.25087 -0.070944 -0.50042 0.13825 -0.79151 -0.70295 0.024149 0.1852 0.0028053 -0.59151 0.36057 0.031389 0.13389 0.18344 -0.70323 0.12148 -0.091623 -0.1329 -0.6342 -0.22764 -0.093784 -0.60973 0.089115 0.21475 -0.2305 0.41472 -0.16113 -0.30721 0.10746 -0.34778 -0.17157 0.2814 0.15291 -0.014143 -0.0018586 -0.10194 -0.23197 0.015086 -0.15104 0.57178 -0.11322 -0.192 -0.16542 0.10175 -0.50645 -0.051361 0.10097 0.057827 0.20487 -0.51578 0.22062 0.24684 -0.54519 0.010425 0.55023 0.050473 -0.52626 -0.31676 0.40041 -0.36034 0.27296 -0.33558 -0.31057 0.37596 -0.21916 -0.11018 0.20362 -0.13565 0.3963 -0.40436 0.25747 -0.62046 0.0063172 0.40585 -0.18399 0.16535 -0.11477 -0.050125 0.29327 -0.017137 0.45645 -0.20964 -0.15165 0.65933 -0.059372 0.19331 -0.33495 0.6106 0.45408 -0.36988 
experience -0.032181 -0.24632 0.28503 0.60409 -0.097954 0.42992 -0.30545 0.38796 -0.1322 -0.12527 -0.029358 0.43158 0.068633 -0.17814 -0.48693 -0.33578 0.77939 0.11183 -0.20273 -0.25177 -0.24769 -0.13582 -0.050559 -0.10063 -0.24609 0.022215 -0.050584 -0.022002 0.19452 -0.22304 0.091651 -0.10903 0.43379 0.12441 -0.39713 0.034374 -0.063701 -0.2881 -0.1041 -0.055169 -0.054488 0.13584 0.08543 -0.026445 -0.0017223 -0.071828 0.094099 0.079793 -0.19493 0.43876 -0.30176 -0.27227 -0.1275 0.20927 -0.14086 -0.11009 0.30439 -0.22143 -0.28553 -0.32093 0.63624 0.25957 0.38908 -0.42017 0.067668 0.050981 0.02383 -0.24883 0.04908 -0.48676 0.57639 -0.10715 -0.34919 -0.26159 0.39868 0.33997 -0.22841 -0.43705 -0.36608 -0.43316 -0.15346 -0.032818 0.2355 0.39483 0.0094212 0.18561 -0.044646 0.081335 0.052262 0.13234 -0.15714 0.078063 0.076342 0.2093 -0.085084 0.011569 -0.44423 -0.035952 -0.42373 0.046815 
credit 0.12156 -0.086195 0.010122 0.31791 0.23918 -0.0034658 0.23586 0.97942 0.23308 0.6764 -0.54969 0.61116 0.26805 -0.27263 0.12969 -0.22774 0.3705 0.62796 -0.23748 -0.15525 0.32019 0.15424 0.00062683 -0.56016 0.25886 -0.90105 0.09786 0.33656 -0.19999 -0.16398 -0.34552 -0.084543 0.20017 -0.32206 0.11736 0.57381 0.42432 -0.52072 0.21662 0.14867 0.46735 -0.3823 0.12518 -0.64077 0.21335 0.17835 -0.12361 0.055506 0.66526 0.073928 0.45782 -0.13747 -0.32385 0.12838 0.30813 -0.098282 0.059082 -0.2227 0.074485 -0.3733 -0.35804 0.071504 0.18201 0.090632 0.15051 0.10217 -0.089927 -0.11565 0.32568 -0.56271 0.12437 -0.40566 -0.66467 -0.21168 -0.10694 0.17636 0.23384 0.67654 0.27948 -0.76241 -0.072014 -0.25682 0.14827 0.52703 -0.55398 0.084598 -0.7122 0.11507 0.4121 -0.13749 -0.099768 -0.15274 0.69458 0.0088252 -0.16893 -0.091952 -0.081665 0.068661 -0.39607 -0.46035 
airport 0.057392 0.047211 -0.11704 0.33059 -0.52008 0.059415 -0.49133 -0.1181 -0.24546 -0.41511 -0.3475 0.17872 -0.53203 0.27913 0.30097 -0.65992 0.43333 -0.46178 -0.1483 0.39445 -0.032196 0.28344 -0.074134 0.0023787 -0.22149 -0.4884 0.14194 0.35124 0.54799 -0.5462 -0.18871 0.40334 0.21132 0.25659 -0.27813 0.41232 -0.2158 -0.75223 -0.55472 0.30853 -0.77882 -0.32116 -0.026059 -0.17016 -0.20806 0.14145 0.14503 -0.51559 0.27697 0.2513 0.2832 -0.11915 0.2854 -0.011444 -0.49433 0.22818 -0.44879 -0.35868 0.56947 -0.058027 -0.28794 -0.14444 0.16952 0.098926 -0.15944 0.041146 0.018948 -1.1748 -0.23581 -0.63693 -0.16628 0.025759 -0.22401 -0.37343 0.18124 -0.37449 0.41917 -0.0021732 0.42793 -0.31586 -0.063526 -0.14731 0.054814 0.80291 -0.078424 0.15133 -0.17935 0.45353 0.36519 -0.087161 -0.13516 0.4825 0.10973 0.057449 0.34121 0.35149 -0.26368 -0.27348 0.069887 0.19352 
defeat -0.31991 0.24701 -0.31185 0.65489 -0.16461 0.096514 0.36633 0.35325 0.24651 0.31277 0.14185 0.1707 -0.33523 0.094968 -0.5007 0.29248 -0.19258 -0.33509 0.65873 -0.4381 -0.052934 -0.17608 0.64262 -0.62319 -0.2884 -0.11589 -0.31164 -0.57838 0.54896 -0.071676 -0.43988 0.37767 -0.044219 0.035007 -1.0581 -0.091051 0.16431 -0.22072 -0.56355 -0.032973 -0.10425 -0.032428 0.062267 0.099456 -0.10295 -0.092395 -0.56427 -0.0853 -0.10092 -0.14766 -0.13006 0.20286 -0.35819 -0.16265 -0.4579 -0.083658 0.071292 0.15928 -0.26338 -0.25431 -0.11631 0.11865 0.017267 0.18946 0.23308 -0.25265 -0.12117 -0.84844 0.00093102 -0.86249 -0.23773 0.24692 0.48242 -0.079289 0.57522 0.072004 -0.15925 -0.20028 0.014738 -0.3113 -0.83484 0.10937 0.72805 0.4029 0.40396 0.06153 -0.81818 -0.19669 0.40705 0.23482 -0.32895 -0.46079 -0.13683 -0.37469 -0.44636 -0.27531 0.25094 0.5107 0.14632 0.53727 
popcorn -0.13645 -0.23034 0.17746 0.22844 -0.2496 0.54312 -0.29868 0.096066 -0.21191 0.46802 0.099581 -0.15766 0.045085 0.57156 0.10896 -0.35885 -0.27198 -0.12748 -0.14224 -0.47063 0.38139 -0.93845 0.50901 0.38404 -0.65782 0.4738 0.14495 -0.5721 -0.2337 -0.21791 0.15259 0.33021 0.24294 -0.19576 -0.10924 0.0042158 -0.028894 -0.31566 0.22614 0.015215 -0.1533 -0.72431 -0.64511 -0.24398 0.46787 0.13062 0.5278 -0.34843 -0.46828 0.36665 0.45631 0.32136 -0.31188 0.44754 -0.29777 0.38154 -0.15723 -0.42393 0.32651 -0.10309 -0.2023 -0.16381 -0.35096 0.021681 -0.30382 0.40825 -0.35476 -0.33724 0.23113 -0.78116 0.49796 -1.0622 -0.56347 -0.10344 -0.0037898 -0.031664 0.17792 -0.065321 -0.035565 -0.59051 0.06273 -0.28284 0.25829 0.081123 0.17404 0.54663 0.29186 0.44703 0.34294 -0.22394 0.73228 -0.10464 0.79187 0.32067 -0.51374 -0.13444 -0.15977 0.14035 0.54568 -0.058403 
implement -0.10179 0.19823 0.13307 0.15217 -0.15816 0.22966 -0.037772 0.12832 -0.13247 -0.23749 -0.59368 -0.12442 0.060648 0.10097 -0.14057 -0.1347 0.42759 0.46383 -0.51916 -0.5972 -0.075103 0.37316 -0.17132 -0.29052 -0.1302 -0.29903 0.53302 0.29307 0.21356 0.2747 -0.11992 -0.084144 -0.043966 -0.23746 -0.062739 -0.20897 -0.42195 -0.44979 0.010128 -0.48158 0.086145 0.13659 0.45703 0.12557 0.094518 0.55198 -0.032052 0.35303 -0.473 0.081212 -0.17836 0.32055 -0.21683 0.06215 -0.42584 -0.40784 -0.071784 -0.17244 -0.14909 -0.0065006 -0.30382 0.11233 -0.23365 0.23379 0.019161 -0.29359 0.16366 -0.66023 0.30011 -0.18406 0.048799 0.14714 -0.32713 -0.20253 0.34976 0.050695 0.46597 0.33911 -0.1485 -1.0187 -0.28101 0.65268 0.11144 0.50417 -0.020482 0.15679 -0.47165 -0.42624 0.26771 -0.46854 -0.38583 -0.1177 -0.13822 -0.038375 0.1701 -0.00055165 -0.31068 0.56167 -0.28245 0.38449 
quarrel 0.3123 0.21055 0.55399 0.50198 -0.30526 0.042516 -0.11788 -0.064077 -0.2024 -0.1507 -0.40461 0.16085 -0.33697 0.36799 0.81801 -0.51853 -0.0011473 -0.017775 0.26668 -0.30342 0.099329 -0.044523 0.56023 -0.0092378 -0.60601 0.14928 -0.13995 0.30509 0.034922 0.14271 0.15561 0.016163 0.36253 -0.5661 -0.55526 0.15472 0.17695 -0.42052 -0.15538 0.27533 0.24718 -0.25468 0.47041 -0.25385 0.1283 -0.1466 -0.49844 -0.22361 0.40048 0.578 -0.35133 -0.035614 -0.35555 -0.094809 0.086749 -0.083835 0.17964 -0.54614 0.056809 -0.15699 0.57975 -0.32026 0.048499 -0.16522 0.27226 -0.27411 -0.13592 -0.17622 0.41069 -0.31611 -0.11137 0.045618 0.0014041 0.42595 0.45046 0.35726 0.094025 -0.1091 -0.11704 -0.30487 0.16271 -0.20144 0.20078 0.40431 0.3236 0.18666 -0.15354 -0.208 0.0023227 0.14714 0.040279 -0.043559 0.039181 -0.044092 -0.49855 0.44911 0.27938 0.40468 -0.056984 0.33875 
maker 0.22028 -0.46215 -0.044618 -0.18026 0.17003 0.38115 0.68677 -0.14246 0.74398 0.23905 -0.49151 0.018888 0.10726 -0.020363 0.31983 -0.13988 0.048569 0.40529 -0.075377 -0.3152 0.32374 -0.83688 0.029981 -0.13319 -0.15463 0.068813 0.079428 -0.1615 0.41606 -0.8271 -0.1981 -0.27811 0.43105 -0.55704 -0.33089 -0.4517 -0.16642 -0.023193 0.077647 0.53576 -0.42045 -0.61158 -0.46127 0.12368 0.74558 0.42856 0.31251 -0.72268 -0.48314 0.63611 0.48133 0.57752 0.15798 -0.087107 -0.7426 -0.21783 0.18769 0.40739 0.039078 0.010667 -0.15725 0.021306 -0.36641 0.18271 -0.37983 0.16441 0.25681 -0.83871 0.47027 -0.21666 0.2335 -0.10452 -0.29482 -0.55063 0.83488 -0.013175 0.31604 -0.31094 0.33721 -0.68019 -0.30715 -0.45668 0.29915 -0.071879 -1.1381 0.32441 0.92528 -0.20159 0.041124 0.09702 0.53637 0.1334 0.26144 0.11419 -0.50308 -0.2768 -0.25665 0.54933 0.4097 0.61536 
love -0.16801 0.19087 0.36711 0.25472 -0.17531 0.29231 0.10871 0.19842 -0.28108 0.14905 0.22062 0.59197 -0.24226 0.25957 0.12106 -0.19357 0.13579 -0.25541 0.38725 -0.32724 -0.63353 -0.46114 0.61564 -0.16514 -0.51988 0.57873 -0.026949 0.17994 0.047767 0.019277 0.056921 -0.11957 0.19479 -0.46107 -0.33841 0.15963 -0.11241 -0.16833 0.28237 0.1674 0.18051 -0.3592 0.19986 0.22579 -0.23144 -0.44256 0.20229 -0.17479 -0.089284 0.73347 -0.099524 -0.12352 -0.5908 0.32235 0.027919 -0.049638 0.085688 -0.47092 -0.06803 0.038668 0.17958 -0.20242 0.0034537 -0.37263 0.44539 -0.48765 -0.47983 0.10525 0.29228 -0.31678 0.030721 -0.24685 -0.55196 0.16034 0.22833 0.10379 0.10813 -0.34453 -0.24818 -0.31229 0.084109 -0.076089 0.35079 0.47179 -0.062855 0.11811 -0.014624 -0.15094 0.10665 0.43204 0.26586 0.11112 0.12214 0.15825 -0.25219 -0.18801 -0.090609 -0.00049396 -0.38265 0.30334 
family 0.4214 0.14116 0.12256 0.036219 -0.073605 0.39735 -0.019342 -0.28596 -0.058803 0.19969 0.18447 0.53082 0.028032 0.053023 0.031895 -0.34558 0.1151 0.18867 0.1405 -0.024141 -0.16155 -0.059502 0.16296 -0.4022 -0.034747 0.2691 0.037767 0.15133 0.033914 -0.050291 -0.11247 0.07415 0.21882 -0.47599 -0.60075 0.32595 -0.1582 -0.1005 0.02939 0.17764 0.038682 -0.092551 0.022674 0.35136 0.33946 -0.078858 0.019346 -0.21067 0.28937 0.03832 0.23438 -0.10666 0.096657 0.042592 0.11943 -0.0029855 -0.2041 -0.17061 0.19456 -0.29198 0.12684 -0.075321 0.16354 -0.54913 0.033247 -0.0071204 -0.38894 -0.18407 -0.25387 -0.26615 -0.006237 -0.39697 -0.33815 0.29221 0.39523 0.0051718 0.40306 -0.39628 0.085639 -0.90578 -0.2266 -0.088563 0.084345 0.39296 0.27073 0.050317 -0.11387 -0.24771 -0.38914 0.617 0.32248 0.3718 0.70007 0.37374 0.094977 -0.1493 0.1112 -0.093318 -0.17581 0.28957 
crisis 0.71676 0.21828 0.28436 0.4523 0.2743 -0.22764 0.23917 0.45296 0.10315 0.46638 -0.61907 0.20114 -0.21261 -0.11915 0.098335 -0.40265 -0.076602 0.41912 0.017367 -0.58287 -0.058327 0.35388 0.21419 -0.93422 -0.19779 -0.55213 -0.16762 0.1927 0.014174 -0.29007 -0.25033 -0.16666 -0.010227 -0.27713 -0.24324 0.18879 -0.062792 -0.40568 -0.71802 0.1834 0.21755 -0.21477 0.094568 0.0035576 -0.020624 0.3794 -0.37237 -0.029325 0.23043 0.40389 0.10354 -0.071747 0.029856 0.61313 0.64894 -0.0035186 0.18686 -0.31406 -0.012544 -0.42711 -0.25576 0.5942 0.09584 -0.12053 0.18629 -0.090787 0.22051 -0.56403 0.64953 -0.54404 0.085017 -0.45805 -0.29527 -0.07337 0.54848 0.49003 -0.05285 0.47029 0.11475 -0.55605 0.11882 0.16042 0.20669 -0.096655 -0.2092 -0.067189 -0.49842 0.26644 0.066181 -0.47191 -0.15893 -0.15752 -0.1039 -0.18426 -0.50532 0.044315 -0.074213 0.27273 -0.11235 0.0054749 
landscape -0.23862 -0.43198 0.14247 -0.12862 -0.115 0.16437 -0.075031 0.17289 -0.072356 0.20713 -0.16268 0.29061 -0.62398 0.30104 0.49182 -0.25776 0.34955 -0.039695 0.10878 -0.13266 -0.40521 0.027529 0.23248 -0.67953 -0.47173 -0.073602 0.22609 -0.59429 -0.057346 -0.19399 -0.11943 -0.020476 -0.20491 -0.02796 -0.42803 0.0089683 -0.048925 -0.24788 -0.052883 0.12395 0.13833 0.059255 0.56335 -0.028637 0.53479 0.05796 0.38932 -0.033424 0.033889 0.42422 0.3579 -0.17443 -0.007912 0.21865 -0.25877 -0.085471 0.69437 -0.59516 -0.50204 -0.11148 0.70847 0.27125 0.23597 -0.041843 0.27384 -0.56793 0.19738 -0.57914 0.15311 -0.22749 0.82051 -0.077981 -0.34304 -0.24368 0.53479 0.31389 0.13857 0.31509 -0.29038 -0.016891 -0.19643 -0.46721 -0.024234 0.44778 0.38289 -0.046543 -0.30986 0.063639 -0.27297 -0.52586 -0.10745 0.21341 -0.087359 0.33884 -0.024109 -0.56197 -0.3048 -0.18856 0.2344 0.14513 
confidence 0.13471 0.17539 0.33736 0.26148 -0.083039 -0.25925 0.16062 0.90213 0.24387 0.0064352 -0.38508 0.38491 0.29802 -0.45977 -0.010927 0.062377 0.31089 0.43827 0.2286 -0.29735 0.25458 -0.1497 0.14293 -0.41279 -0.78996 -0.23378 0.033734 -0.41092 0.16691 -0.23217 0.013462 -0.23346 0.16905 -0.061292 -0.016023 0.29177 0.27723 -0.37434 0.043674 0.11472 0.40793 -0.010135 0.30704 0.093878 -0.40629 -0.18758 -0.069263 -0.1781 -0.21012 0.37425 0.12391 -0.051334 -0.092096 0.012889 -0.081809 -0.59466 0.36786 -0.11429 0.15855 -0.44885 -0.29404 0.78016 0.4287 -0.43066 0.24612 -0.52131 -0.32677 0.037154 0.31493 -0.42241 -0.48512 -0.031559 -0.35928 -0.50707 0.13048 0.15886 -0.36762 0.11706 -0.19754 -0.63525 -0.29632 -0.18887 0.23345 0.69566 0.056589 0.039093 -0.65089 0.61944 0.28935 -0.052778 0.49997 0.066628 -0.073942 -0.059686 -0.30647 -0.12201 -0.28256 0.26727 -0.3852 0.19121 
eye -0.0043984 0.3159 0.38751 0.1061 0.14021 0.25038 0.22571 0.37821 -0.34674 0.25362 0.30138 -0.3551 -0.092685 -0.3201 0.39815 -0.36623 -0.097752 -0.35617 0.014224 -0.52601 -0.11345 -0.13349 0.11497 -0.55043 -0.47839 -0.093587 0.15541 -0.18066 0.24036 -0.73191 0.2052 0.16389 0.037191 -0.10125 -0.035851 0.22385 -0.078851 -0.23045 0.091019 -0.27493 -0.1301 -0.065586 0.11084 -0.33698 -0.28928 -0.043229 0.10369 0.35021 -0.21174 0.87828 -0.034888 0.030776 -0.00058578 -0.49672 0.10857 0.10501 0.4755 -0.21076 0.046422 -0.715 0.1926 0.30507 0.22584 -0.26698 0.024134 -0.36056 0.044163 -0.21358 0.47572 -0.22736 0.57204 0.046934 -0.035842 -0.037012 0.030815 -0.049855 0.11605 -0.10657 -0.37461 -0.3138 -0.22125 -0.2484 -0.33607 0.44606 0.17529 0.29839 0.023852 0.14879 -0.069918 0.030133 0.32244 0.17732 0.51427 0.12969 0.25637 0.059366 -0.28928 -0.10816 0.45849 -0.067781 
troops -0.19662 0.34819 -0.67064 -0.19175 -0.1996 -0.12835 -0.32482 -0.16373 0.065128 0.086202 -0.10311 0.11722 -0.66541 0.096519 -0.18139 0.015418 0.59902 -0.68343 0.37355 -0.35234 0.26354 0.23565 0.5958 -0.032785 0.11948 -0.051687 -0.15345 1.0468 0.063154 0.098467 -0.0079881 0.1058 -0.56406 0.71441 -0.61679 -0.072321 -0.1565 -0.66268 -0.32691 -0.051959 0.13742 -0.80268 0.63805 0.030889 0.61352 0.23871 0.064389 0.17289 0.17544 0.41591 0.49691 0.17579 -0.085989 -0.55165 -0.070142 -0.278 0.049888 -0.61543 0.58788 -0.10717 -0.30351 0.60814 0.031211 0.20045 -0.49523 0.36829 -0.21342 -0.89982 0.53813 -0.62441 0.066729 0.18588 -0.42206 -0.29022 0.56043 -0.63934 -0.29937 0.059483 -0.064057 -1.0934 -0.4163 -0.076353 0.30822 0.40927 0.62286 -0.51339 -0.22343 -0.13925 -0.70107 -0.27048 0.086297 -0.37058 0.26433 -0.20868 -0.49266 0.35349 0.098431 0.31438 -0.13792 0.063745 
hospital 0.39666 0.4902 0.2084 0.13312 -0.046331 0.07429 -0.48859 0.075992 0.017074 -0.05308 -0.16608 -0.096813 -0.22296 0.032994 0.094603 -0.50569 0.05622 -0.47185 0.23394 -0.1614 -0.49222 0.38193 -0.18524 -0.12995 -0.38971 -0.11856 0.066869 -0.35368 0.83691 -0.43571 -0.16229 0.28819 0.15522 0.16768 -0.70664 0.20589 -0.77386 -0.011898 -0.074534 -0.34023 -0.52707 -0.25542 -0.12802 0.087966 0.29578 0.37654 -0.76425 0.0032734 0.22978 0.37373 0.15376 0.31386 0.088697 -0.038443 -0.2379 0.084062 -0.6926 -0.14168 0.67285 -0.86217 -0.35929 0.3303 -0.11037 -0.39247 0.19282 0.25835 -0.046761 -0.66472 -0.085266 -0.34765 0.47795 0.29579 -0.27779 -0.17622 -0.26956 -0.32486 0.30502 0.011327 0.22832 -0.68169 0.13336 -0.23888 -0.1999 0.26701 0.33875 -0.1029 -0.026817 -0.077087 -0.25368 0.43987 0.28192 0.12013 0.90866 -0.023571 0.12521 0.39445 0.0067778 0.10477 -0.23683 -0.073286 
impartiality 0.058613 0.60204 0.3576 0.67337 -0.010926 0.39432 0.21524 0.099517 -0.17218 -0.19414 -0.24119 0.14735 0.37906 -0.023498 0.20619 -0.38868 -0.04863 -0.065804 0.83402 -0.085131 0.62021 0.091597 -0.36719 -0.47583 -1.0043 0.056656 0.12649 0.48261 -0.29145 0.15939 0.124 0.28626 -0.035076 0.11668 -0.18291 0.26248 -0.14738 -1.12 0.60365 -0.0070294 0.38892 0.24444 0.77309 0.18312 0.16022 -0.44118 -0.011694 0.5684 -0.14056 0.22304 -0.16248 -0.22732 0.16417 -0.20617 -0.19171 -0.26789 0.25543 -0.23023 0.045414 -1.0477 -0.038533 -0.14505 0.39276 -0.12097 0.145 -0.62751 0.2534 -0.49519 -0.036459 -0.47632 -0.041758 -0.24383 -0.23795 0.063666 0.55902 0.054203 -0.14544 0.16027 -0.78738 -0.69824 0.49449 -0.053987 0.4874 -0.096539 -0.19672 0.3029 -0.58158 -0.030786 0.3018 -0.52248 0.561 0.39939 -0.11955 0.33436 0.011736 0.44804 -0.26994 0.48282 -0.12959 0.10492 
physics -0.14057 -0.46032 -0.079058 -0.12403 0.43444 0.78286 0.48812 -0.022065 -0.034418 0.29437 -0.53851 -0.27476 -0.27406 0.39473 0.4724 -0.7952 0.19167 -0.16566 0.09037 0.073127 -0.098491 0.03452 -0.15872 0.080555 -0.92087 0.14222 0.47141 -0.15741 -0.61189 -0.33563 -0.39352 -0.25736 0.21904 -0.55097 -0.35363 0.016275 -0.51649 -0.44874 -0.12514 0.048852 -0.49285 0.18328 0.22903 -0.21281 -0.10605 -0.18264 -0.4955 -0.23978 -0.4589 0.62908 0.13547 -0.21778 0.031005 0.10885 -0.72718 -0.24351 0.67943 -0.91133 -0.62194 -0.40498 0.0017561 0.19213 -0.74822 0.1805 0.41178 0.34844 -0.22365 -0.25529 -0.044664 -0.271 0.41843 0.46434 -0.40107 -0.0014679 0.13645 0.14354 -0.087966 0.26751 -0.12336 -0.10538 0.19455 0.16438 1.3055 0.09495 -0.32166 0.35609 -0.023154 -0.068419 -0.23588 -0.030174 0.17772 -0.1859 0.46993 -0.10551 -0.31009 0.13437 0.35663 -0.39295 -0.98951 0.059695 
live -0.018335 -0.10182 0.11069 0.48005 -0.16092 0.55355 -0.045936 -0.47344 -0.20749 0.36847 -0.36766 0.34163 0.46601 0.048546 -0.051068 0.22051 0.17425 -0.13392 0.16035 -0.16659 -0.94036 -0.059193 -0.24767 -0.11538 -0.24053 0.38982 -0.23103 0.1638 0.045754 0.086283 0.15262 0.11763 0.1454 -0.015392 -0.26281 0.43533 0.11424 -0.23902 0.067054 0.20061 -0.033015 0.16142 0.59802 -0.080184 0.68546 -0.41433 -0.06172 -0.15591 0.041666 0.19254 0.26533 -0.35383 -0.095927 0.34733 0.34095 0.44677 -0.063515 -0.21301 0.029336 0.018087 -0.085608 -0.28057 -0.23083 0.14849 0.30514 0.066469 -0.53923 -0.48948 -0.24948 -0.14639 0.57284 -0.14552 0.04401 -0.079642 0.16001 -0.18724 0.13165 -0.023136 -0.25189 -0.48068 -0.37622 0.13776 -0.10931 0.51648 0.59801 -0.094733 -0.21565 -0.04533 0.14588 -0.20164 0.40029 0.23034 0.41554 -0.35901 -0.03434 -0.17383 -0.47553 -0.0025564 -0.074043 0.49549 
music -0.4184 -0.14344 -0.036358 0.54297 0.28406 0.23753 0.25017 -0.11765 0.24236 0.49269 -0.30953 0.37103 -0.19308 0.29295 0.52844 -0.21779 0.57879 -0.1071 0.23978 -0.34339 -0.34715 -0.26797 0.12676 0.46601 -0.34875 0.15989 0.1977 -0.02841 0.26363 0.2234 0.072314 -0.20059 0.34555 -0.23176 0.13437 0.55149 -0.27029 -0.73344 0.14137 0.25877 -0.45642 -0.35668 0.24257 -0.069658 0.48211 -0.18081 0.074074 -0.40724 0.06512 0.77075 0.16192 -0.34459 -0.38453 0.30016 -0.37703 -0.29621 0.22928 0.19532 -0.12617 0.077204 0.38323 -0.86664 -0.10122 0.17867 -0.04338 -0.36231 -0.48525 -0.030526 -0.037625 -0.55217 0.63682 0.0092383 -0.63608 -0.60863 0.10641 0.55582 0.057357 0.16098 -0.10105 -0.46168 0.10392 0.15673 -0.31612 0.14487 -0.073969 -0.047008 -0.34035 0.20525 -0.38306 0.11296 0.76666 0.30616 0.4314 0.046946 -0.39286 -0.23587 -0.057822 -0.35452 -0.14558 0.041785 
type 0.12932 -0.12822 -0.085626 0.54598 -0.34602 0.43727 0.061946 -0.12357 -0.25382 0.15117 -0.15046 0.29769 -0.089553 -0.21939 -0.47332 -0.58413 0.13031 -0.14129 -0.45085 -0.58316 -0.091994 -0.037397 0.27003 -0.076772 -0.13986 0.067328 0.29945 0.10609 -0.093045 -0.62305 0.090004 -0.27177 0.01383 -0.31869 0.26179 0.40314 0.015598 -0.084637 0.04744 -0.076135 0.071275 0.2312 -0.26153 -0.081152 0.39241 -0.18101 -0.36912 0.028089 -0.22077 0.48975 -0.34603 0.10327 -0.008427 0.18923 -0.23515 0.0096484 0.35535 -0.089648 -0.16144 -0.33175 -0.20679 0.18807 -0.22447 -0.052814 -0.027511 0.041787 -0.29844 -0.2056 0.33421 -0.31891 0.4729 -0.058122 -0.27145 0.29837 -0.041667 -0.030623 0.25199 0.044534 -0.16106 -0.27249 -0.34033 -0.24069 0.21324 0.35449 -0.19982 -0.17616 0.39661 -0.23449 0.12185 -0.17645 -0.080389 -0.2661 0.18918 0.46523 0.22346 -0.057572 -0.26098 0.11347 0.21174 -0.017165 
midday 0.26075 -0.25223 0.27802 0.35056 -0.21861 0.19296 0.19066 0.032004 0.16244 -0.1769 0.28625 0.093478 -0.35235 -0.2037 0.26804 -0.55527 0.40657 -0.063785 0.43604 0.21976 0.15977 0.072109 0.73104 -0.46838 -0.13836 -0.46445 -0.70736 0.21866 0.29283 -0.37246 0.34137 0.5968 -0.34474 -0.57888 -0.23001 0.65024 -0.14142 -0.1946 -0.22484 -0.14904 -0.088112 -0.66256 0.72946 0.072769 0.17001 0.039002 0.46921 -0.7115 -0.39608 0.12754 -0.26545 0.35604 0.62897 -0.20452 -0.13979 0.12564 -0.74713 -0.17041 0.03025 0.087694 -0.44299 0.17258 -0.26569 -0.052497 0.86226 0.076821 -0.045086 -0.39711 -0.0815 -0.060977 0.013831 0.80561 -0.54207 -0.57181 -0.32344 -0.48279 0.28227 -0.019879 0.57179 -0.12662 0.41545 -0.19324 0.2232 0.053523 0.34568 0.062875 0.21565 0.58109 0.34581 -0.076488 0.48634 -0.56066 0.57587 -0.26229 -0.49141 -0.31787 -0.58152 -0.21851 0.33812 0.015384 
possession -0.26858 -0.083478 0.11167 0.39379 0.56243 0.25386 0.12366 -0.38963 0.20353 0.33721 -0.23208 -0.21695 0.15768 -0.48271 -0.59166 -0.22683 0.00020943 -0.24586 0.36344 -0.6042 0.059887 0.23352 0.15936 0.40228 -0.20184 -0.33515 -0.48848 -0.39446 -0.53866 -0.29348 -0.46672 0.45474 -0.093504 -0.14336 -0.29578 0.77811 0.21724 -0.7586 0.2846 -0.043853 -0.36818 0.0043906 0.36359 0.083168 0.36979 0.25071 -0.04745 0.052851 0.066341 0.64214 0.20994 -0.46121 -0.73611 -0.074416 -0.59973 -0.0033978 0.69337 0.27378 0.22113 -0.13309 -0.042551 0.12215 -0.94801 0.10002 0.17053 0.23422 -0.44224 -0.10086 0.069706 0.036758 -0.64684 0.32629 -0.073 0.03022 0.42857 0.24283 0.27468 -0.67701 0.21697 -0.21809 0.26581 -0.32577 0.47439 1.1853 -0.55094 -0.015234 -0.54848 0.22371 0.13693 0.73036 -0.12674 -0.23215 -0.0091553 0.20736 -0.033705 0.16967 0.055436 0.38033 0.68975 0.15782 
holy -0.21666 0.19369 -0.76566 0.2869 0.35911 0.45121 0.029907 -0.49661 -0.054585 0.46333 0.21361 0.16075 -0.34883 0.19518 1.2437 0.10529 0.17061 -0.12202 0.10725 -0.43007 -0.25934 -0.24906 0.85412 -0.05955 -0.56424 0.28961 0.23672 0.7625 -0.45677 -0.60186 -0.3664 0.10305 -0.16266 0.042779 -0.6637 0.32519 -0.35339 -0.021312 -0.13581 0.50969 0.011255 -0.39822 0.30236 0.44953 0.54921 -0.55059 -0.095779 0.3906 -0.40421 0.50886 -0.48125 -0.6014 0.28812 -0.047529 -0.28206 0.0086998 -0.033496 -0.32689 0.33607 0.082364 -0.054366 -0.51367 -0.34045 -1.2511 0.045254 -0.23625 -0.021283 -0.54974 0.23096 -0.25454 0.31135 0.53029 0.10996 0.54174 0.061398 -0.50758 0.30303 0.62336 0.051368 -0.44107 0.58777 0.18769 0.31903 0.48839 0.074398 -0.10738 -0.23138 -0.02652 -0.0090129 -0.058593 0.16836 -0.17217 0.37177 -0.016885 -0.93863 -0.051101 -0.3123 0.18349 0.35495 0.26491 
company 0.18985 -0.33711 0.24596 -0.18346 0.046367 0.20963 0.20064 0.10763 0.23257 -0.063244 -0.47438 0.064581 -0.17758 -0.1879 0.11056 -0.052742 0.28658 0.36884 -0.47195 -0.023458 0.18616 -0.11028 -0.10588 0.13531 -0.16214 -0.17263 0.14703 0.12562 0.36362 -0.41451 -0.12239 -0.02776 0.17226 -0.32447 -0.35262 -0.055457 -0.24127 -0.43015 0.23918 0.35847 -0.25682 -0.28523 0.061922 0.27646 0.39367 0.16263 0.088845 -0.17351 0.19459 0.20455 0.33119 0.015536 0.16817 0.24409 -0.28058 0.096953 0.051726 0.09432 0.073243 -0.39403 -0.0042509 0.018189 0.27434 0.039559 -0.011477 0.010793 0.21404 -0.12837 0.21616 -0.34714 0.093484 0.07496 -0.081184 -0.2924 0.28301 -0.22553 0.58805 -0.2211 0.043228 -0.90683 -0.33699 0.029052 -0.029909 0.10872 -0.78581 0.10487 0.38879 -0.16225 -0.14825 -0.31269 0.34881 0.013213 0.50259 0.10954 0.0074196 -0.43343 -0.011968 0.29601 0.1275 0.37301 
benchmark 0.4875 0.14148 0.16715 0.14951 -0.16157 0.15039 0.48515 0.57798 0.033782 0.081814 -0.27074 0.79559 -0.6674 -0.066894 0.47607 0.081377 0.57567 0.98373 0.29752 -0.78714 0.50527 -0.079815 -0.14222 -0.63873 -0.60998 -0.011367 -0.12342 0.32443 0.33782 -1.2069 0.32441 0.4586 -0.91297 -0.63614 0.22613 0.10137 -0.15494 -0.50964 0.33262 -0.2364 -0.11412 -0.31037 1.0953 -0.11465 0.56072 0.12047 0.31603 -0.26915 -0.22319 0.05123 -0.32819 0.62586 -0.25476 0.093712 -0.40871 0.25993 -0.18705 -0.27486 -0.41941 0.18445 -0.19682 0.21974 -0.59798 -0.19432 0.58231 -0.057975 0.36952 0.01425 0.34439 0.28448 -0.16272 0.43568 -0.67654 -0.37623 -0.19453 -0.18766 -0.51221 -0.082415 0.97716 -0.346 -0.28905 0.1415 0.58365 0.47541 -0.3938 -0.48351 -0.0089015 0.23074 0.32317 -0.35348 0.75501 -0.62618 0.51375 -0.46966 0.26396 0.17662 0.25489 0.19133 -0.56581 0.51697 
Wednesday 0.30979 -0.065147 0.1367 0.23397 -0.18697 0.35921 0.53183 -0.154 -0.077652 -0.28031 -0.24623 -0.04961 -0.38704 -0.24122 -0.070753 -0.091434 -0.025199 0.073892 0.35807 0.35284 -0.015876 -0.093183 0.44682 -0.30342 -0.4054 -0.33388 -0.60365 0.1343 0.43594 -0.38981 0.014917 0.12128 -0.43302 -0.28402 -0.020791 0.1533 -0.088195 -0.25444 -0.15929 0.09023 0.11339 -0.30379 0.43328 0.19137 0.16904 0.085321 0.26455 -0.28118 0.097906 -0.17721 0.099295 0.081892 0.29091 0.041835 -0.46526 -0.24169 -0.40783 0.35943 -0.024994 -0.13009 -0.39223 0.20312 -0.28707 -0.074192 0.14877 0.1157 -0.20828 -0.58901 0.079517 -0.0082805 -0.11544 0.58723 0.16004 -0.32908 -0.31771 -0.0062049 0.17245 0.034333 -0.021616 -0.54363 -0.10298 -0.27738 -0.061846 -0.022736 0.16013 0.24805 -0.31974 0.29854 0.0066282 0.40757 0.24682 -0.036797 0.1479 -0.077022 -0.51995 -0.32969 -0.36216 0.46928 0.15221 -0.19213 
phone 0.059841 0.17937 0.38852 0.45777 -0.09979 0.79274 -0.10894 0.17921 0.49589 0.22175 -0.60739 0.36688 0.11035 -0.60457 0.37388 -0.74126 0.20302 0.2746 0.26194 0.20088 -0.21618 -0.51469 -0.028495 -0.077172 0.27684 -0.033646 -0.29111 0.59138 0.53274 -0.19852 0.22242 0.067558 0.16491 -0.54729 -0.06462 0.48579 -0.35026 -0.12664 0.53442 0.75447 -0.30553 -0.54493 -0.10155 -0.44259 -0.27522 0.49214 -0.069257 -0.061275 0.15239 0.52639 0.0081875 -0.087326 -0.13526 -0.37063 0.086821 0.037143 0.0032369 -0.37043 0.33248 0.32531 -0.22685 -0.71411 0.080957 0.10698 -0.49746 0.24886 -0.3312 -0.62226 -0.046463 -0.77488 0.58007 0.36932 -0.26426 -0.23458 -0.2957 -0.017481 0.28329 0.1354 -0.072428 -0.52123 -0.12298 -0.47267 0.068733 0.51171 -0.23887 -0.11865 -0.43438 -0.41079 -0.1862 0.19829 0.19179 0.089205 0.19939 -0.077648 0.13976 -0.31955 -0.066786 0.045112 0.30433 0.067273 
American 0.10577 0.021383 0.11019 0.19706 0.099345 -0.10823 0.47781 -0.041262 -0.20549 0.13002 -0.22248 0.28835 -0.37893 0.22965 -0.52038 0.32126 0.18798 -0.25937 -0.21537 -0.0053699 0.0838 -0.63881 0.8417 -0.2509 -0.19183 0.01763 -0.23566 0.26985 -0.24557 0.017511 0.026603 -0.17265 -0.03266 -0.081346 0.024209 0.0077053 -0.44882 -0.27599 -0.20707 0.092819 0.39019 -0.14718 -0.64593 0.065847 0.62127 0.10967 0.34772 0.01675 0.6958 0.32706 0.10374 -0.14564 0.17846 0.16552 -0.35492 -0.049099 0.30783 -0.40837 -0.45603 -0.083063 0.1207 0.20866 0.23618 0.14097 0.020202 -0.10397 0.038347 -0.21639 0.14174 -0.21413 0.1014 -0.13477 0.20052 -0.48912 -0.14596 -0.20597 0.00013886 0.16436 -0.39478 -0.5038 -0.43438 -0.15266 0.27349 0.5893 0.042787 -0.1243 0.12454 -0.052961 -0.097761 0.0058216 0.62028 0.19158 0.2016 -0.23206 -0.23285 0.39289 -0.31913 0.47332 -0.26243 -0.17923 
train -0.1684 0.37892 -0.24417 0.17441 -0.22759 0.060879 -0.071452 -0.22855 -0.47582 -0.16264 -0.37677 0.42334 -0.62236 0.22191 0.2959 -0.10126 0.34361 -0.13124 -0.15253 0.1365 -0.34726 -0.15366 -0.32914 -0.11866 -0.2825 -0.42076 -0.061062 0.30581 0.13635 -0.37524 0.26331 -0.076266 0.51375 -0.06933 -0.37099 0.17199 -0.19598 -0.51538 -0.035696 0.16955 -0.57152 -0.72499 0.10891 -0.11442 -0.41299 0.23855 -0.12056 -0.33093 -0.083905 0.62818 -0.00016667 0.52919 0.030979 -0.13528 -0.58901 -0.14334 -0.44603 -0.14471 -0.23487 -0.042313 -0.13976 -0.017384 0.4476 -0.034297 -0.15285 -0.077532 -0.32617 -0.87198 0.029717 -0.28706 -0.10715 -0.099407 0.03784 -0.14385 0.049668 -0.3694 0.11691 0.11582 0.021369 -0.31447 0.32986 -0.12167 0.030971 0.88774 0.2924 -0.073222 0.15726 -0.21234 0.11511 -0.15671 -0.24934 -0.20191 0.83483 -0.556 -0.1863 0.25323 -0.11757 -0.37841 -0.31334 0.40577 
baby 0.17719 0.16513 0.59182 -0.2057 -0.50912 0.16985 -0.18192 0.24318 -0.2374 0.56614 -0.37112 0.12999 -0.24408 0.11133 0.056817 0.1441 -0.23086 -0.28408 0.14043 -0.49171 -0.76035 -0.44828 0.1057 0.11841 -0.32619 0.32065 0.38725 -0.13351 0.019599 -0.21736 -0.19571 0.12177 0.28853 -0.32688 -0.25284 0.51935 -0.096357 -0.18056 0.71284 -0.18776 -0.28468 -0.093558 0.10265 0.3225 0.25928 0.48483 -0.38852 -0.21521 -0.0048305 0.57537 -0.34005 -0.13966 -0.036031 0.19457 0.012435 0.47266 -0.55193 0.10657 0.63778 -0.15308 -0.14583 0.3322 -0.2642 -0.37511 -0.082513 0.19622 -0.46691 -0.68692 -0.19493 -0.39009 -0.042267 -0.53299 -0.74948 0.40262 0.21975 -0.17955 0.23914 0.011838 0.31425 -0.65024 -0.31105 -0.57617 0.12327 0.18099 0.11995 0.34769 0.16361 -0.12684 -0.42244 0.33996 0.42236 0.5202 0.26558 0.11837 -0.11776 0.16647 0.48709 0.32155 0.12467 -0.024846 
effort -0.025694 -0.11295 -0.26878 0.72978 -0.28581 -0.22148 0.11105 0.46381 -0.16432 -0.18152 -0.35687 -0.093627 -0.38691 -0.30319 0.03336 0.18028 -0.2113 0.33018 -0.0095321 -0.6209 -0.1427 -0.29502 0.17881 -0.3629 -0.35703 -0.43356 -0.20339 -0.050877 -0.05999 0.023285 0.0039424 -0.0082431 -0.30788 0.045997 -0.18367 -0.15599 -0.078031 -0.62467 -0.47836 -0.045057 -0.028157 0.33719 -0.25244 0.29397 0.059749 0.49653 0.12263 0.34844 0.12303 0.3903 -0.078165 0.0020135 0.01715 -0.21957 -0.33269 -0.24868 0.39449 -0.17605 0.1473 -0.11393 -0.0064368 0.057419 0.09696 -0.028396 -0.0014365 -0.10432 -0.46955 0.015588 0.5447 -0.10256 0.15715 -0.025183 -0.15995 -0.28862 0.47234 -0.024368 0.40743 -0.32092 0.32556 -0.68185 -0.017422 0.10626 0.21736 0.36166 0.15974 -0.040297 -0.41572 0.074783 -0.30588 -0.27526 -0.03439 -0.2791 -0.14767 -0.097505 0.1157 -0.093105 -0.22843 0.27204 -0.11234 0.15223 
decoration 0.16303 0.053309 -0.21433 -0.1099 -0.16905 0.11569 -0.0074017 0.07549 0.075995 -0.16282 0.4181 0.34171 0.19784 0.69856 0.34452 0.0058446 0.38907 -0.59932 0.36091 -0.42826 -0.42194 -0.086351 0.75064 -0.22692 -0.5447 0.23621 0.17875 -0.082359 -0.88421 -0.098245 -0.44571 0.19799 -0.18559 0.11666 -0.49565 0.40288 -0.12174 -0.38809 0.22962 0.032802 0.33365 -0.33134 -0.033071 -0.097652 -0.36777 0.34653 0.031116 0.19084 -0.054161 0.040883 0.51131 0.18939 -0.25579 -0.18847 -0.56939 0.0062292 0.83547 -0.20753 -0.061915 -0.18816 0.12888 0.0039326 0.15919 -0.23507 -0.1832 -0.51236 0.090941 -0.60267 0.42 -0.46744 0.46954 0.044207 -0.85813 0.066448 0.20266 0.48881 0.27141 0.371 0.2671 -0.30862 0.080152 0.015708 0.26454 0.43601 -0.043803 0.34372 0.17656 -0.0088062 -0.12547 -0.13035 0.6561 -0.16483 0.75733 0.55243 -0.24509 0.021434 0.16605 -0.21929 0.23649 0.16187 
rook -0.35446 -0.49265 -0.12759 -0.089717 -0.34156 0.46017 0.41411 0.11305 -0.38966 0.33489 -0.10447 0.26585 0.051894 -0.45274 0.00073818 0.096426 -0.048317 -0.79131 0.13225 -0.48418 -0.67983 -0.19383 0.27067 -0.18967 -0.63635 0.29291 0.49434 -0.29672 -0.55116 -0.37822 0.29051 0.72643 -0.24041 -0.15862 -0.25455 0.18564 -0.090587 -0.58401 0.20184 -0.018903 0.0033782 0.11384 0.43861 -0.11517 -0.3014 0.092701 -0.23977 -0.25585 0.37346 0.64074 0.0067906 0.0029972 -0.28195 0.00095168 -0.36665 0.50064 0.52594 -0.52241 -0.016319 -0.54863 -0.33882 -0.11889 0.23433 -0.50129 0.37257 -0.095713 -0.37292 -0.582 -0.18758 -0.34114 -0.43853 0.23647 -0.31002 0.34002 -0.21287 0.2106 -0.19508 0.18682 -0.28681 -0.046097 -0.20005 -0.792 0.24174 0.25249 0.06627 0.10487 0.48112 -0.0084301 0.27128 0.13215 -0.072057 -0.38562 0.06165 0.13229 0.0023375 0.04443 0.06789 -0.20626 0.17422 -0.015357 
word 0.38652 -0.12302 0.28251 0.91825 0.041912 0.52958 0.021816 0.35362 0.00073595 0.52944 -0.16936 0.28417 -0.035595 -0.21335 -0.023108 -0.15162 -0.26338 -0.21154 0.11517 -0.058373 0.25649 -0.29959 0.29 -0.0027795 -0.19021 -0.014208 0.24208 0.54174 -0.091829 -0.25706 0.0038083 -0.38367 -0.18023 -0.040744 -0.53327 0.25223 -0.51781 -0.1903 0.21758 0.028636 0.12826 -0.5254 0.17099 0.082836 -0.054702 -0.14759 -0.20885 -0.093203 -0.068552 0.61285 -0.43072 0.010507 -0.49818 -0.088243 -0.21674 0.080823 0.24258 -0.45666 -0.14466 0.065777 -0.1208 -0.31616 -0.18733 -0.3663 0.2506 -0.17747 -0.24778 -0.31873 0.30461 -0.37442 0.21833 -0.036989 -0.2754 0.23969 -0.058034 -0.29633 0.2709 0.40137 -0.22306 0.0079602 -0.1698 -0.1223 0.015966 0.27465 -0.12144 -0.17301 -0.16876 0.019519 -0.050251 -0.18017 -0.03265 0.015646 0.1518 0.57357 -0.27115 -0.17802 -0.25031 -0.031837 0.17088 0.0067083 
science 0.087742 -0.70692 0.087858 0.060667 0.25183 0.64087 0.44913 -0.091815 -0.046394 0.020704 -0.45047 -0.03564 -0.25061 0.28691 0.42391 -0.39991 0.28843 -0.175 -0.047237 -0.31641 -0.053496 -0.12107 -0.15207 -0.1145 -0.99308 0.11019 0.33774 -0.1513 -0.39598 -0.28954 -0.021537 -0.37265 -0.086638 -0.20706 -0.19849 -0.23987 -0.64023 -0.39764 -0.0042857 0.055149 -0.56156 0.31494 0.26053 0.18034 0.072983 0.12287 -0.50101 0.1707 -0.19258 0.52888 0.1738 -0.21826 0.18226 0.18092 -0.54453 -0.066375 0.27823 -0.65405 -0.39457 -0.4863 0.0012591 0.1988 -0.42918 0.036816 0.020107 0.24179 -0.33742 -0.17659 -0.27213 -0.31329 0.68222 -0.20793 -0.1872 0.038676 0.31674 -0.0044713 -0.14049 0.16431 -0.29306 -0.16146 0.27509 -0.079885 0.95818 0.035332 -0.11945 0.33323 -0.21915 0.17985 -0.048323 -0.11058 0.5348 -0.16094 -0.04784 0.19583 -0.39307 0.15976 0.1187 -0.12586 -0.9669 0.18102 
challenge 0.20175 -0.097518 0.14191 0.36062 -0.066743 -0.064642 0.67279 0.24074 -0.17466 0.0085792 -0.1194 0.1248 -0.087674 -0.34982 -0.10413 -0.22022 -0.27201 0.075651 -0.037018 -0.1596 -0.039613 -0.059139 0.097771 -0.17919 -0.35253 0.10742 -0.097054 -0.096814 0.20373 0.17851 -0.10023 0.06942 0.16705 -0.29157 -0.24985 -0.17528 0.0050132 -0.70526 -0.16663 -0.22483 0.18927 0.23824 0.02313 0.39649 0.21341 0.24583 -0.21466 0.1914 -0.22532 0.16196 -0.34519 -0.42364 -0.19576 -0.019065 -0.37189 -0.21528 0.96058 -0.13572 0.017668 -0.28876 0.20282 -0.10432 0.15783 0.04355 -0.18258 -0.049488 0.26241 -0.7258 0.29309 -0.3201 0.096485 0.085948 -0.15366 -0.18594 0.59416 -0.12491 0.055401 0.045916 -0.24573 -0.20688 -0.31542 -0.075915 0.14365 0.31331 0.15402 0.22936 -0.76544 0.070001 0.18977 0.17756 -0.13841 -0.21231 0.020092 -0.088981 -0.22566 0.032328 -0.23022 0.16636 0.070572 0.026543 
critic -0.1021 -0.40158 0.28073 1.0161 0.035509 0.73509 -0.15987 -0.006342 -0.013033 0.31932 -0.17083 -0.032361 -0.30139 0.42001 0.45683 -0.5162 0.2353 -0.74644 0.16092 -0.0087683 0.073231 -0.06364 -0.011481 -0.41866 -0.83204 0.57027 -0.2361 0.3646 0.088676 -0.48543 -0.096157 0.23276 -0.31625 -0.55908 -0.29427 -0.17258 0.26559 -0.51449 -0.3294 0.14657 -0.15788 0.047529 -0.41303 0.41495 0.35826 -0.010754 -0.15896 -0.18536 0.14132 0.28082 0.18735 0.091931 -0.0042575 -0.071698 -0.22627 -0.82171 -0.26133 -0.014889 -0.59751 -0.5831 0.70761 -0.53004 0.20515 -0.020242 0.22943 -0.49713 0.36518 -0.23723 0.97101 -0.33196 -0.034131 -0.049131 -0.044401 -0.18506 0.16321 0.18308 -0.08196 0.22465 -0.3088 -0.35054 -0.50738 0.13936 -0.4475 0.1961 -0.23811 -0.011454 -0.74713 -0.15135 0.16133 -0.087854 0.20712 -0.094673 -0.12278 0.4632 -0.27695 0.2562 0.2193 0.021203 -0.5676 -0.17035 
cat 0.24979 -0.14121 0.10579 0.10221 -0.39518 0.47865 -0.25496 -0.01922 -0.47206 0.84307 -0.43939 0.2197 -0.43903 -0.11463 -0.036082 -0.076801 0.079101 -0.67576 0.23967 -0.55439 -0.59328 -0.48432 -0.12153 -0.39901 -0.30083 0.30781 0.29648 -0.11795 0.06799 -0.78803 -0.0031369 0.10463 0.10202 -0.72387 -0.12246 0.2495 0.18655 -0.41429 0.46921 0.012821 -0.086003 0.16263 -0.040873 0.18167 0.03906 0.36104 -0.24127 -0.24667 0.04165 0.58348 0.39464 0.24459 -0.027264 -0.31901 -0.022233 0.58351 -0.22328 0.12006 0.39969 -0.31052 -0.21567 -0.10501 0.21399 -0.29168 0.19316 -0.1395 -0.67861 -0.25676 0.13779 -0.39386 0.038819 -0.29238 -0.33346 0.052759 -0.064955 0.023083 0.41915 0.0079714 -0.18899 -0.038828 -0.44795 -0.38663 0.12658 0.29653 0.14318 0.02428 0.3008 -0.34844 0.30487 0.27028 0.26933 0.23215 -0.022083 0.38487 -0.31191 0.15335 0.18098 0.03274 0.46566 -0.071272 
fauna -0.042581 -0.48565 0.32321 -0.36255 -0.34932 -0.07199 -0.255 -0.40324 -0.19416 0.87724 -0.06303 0.76672 -0.79246 0.51477 -0.084841 -0.13247 0.40538 -0.88022 -0.33781 -0.43152 -0.44801 0.32446 0.36115 -0.95711 -0.6092 -0.19908 0.33575 -0.23089 -0.39686 -0.3184 -0.32171 0.72752 -0.19604 0.06852 -0.072261 0.40163 -0.14716 -0.69685 0.059469 -0.36286 0.22992 0.74093 1.3788 -0.059159 0.58981 0.057516 0.34083 0.16081 -0.047584 0.40557 0.54847 -0.064934 -0.028122 -0.37812 0.073673 0.26237 0.32427 -0.67514 0.32279 -0.22193 0.30621 -0.35268 0.17769 -0.24465 0.081063 -0.36956 -0.49064 -0.74792 -0.21092 -0.67456 0.99333 0.10119 -0.63614 0.27945 0.0036295 1.0246 0.68439 -0.12897 -0.23302 0.022768 -0.47343 -0.098284 0.38216 0.13743 0.13169 -0.24453 0.08396 -0.017048 0.35026 -0.24252 0.42904 0.05303 -0.041838 0.33186 -0.4808 -0.83305 -0.12996 -0.28242 0.023811 -0.26506 
example 0.38556 -0.17202 0.14415 0.18987 -0.18237 0.33604 -0.031349 0.29256 -0.22847 0.44349 -0.10922 0.19981 -0.004394 0.063396 -0.015231 -0.28992 -0.077464 -0.15472 -0.066888 -0.429 -0.30238 -0.067126 0.27443 -0.14073 -0.28054 -0.086201 0.053394 0.28512 -0.10114 -0.28582 0.060546 0.087004 0.201 -0.15688 -0.059531 0.22757 -0.035645 -0.1658 -0.016216 0.072399 -0.24637 0.13275 -0.049414 0.052707 0.25446 0.24687 0.087332 -0.14774 -0.047302 0.069437 -0.2506 0.021563 -0.05078 0.12122 -0.21856 -0.09057 0.36519 -0.33606 -0.39717 -0.096883 0.29557 -0.026167 0.15256 -0.10755 -0.12558 0.015085 0.17984 -0.18025 0.055699 -0.0048011 0.22817 0.29631 -0.28939 0.015783 0.13153 -0.24099 0.21299 0.1184 0.15809 -0.41002 -0.27709 0.067696 -0.046629 0.53188 -0.058625 0.042348 0.012314 -0.19402 0.15039 -0.13028 0.052496 -0.15105 0.016719 0.24712 0.12588 -0.098033 0.092894 0.29706 -0.21978 0.29687 
history 0.20504 -0.059298 0.040664 0.39291 0.065868 0.55778 0.36373 0.11033 -0.21849 0.037816 0.031937 0.42689 -0.38629 0.38529 -0.11861 0.023088 0.2008 -0.17223 -0.081367 -0.65183 0.28301 -0.37343 0.16734 -0.24639 -0.37627 -0.44683 -0.39435 -0.074777 -0.18745 -0.25454 -0.19459 0.12955 0.30174 -0.019547 -0.16337 0.23371 -0.29424 -0.093422 -0.29539 0.35173 0.061958 0.011697 -0.13818 0.18733 0.53191 0.1668 -0.19269 0.14657 -0.043371 0.26119 0.11019 -0.36049 0.099646 0.45439 -0.24163 -0.43141 0.59952 -0.30552 -0.26026 -0.40268 0.48174 -0.18569 -0.14361 -0.27041 0.36934 -0.17957 0.074059 -0.22271 0.34662 -0.37132 0.30836 -0.032133 -0.11435 0.41555 0.18243 0.40922 -0.15042 0.042233 -0.35503 0.071623 0.055525 0.090397 0.11362 0.34559 0.066865 -0.30638 -0.1101 0.15075 0.073305 0.21615 -0.082414 0.079356 0.32202 0.18717 0.03624 -0.39903 0.032848 0.34159 -0.36639 0.22829 
vodka -0.53251 -0.47686 0.572 0.0084255 0.18198 0.31923 -0.46244 -0.35814 0.014523 0.81006 0.026187 -0.12181 -0.38454 0.057469 -0.020836 -0.13612 -0.16597 -0.24062 -0.11941 -0.24191 0.099724 -0.19414 1.0107 0.539 -0.15774 0.27177 -0.44181 0.058098 -0.32771 -0.28448 0.11687 0.13911 0.46192 -0.11288 -0.32819 0.53478 -0.026358 -0.29591 0.26043 -0.33613 -0.27726 -0.81188 -0.06054 -0.60211 0.10661 0.43676 -0.41201 -0.74695 0.024321 0.59567 0.44533 0.20763 -0.31361 0.45817 -0.77889 -0.36329 -0.40906 -0.041964 0.60888 0.016986 0.21294 -0.38233 0.076753 -0.72798 0.13133 0.06397 -0.49264 -0.47353 0.22077 -0.34244 -0.1807 -0.33164 -1.1389 0.017619 0.42639 0.18271 0.51833 -0.41343 0.19821 -0.33027 0.56499 0.066425 -0.37134 0.070823 -0.21817 -0.079676 0.15547 -0.31663 0.35274 -0.14524 0.77321 -0.1911 0.39747 0.22448 -0.50277 -0.0072991 -0.14184 0.56723 0.52783 -0.10741 
calculation 0.35641 -0.22282 -0.095926 0.039312 -0.28246 0.34553 0.083178 0.28046 -0.29213 0.11261 -0.35731 0.39732 -0.1762 -0.12767 -0.45288 -0.39338 0.17767 0.33625 0.065144 -0.21929 0.541 -0.024892 -0.054987 -0.2856 -0.41341 -0.22766 0.14381 0.40624 -0.1482 -0.34368 -0.19257 0.0029466 -0.048605 0.16172 -0.19816 0.042398 0.15065 -0.22363 0.32938 -0.23413 0.19088 -0.20806 0.013865 -0.3809 0.048279 -0.26818 -0.18106 -0.025048 0.12635 0.21026 -0.29761 -0.045209 -0.012719 0.15569 -0.22715 0.13698 0.44886 -0.26728 -0.66168 -0.31255 -0.1042 -0.0021683 -0.058375 -0.29261 0.44466 -0.094612 0.14961 -0.18354 -0.49748 -0.26599 0.77716 0.41963 -0.44454 0.15686 0.22194 -0.073962 0.10259 -0.2393 0.013324 -0.51428 0.015924 0.24358 0.3342 0.58097 -0.14575 0.44932 -0.51016 -0.011444 -0.091557 -0.79676 0.19088 -0.61623 -0.25012 0.36235 0.043663 0.46874 0.34928 0.40581 -0.17924 0.09634 
fuck 0.11926 0.12613 -0.16563 0.70547 -0.18164 0.71836 -0.0553 0.42112 -0.046223 0.82024 0.28718 -0.11662 0.32712 0.21223 -0.33023 -0.23456 -0.4366 -0.60641 0.1603 -0.54204 -0.79069 -0.44756 0.21734 -0.34913 -0.41614 0.72512 0.71614 1.0122 -0.14735 -0.15083 0.28025 0.32443 0.28336 -0.48057 -0.39729 0.47313 -0.51012 -0.010837 -0.043198 -0.34442 -0.44281 -0.50724 0.19652 0.28972 -0.10555 -0.23485 0.020766 -0.38301 -0.13219 0.96319 -0.028633 0.54648 -1.0264 -0.41595 0.37866 0.30032 -0.54898 -0.79132 0.35265 -0.72037 -0.43116 -0.37065 0.13554 -0.30134 0.73599 -0.19213 -0.42798 -0.57574 0.70078 -0.93461 0.38606 0.17307 -0.28721 0.37339 0.11861 -0.058768 0.36784 0.27359 -0.68213 0.12838 -0.15099 -0.53734 0.25633 0.15539 -0.2264 -0.06125 -0.43497 0.11404 0.38629 -0.12356 0.35579 -0.45544 -0.074506 0.25479 0.21607 0.12192 0.21683 0.11901 -0.024131 0.062337 
currency 0.15505 -0.39254 0.55875 0.61513 0.32594 -0.48025 0.095297 0.40356 0.37503 0.77203 -0.50903 0.53937 -0.06326 0.062379 0.15149 -0.24559 0.68581 0.35534 -0.39949 -0.48518 0.72036 -0.41834 0.14052 -0.55863 -0.057328 -0.20397 0.052286 0.51916 0.27736 -0.75283 -0.52991 0.54099 -0.013038 -0.26364 0.32899 0.32931 -0.34518 -1.0746 -0.4746 -0.30021 0.32225 -0.68091 0.97421 -0.79112 -0.098794 0.031431 -0.37263 -0.085143 0.57312 0.0067591 -0.019699 -0.22854 0.13582 -0.15761 0.1774 0.14966 -0.0010854 0.15793 -0.0124 -0.25104 -0.72121 0.22653 -0.091688 0.18757 0.55919 0.24788 0.13524 -0.52663 0.32733 0.14741 -0.16955 -0.18413 -0.94123 0.20003 0.017663 -0.043133 -0.070149 -0.36501 -0.0091903 -0.4529 -0.57047 0.034987 0.021924 0.23585 -0.39551 -0.14063 0.0048378 -0.014331 -0.15229 -0.48705 0.50939 -0.27995 -0.076187 0.15849 -0.67575 0.24736 0.38159 -0.34792 -0.32121 0.44374 
stroke 0.22309 0.46515 0.19851 0.3402 -0.019461 0.087686 -0.014134 0.24033 0.40699 0.13152 0.16266 -0.1703 0.14148 -0.2257 -0.41614 -0.098405 -0.40993 -0.10283 -0.090176 -0.34025 0.30378 -0.161 0.46865 -0.73354 -0.35657 -0.21527 -0.012605 -0.32666 0.34535 0.047694 0.10724 0.48037 -0.091803 -0.19701 -0.37824 0.13858 -0.064058 -0.24926 -0.025603 -0.72735 -0.31936 0.43111 -0.59308 -0.85157 0.31303 0.0023015 -0.50326 -0.053222 -0.13721 0.91897 -0.34249 -0.28866 -0.39079 -0.023459 -0.12522 0.25145 0.11296 -0.030678 -0.04242 -0.57216 -0.22924 0.44437 -0.025717 -0.21403 0.34561 0.70426 -0.28053 -0.58495 -0.080556 -0.78675 0.60957 0.22059 0.1057 -0.45991 0.0068172 0.52683 0.10679 0.14001 0.51422 -0.56416 -0.49768 -0.47934 -0.070932 0.55625 0.70119 -0.20055 0.55536 0.060588 -0.13649 -0.034122 0.55904 -0.18622 0.95662 -0.15219 -0.020645 -0.27291 0.25386 0.058391 -0.22287 -0.22691 
serial -0.4567 0.60291 0.48746 0.35936 -0.24861 0.51593 0.097168 -0.2733 -0.35747 0.36244 0.082247 0.46115 -0.043708 0.29002 0.38886 -0.80044 -0.20146 -0.081342 -0.11136 -0.069345 -0.093064 -0.4992 -0.0081285 -0.22451 -0.34542 -0.14383 -0.12897 0.73146 -0.17979 -0.68468 -0.55713 0.14311 -0.25162 -0.74464 -0.15487 -0.011005 -0.087108 -0.68927 0.67724 0.37261 -0.34981 0.052528 -0.14835 0.29019 0.068918 -0.08413 -0.59588 -0.048558 -0.22482 0.5028 0.33273 0.37191 -0.22106 0.095445 0.0094365 0.27897 0.34346 -0.042284 -0.20504 0.073509 -0.24933 -0.15272 0.11469 -0.12278 0.26469 0.35682 -0.17245 -0.22179 -0.11181 -0.28394 0.31282 -0.20866 -0.17409 -0.15653 0.11631 0.078077 -0.44375 -0.061529 -0.18313 -0.097103 -0.081898 -0.51303 0.24445 0.6499 -0.24814 -0.80023 -0.1722 -0.32507 0.16932 0.14143 -0.43489 0.15772 -0.03785 0.49186 0.65604 -0.19273 0.054522 0.31493 0.24654 -0.073085 
association 0.21153 0.17042 0.45508 0.53867 0.28 0.29027 0.15989 -0.23136 0.1383 -0.2208 -0.083787 0.33874 -0.072678 0.25708 -0.33521 -0.49877 -0.077627 0.517 -0.29066 -0.10619 0.088135 -0.41407 0.058586 0.15852 -0.18585 0.003213 -0.36886 0.03332 -0.28012 -0.04311 0.29953 0.03951 0.14137 -0.42929 0.43958 0.10942 -0.21752 -0.085826 -0.22079 0.54588 0.27897 0.31255 0.018138 0.29685 0.60101 0.43113 0.00076557 -0.038068 0.19968 0.18906 0.054767 0.10275 -0.17097 -0.085713 0.030561 -0.095737 0.14418 0.14362 -0.18016 -0.44003 0.072751 0.13468 0.28208 -0.29146 0.0037129 -0.40999 -0.12825 -0.27181 -0.0048646 -0.38757 0.25373 -0.081051 0.45205 -0.13809 0.41419 0.11387 0.37546 0.18105 -0.069264 -0.67235 -0.19392 0.4342 -0.02598 0.37858 -0.082766 0.087095 0.14488 -0.02827 0.038002 -0.13616 0.33207 0.036677 0.66078 0.75066 0.04566 0.18809 -0.14162 0.203 -0.228 0.24176 
information 0.012546 -0.13457 0.48956 -0.017305 -0.20153 0.31973 -0.21082 0.22305 0.1072 0.18433 -0.51891 -0.0022518 0.27698 -0.28837 -0.23235 -0.37891 0.43141 -0.012122 -0.16902 -0.61575 0.6709 0.34786 -0.33822 -0.067624 -0.19087 -0.47228 -0.021389 0.064301 -0.30389 -0.4862 0.30633 -0.30679 -0.0029943 -0.24446 -0.46332 0.39571 -0.55954 -0.31588 0.0012272 -0.24407 -0.098137 -0.24963 0.15509 0.18969 0.36333 0.1743 0.36505 0.33781 0.36527 0.17066 -0.0056654 -0.25058 -0.12259 -0.5351 0.042311 -0.40492 0.25809 -0.12673 -0.046486 0.025493 -0.060787 -0.070022 0.44008 -0.32339 -0.25538 0.10872 -0.22221 -0.23778 -0.25329 -0.17666 0.81018 0.17675 -0.030688 0.40432 -0.36893 -0.32048 0.12599 -0.099131 -0.25377 -0.67175 0.39871 -0.32819 0.12099 0.83124 -0.23797 0.34594 -0.53552 -0.15449 0.0058332 -0.1399 0.40464 0.1242 0.24452 0.32412 0.34583 -0.59295 -0.64732 0.30257 -0.065738 0.46285 
recovery -0.10568 -0.10797 0.42404 0.073835 -0.0050666 -0.19775 0.33616 0.56858 0.020082 0.061923 -0.62973 0.18901 -0.21464 -0.18979 -0.34782 0.26265 0.17653 0.48828 0.21687 -0.72434 -0.17519 -0.11666 -0.097283 -0.71474 -0.093502 -0.55173 -0.26495 -0.26632 0.06863 -0.39569 -0.38809 -0.14706 -0.068442 -0.11717 -0.24655 0.031834 0.14747 -0.56067 0.41696 -0.3211 0.24646 -0.20879 0.30335 0.023643 -0.05541 -0.018667 -0.62163 0.15705 0.04177 0.44891 -0.51618 0.36476 0.064104 0.041946 0.32137 0.16036 -0.15945 -0.039986 0.47333 -0.27913 -0.26306 0.58514 -0.14323 -0.46806 -0.35302 -0.16524 -0.0027194 -0.47082 0.32362 -0.10228 0.3493 0.12301 0.16105 -0.35363 0.4648 0.11492 -0.20102 0.24829 0.57028 -0.78025 -0.10736 0.013971 -0.36643 0.73375 -0.15411 0.026121 -0.40582 0.77036 -0.0065928 -0.13445 0.12791 -0.051052 0.059878 0.26659 -0.25958 -0.38666 -0.14105 -0.29341 -0.49732 0.39598 
travel -0.35188 -0.055004 -0.025772 0.33551 0.04072 0.16521 -0.27287 -0.28208 -0.22949 -0.041741 -0.087121 0.19977 -0.15656 0.10577 -0.079361 -0.22806 0.87107 -0.05219 -0.099627 0.056682 -0.27561 0.33622 0.10806 -0.39307 -0.074611 -0.59063 -0.48026 0.19479 0.081301 -0.37875 0.0080861 0.01537 0.2157 -0.069923 0.13341 -0.3125 0.26239 -0.4801 -0.47332 0.3611 -0.3726 -0.15425 0.21918 -0.43352 -0.33278 0.024162 0.28649 -0.084678 -0.036051 0.011828 0.15569 -0.1877 -0.13415 0.14091 0.072656 0.015586 -0.53913 -0.13227 -0.25987 -0.27126 0.10194 -0.23646 -0.21922 -0.2127 -0.40311 -0.16483 0.11445 -0.74581 -0.39891 -0.50798 0.41922 -0.14186 -0.09067 0.11971 0.18201 -0.31737 0.66897 0.14404 -0.14016 -0.28162 -0.17932 0.17729 0.10082 1.0601 -0.27038 0.090193 -0.4499 -0.16321 0.20864 0.26057 0.15845 0.29006 0.57456 0.044797 -0.22664 -0.17284 -0.34579 -0.034778 -0.32691 0.039734 
boxing -0.13623 0.16385 0.36124 0.41499 0.3627 0.49574 0.31229 -0.42525 0.16169 0.5941 0.38452 0.62433 -0.40443 0.9637 -0.12083 0.011942 0.44849 -0.32868 -0.029307 -0.61686 0.2651 -0.84194 -0.39306 0.1264 -0.44776 0.097651 0.034641 -0.10079 0.36069 0.24259 -0.30985 0.032102 0.21616 -0.36984 -0.37585 -0.40974 0.59366 -0.53388 -0.82791 -0.0023893 0.36778 -0.054396 0.25911 0.33835 0.22761 -0.68743 -0.36878 -0.30602 -0.53105 0.12359 0.0059125 -0.18921 -0.34944 -0.0063084 -0.61458 0.08896 0.29752 0.025592 0.2222 -0.17325 -0.067125 -0.23535 -0.13803 -0.15011 0.39135 -0.077143 -0.42042 -1.1117 0.34389 -0.36289 0.31102 -0.059178 -0.16717 -0.45642 0.35013 0.10334 0.034897 -0.2679 0.013774 -0.18083 0.18798 -0.18302 0.29106 0.65111 -0.029389 0.016487 0.12546 0.13281 -0.3796 -0.050811 0.018111 0.19387 0.3716 -0.15972 -0.088893 0.45381 0.12204 -0.15576 0.21321 -0.47768 
arrangement 0.43923 0.016406 0.15133 0.14899 -0.29322 0.063438 0.20259 0.51521 -0.070697 -0.44843 -0.7889 0.12286 0.12166 0.14278 0.089336 -0.51133 0.11033 0.2406 0.0096977 -0.33908 -0.085165 -0.12813 0.28197 -0.2168 -0.34167 -0.1064 0.14552 0.24184 0.14121 0.29822 0.1298 0.018762 0.32347 -0.033648 -0.24881 0.44674 0.25849 -0.3278 -0.055714 0.17243 0.60138 0.081343 0.29129 0.01207 0.19053 -0.030781 0.22794 0.022921 0.18868 0.28338 0.06093 0.15535 -0.27867 0.05311 -0.31708 0.37138 -0.067079 0.12714 -0.3826 0.041504 0.42418 -0.28428 -0.22719 0.32165 0.11135 -0.39439 -0.031203 -0.2629 -0.30432 -0.29047 -0.048597 0.35669 -0.52928 0.33218 0.30387 0.011052 0.28507 -0.097457 0.18543 -0.93098 -0.12336 0.48491 -0.14898 0.39294 -0.11772 -0.060394 -0.18226 -0.7373 -0.042247 -0.35598 0.20527 -0.32306 0.17161 0.20707 0.11422 0.15924 -0.093114 -0.37107 0.31333 -0.16535 
delay 0.086276 -0.052268 -0.11907 0.34452 -0.57999 0.059696 0.16991 0.1843 -0.0081564 -0.38419 -0.28478 -0.3885 -0.11088 -0.015049 -0.14112 -0.3052 -0.11224 0.33769 0.22895 0.14572 0.49579 -0.051617 0.40775 -0.30114 -0.057029 -0.32812 0.24416 0.16717 0.39963 -0.13014 0.048287 0.077619 0.30011 -0.17831 0.32092 0.22464 0.15679 -0.37379 0.025107 0.10475 -0.21687 0.18347 -0.17862 0.25416 0.086153 0.41506 -0.091548 0.27105 0.14959 0.16645 -0.91277 0.091982 -0.40287 0.076061 -0.19396 0.33763 -0.07404 -0.13769 -0.11334 -0.45366 -0.26128 -0.23552 -0.33855 0.29588 -0.0025394 0.41189 0.0066139 -0.76069 0.11163 -0.37725 0.14363 0.18975 -0.086407 0.25068 0.74525 -0.19152 -0.1072 0.18589 0.075884 -0.7434 0.041397 0.2794 -0.25719 0.40237 -0.11686 0.25834 -0.5391 0.27812 -0.18208 -0.022617 -0.0064788 0.152 0.25977 0.11311 -0.60683 -0.23814 -0.53415 0.33235 0.11445 0.34608 
criterion 0.34427 -0.01337 -0.058413 0.23276 0.022832 0.34802 -0.025918 0.41581 -0.31034 -0.15642 -0.3403 0.40032 0.097199 0.089952 -0.47447 -0.55797 -0.24399 0.18189 0.042936 -0.46943 0.53656 0.020677 -0.29713 -0.084391 -0.41471 0.36468 0.62782 0.39342 -0.25512 -0.4097 0.0081838 0.24328 0.18276 -0.17651 0.072554 0.25848 -0.12109 -0.45745 0.50879 -0.1803 0.054159 0.36026 0.40912 -0.067198 0.36411 -0.13596 -0.43839 0.12995 -0.054122 -0.054301 -0.27899 -0.16904 -0.43962 0.40449 -0.51509 -0.14422 0.42149 0.01817 -0.26523 -0.44524 0.077989 -0.19725 0.015429 -0.56002 -0.2728 -0.19051 0.35481 -0.56176 0.21574 -0.54347 0.39251 -0.043187 -0.61099 -0.04849 0.028747 -0.49773 -0.1372 -0.0042421 -0.42004 -0.23322 0.032729 0.20317 0.65196 0.51982 0.12914 -0.073199 0.13503 0.12088 0.24908 -0.036245 0.041401 -0.13004 -0.088708 0.19517 -0.022678 0.35121 -0.22992 0.11342 -0.1867 -0.0029839 
forest -0.26454 -0.31582 0.2204 -0.41553 -0.33071 0.21774 -0.57223 -0.050473 -0.18047 0.17163 -0.41468 0.25718 -0.68719 0.59226 0.44733 -0.24285 0.21033 0.073226 0.075847 -0.18768 -0.494 0.34569 0.47985 -0.72287 0.1249 -0.19907 0.43592 -0.24074 -0.38801 -0.14874 -0.27494 0.48409 -0.12732 0.088972 0.062565 0.12853 0.031283 -0.37049 0.097493 0.012429 -0.23543 -0.11443 1.0121 -0.067058 0.60512 0.14641 0.54975 -0.16379 -0.054616 0.50311 0.51171 0.079877 -0.20588 -0.37366 -0.1002 0.49503 0.22889 -0.61094 0.35161 -0.55279 -0.11831 -0.3655 0.15651 -0.64382 0.15488 0.12885 -0.56963 -0.76957 -0.098817 -0.063285 0.55338 -0.026072 0.073658 -0.76258 0.085478 0.51622 0.73101 -0.12107 0.074472 -0.083193 -0.38765 -0.23474 0.1621 0.34596 0.53958 -0.099348 -0.082558 -0.15486 -0.15472 -0.30134 0.016195 -0.13255 -0.055398 0.64482 -0.35928 -0.39348 -0.27047 -0.25329 0.11803 0.23483 
animal -0.13485 -0.16454 0.16591 -0.22746 -0.16065 0.07287 -0.2589 -0.59262 -0.49236 0.68257 -0.55516 0.078693 -0.66042 0.082635 -0.03796 -0.066908 -0.15799 -0.39316 0.15927 -0.94846 -0.26722 -0.048925 -0.048076 -0.12508 -0.91314 0.19914 0.45381 -0.11154 -0.036426 -0.53035 -0.17017 0.23105 0.34711 -0.40426 0.093269 0.19659 0.047569 -0.56515 0.28139 -0.22632 -0.015802 0.30776 0.39188 0.48122 0.29843 0.31075 -0.20275 -0.023167 0.16122 0.45135 0.40136 -0.10952 0.55395 -0.32767 -0.049247 0.36787 -0.052048 0.13361 0.42156 -0.44636 -0.11321 -0.17056 -0.10848 -0.16541 -0.208 0.023433 -0.7771 -0.30142 -0.10562 0.013288 0.36881 -0.37873 -0.051684 -0.22941 -0.23087 0.0448 0.5457 0.10481 -0.016135 -0.22179 -0.30197 -0.24845 0.37494 0.25598 -0.066177 0.26244 0.099721 -0.28697 0.34766 0.14865 0.35527 0.12323 0.21687 0.79578 -0.45611 -0.13134 0.079974 0.23077 0.062877 -0.11231 
interview 0.29254 -0.26562 0.58329 0.63189 -0.0087968 0.94405 0.041293 -0.22518 0.22202 0.12587 -0.16629 0.040827 0.3784 -0.2253 -0.18027 -0.48162 0.077351 0.15529 0.29428 0.49374 -0.3411 -0.30051 0.013875 -0.067562 -0.58475 -0.016756 -0.602 0.51729 0.40138 0.028365 0.19384 0.12064 -0.18708 -0.019909 -0.78197 0.23339 0.062968 -0.23944 -0.3446 0.29425 0.14486 -0.13165 0.065879 -0.088391 0.3611 0.42976 0.10602 -0.20479 0.089904 0.32316 0.13619 -0.16811 -0.1827 0.023274 0.062025 0.10252 -0.34098 -0.07647 0.044845 -0.60604 0.17622 -0.16408 0.05006 0.060393 -0.0050578 -0.29034 -0.27032 -0.62924 0.46478 -0.50019 0.3213 0.60866 0.17245 0.14203 -0.071045 -0.078498 0.047215 -0.12926 0.0066212 -0.56816 0.098187 -0.10723 -0.23515 0.22089 -0.06008 -0.091256 -0.52249 0.062615 -0.33743 -0.099105 0.23026 0.33628 -0.41851 0.022436 0.18548 -0.15538 -0.27249 0.35666 -0.40208 -0.30997 
place -0.014286 0.0047338 -0.11652 -0.041817 -0.21193 0.17705 0.4221 0.19821 -0.21294 0.16651 -0.0061125 -0.16125 -0.17745 0.26822 -0.063544 -0.26746 0.33821 -0.020196 -0.21668 -0.23163 -0.3196 0.10766 0.24477 -0.35672 -0.093486 0.016831 0.095068 -0.105 0.14594 -0.16113 -0.058591 0.077527 -0.20495 -0.0073829 -0.58019 0.50031 -0.39806 -0.084266 -0.08509 -0.015113 0.076747 0.36576 0.33049 -0.2029 0.11383 -0.0018571 -0.39707 -0.17718 0.0040644 -0.024168 0.18461 -0.34813 -0.24308 0.071399 -0.4801 0.025907 0.28077 0.13493 -0.056355 -0.098468 -0.069 -0.056468 -0.15347 0.01282 0.1946 0.23228 0.17027 -0.26679 0.22425 -0.33036 -0.35412 -0.0064291 -0.14657 0.18198 0.12918 -0.080524 0.43792 0.021036 -0.0029405 -0.29619 0.018611 -0.065777 0.17803 0.6474 0.44946 -0.1308 -0.055876 0.1244 0.0044948 -0.046611 0.43952 -0.05362 0.26482 -0.20616 -0.07523 -0.16348 -0.48604 0.09959 0.2616 0.22003 
furnace -0.63025 0.0098355 0.10648 -0.35353 -0.66893 0.29588 -0.28111 0.34743 0.19679 0.096938 -0.76761 0.30388 -0.23398 0.59303 0.37379 -0.15484 0.43221 0.11663 0.30174 0.50591 -0.3609 0.017584 -0.16078 -0.028295 -0.19262 0.59894 0.55384 -0.59797 -0.79235 -0.57213 -0.91906 -0.0084476 0.62418 -0.34561 -0.44622 0.075508 -0.049987 -0.27051 0.42561 0.31907 -0.28243 -0.39429 0.18121 0.11305 0.04542 0.25896 -0.026234 -0.47496 -0.20144 0.072237 0.15107 0.26777 0.018297 0.014709 -0.49607 -0.13815 -0.098048 -0.81568 0.18723 -0.55643 -0.098704 0.25013 -0.46988 -0.27792 0.57596 0.36793 -0.60185 -0.40073 0.7884 -0.57245 0.16366 -0.37006 -0.14898 0.1553 -0.28 0.011635 0.14572 -0.22958 0.43351 -0.8972 -0.086925 -0.26195 -0.37821 0.12184 0.25719 0.17148 -0.0074854 0.10551 -0.19211 -0.16597 0.45514 -0.83536 0.77563 -0.21792 -0.080321 -0.044482 -0.022179 -0.12074 0.53024 0.36748 
stock 0.36907 -0.40317 -0.055794 0.0051378 -0.076615 0.15074 0.20344 0.51219 0.33232 0.13803 -0.17611 0.41774 0.023947 -0.11749 0.42935 -0.16976 0.80632 -0.021182 -0.14866 -0.53138 0.89762 0.014043 0.15736 -0.43113 -0.54996 -0.33389 -0.05741 -0.064351 0.2237 -0.57661 -0.094146 0.66108 -0.14541 -0.50312 0.1534 0.11639 0.24402 -0.4469 0.13361 -0.18611 0.0065919 -0.5907 0.65249 -0.40946 0.23587 0.0081489 0.21939 -0.77045 0.27116 -0.070811 -0.013874 -0.064438 -0.16676 0.6641 -0.046116 0.38441 -0.14844 -0.35961 0.026274 -0.10173 -0.58376 0.10079 0.21591 -0.17999 0.68049 0.25994 0.12357 0.14045 0.49483 0.10377 -0.0055813 -0.30014 -0.50778 -0.34342 0.52431 -0.37817 -0.095616 0.014524 0.21978 -0.88314 -0.15028 -0.28435 0.26056 0.28177 -0.76505 -0.13123 0.4209 0.09568 -0.081996 -0.44673 0.386 -0.23781 0.21642 0.034722 -0.086189 -0.23594 -0.39436 0.048317 -0.013459 0.13574 
minority 0.17218 0.14047 0.30988 -0.01161 0.10819 -0.20806 0.14594 0.0044143 0.37113 0.20421 -0.019049 0.49278 -0.13566 -0.3249 0.42889 -0.13309 -0.0022094 0.12613 0.052073 -0.21276 -0.05981 -0.15982 0.42724 0.31367 -0.15617 0.25433 0.052128 0.096548 -0.14826 -0.46872 0.52539 0.30611 0.42232 0.23728 -0.18408 0.041026 -0.20341 0.071298 -0.37788 0.20746 -0.055289 0.25595 0.24401 0.028772 0.58253 -0.33509 -0.47652 0.37208 -0.074177 0.46423 0.12369 -0.25687 0.063312 0.070146 0.19411 -0.57669 0.19399 -0.24272 -0.12992 -1.0318 0.10901 -0.53867 0.14652 0.32766 0.26577 -0.027875 -0.26316 -0.033028 -0.056311 -0.33212 -0.63381 -0.15217 -0.48459 -0.36517 0.68216 -0.035297 0.23018 0.33378 -0.21328 -0.779 -0.54101 0.43654 0.43976 0.51216 0.14476 -0.32229 -0.36603 -0.17493 -0.17868 -0.053381 -0.17215 -0.35971 -0.3581 0.39803 -0.32852 0.16037 -0.92107 0.38568 0.36298 0.24305 
lad -0.032273 -0.21935 0.30914 0.415 0.11654 0.20279 -0.10366 -0.037722 -0.11024 0.52482 0.16361 0.52727 -0.11538 -0.27896 -0.05287 0.10063 -0.028342 -0.76665 0.0019481 -0.61142 -0.75878 -0.59549 -0.064222 0.015337 0.014792 0.084457 0.44708 0.24534 0.24526 -0.11017 0.003384 0.21833 -0.11024 -0.5132 -0.9142 0.18412 -0.24857 -0.35125 0.030258 -0.27735 -0.019791 0.31746 0.10939 0.24903 0.16473 -0.56336 -0.23109 -0.67855 -0.046274 0.94783 0.16719 0.00058464 -0.67828 -0.010207 -0.49183 -0.086013 -0.13869 0.11708 0.12639 -1.052 0.18209 0.40879 -0.070644 -0.40659 0.48729 -0.7249 -0.68489 -0.4375 0.38666 -0.564 -0.49546 -0.16472 -0.72401 0.32989 0.12803 -0.082033 0.24519 0.22896 -0.30075 0.028073 0.18271 -0.47988 0.050162 0.21663 -0.10221 0.308 -0.22552 0.0081115 -0.035153 0.41281 0.0802 -0.29587 0.37 -0.13994 0.17755 0.0040156 0.10858 -0.42647 0.061245 0.3788 
thunderstorm -0.15969 -0.073206 -0.11437 0.43923 -0.30371 0.086706 -0.0018233 0.19652 -0.15234 0.33288 -0.48889 -0.12751 -0.26351 -0.10853 -0.14413 -0.33465 0.11796 -0.36509 0.35788 0.57102 -0.086646 0.21843 0.66854 -0.4025 0.40864 -0.41228 -0.29439 -0.48293 0.17346 -0.38625 -0.1359 -0.27827 0.33355 0.36093 -0.059927 0.42492 0.58764 -0.58348 -0.27972 0.42511 -0.36563 -0.28679 0.14966 -0.14652 0.31515 0.11729 0.3432 -1.0099 -0.94557 0.98973 -0.45601 -0.16454 0.26613 0.011997 -0.51114 0.87597 -0.021334 -0.55678 -0.24345 -0.78681 -0.48235 -0.067944 -0.048747 -0.019316 0.44255 0.1398 -0.23211 -0.81115 -0.032521 -0.49389 0.15095 -0.098505 0.079243 -0.11675 0.11875 0.36301 0.089071 0.39291 0.14738 -0.69485 0.43794 -0.44029 0.34638 0.15152 0.25867 0.23032 -0.3554 0.29113 -0.28097 0.01777 -0.060006 -0.1623 0.61598 -0.16436 -0.25334 -0.76783 -0.42171 -0.71181 0.48942 0.025105 
collection -0.34398 -0.34971 -0.16059 0.31315 -0.088397 -0.11791 0.26821 0.10822 -0.059612 0.12422 0.3129 0.27533 -0.094942 0.21994 0.11515 -0.21142 0.38892 -0.40934 0.22077 -0.37737 -0.50812 -0.073437 0.10102 -0.080577 -0.11246 -0.13721 0.191 -0.11031 -0.28006 -0.29401 -0.54612 0.16696 -0.32905 -0.33677 0.0015046 0.5387 -0.030002 -0.22964 0.090073 0.18509 0.060316 -0.28258 0.25544 0.33051 -0.030396 0.68388 -0.28798 -0.10221 -0.12024 0.015691 0.55041 0.10468 -0.19592 0.30419 -0.19078 0.090765 0.47194 0.16717 -0.05661 0.135 0.71384 -0.30292 0.011938 -0.1933 -0.014303 -0.42381 -0.34352 -0.27766 0.030937 -0.27 0.6317 0.079607 -0.35841 0.24077 0.2161 0.2025 0.32608 0.3477 0.1867 -0.68189 -0.10817 0.21967 0.10873 0.32313 -0.36412 -0.11047 -0.17216 0.070987 -0.34567 -0.11923 0.67301 0.13375 0.26233 0.49273 0.52249 -0.16045 -0.11876 0.14652 -0.12781 -0.25492 
abuse 0.12406 0.50757 0.51613 0.038588 -0.16526 0.015597 -0.45128 -0.0252 0.33968 0.28825 0.087964 0.17285 0.049561 0.35617 -0.14394 -0.65318 -0.12311 -0.21403 0.4907 -0.67095 -0.44613 0.15048 -0.21867 -0.084928 -0.73808 -0.4064 -0.24159 0.37998 -0.27286 0.60637 -0.44694 0.31181 0.21437 -0.030659 0.0058564 0.2615 -0.18637 -0.21074 -0.24718 0.28036 -0.31822 -0.026384 -0.0098701 0.31438 0.28496 0.14406 -0.45507 0.063072 -0.010342 0.76931 -0.26512 -0.53289 -0.012621 -0.30165 -0.28647 -0.22959 0.15754 0.021576 0.27763 -0.67033 -0.15295 0.35884 0.00071921 0.062478 0.55882 -0.021384 -0.085616 -0.17928 0.10886 -0.45678 0.3591 -0.39041 -0.040496 0.28244 -0.13633 0.16039 -0.11149 -0.050169 0.29696 -0.84181 0.2467 -0.37445 0.55346 0.10696 -0.069411 -0.50988 -0.76863 -0.38442 0.41982 0.4893 -0.0060965 -0.013499 0.032161 0.59888 -0.47662 0.12567 -0.30657 0.66765 0.50795 0.099949 
Yale 0.037543 -0.24312 0.34003 -0.0091706 0.50715 0.88139 0.29554 -0.20025 -0.58527 0.039153 0.0093836 -0.22087 -0.078659 0.24582 -0.42712 -0.23068 -0.29821 0.042935 -0.15617 -0.0095926 0.42512 -0.49959 0.12467 -0.44979 -0.48396 0.21856 -0.11976 -0.52986 -0.63521 -0.59163 -0.41983 0.16601 -0.49668 -0.70844 -0.4823 0.42513 -0.35616 -0.15067 -0.37457 0.22869 -0.14491 -0.13244 0.17177 0.084765 0.30628 0.3698 -0.33203 0.017204 0.10503 0.32717 0.39237 -0.62295 0.23525 0.4078 -1.0718 -0.24757 -0.10236 -0.45908 -0.52634 -0.49363 -0.019025 -0.11356 -0.1706 0.24068 -0.23502 0.2872 -0.70913 0.51032 -0.2298 -0.54702 0.49072 0.39243 -0.32549 -0.19882 -0.36643 0.024493 -0.13227 -0.30899 0.053674 -0.47968 -0.18325 0.19047 0.4464 0.081098 -0.30078 -0.19048 -0.10693 -0.0028842 -0.035841 0.25381 0.25775 0.043253 0.42195 0.15639 -0.15111 0.70093 0.19415 -0.2587 -1.1012 -0.10107 
president 0.42641 0.26014 0.17808 0.47543 0.25071 0.46678 0.13342 0.50568 0.23005 0.025654 -0.43184 0.0012248 -0.19258 0.6743 -0.29655 -0.28388 0.0044408 0.01648 -0.3786 0.39279 -0.19773 -0.28243 0.24877 -0.0069083 0.027855 0.10617 0.046436 -0.035107 0.10057 0.16328 0.44889 0.049971 -0.49962 -0.57053 -0.44208 -0.38628 -0.18316 -0.21351 -0.088167 0.026265 -0.26338 -0.086088 0.16539 -0.037644 0.33104 0.69811 0.06147 0.004274 0.38203 0.24835 0.057101 -0.73761 0.3381 0.18411 0.15358 -0.2372 0.069435 -0.12461 -0.19254 -0.62086 0.16364 0.1091 0.31466 -0.013962 -0.20734 -0.36723 0.21297 -0.73322 0.49447 -0.44308 -0.45377 0.13684 0.044566 -0.18 0.43763 -0.073128 0.041677 0.12294 -0.29993 -0.66901 -0.36116 0.43365 -0.051881 0.37863 -0.093622 0.14693 -0.21089 0.1014 -0.31941 0.029386 0.080855 0.17996 0.021976 0.33374 0.0087779 0.10701 0.13383 0.5203 -0.086448 0.14491 
cabbage -0.33098 -0.51271 0.36417 0.22937 -0.60561 0.38998 -0.33925 -0.25559 0.086451 0.91159 -0.53594 0.57462 -0.23545 0.26972 0.6334 -0.023073 0.17344 -0.7553 0.092423 -0.39715 0.12929 -0.29471 0.59582 -0.33006 -0.45765 0.43952 0.56347 -0.27548 -0.79854 -0.50898 0.29757 0.3615 -0.14427 -0.19792 -0.56578 0.44406 0.38642 -0.49265 -0.19117 -0.20843 0.4121 -0.5816 0.36532 -0.41573 -0.00024464 0.11821 0.46885 -0.061531 -0.3071 0.57217 0.17059 0.58862 -0.71517 0.28615 -0.32973 0.7695 -0.081288 -0.38564 0.069639 -0.22204 0.10285 0.0091113 -0.035893 -0.58389 0.062512 -0.07242 -0.68064 -0.7966 0.15967 -0.29236 -0.20414 -0.81355 -0.64329 0.22953 0.32997 -0.00028414 0.75629 0.1873 0.45476 -0.36914 -0.3948 -0.089095 -0.078212 -0.12102 0.28486 0.60893 0.48662 0.42585 0.4325 -0.045305 0.44422 -0.56516 -0.068407 0.45109 -0.33035 0.17796 0.23063 0.2925 0.091748 0.048178 
law 0.042979 0.40463 0.53772 0.36954 0.33304 0.24664 0.11838 0.1272 -0.42617 0.237 -0.45968 -0.42661 -0.11175 -0.047516 0.37956 -0.6104 -0.025016 0.07415 0.12873 -0.076005 0.065351 -0.071533 0.1412 0.043496 -0.5314 -0.37104 0.14832 0.09419 -0.10153 0.14746 -0.14458 0.099123 -0.032606 -0.32938 -0.093425 0.44645 -0.092226 -0.61753 0.020254 -0.047504 0.30597 0.076379 0.53019 0.051776 0.78554 0.22029 -0.36096 0.51009 -0.056627 0.24298 0.058314 -0.0019364 0.0045682 -0.52789 -0.7696 -0.92106 -0.02288 -0.57356 -0.16853 -0.31208 -0.12952 -0.022212 -0.075526 0.17817 0.21579 -0.11113 0.40213 -0.12921 -0.017921 -0.20073 -0.032363 -0.069416 -0.10976 -0.073026 0.34757 -0.47158 0.73577 -0.024527 -0.047092 -0.3324 -0.040074 0.40985 0.84493 0.74354 -0.33009 -0.11123 -0.50236 -0.34127 -0.23094 -0.1865 0.050101 0.10499 0.20314 0.4008 -0.23216 0.29829 0.22643 -0.26563 -0.27515 -0.071404 
man 0.11306 0.32542 0.17715 0.14431 0.15402 0.49617 -0.15899 -0.19648 -0.44979 0.1556 -0.22792 0.26976 -0.29633 -0.21331 0.11 -0.28461 -0.19896 -0.44992 0.090569 -0.46623 -0.60199 -0.35282 0.38637 -0.3421 -0.20849 0.045955 0.027051 0.25359 -0.035257 -0.38316 -0.0014607 -0.018827 -0.24149 -0.28635 -0.60924 -0.0014667 -0.22354 -0.27969 0.24283 -0.21894 -0.36762 -0.041664 0.01195 0.12345 0.36083 -0.022377 -0.33153 -0.68885 0.35654 0.42658 0.0037086 -0.13715 0.2238 0.01185 -0.48184 -0.19676 0.09972 0.11621 -0.0044708 -0.84548 -0.018109 0.1596 0.056963 -0.34146 0.48025 -0.14144 -0.48379 -0.5469 0.027326 -0.26366 -0.34687 0.2068 -0.078315 0.086231 0.25983 -0.00085185 -0.12603 -0.28976 0.07753 0.034565 0.004318 -0.5988 -0.27805 0.47877 -0.37668 -0.063131 -0.026871 -0.28307 -0.29034 0.22257 -0.24155 0.27675 0.47091 0.073634 0.19086 0.16556 -0.13292 -0.026692 0.52696 0.15062 
