437 300
similarity 0.020119 0.13822 0.086062 -0.30939 -0.25004 -0.13814 0.1701 -0.087644 -0.14219 -0.15779 -0.33591 -0.060837 -0.22255 -0.17765 0.025754 -0.079205 0.071302 0.023134 -0.088609 -0.30371 -0.16165 0.3247 0.032023 0.15943 -0.21049 0.1484 0.059785 0.22725 -0.34362 -0.13471 -0.16233 -0.19458 0.24133 0.14199 -0.023437 -0.10788 0.30595 0.26634 0.023674 -0.11142 -0.26634 0.11594 -0.00060171 -0.03619 -0.21232 -0.10804 0.38072 -0.067626 -0.058547 0.25243 0.031798 -0.10107 0.047909 -0.056254 -0.16354 0.074587 -0.12792 0.098345 -0.26746 0.1429 -0.16619 0.18264 -0.11881 -0.27895 -0.12737 0.096026 -0.37297 -0.062284 -0.19093 0.15542 0.007036 -0.065493 -0.15573 0.027848 0.032563 0.01673 -0.20816 -0.14469 0.19896 0.16993 0.12659 -0.024896 -0.056671 -0.02418 -0.23177 -0.13381 -0.22241 -0.00080209 -0.042322 -0.029676 -0.12991 0.051748 -0.11882 -0.14459 -0.14677 -0.10227 0.25462 -0.035095 -0.001754 0.033483 -0.15246 0.10621 -0.0014644 0.13982 -0.17363 -0.070955 0.18185 -0.054383 0.063015 0.18953 -0.077026 0.036232 0.047817 0.17245 -0.036871 -0.083192 0.17683 -0.10307 -0.37597 0.20502 -0.121 -0.095236 -0.0078007 0.10768 -0.21649 -0.038196 -0.041554 -0.17778 -0.23246 0.0915 0.0095462 0.1503 -0.16904 -0.16347 -0.021212 0.037806 -0.1663 -0.051526 -0.10654 0.14951 -0.16974 -0.24368 -0.02921 0.099117 0.12261 0.036011 0.14001 -0.063695 0.14793 0.16233 -0.23843 -0.21849 0.25426 0.18666 0.1666 0.0405 0.04198 0.10118 0.095848 -0.1833 0.12702 -0.019064 0.024199 -0.064628 -0.052964 -0.073158 0.10076 -0.2115 0.06359 0.097742 0.15874 0.10757 -0.19541 0.039717 -0.0072409 -0.084878 -0.0063966 -0.13812 0.10922 0.048903 -0.074384 -0.13998 -0.095201 -0.16101 0.11862 -0.036516 -0.08413 0.070025 0.042784 -0.047151 -0.021128 -0.35911 -0.12112 -0.030627 -0.077725 0.12889 -0.24099 0.17166 0.054731 0.1803 0.11267 0.070237 0.28282 -0.11181 -0.20781 0.0059967 -0.0081825 -0.18719 0.074056 0.21478 0.11368 0.010765 -0.23031 -0.0041962 -0.091194 0.1057 0.091008 0.055253 -0.12287 -0.23312 -0.11147 0.0033824 -0.14032 -0.16386 0.27376 0.096953 -0.049204 0.018191 0.036573 0.29066 0.072891 0.0024751 -0.090599 -0.13686 0.1299 0.10293 0.0916 0.13818 -0.24893 0.02536 -0.18014 0.078548 0.13756 0.017712 -0.064165 -0.037708 -0.40684 0.23663 -0.20835 -0.011026 -0.026051 0.1304 0.17758 0.32025 0.17192 0.033147 0.21622 0.10715 0.095097 -0.2218 0.090477 0.12028 -0.1796 -0.00041177 0.15752 -0.022476 -0.039529 -0.070188 0.070222 -0.084019 0.17663 0.19404 -0.22228 -0.085655 -0.021934 0.087312 -0.11238 -0.07589 0.017135 -0.2321 0.12171 0.029614 -0.071742 -0.038688 0.17871 -0.31399 -0.084054 -0.10977 -0.035669 0.20547 -0.085139 -0.13208 -0.28991 -0.042292 0.22522 -0.0046859 -0.14969 0.27875 -0.22211 0.18701 
dollar -0.010185 -0.09063 -0.21536 -0.085219 -0.074137 -0.066888 -0.10535 -0.20572 -0.20832 -0.19245 0.058382 0.16103 -0.37839 0.021304 0.019699 -0.13212 -0.27895 -0.18207 -0.30823 0.28617 -0.10921 -0.055536 0.028521 -0.027808 0.048414 -0.1995 -0.13097 0.11249 -0.065774 -0.33574 0.087311 0.28672 0.015521 -0.05036 0.15728 0.073411 0.62277 -0.050673 -0.20784 0.10503 -0.14763 0.031979 0.05089 0.034759 -0.216 -0.16429 -0.11149 -0.21872 0.0033473 0.10863 0.26862 -0.1359 -0.088451 0.066197 0.39085 0.41474 0.15399 0.033444 -0.3039 0.31641 0.38447 0.2551 0.10077 0.25846 0.131 0.058169 0.10215 -0.12932 -0.12605 -0.015023 -0.12768 0.2079 0.048614 0.19887 0.26103 -0.088584 -0.12607 0.21415 -0.64363 0.23523 -0.4202 -0.32962 -0.21966 0.051055 0.33699 -0.15609 0.004129 -0.32411 -0.2143 -0.35989 0.011417 0.40002 -0.0080662 0.11052 -0.0081547 0.29236 0.25321 -0.17417 0.10811 -0.045529 -0.27105 -0.2116 0.23716 -0.051175 0.19146 -0.19443 0.041675 0.0041523 -0.083366 -0.25193 -0.20969 -0.27034 -0.11372 -0.37483 -0.21715 -0.19339 -0.099749 -0.0082239 0.10275 0.019803 0.26447 0.35167 0.13442 -0.084277 -0.1181 0.28966 0.35692 -0.1024 -0.1974 0.12254 0.19758 -0.054882 -0.14614 -0.0019475 -0.21073 -0.032532 0.2907 0.22574 0.24375 0.16046 0.21848 -0.009942 -0.45084 0.27952 0.10452 0.0084137 -0.13728 0.38093 -0.11092 0.082269 -0.33976 0.12407 -0.17401 -0.12467 0.055928 0.052038 0.21414 0.0073095 0.01212 0.25845 -0.069577 0.060033 -0.12829 0.48595 -0.0077826 -0.35853 0.30505 0.341 0.15992 0.050751 0.17128 0.18145 -0.075417 -0.43095 -0.14926 -0.1827 -0.091084 -0.045391 -0.14379 -0.11273 0.28402 0.023574 -0.22304 -0.10495 -0.024022 -0.2863 0.23349 -0.059088 -0.12 0.054958 0.22984 0.07429 0.011523 -0.13446 0.13042 0.18939 0.053455 0.12495 -0.18441 0.33295 0.15994 -0.06124 -0.26574 -0.21064 -0.086775 -0.092489 0.22447 -0.051855 0.17005 0.048696 0.14776 -0.34022 -0.10649 -0.078752 0.12233 0.23188 0.31902 -0.35798 0.14374 0.081053 -0.074634 -0.067192 0.26924 0.096273 0.020637 0.18655 -0.45468 -0.15827 0.047854 -0.30799 0.041257 0.092008 -0.10651 -0.31344 0.11128 -0.078451 -0.11781 0.094808 0.16365 -0.44743 -0.0016758 -0.10727 -0.070094 0.31512 -0.26966 -0.38046 0.32105 -0.14927 0.28646 -0.058432 0.066452 -0.25768 -0.13037 -0.37285 0.032385 -0.30865 -0.27153 -0.36103 -0.14362 -0.18311 0.20121 -0.0066499 -0.2871 0.0054589 -0.3944 0.20023 0.31952 0.064869 0.62661 0.082867 -0.38309 0.31937 0.13748 -0.52485 -0.085061 0.0040637 0.31991 -0.19489 -0.33593 0.16084 0.027441 -0.19771 -0.26312 0.075217 0.23959 0.24044 0.36152 -0.12775 -0.31926 0.096847 -0.23836 -0.35518 -0.082538 -0.28479 -0.10314 -0.3231 0.17094 -0.049222 -0.29356 0.23125 
focus 0.08386 -0.063905 0.0008725 0.019297 -0.18562 -0.09514 0.041222 -0.18779 -0.011818 0.20455 -0.19349 -0.035329 -0.048542 0.072566 -0.084914 -0.11121 0.0030326 -0.0017004 -0.24804 -0.096275 -0.37028 0.012975 0.012973 0.07237 -0.0457 0.044475 -0.075076 0.072719 -0.1109 -0.021658 0.22112 -0.059853 -0.07724 -0.037024 0.23418 -0.14215 0.086892 0.20377 -0.068329 -0.17559 -0.061885 9.2371e-05 -0.22201 -0.17193 -0.099557 -0.087257 -0.054822 -0.10531 -0.090094 0.089524 -0.051783 0.054591 -0.010418 0.14453 -0.1875 -0.16947 0.22487 0.17158 0.052926 -0.054097 0.11366 -0.0085571 0.077978 0.030117 0.25961 0.2189 0.12101 -0.13926 -0.16364 0.14464 0.10093 0.015967 -0.011314 -0.19372 0.097904 0.070117 -0.065143 -0.34763 -0.21762 -0.10252 -0.074316 -0.081359 0.067181 0.016848 0.29024 0.057886 0.061645 0.12579 0.044045 -0.26982 0.052592 0.25232 -0.067555 -0.061507 0.087938 -0.065096 0.11038 -0.06405 0.2161 -0.033153 -0.15663 0.04137 -0.05501 0.11396 -0.094392 -0.18886 -0.10265 0.07588 -0.024917 0.01408 0.10001 -0.086258 0.18223 -0.040433 0.016198 -0.14474 0.23874 0.035723 0.084444 0.17218 0.027777 -0.10248 -0.041797 -0.0068379 0.029726 -0.2113 0.11577 -0.0046585 0.10068 -0.097304 0.21843 0.12391 -0.025429 -0.074273 -0.22612 0.11123 -0.089872 0.10173 -0.08498 0.0078719 -0.15916 -0.019426 0.078282 -0.072946 0.045081 0.13731 0.13542 -0.048037 0.042832 0.050395 0.11175 0.12525 -0.15619 -0.11848 0.13114 -0.19065 0.0028956 0.051625 0.12112 -0.070669 0.22842 -0.090333 -0.22841 0.022273 0.017032 0.11516 -0.22209 -0.22251 -0.15703 0.0026254 -0.15724 0.031943 0.019078 0.021161 -0.12066 -0.0068831 -0.21794 0.1103 -0.10242 0.056471 -0.097868 0.077676 -0.080408 0.0072019 -0.026758 -0.086175 0.14984 0.05021 0.04505 -0.030977 0.027575 0.067254 -0.052926 0.27225 -0.16105 -0.0534 0.015502 0.14655 -0.30649 -0.050086 -0.024211 0.30767 -0.0026998 0.057784 0.064949 -0.038451 0.15042 -0.0065947 0.14608 -0.038319 -0.12717 -0.039217 -0.051502 0.19105 -0.18832 -0.041037 -0.1926 -0.03873 0.029009 0.037708 0.034896 -0.1696 -0.060708 0.053854 0.081006 0.17759 -0.24022 -0.11287 0.13192 0.14419 0.17929 0.082155 -0.0012685 -0.083777 -0.1201 0.051589 0.077506 -0.057666 -0.021823 0.021711 -0.040475 -0.25006 -0.05388 -0.016031 -0.033609 -0.064863 0.01298 0.048325 -0.087093 -0.068882 0.13751 -0.056754 0.072183 0.1132 0.16602 0.040797 -0.11976 -0.11936 0.27161 -0.013 0.016576 -0.0092551 0.14864 0.027366 -0.18888 -0.027913 -0.067585 0.0032126 -0.00029656 -0.0032713 -0.139 -0.11537 0.085034 -0.1376 -0.091934 -0.0090905 0.14122 0.082431 0.020187 0.036436 0.13969 -0.0056306 -0.064081 0.024292 -0.070554 -0.12863 -0.12942 -0.19142 0.037337 -0.033395 -0.12992 -0.10975 0.10819 -0.13328 -0.0058103 -0.035757 -0.09324 -0.013849 -0.041078 -0.010679 
month -0.082864 -0.057012 0.029418 -0.17815 -0.089621 0.26372 -0.20362 0.036106 -0.073973 -0.16268 0.14051 -0.024388 0.065527 0.23033 0.051788 -0.23944 -0.094604 -0.075037 -0.18786 -0.16873 0.052451 0.052438 0.062794 -0.076382 -0.042642 -0.084785 -0.064034 0.063759 -0.055076 -0.12171 -0.0067143 -0.045473 0.23906 0.15891 -0.045332 -0.088554 0.23154 0.028548 -0.024339 0.0288 -0.11621 0.18487 -0.14742 0.23986 -0.18249 -0.067571 -0.1657 0.22001 -0.0029223 -0.136 -0.25286 0.14939 -0.0053094 -0.034586 -0.081887 0.032059 -0.006205 0.16621 0.20999 -0.055984 0.16442 0.20019 -0.14723 -0.16866 0.087625 -0.20163 0.12077 -0.0047933 0.00056859 -0.3138 0.039738 -0.074519 -0.0060963 -0.15582 0.058146 -0.18927 -0.16479 -0.046813 0.039614 -0.15855 -0.031109 -0.12288 0.04856 0.027536 0.068506 0.276 0.21091 0.072302 0.1565 -0.18214 0.084342 -0.067898 0.25046 0.09283 0.19812 0.28248 0.19879 -0.29877 -0.087737 -0.071545 -0.015127 0.28711 -0.17803 -0.070337 0.0132 -0.17155 0.12187 -0.035597 -0.025857 -0.13138 -0.050266 -0.011307 0.10376 -0.17517 -0.019369 -0.10685 -0.09107 -0.10742 0.1152 0.20319 -0.032798 -0.0024089 -0.071449 -0.10734 0.031327 0.043971 -0.016102 -0.1045 0.049321 -0.094646 0.075006 -0.0057588 -0.21698 0.12664 0.20146 0.026148 0.28716 0.028361 0.099957 0.17182 -0.18449 -0.10246 -0.007169 0.042133 0.021596 -0.031264 0.065197 0.333 0.053042 -0.058441 -0.098034 -0.13314 -0.19534 0.19056 -0.045804 -0.039679 0.14583 -0.1823 -0.0265 -0.094961 0.14894 -0.099752 0.13066 -0.14417 -0.082885 -0.19418 0.031183 -0.067495 -0.00088374 0.020177 0.16181 0.16 0.097141 0.12609 0.26861 -0.12998 -0.14066 0.078455 -0.28599 -0.067451 0.082902 0.0048043 -0.077284 0.10523 -0.01627 0.28525 -0.16254 0.13331 -0.14423 0.058966 -0.025444 0.28671 0.024105 -0.011709 0.11538 0.040865 -0.16972 0.22518 0.080753 -0.041949 -0.26865 -0.1119 0.076847 0.0069116 -0.1882 0.10553 0.10347 -0.017071 0.012133 -0.068375 -0.034418 0.073653 -0.022195 0.16512 0.11589 0.12732 0.16143 0.041593 -0.041627 -0.39626 -0.083466 -0.053283 -0.001242 0.20405 -0.033435 0.13869 0.082768 -0.28539 0.050332 0.17256 0.067028 0.12988 0.092761 -0.013043 0.040646 0.1746 0.19361 -0.11904 0.044433 -0.17756 -0.02478 -0.067292 -0.047687 0.080577 -0.069053 -0.14379 -0.02425 0.033708 0.17384 0.020598 0.25477 -0.10777 0.19326 0.092253 0.093699 -0.073233 0.049579 0.051341 -0.19073 0.12166 0.20205 0.077364 -0.081203 -0.10631 0.0062217 0.25482 0.062411 -0.23457 -0.10954 0.20759 -0.14641 0.012085 0.012822 -0.15346 0.00083017 0.1775 -0.028159 -0.13497 -0.071543 0.1389 -0.27427 0.18951 0.067602 -0.1583 -0.14619 0.058956 0.029375 -0.13918 0.067974 -0.09713 -0.14878 -0.051029 -0.2089 -0.096792 0.059687 0.027626 0.089856 -0.034064 0.031399 -0.23417 
mile -0.06263 0.21992 0.16302 -0.34215 -0.15639 -0.24795 -0.048229 0.026238 -0.17536 0.11121 -0.26557 0.12986 -0.20124 0.18868 -0.14585 0.063205 -0.0081615 -0.01566 -0.032349 0.01757 0.2956 0.24703 0.17947 0.018192 0.0012386 -0.090032 0.0012543 -0.094351 -0.045506 -0.30268 -0.097685 -0.11348 -0.1537 0.036942 0.17772 -0.093208 0.12685 0.077519 0.21153 0.00025228 0.22855 0.20084 0.012986 0.21865 -0.31635 0.1367 0.28339 0.0043917 0.60071 -0.22811 0.37141 -0.28011 0.1823 0.15347 -0.20188 -0.43999 -0.19593 0.16376 0.09217 -0.081413 0.13428 0.039895 -0.31648 0.17729 -0.097585 -0.14989 0.13095 0.29746 0.18075 -0.092135 0.38169 -0.1568 0.25239 0.17607 0.51834 -0.36747 0.17674 0.3878 0.18981 -0.014938 0.093658 -0.16013 0.021905 0.031555 -0.04683 0.23791 -0.13865 0.44128 0.090599 0.24546 0.32895 0.12638 -0.13513 -0.32533 0.18352 -0.17018 -0.20556 0.40942 0.23698 -0.043331 -0.1053 0.093338 -0.34654 0.30382 0.25553 -0.083463 -0.08498 0.0033935 -0.18009 0.085159 -0.0015453 -0.3779 0.0071968 0.040535 -0.27235 0.026936 -0.14038 -0.024333 -0.11194 0.25977 -0.19299 0.0086535 0.38303 -0.17349 -0.25633 0.10727 -0.21334 -0.19 -0.14568 0.29367 0.14515 0.070305 -0.11683 0.078252 -0.0272 -0.00022819 -0.1767 0.070678 -0.10567 -0.28786 -0.098541 -0.062542 -0.044784 0.25307 -0.19782 0.15179 0.0020594 0.32038 0.17155 -0.15284 -0.17766 -0.18846 -0.58824 0.09793 0.052784 0.030154 0.13678 -0.088635 0.10483 0.35241 -0.15683 -0.26628 0.029448 0.049694 0.23185 0.12116 0.12503 -0.15469 0.10904 -0.014745 0.46715 -0.255 -0.12185 0.0038965 -0.023304 0.12444 -0.082236 -0.2281 -0.0018709 -0.18506 -0.11747 0.20302 -0.3379 0.083718 0.31655 0.039817 -0.052889 -0.033252 0.27145 -0.11244 0.12283 -0.30729 -0.010164 -0.34969 -0.21733 0.13591 0.11105 0.017849 0.31988 -0.1698 -0.14077 -0.1323 0.20415 -0.050419 0.065114 0.47604 0.080911 -0.003997 0.22276 -0.11715 -0.14933 0.19335 0.088241 -0.14273 0.30894 -0.12898 0.0039416 0.37023 -0.082679 -0.14236 0.33864 0.28387 -0.090646 0.31164 0.1076 -0.11853 -0.24714 0.088974 0.071153 0.29697 0.099427 0.097179 0.1759 -0.062734 -0.15683 0.066206 0.13227 0.24464 -0.026917 -0.29533 0.16051 -0.06191 -0.0079502 -0.24324 -0.16024 0.06568 0.062842 -0.16159 -0.10745 -0.45642 0.045202 -0.039095 0.020125 0.02265 0.22394 -0.29276 0.091664 0.075796 -0.12341 -0.093028 0.014008 -0.075606 -0.46698 -0.14153 -0.073184 0.32145 0.05264 -0.32298 -0.053375 -0.054592 0.059637 0.34785 -0.0066939 -0.26336 -0.20056 0.043739 0.34481 0.062995 -0.21519 0.19665 0.14619 0.063459 -0.062947 -0.13094 0.040917 -0.48002 -0.011823 -0.2383 0.28117 -0.11472 -0.082732 -0.026422 0.087621 -0.08572 -0.17426 0.11157 0.1538 0.34276 0.037553 0.014249 
computation -0.084708 -0.14066 0.099793 -0.058107 -0.12874 -0.23533 0.067117 0.030775 0.062626 0.15978 -0.093287 0.067268 -0.11727 0.27651 0.104 -0.052212 0.20238 0.18863 0.095112 -0.034383 -0.061984 -0.19838 -0.083621 0.050979 -0.18009 0.062355 0.027101 0.077172 -0.49578 -0.063674 -0.28268 -0.046438 0.039702 -0.059194 0.0044702 -0.06369 0.33531 0.22466 0.026152 -0.29601 0.1084 0.19791 -0.044824 0.095177 -0.21996 -0.063395 -0.38567 -0.096117 -0.078783 -0.040314 0.34533 -0.33921 -0.3096 0.25527 -0.35953 0.11283 -0.078219 -0.18682 -0.28855 0.33181 -0.17234 0.22485 0.00088266 -0.089173 -0.24085 0.098695 -0.11778 -0.055325 -0.14562 -0.083507 0.22148 0.16448 -0.054784 0.30373 -0.25519 0.24965 -0.088352 -0.081233 -0.11444 0.095413 0.11681 0.059416 -0.094321 0.04552 -0.18253 -0.12271 0.042987 0.038963 -0.22332 -0.15409 -0.010635 0.078491 0.20464 -0.026784 0.11183 0.034071 0.17645 0.20032 0.16454 0.1309 -0.0019716 -0.018593 0.0037317 0.074776 -0.17829 -0.19161 -0.003511 0.18225 -0.1657 0.091144 0.35092 0.10665 0.0015244 -0.0023264 -0.14424 -0.15841 0.077627 -0.11903 -0.0012277 0.30133 0.18497 0.24647 -0.19793 -0.10388 0.02217 0.29723 0.026181 0.23258 -0.084019 0.20534 0.16601 -0.096366 0.11154 0.043045 -0.20385 -0.083238 -0.07473 -0.022877 -0.14687 0.13378 -0.025058 -0.081643 0.055647 -0.25467 -0.15325 0.028623 -0.15256 -0.16248 0.0080414 0.0087825 -0.23682 -0.076384 -0.025733 -0.16182 -0.31163 -0.063183 0.068802 -0.15402 -0.073594 0.054219 -0.15787 0.19369 -0.5699 0.0015223 -0.17623 0.088475 0.16768 -0.26159 -0.34806 0.034448 -0.05766 0.013005 0.04711 0.17853 -0.3552 -0.14054 -0.19659 0.10059 -0.10937 0.068797 -0.064738 -0.085994 0.33452 0.030761 0.096482 -0.028624 0.1194 -0.19327 0.13833 -0.048629 0.021839 -0.20541 -0.088804 -0.16156 -0.07463 0.027561 0.05471 -0.059747 -0.24798 -0.079406 0.46039 0.15349 -0.047763 0.28657 0.22641 0.057632 0.15614 0.096969 -0.14104 0.054079 0.083332 -0.20595 0.3467 -0.099754 -0.18413 0.096771 0.14868 -0.15975 -0.051707 -0.35433 -0.22592 -0.30687 0.10461 -0.085834 -0.026773 0.1589 -0.00056444 0.20701 -0.50141 0.048403 -0.12878 0.1449 0.017231 -0.074823 0.022195 0.10751 0.069089 0.10208 -0.099135 -0.14789 -0.051091 0.085063 -0.095045 -0.21268 -0.34966 -0.029284 0.074314 0.31136 -0.18828 0.22196 0.066659 -0.26396 -0.17646 0.19662 0.11421 -0.22294 0.38495 -0.34668 0.35801 0.24165 0.098902 -0.03925 -0.021935 0.083728 -0.31 0.20206 0.15912 -0.25617 0.070528 -0.018292 0.11785 -0.10252 0.21077 -0.17397 -0.19375 -0.12432 0.28519 0.24515 0.088485 0.022208 -0.023497 -0.097162 -0.27382 0.24319 0.39863 0.056279 -0.17174 0.1744 -0.10043 0.43521 -0.14076 0.0054345 -0.14737 -0.025329 0.056019 0.097853 0.21211 0.090884 -0.53409 -0.049178 
skin -0.064027 0.012924 0.042695 -0.24717 -0.026002 -0.15831 -0.07486 0.16647 -0.4079 -0.1081 -0.4315 -0.23188 0.16576 0.043602 0.24496 -0.30968 0.22344 -0.19079 -0.1952 -0.12202 0.016876 0.34566 0.049245 0.15862 -0.040949 -0.14645 -0.14633 0.087012 -0.038649 0.31767 0.29307 0.01196 0.12506 -0.18887 -0.17615 0.095686 0.37394 0.50131 -0.05911 -0.16773 0.16428 -0.12184 -0.047913 -0.068263 0.070251 -0.070184 -0.099103 -0.023168 -0.045187 0.036016 0.27128 -0.16776 -0.29852 -0.33058 -0.15076 -0.14262 -0.080053 0.23955 0.020081 0.0089776 -0.16646 0.11445 0.12274 0.21164 0.18409 0.059292 -0.21538 -0.26318 -0.10103 0.061225 0.62941 0.061833 -0.081051 0.26336 -0.18946 0.25342 -0.16529 0.18359 -0.33841 0.27086 -0.017124 -0.39099 -0.12583 -0.071372 -0.26322 -0.16785 -0.30285 -0.0010456 0.063475 0.14231 -0.20812 -0.13451 0.11649 -0.07301 -0.076213 0.066703 0.06708 -0.056579 0.24098 -0.025806 -0.21219 0.41672 0.074484 -0.051522 -0.39833 -0.076502 0.035581 0.10701 -0.26198 -0.03708 0.1255 0.22085 -0.13721 0.17985 -0.00409 0.17057 0.1726 0.25539 0.12307 -0.10633 -0.22513 0.10474 0.036737 0.088615 0.11637 -0.093507 -0.049982 -0.086576 -0.083114 -0.099562 -0.044504 -0.067433 0.10778 0.022439 -0.056246 -0.06444 0.083551 -0.13534 -0.15089 0.013966 0.023155 0.14942 0.024784 -0.54566 0.081584 -0.26761 -0.50184 -0.20346 0.010268 -0.18159 -0.20494 0.094603 -0.18083 -0.15136 -0.043339 0.26162 -0.022351 0.19134 -0.034984 0.053969 0.1612 0.32766 -0.0026326 0.21798 -0.03832 0.038071 0.13072 -0.19136 -0.32164 0.081171 0.20013 -0.14295 -0.19583 0.02708 -0.27404 -0.028667 -0.15119 -0.24956 -0.26593 -0.021557 0.19228 0.082432 -0.14563 -0.028908 -0.063426 0.21812 -0.15491 -0.11509 0.24013 -0.06312 0.19385 -0.32445 -0.14239 -0.17227 0.0749 -0.17535 0.15963 0.0023981 -0.13595 -0.18551 -0.24693 -0.079856 0.10965 -0.045051 -0.083686 0.2168 -0.15386 -0.23915 -0.23844 0.077115 -0.057752 0.37004 -0.15611 -0.088504 -0.25206 0.35025 0.15314 -0.18839 -0.15491 -0.0032429 -0.099699 -0.10008 0.11301 0.0048745 -0.17227 -0.051374 -0.0056923 0.027052 -0.34788 0.074121 0.039461 0.049555 0.25029 -0.17997 -0.17105 0.0041735 0.27774 0.13976 0.24561 -0.042334 0.39091 -0.020754 0.28677 -0.13218 -0.25531 -0.09814 0.10603 -0.047442 -0.27498 -0.2069 -0.13552 -0.24495 -0.2756 -0.064506 -0.07223 -0.23016 0.10751 0.10493 0.12776 -0.0025069 0.18195 -0.22454 -0.031018 -0.016069 0.20396 0.065071 -0.20697 0.28651 -0.13917 -0.088304 -0.015744 0.3316 -0.006113 -0.035305 0.18822 -0.26438 -0.035652 0.015685 0.048047 0.095506 -0.017887 0.28664 -0.27668 -0.21167 -0.14462 0.18042 0.17186 0.040306 0.25864 -0.022475 -0.15727 -0.046188 0.12795 0.02767 -0.16466 -0.46453 -0.049806 0.1799 -0.26793 -0.17807 
children 0.048503 -0.37299 0.086582 0.30586 -0.16881 0.06524 -0.16277 -0.25095 0.090021 -0.12054 -0.15582 0.029147 0.12629 -0.1466 -0.13055 -0.32347 0.25133 -0.03566 -0.27005 -0.33325 -0.10996 0.050528 0.060522 0.12188 0.020435 0.054721 -0.07955 0.0045059 -0.0912 0.069639 -0.015141 -0.13549 -0.14679 -0.14503 0.034068 -0.073182 -0.056114 0.16738 -0.025905 -0.1 -0.092782 -0.082247 0.0059522 -0.088488 -0.12206 0.1278 -0.13995 0.070356 -0.035076 -0.031525 0.0058887 0.24362 0.17419 -0.086505 -0.22244 -0.19091 0.13113 -0.0006361 -0.00085105 0.062871 0.18328 0.061018 -0.054816 0.10745 -0.18415 -0.070718 -0.01143 -0.060231 0.22767 -0.0049169 0.39197 0.18449 -0.057977 -0.17312 -0.017252 0.16801 0.23894 0.012848 -0.049907 0.028345 0.14115 0.022148 -0.063057 0.2308 -0.011827 0.047752 -0.24857 -0.019802 -0.025908 0.04305 -0.15413 0.023552 0.089812 0.1074 0.0077261 -0.094495 0.038389 0.22522 -0.2383 0.36517 -0.026335 0.016033 0.17319 0.1523 0.027391 0.039292 -0.17735 -0.15207 0.045053 -0.14826 -0.075523 0.037188 0.062275 -0.19186 -0.21177 0.056723 0.24237 0.14443 -0.077815 -0.01326 -0.079453 0.014112 0.042802 -0.24513 -0.022298 0.06366 0.036697 -0.27153 0.18776 -0.012774 -0.024607 -0.025769 0.0025764 -0.032212 -0.22238 -0.12634 0.023747 -0.038078 0.053507 0.14274 -0.096364 0.052175 0.031073 0.0687 0.070091 -0.12797 -0.14406 -0.10763 -0.046183 0.040995 -0.078771 0.15824 0.087168 -0.21273 0.073521 -0.085955 0.015156 0.0089805 0.19461 0.027937 0.21224 0.03607 -0.14958 0.039147 0.042617 0.014646 -0.099886 -0.17263 0.12286 -0.35038 0.16703 0.050142 0.10962 -0.18723 0.18817 0.20219 -0.073792 0.1085 0.13125 -0.033668 -0.08219 0.20309 -0.0074159 -0.11512 0.11786 -0.20883 -0.37505 -0.12762 0.14657 0.0037515 0.28179 -0.071653 0.06236 0.11048 -0.11445 0.025095 0.037085 -0.1791 -0.10946 0.0611 -0.052166 0.13084 0.26513 -0.18321 -0.099973 0.10463 0.027941 0.016167 0.037467 0.026497 0.16787 -0.22972 -0.044539 -0.11002 0.025951 -0.016621 0.10378 0.10093 0.073492 -0.053931 -0.10265 0.0055724 0.035298 0.23813 0.10969 0.14456 0.021856 0.12742 0.050597 0.22018 -0.039368 -0.11205 0.20891 0.048485 0.0084819 -0.083121 0.056499 0.15478 -0.0099509 0.080831 -0.20274 0.089137 0.21439 0.00026031 -0.013949 -0.04291 0.14533 -0.031328 -0.13732 -0.052081 -0.23752 -0.039008 -0.05171 -0.13987 0.050469 -0.09273 0.10368 -0.10302 -0.030022 0.29055 0.050614 0.23379 -0.27581 -0.1124 0.10933 0.11939 0.003557 0.23356 0.084081 0.22783 -0.12042 0.27367 -0.10704 -0.20514 -0.00030005 0.084955 0.065002 0.10432 0.049657 -0.052631 0.17667 0.36368 0.18351 -0.091221 0.030533 0.04198 -0.063045 0.13688 -0.073482 0.14246 -0.28786 0.030744 -0.051776 -0.089707 0.080213 -0.17712 -0.071864 0.034369 0.14484 -0.18642 
row 0.026051 0.012471 0.020367 -0.19204 -0.089706 0.18804 -0.085709 0.04242 0.14165 -0.034425 -0.10213 -0.36383 -0.063338 0.17424 0.0089656 -0.037207 -0.091342 -0.030413 0.29799 -0.30438 0.014168 -0.13535 -0.031558 0.19976 -0.16494 0.053698 0.13429 -0.14782 -0.2072 -0.15224 -0.14868 -0.10852 -0.28403 -0.11848 0.32957 0.23516 0.017178 0.15469 0.12695 -0.10279 -0.14851 0.032951 0.16979 -0.022917 -0.0080571 -0.14401 -0.13203 -0.24182 0.23859 -0.041285 -0.11305 0.028817 -0.21177 0.098086 -0.090284 0.077186 -0.020394 0.042579 0.27263 -0.14167 0.24428 0.030269 -0.22456 -0.25641 0.054055 -0.22892 -0.063506 0.12127 -0.045513 0.086838 0.013905 0.081851 0.040456 0.20745 -0.079804 0.14802 -0.13015 -0.28651 0.16318 -0.069505 -0.31795 -0.2621 0.024866 0.099911 0.018319 -0.10109 0.070484 -0.093666 0.11212 0.12666 0.026186 -0.2516 0.13324 0.0512 0.1118 0.10638 0.098974 -0.10727 -0.10945 0.28103 -0.041886 0.014555 -0.060747 0.12266 0.21169 -0.14594 0.084609 -0.01766 0.034035 0.074852 -0.31924 0.048143 -0.093525 -0.084007 -0.1113 -0.075826 -0.077177 -0.079028 -0.081483 0.33664 0.063997 0.20843 0.067056 -0.010235 -0.053463 0.03081 -0.27578 0.080758 -0.012181 -0.001935 0.11954 -0.14162 -0.33523 0.096257 -0.017247 -0.1138 0.17087 0.1384 -0.049818 0.0088469 0.17632 -0.0025492 -0.23381 -0.26259 0.083663 -0.22286 0.028781 0.13989 0.081597 0.018468 -0.0080513 0.25507 -0.043419 -0.068098 0.08753 -0.043575 0.31868 0.10026 -0.093625 -0.047454 0.22027 -0.39696 0.0053117 0.27389 -0.088142 0.021103 -0.022659 -0.23434 0.14179 -0.12762 -0.016545 0.28325 -0.061656 0.058276 -0.028131 0.14938 -0.1943 0.053295 -0.10546 -0.089903 0.05167 0.086217 0.068107 -0.076489 0.038427 0.28335 0.10344 -0.12587 -0.14477 0.00041113 0.040108 -0.22057 0.44103 0.09082 0.37396 0.16082 0.27376 0.1879 -0.036806 0.021162 -0.26414 -0.093314 -0.11419 -0.046144 -0.00067178 0.19122 0.0080008 -0.071708 -0.22386 -0.11232 -0.1447 -0.053099 0.23073 0.10674 -0.070266 -0.020513 -0.16645 -0.43482 -0.021725 0.08469 -0.005779 -0.13017 -0.046195 0.11887 -0.021641 -0.066272 -0.076922 -0.15706 0.13258 0.2459 -0.13945 -0.16918 0.047694 -0.2162 -0.012079 -0.30769 -0.045241 -0.0059555 -0.011269 -0.051031 -0.18515 -0.17258 -0.074074 -0.3131 -0.050149 -0.51017 0.098618 -0.10885 0.060152 0.10228 0.1237 0.17756 0.18363 0.11885 0.046608 -0.077229 0.2813 -0.11243 -0.0714 0.017682 -0.11475 0.2003 0.016497 0.22085 0.011974 -0.061576 -0.093748 -0.083874 0.10183 -0.061097 0.088033 0.035081 -0.19402 -0.0098988 -0.064229 0.17907 0.05861 -0.18991 -0.031028 0.38335 -0.16087 0.0041144 -0.098141 -0.20787 0.14671 0.22588 0.15675 0.04234 0.095232 0.11666 0.10813 -0.0091341 -0.097914 0.12298 -0.34657 0.12421 -0.37838 0.065726 0.085219 0.067496 
wizard -0.11189 -0.058634 0.18133 -0.21987 -0.23397 -0.0052 0.14889 0.093383 0.17364 -0.13253 -0.17773 -0.32753 -0.087059 -0.18465 -0.046452 0.12441 -0.23992 0.092666 0.28863 0.0034278 -0.012098 -0.12956 -0.14029 -0.20312 0.0016516 -0.17611 0.14689 0.19162 -0.70806 -0.018463 -0.013908 -0.11399 0.25958 -0.21259 -0.028365 -0.13952 0.49821 0.16237 0.047885 -0.047567 -0.53541 -0.13864 -0.26056 -0.082318 -0.065811 -0.21828 -0.029826 0.061164 0.26429 -0.10816 0.20914 -0.0086589 0.15888 -0.21404 -0.47079 0.0021262 -0.076533 -0.22912 -0.1261 0.28649 0.19102 -0.24921 0.36391 -0.14086 0.011205 0.14912 -0.49916 -0.059618 0.18266 0.00051514 0.42187 -0.11629 -0.31857 -0.12034 0.28958 0.65711 -0.27133 0.15465 0.028902 -0.097131 0.13997 0.15761 -0.045184 0.17004 -0.25277 -0.061118 -0.2464 0.056034 0.051515 -0.081028 0.064859 -0.14036 0.19269 -0.14077 -0.18502 0.0175 -0.085498 -0.30188 0.02391 -0.19228 0.14889 -0.28727 -0.09379 -0.1523 0.065928 0.12006 -0.032823 0.047349 -0.13779 -0.14039 -0.2094 -0.3673 0.012192 -0.28826 -0.26894 -0.24991 0.0048304 -0.34847 -0.73314 0.15611 0.085413 -0.014655 0.19772 0.079614 0.23856 -0.38023 -0.42944 -0.046315 -0.26559 0.035857 -0.0034852 -0.0023823 -0.23005 0.17465 -0.25054 -0.042561 0.1583 -0.5851 0.23024 -0.017476 -0.23378 -0.11774 0.4371 -0.22639 -0.057659 -0.29998 -0.25885 -0.17243 -0.012069 0.006941 -0.24362 0.07493 -0.081834 0.09796 -0.053473 0.29029 -0.040168 0.10241 -0.081691 0.051055 -0.22144 -0.034323 -0.3462 -0.2153 -0.080154 0.22675 0.13955 -0.052078 -0.1836 0.008336 0.10999 0.53891 0.096463 -0.38206 -0.099128 -0.01816 -0.11895 -0.13815 0.37239 -0.068798 -0.15422 0.26457 0.21239 0.056528 0.031384 -0.36205 -0.068559 -0.032871 0.17954 0.09862 -0.12141 0.078316 0.053464 0.24123 -0.15981 0.34431 -0.27914 0.30508 -0.37833 -0.1441 0.19085 -0.073666 0.084416 -0.059817 -0.22363 -0.094552 0.24844 -0.47614 0.24239 0.18998 -0.23444 0.1566 -0.042798 -0.40267 -0.054211 0.043699 -0.29404 0.096997 0.016148 0.043127 -0.065541 -0.14984 -0.15967 -0.16133 0.13252 0.14941 -0.048222 0.32336 -0.086069 0.25227 -0.11791 0.11395 0.41556 0.075656 0.20772 0.20455 -0.21394 -0.093093 0.29567 0.22824 -0.20614 0.074866 0.34484 0.23643 -0.04223 -0.13403 -0.21382 0.10781 0.069681 -0.19524 0.11127 0.11337 0.27866 0.34021 -0.098268 0.036256 0.024058 -0.23524 -0.17204 -0.049665 0.14578 -0.00053492 0.129 -0.19937 0.067117 -0.30319 -0.07947 -0.0073331 0.45363 0.13121 -0.095794 0.36019 -0.27365 -0.059864 0.38419 -0.23273 0.28612 0.019994 0.065615 0.22076 -0.05472 -0.057705 -0.019464 -0.17621 0.30259 -0.13644 -0.083832 -0.26574 -0.14763 0.58047 0.13543 0.29782 -0.28868 0.28578 0.073763 -0.070701 -0.059477 0.090587 0.15879 -0.071152 
disability -0.19812 -0.12465 0.11692 0.19844 -0.23272 0.12219 -0.38112 0.0075405 0.09002 0.11368 -0.073524 -0.1338 0.25021 -0.039346 0.11499 0.23474 0.032943 -0.053156 -0.23899 -0.64749 -0.076565 0.50551 -0.3661 0.088447 0.054784 -0.00060852 -0.0093272 0.32814 -0.11901 0.27101 0.33574 -0.28781 -0.50223 0.13057 0.081501 -0.20058 -0.023016 0.049771 0.075247 -0.20809 -0.44863 0.024839 -0.12607 -0.21564 -0.38873 0.13051 -0.015215 0.14344 -0.29507 -0.17137 -0.064285 0.084486 -0.021228 0.010238 -0.24759 -0.12094 0.31274 0.26561 0.033281 -0.19319 -0.026331 0.076982 -0.12271 -0.052572 -0.40664 -0.31976 -0.013449 0.29822 -0.33848 0.074079 -0.12787 0.1205 0.026256 0.048966 -0.36241 0.20488 0.024815 0.24561 -0.40294 -0.15419 0.31359 0.020923 -0.29072 -0.071745 -0.35084 -0.075312 -0.22995 -0.46056 0.1867 -0.13497 0.1142 -0.28041 0.22358 0.27008 0.020497 0.051662 -0.041898 0.15824 -0.1989 -0.077423 -0.11153 0.18243 -0.067487 -0.040987 -0.055485 -0.1722 -0.10196 -0.15512 -0.13197 -0.1134 0.27347 0.051309 0.077146 0.048987 0.0037247 -0.10535 0.070025 -0.23508 0.0021251 -0.014055 -0.088362 0.04124 0.065118 0.077972 -0.02632 0.29315 -0.18189 0.096945 0.11404 -0.083682 -0.085596 -0.017267 0.41452 0.32109 -0.47239 -0.26652 0.097176 -0.065871 0.077613 -0.02292 -0.12848 -0.023177 -0.071606 0.34435 -0.1582 -0.082938 -0.088269 -0.12566 -0.10299 0.095581 0.1553 0.025991 -0.23589 0.020335 -0.04539 -0.17689 0.22394 -0.15126 0.18552 -0.036185 0.16401 0.010696 -0.27346 0.27095 -0.1606 0.027013 0.036566 -0.0015711 0.13225 0.14048 0.12551 0.13496 0.12551 -0.10781 0.060319 0.27809 -0.13957 0.089872 0.024002 -0.016806 -0.23851 0.051002 -0.1722 -0.048856 0.34476 -0.075542 -0.081587 0.052148 0.13686 -0.14916 0.65355 0.0092159 0.036399 -0.041807 -0.29407 0.22748 0.32424 0.26944 -0.22817 -0.087096 -0.14911 0.30209 0.072793 0.020875 -0.091845 0.024229 0.022546 0.12141 0.069918 -0.027022 0.41441 0.052899 -0.10017 -0.25357 -0.20096 -0.12489 0.22391 0.023175 -0.067725 -0.29146 -0.068162 -0.23446 0.070283 0.38712 0.087225 0.32134 -0.1561 0.115 -0.14347 0.16807 -0.064862 0.044321 -0.16175 -0.099451 0.069802 -0.012098 0.16368 0.30603 0.2718 -0.14895 0.025724 0.067809 0.29749 -0.30869 -0.0066254 0.22291 -0.15802 -0.12536 0.16686 -0.3456 0.15501 -0.16689 -0.14098 -0.19162 0.14781 -0.076704 -0.032074 0.41293 0.32292 0.095813 0.03275 0.051552 -0.40829 -0.45689 0.31244 -0.020855 -0.11567 0.10837 -0.097397 0.1376 -0.32394 0.14214 0.037697 0.21602 -0.20796 -0.19492 0.10514 -0.06528 0.52415 0.096159 -0.1953 0.18768 0.030642 -0.41385 -0.37581 0.18683 0.17334 0.11518 -0.37145 0.11374 0.079244 -0.14665 -0.082586 0.057494 -0.1649 -0.1346 0.25181 -0.0059493 0.25235 0.19856 
environment 0.020071 -0.14345 0.086419 0.11738 -0.02147 -0.027871 0.21561 0.13085 -0.18829 0.26222 -0.042744 0.054713 0.18931 0.12807 -0.27003 -0.16361 0.21339 -0.089378 -0.10885 -0.068982 -0.22593 -0.091106 -0.12026 0.056925 0.24074 -0.093935 -0.16802 0.11175 -0.09527 -0.081916 -0.11353 -0.027704 -0.069111 0.070053 -0.0076688 -0.037753 0.025986 -0.026592 -0.21347 0.063674 -0.014627 -0.0087622 -0.11057 0.052283 0.018209 -0.02777 -0.09454 0.11901 -0.2318 -0.0585 0.10041 -0.090236 0.058593 0.048196 0.037102 0.13767 0.061322 0.044882 0.072186 -0.0081281 0.28956 -0.10703 -0.019783 -0.073598 -0.10456 0.058318 0.2826 0.018557 0.16279 0.093714 0.1212 0.21106 0.13307 -0.046411 0.054128 0.31204 0.077297 -0.1124 -0.22672 0.14802 -0.0073074 -0.13549 -0.082922 0.024452 0.050615 -0.15305 0.07555 -0.12559 -0.085565 -0.13212 0.044475 0.13012 0.0050145 0.20177 -0.19437 -0.11044 0.033046 0.24423 -0.008833 0.13422 -0.28864 0.088984 0.050461 0.053815 -0.067888 -0.071489 0.097771 0.081929 -0.25246 0.12395 -0.048669 0.052856 -0.22159 -0.14028 -0.11169 -0.085178 0.04191 -0.094734 0.0664 -0.051052 -0.12464 0.014525 -0.24979 0.33044 -0.1163 0.16694 0.0018108 0.072638 0.045375 0.013585 -0.047741 0.33358 0.015071 -0.037367 -0.26048 -0.1163 -0.28492 0.081804 -0.20164 -0.0088546 -0.070593 0.096712 -0.060036 -0.24375 -0.11632 0.17285 -0.062052 -0.18186 -0.14723 0.046197 -0.26494 0.11147 -0.073808 -0.071257 0.12798 -0.17886 -0.17682 -0.042469 0.13158 -0.071554 0.23683 -0.0024565 -0.1852 0.11536 -0.030149 0.056002 0.053046 -0.48105 -0.0088201 -0.094964 -0.11329 0.10357 0.29326 0.15378 -0.007904 0.085079 -0.16629 0.0055739 0.094371 0.12003 0.031003 0.13229 -0.014684 -0.071466 -0.058673 -0.00069854 0.126 0.24492 0.15458 -0.043793 0.061545 -0.15448 -0.060344 0.24271 -0.068263 0.22125 0.03016 -0.0345 -0.0085535 0.093497 -0.015493 0.14048 -0.013657 -0.00020054 0.086852 0.13179 0.12279 0.13064 0.13206 -0.11651 0.20507 -0.12253 -0.00088357 -0.085612 -0.10781 0.027748 0.08411 0.044376 0.031832 0.11265 0.013337 0.062498 -0.10328 -0.10043 0.090502 0.24526 -0.18456 -0.22422 -0.29177 -0.017892 -0.20917 -0.058317 -0.12031 -0.09084 0.026164 0.029292 -0.09575 -0.051875 0.00096989 -0.27221 0.17097 -0.040543 0.28438 -0.34574 -0.15874 -0.39333 0.17228 0.20489 -0.12053 0.012947 0.074104 -0.20709 0.17773 -0.034622 0.065022 -0.25413 0.11065 0.098033 0.049621 0.061897 0.23866 -0.12768 0.15123 -0.054085 -0.034625 -0.1706 -0.0050121 0.025367 -0.15912 0.15784 -0.21289 0.11712 0.18271 -0.037933 -0.19583 0.037995 0.12655 0.023355 0.12289 -0.057325 -0.10674 -0.04436 0.09548 -0.045704 -0.014232 -0.29616 -0.077206 -0.0771 0.033189 -0.14042 0.075562 -0.18612 -0.067765 -0.14146 -0.0045677 0.0911 0.11315 0.067617 -0.25304 0.062085 
terror -0.14097 -0.24411 0.2108 -0.095733 -0.32379 0.018089 0.059988 0.1173 -0.058491 -0.15719 -0.3001 0.0995 -0.21827 0.15743 -0.20774 0.011886 -0.31561 0.017511 0.32612 0.01237 -0.11591 0.54865 -0.37449 -0.1504 0.022717 0.30319 -0.25744 0.15941 -0.18767 0.12532 0.0089873 -0.20498 0.16067 -0.01973 0.44535 -0.17879 0.14227 0.26696 -0.095589 -0.20851 0.29233 -0.11236 0.4676 0.083641 -0.0054563 -0.2319 0.19382 0.26175 0.15713 0.020841 -0.0027438 -0.10424 0.07638 -0.21658 -0.26131 0.0070507 -0.13641 0.24786 0.059418 -0.40206 -0.19087 -0.10092 0.28236 -0.040698 -0.17 0.117 -0.14031 -0.0028521 0.33039 -0.052211 -0.056407 0.37588 -0.053627 -0.015314 0.12504 0.042873 0.34839 0.00040343 -0.037893 -0.082432 -0.30569 0.19099 0.086139 -0.11023 0.059449 0.012973 -0.014133 -0.018927 0.092691 -0.15179 0.10941 0.07546 0.073686 0.12135 0.072586 0.13861 0.23656 -0.23274 0.15943 -0.46287 -0.31083 0.13646 -0.17778 -0.41818 0.41334 -0.027193 0.019604 -0.14204 -0.020843 -0.22218 -0.15898 0.080987 0.21938 0.12715 -0.21797 -0.29209 -0.087375 -0.18167 0.070342 0.2772 -0.0069474 0.30708 -0.28478 0.21183 -0.013333 -0.028881 -0.046923 -0.09869 -0.041284 -0.25025 -0.094667 0.13153 0.049677 0.4098 0.061102 0.17582 0.1452 -0.044196 -0.37068 -0.019496 -0.053847 -0.013323 0.22287 -0.16521 0.24111 -0.24045 0.068973 0.31068 -0.13233 0.022002 -0.28069 0.13867 0.055333 -0.079608 0.044469 0.16679 -0.21161 0.11618 0.11369 -0.11187 0.22248 0.13343 -0.1779 0.17309 -0.28045 -0.36267 0.32458 -0.22875 -0.14991 0.086494 -0.33228 0.0039874 0.54333 -0.38971 0.3738 -0.14371 -0.1815 0.23913 0.036716 0.03894 -0.27184 0.22847 -0.23147 -0.1691 -0.30571 -0.11641 -0.18378 -0.35295 -0.25381 0.082598 0.48911 0.087038 -0.031902 -0.10021 -0.037167 0.31236 0.016553 -0.062879 0.06507 0.31058 -0.22313 0.35201 -0.3497 0.16361 -0.084803 -0.15413 -0.045991 0.092521 -0.11338 0.18771 0.17046 0.065858 -0.46616 0.11194 0.26042 -0.18598 -0.1709 0.036735 0.31903 -0.2574 -0.20023 -0.14907 0.070184 -0.078742 0.13541 0.071098 -0.37289 -0.011638 -0.12162 0.17959 0.42561 -0.1054 -0.048928 0.11034 -0.0081267 -0.0874 0.027081 -0.084718 0.034082 0.061618 -0.20183 -0.15691 0.075372 -0.051582 0.32726 0.054804 0.24694 0.009337 -0.061019 -0.1502 -0.037212 -0.46371 0.089106 0.018221 0.102 0.090412 0.065682 0.086566 0.11689 -0.22509 -0.20757 0.111 -0.091237 0.12287 -0.18173 -0.36288 -0.022693 -0.097315 -0.23639 -0.20648 -0.015312 -0.0067576 0.38811 -0.11058 -0.14843 -0.080113 0.12026 0.11329 -0.51698 0.12289 -0.015987 -0.030265 -0.15512 0.10047 0.015493 0.048918 -0.23342 0.0089212 0.0873 0.29962 0.39234 -0.049099 0.14168 -0.055055 0.097183 -0.22049 -0.1954 0.015353 0.18165 -0.086517 
smile -0.12046 -0.0072718 0.12915 -0.426 -0.23436 -0.053431 0.049694 -0.067198 -0.051597 0.063079 -0.093757 -0.13251 -0.087883 0.1943 -0.13437 -0.13173 0.01415 -0.034942 -0.21255 -0.088441 -0.0019324 0.4661 0.10572 0.32599 -0.04299 -0.30824 -0.18353 0.096504 0.29735 -0.022523 0.12396 -0.015742 -0.038811 -0.1775 -0.52134 0.15723 0.51813 0.52113 0.038578 -0.15398 -0.20475 0.029022 -0.14664 0.31027 -0.094498 -0.19691 -0.14125 -0.02878 -0.17097 -0.13493 0.35305 0.016566 -0.12329 -0.30322 0.21707 0.02676 -0.051615 0.037573 0.12342 0.16374 -0.29357 0.031003 -0.026374 -0.19085 0.15999 0.0052733 -0.15343 0.11846 0.17401 -0.27244 0.069201 -0.16477 0.026394 -0.044789 0.12484 -0.1143 -0.23204 0.11572 -0.10701 0.26956 0.065773 -0.14981 -0.089377 0.023382 0.19715 -0.22169 -0.60614 0.081989 -0.13454 0.25353 -0.17529 0.24887 0.061451 -0.012428 -0.095767 0.076105 -0.12543 0.090084 0.29924 0.3099 0.18878 0.18045 0.26292 -0.25729 -0.31988 0.077168 -0.021932 -0.27576 -0.061199 0.30668 0.11249 0.069584 -0.12094 -0.21477 -0.094869 0.15303 -0.19186 0.085275 -0.38317 -0.25443 -0.14619 -0.019013 0.44453 0.13858 -0.052878 -0.3326 -0.3719 0.063655 -0.080118 -0.046033 0.073855 0.20669 0.052121 0.10262 -0.040193 0.010762 0.03403 0.031004 -0.0025857 -0.049163 0.031064 -0.095092 0.18092 -0.17581 -0.09415 -0.18471 -0.089001 -0.21008 -0.11544 0.078295 -0.083188 -0.18753 -0.11686 -0.048621 -0.2445 0.29254 0.080642 0.012549 -0.24137 -0.16616 0.090365 -0.015639 0.1461 0.3992 0.22199 0.28316 0.10742 -0.0097288 -0.16105 0.044564 0.14593 -0.062065 -0.14627 -0.023512 -0.014825 0.34825 -0.063065 -0.046949 0.036869 -0.41309 0.20619 0.16396 0.096874 -0.0054042 -0.068559 -0.15273 -0.020238 -0.065292 0.081029 0.013741 0.11273 -0.20735 -0.32748 -0.14549 -0.071877 0.044079 0.10592 0.026346 -0.085601 -0.17957 -0.14985 0.015725 0.22345 -0.062613 -0.15053 0.23008 0.066941 -0.075881 0.029562 0.0018512 -0.0053855 -0.040111 0.22302 -0.16814 0.050302 -0.077381 -0.084642 -0.32214 0.0047092 0.076598 -0.010109 0.12781 0.1466 -0.25859 0.11636 -0.10834 0.12591 0.43228 0.15897 0.11959 0.20904 0.036248 0.050187 0.015876 0.42052 -0.13806 0.10949 -0.00031992 0.0039283 0.16116 0.10672 -0.0018004 -0.16272 -0.36261 0.15001 -0.077114 0.066175 -0.13036 0.0033289 0.0052459 -0.055998 -0.16294 0.13793 0.11554 0.21341 0.073902 -0.19338 0.048889 0.26813 -0.10086 -0.094657 -0.0296 -0.2321 -0.21025 0.40915 -0.13577 -0.17707 -0.01012 0.25416 -0.0067507 -0.17164 0.21303 0.10015 0.038049 0.13072 -0.14778 0.30849 -0.14281 -0.10216 0.38647 0.016009 -0.13504 -0.081879 -0.1694 -0.099371 -0.018783 -0.22548 -0.039266 0.13137 0.11174 0.046637 0.10443 -0.041153 0.21975 -0.11453 -0.28384 -0.3942 -0.071823 0.098464 -0.25392 
woman -0.069694 -0.1807 0.15008 -0.075959 -0.30191 0.27735 0.042599 -0.17235 0.089446 0.047367 -0.035264 -0.10261 -0.16258 0.10789 -0.07283 -0.15706 0.062637 -0.088873 -0.0052979 0.067794 -0.079213 0.26024 0.11547 0.14179 0.19001 -0.11442 0.078351 0.10002 -0.23938 0.041587 -0.16601 -0.011087 0.083978 -0.079577 -0.23159 -0.0088898 0.23655 0.39177 -0.0019151 -0.21012 -0.16844 -0.17836 -0.1557 0.13681 -0.29412 0.10412 0.064355 0.0061005 0.16745 -0.11012 -0.23598 -0.075751 0.073051 -0.21044 0.090809 -0.08141 -0.064768 -0.039362 0.33559 -0.024049 0.14148 0.21171 -0.076439 -0.1264 -0.040652 -0.19236 -0.28413 0.16438 0.25096 -0.095294 0.26394 -0.093199 0.21328 0.069422 -0.17391 0.16264 -0.1002 0.10262 0.043389 0.034302 0.15593 -0.013944 -0.13579 -0.0061576 -0.14842 -0.15023 -0.04026 -0.029528 -0.042427 0.19479 -0.13387 0.14502 -0.019728 0.037648 0.039232 -0.28748 -0.049437 0.14944 -0.14442 0.14575 0.1472 0.018262 0.22995 0.11959 0.090119 -0.11372 -0.028832 0.011279 0.16032 -0.086746 0.046688 0.069955 0.088435 -0.28055 -0.051126 0.019909 5.6908e-05 0.11489 -0.24895 0.022851 -0.14441 0.037486 0.079409 -0.21571 -0.17403 0.03165 -0.07507 -0.14024 0.15855 -0.14972 0.11829 0.059438 -0.28405 0.043351 -0.21429 0.071248 0.12549 -0.11009 0.09363 0.11741 -0.036539 -0.19886 0.23489 0.058332 0.019692 -0.31524 -0.23608 0.24312 -0.14627 -0.04427 -0.15752 0.12947 -0.26546 -0.0096222 0.13469 0.094543 0.096996 0.0019358 -0.24569 -0.015635 0.017842 0.12765 0.19793 -0.036093 0.1958 -0.19279 0.026008 -0.063069 0.013769 -0.11853 0.071782 0.092281 0.05189 -0.021972 0.24517 0.15629 0.002041 0.30222 0.056471 -0.10793 0.17443 -0.018353 -0.2512 0.07147 0.065415 0.050927 -0.19663 -0.24117 0.014108 -0.32546 0.048611 0.13054 0.10923 -0.025385 0.31065 -0.016806 0.2005 -0.067003 0.064882 0.19048 -0.1417 0.1342 0.16252 -0.27058 -0.30781 0.29678 -0.17895 -0.1107 0.023626 -0.055869 0.09459 0.19165 0.15507 -0.18413 -0.076621 0.0051447 0.053358 -0.016508 -0.091951 -0.11208 -0.22309 -0.22802 0.091516 -0.05107 -0.27066 0.038414 -0.082232 -0.062676 -0.075679 -0.087976 0.1258 -0.032948 -0.069849 -0.08602 -0.0088795 -0.18757 -0.023677 0.098797 0.064918 -0.091014 -0.050525 0.049407 0.11165 -0.099851 0.0027443 0.075587 -0.049696 -0.098659 -0.23353 -0.10356 -0.45614 -0.040823 0.21471 -0.074861 -0.018138 0.031099 0.044778 0.20246 0.29396 0.28176 0.089432 0.14703 -0.062023 -0.10285 0.067389 0.045679 -0.216 -0.095571 0.24378 -0.029345 -0.22888 -0.029093 -0.128 -0.33249 -0.11478 -0.25262 -0.2469 -0.00083105 -0.028167 0.13453 -0.0009726 0.053699 -0.072391 -0.23979 -0.041705 0.11666 -0.13732 0.16989 -0.089393 0.25945 -0.18605 -0.028091 0.036512 -0.17811 -0.016342 0.0915 -0.044878 0.10358 0.10335 0.03539 
string -0.043032 -0.064127 -0.055628 -0.076652 -0.21339 -0.14637 0.054808 -0.042162 -0.16015 0.050859 -0.067979 -0.31299 -0.34342 -0.27445 -0.43809 -0.15245 -0.26018 -0.061867 0.0012444 -0.1091 0.081387 0.073983 0.072644 0.061301 -0.18039 0.049627 -0.17535 0.2716 -0.33874 0.14308 0.053847 -0.09058 0.24447 -0.1599 0.04155 -0.34322 0.26759 -0.034626 0.21531 -0.057471 -0.16325 -0.029893 -0.20358 0.2075 -0.04331 -0.16084 0.19066 -0.013608 0.10336 -0.071314 -0.11216 -0.14204 -0.082264 0.040641 -0.066817 -0.027029 0.0094817 -0.13167 0.12166 -0.16063 0.3 0.12418 0.083965 0.0040531 0.10305 -0.083029 0.032122 0.28607 -0.077327 -0.17224 0.31346 -0.28486 0.088011 0.14746 0.061042 -0.02684 0.04025 0.083197 -0.06416 -0.11316 -0.074092 0.24614 0.21539 -0.10944 0.17243 -0.11339 -0.1197 -0.042329 -0.022173 -0.085229 0.27784 -0.091375 0.35628 0.12294 -0.050868 0.017611 0.31075 -0.16534 -0.040905 0.17226 -0.22581 -0.13838 -0.0027952 -0.12801 0.10672 0.14782 -0.046685 0.17447 0.095226 -0.39899 -0.092607 0.15275 -0.015867 -0.12417 -0.28065 -0.16088 -0.22141 0.11652 0.12517 0.31184 -0.02509 0.11516 0.037039 0.074041 -0.13353 -0.34905 0.056587 0.054006 -0.053375 0.27449 0.40048 0.02666 -0.061634 0.15079 0.065687 -0.14111 0.14337 0.2227 0.13766 0.092331 0.021574 0.081427 -0.093576 -0.32985 0.073932 -0.06959 -0.089464 0.11118 0.03668 -0.17383 -0.02395 0.0076699 0.0053346 -0.25645 0.091114 -0.071265 0.013427 0.16183 -0.24823 -0.11606 0.059665 0.19553 0.16135 0.11217 -0.058684 -0.24338 0.0089508 -0.18691 0.14302 0.053892 0.1494 0.37069 0.17946 -0.073702 0.20703 -0.077978 -0.30394 -0.099948 -0.13453 -0.10936 0.12553 -0.079629 -0.085053 -0.19833 0.015885 0.032738 -0.075819 -0.069752 0.11239 -0.09029 -0.013326 0.02105 -0.0024618 -0.047738 -0.032338 -0.01338 -0.2306 -0.10277 0.054467 -0.27646 -0.16969 -0.039771 0.073365 -0.03854 -0.26744 0.11011 0.19677 0.20224 -0.17425 -0.062466 -0.049015 -0.13265 -0.1318 0.30481 0.16127 -0.10769 -0.26611 -0.16056 -0.20376 -0.11409 0.071478 -0.077641 -0.10572 0.04012 0.02362 0.059959 -0.11394 -0.062491 0.030976 0.27996 -0.35488 -0.28638 -0.04568 0.048029 0.27436 0.11141 0.032987 -0.15539 -0.079023 -0.052208 0.063648 -0.28912 0.09934 0.014341 -0.12399 -0.07231 -0.031089 -0.047072 0.057892 0.16706 0.032135 0.0068072 -0.071701 0.32518 0.27647 -0.26424 -0.11183 0.12591 0.057272 0.022103 0.10573 -0.27917 0.27147 -0.06004 -0.096675 -0.10087 0.15508 -0.21852 -0.043735 -0.080754 0.051694 0.24989 0.090219 -0.05975 0.086708 0.061617 0.27071 0.1295 0.11795 0.18613 0.045667 -0.011881 -0.26802 -0.080735 0.15098 0.016085 0.22261 -0.025388 0.13439 0.021813 -0.046174 0.11701 -0.077316 0.26949 0.2256 0.027433 -0.1789 0.23094 0.085736 0.065564 
Maradona -0.064715 -0.48508 0.088671 -0.38279 -0.30026 0.35232 -0.11531 -0.20667 -0.33575 -0.14145 -0.12568 -0.44777 -0.08282 0.14714 -0.16617 -0.072719 0.076008 -0.061018 -0.52239 -0.26564 0.050837 0.18216 0.17504 0.20792 0.29843 0.020071 -0.14369 0.15044 -0.19643 -0.079445 -0.4936 0.064737 0.12356 -0.28571 -0.44178 0.18924 -0.083203 -0.22446 -0.24866 0.23459 -0.055475 0.32471 -0.16623 0.082799 0.31168 -0.17322 -0.20494 0.18754 0.0044072 -0.057968 0.065199 -0.12162 0.45489 0.20403 0.18662 0.10921 0.34296 -0.086248 0.25097 -0.28349 -0.18252 0.29737 -0.15608 -0.42692 0.088255 0.010774 -0.055343 0.25379 0.28277 0.12794 0.098995 -0.13132 -0.27457 0.075831 -0.16631 0.034949 0.21367 -0.2025 -0.072008 0.21565 -0.12621 0.47395 -0.029351 -0.0074237 0.021763 -0.14012 -0.16541 0.27536 0.026414 0.24623 0.21661 0.18316 -0.24604 -0.19728 0.12023 -0.1326 0.32327 0.19571 -0.27186 0.35983 0.167 0.2039 -0.1474 -0.22162 -0.15237 -0.12619 -0.010873 0.10763 -0.011393 0.21378 -0.3719 0.35343 0.12808 0.0054314 0.2991 0.03226 0.02732 0.10363 -0.039828 -0.10671 0.21773 0.46338 -0.0037364 0.092805 0.39584 0.10914 -0.10551 -0.03712 0.17252 -0.19809 -0.058522 -0.059242 -0.12772 -0.24805 0.11539 -0.041453 -0.053774 0.18516 0.11152 0.071816 -0.033639 0.15773 0.0098553 0.031057 -0.16976 -0.029365 0.30733 -0.15597 -0.1356 0.11888 -0.23454 0.03916 0.37207 -0.2657 0.15608 -0.014405 -0.061461 0.0097444 -0.26996 -0.11946 0.053031 0.14933 -0.30742 -0.066342 0.28067 0.063204 -0.077421 -0.16828 -0.09437 0.18845 -0.11269 0.32532 -0.45678 0.13657 -0.27185 0.12316 0.13621 0.26694 -0.17975 -0.058108 0.018196 0.22484 -0.14478 0.33301 -0.20161 0.20164 -0.63974 0.29688 0.020012 -0.025011 0.15063 0.080568 0.16914 0.074693 -0.018934 -0.026308 -0.41872 0.25195 -0.059236 -0.11611 -0.53479 -0.099553 0.36598 0.31255 -0.060071 -0.24409 -0.21646 -0.34348 0.26876 0.29416 -0.19893 -0.13456 0.14506 -0.41727 -0.063777 -0.14135 0.26774 -0.050391 0.31616 0.091892 0.07707 -0.034566 0.022024 -0.1097 0.074314 0.41564 0.019874 -0.054652 -0.016426 0.12267 0.26654 -0.050643 -0.24545 -0.018988 0.14179 -0.19965 -0.28033 -0.22381 -0.015263 0.058251 -0.10746 0.16788 -0.16722 -0.047082 -0.45786 -0.014077 -0.084608 -0.23949 0.21749 -0.19035 0.067412 0.013486 0.020825 0.1702 -0.5191 -0.10608 -0.18003 -0.15633 -0.030793 0.059151 -0.22967 -0.086959 -0.34241 -0.031065 -0.0104 0.060423 -0.22794 -0.10576 0.12742 -0.42458 0.045342 0.17882 -0.54115 -0.25297 0.13147 0.051575 -0.32819 -0.34741 0.23277 -0.11526 0.22497 0.019318 -0.17437 0.018178 0.081515 -0.080268 -0.097049 -0.010855 -0.044019 -0.15327 0.12609 0.45686 -0.12956 0.080686 -0.35191 -0.53009 -0.28922 -0.31552 -0.3111 0.34172 
liability -0.3954 -0.086365 0.053236 0.12691 -0.022794 -0.014013 -0.025067 -0.016892 0.042883 -0.18094 -0.12392 -0.10158 -0.17254 0.063292 -0.11311 0.15797 -0.06489 0.062609 -0.30285 -0.092656 -0.02645 0.088136 -0.1103 0.0072299 -0.054505 0.028765 0.1307 0.13992 -0.16534 0.043725 -0.090256 0.063415 -0.59645 -0.0055597 -0.077726 -0.19806 -0.0055636 0.15499 -0.31896 -0.32489 0.17984 0.079192 -0.091743 -0.27469 -0.0074757 0.23894 -0.19448 0.1636 -0.34255 -0.14936 0.31515 -0.25097 -0.10568 0.099197 0.031965 -0.01867 0.020342 0.39853 0.11067 -0.29962 0.0065393 -0.061327 0.26592 -0.22832 -0.23187 0.085662 0.041634 0.28022 -0.012818 0.29866 0.24622 0.18771 -0.044257 -0.0034919 0.06577 -0.031245 -0.19902 0.026306 -0.13693 0.027799 -0.028853 0.042757 -0.17712 -0.17322 -0.1834 0.12863 0.097993 -0.058864 0.049554 -0.32161 -0.07934 0.042584 0.052526 -0.17514 0.12572 -0.0068809 0.070621 -0.10725 0.027102 0.022911 -0.21199 -0.13948 0.083232 -0.088922 0.19617 -0.24118 0.19938 0.18879 0.0047947 -0.074733 -0.014721 -0.14288 0.06503 0.051835 -0.16396 0.16026 -0.33987 -0.21635 0.0020119 -0.083069 -0.15765 -0.26125 0.23108 0.12606 0.21288 -0.05282 0.14079 -0.0044667 -0.1109 0.1119 -0.098543 -0.22199 0.055651 0.14713 -0.13102 -0.21665 0.099501 -0.055184 -0.0015483 0.13959 -0.22024 -0.11138 0.028316 -0.17878 -0.040505 0.25655 -0.09834 -0.16586 -0.034629 -0.24413 -0.22617 0.035738 -0.048697 0.25243 -0.11941 -0.0965 0.33223 -0.11372 0.21023 0.055203 0.0035286 -0.22874 -0.14965 0.20417 0.080782 -0.015259 0.082956 0.015041 0.17445 0.34786 -0.22735 0.0096449 0.18027 -0.0030447 0.21465 0.10694 0.12222 0.056989 -0.097278 -0.015035 -0.21934 -0.17945 -0.29923 -0.044054 0.020436 0.17691 0.51752 -0.017349 0.058863 -0.19798 0.22702 0.048019 -0.21628 0.074125 -0.14746 0.0072965 0.071419 -0.051599 0.053182 0.32277 0.15819 0.15937 0.23628 0.058874 -0.056037 -0.1502 0.27234 0.0071293 -0.043272 0.0067223 -0.15371 -0.063959 -0.072895 -0.060041 -0.12776 -0.08822 0.27162 -0.082271 -0.3389 -0.19679 -0.056647 -0.054479 0.28279 0.16581 0.35188 0.069979 -0.14583 0.032391 -0.1526 0.037425 -0.12108 0.036716 -0.051483 -0.090272 -0.15103 0.045363 0.31859 -0.059572 -0.040527 -0.24683 0.39825 0.22759 0.21089 -0.13766 -0.052807 -0.01494 -0.26437 -0.16861 0.013661 -0.077878 0.059132 -0.097725 0.013694 0.079055 0.11721 -0.22322 0.25585 0.20524 0.071705 0.24035 -0.035208 -0.071232 -0.17 -0.083492 -0.033933 0.12193 -0.050479 -0.054705 0.018621 -0.09299 -0.0048399 0.17404 0.15212 0.11443 -0.081419 -0.28315 0.015894 -0.044936 0.22266 0.20105 -0.40011 0.0085644 0.18575 -0.27246 -0.03633 -0.060712 -0.061706 -0.085769 -0.016183 0.29883 -0.026616 -0.2545 -0.12217 0.07895 0.14297 -0.18134 0.16498 0.061827 0.09846 0.42998 
ticket 0.016052 -0.030458 -0.19662 -0.10368 0.15457 0.28839 0.087594 0.021104 0.1072 -0.25237 0.068189 -0.043248 -0.29774 0.21897 -0.17518 0.060035 -0.071846 0.1356 0.15462 -0.096785 -0.049834 0.31061 -0.041978 0.17765 0.28302 -0.21995 0.14281 -0.19977 0.2297 0.060401 0.086247 -0.16032 -0.19363 -0.069218 0.059411 0.22279 0.30634 -0.003049 -0.012792 -0.032957 0.044401 -0.076279 -0.1406 -0.080215 -0.5527 0.19713 -0.084492 -0.080966 0.20057 -0.15403 0.04876 0.15562 -0.016741 -0.085685 0.10791 0.056796 0.1589 0.033047 -0.025924 0.080024 -0.061395 0.11212 -0.10785 -0.38196 -0.047097 0.22969 0.31912 0.048908 -0.21681 0.19316 -0.03595 0.16812 -0.15303 -0.14146 0.1148 -0.28208 0.034832 -0.022737 -0.034317 -0.083885 -0.055483 -0.026299 -0.27908 0.18548 -0.2949 -0.0055836 0.095421 0.095231 0.16011 -0.20215 0.057224 -0.093459 0.34809 -0.11016 -0.069277 -0.067928 -0.053243 -0.08306 -0.22039 0.078557 -0.26373 -0.37967 0.2379 -0.14177 -0.26704 0.21415 -0.03954 -0.35532 -0.090644 0.10833 0.05707 -0.15422 0.10765 -0.18431 0.076276 0.14849 -0.12975 0.069697 -0.13775 0.27982 -0.15369 0.17913 0.039404 -0.14748 0.25673 0.093066 -0.025918 0.10609 -0.071344 0.041992 0.014945 -0.045701 -0.36345 0.32462 0.1314 0.15275 -0.17909 -0.13687 0.031381 0.22569 -0.11798 -0.29213 -0.14695 -0.10457 0.013073 0.045968 -0.25009 -0.082072 0.0078489 -0.23466 0.056926 -0.24847 0.16937 -0.11053 -0.050378 0.023049 0.37148 -0.17585 0.14931 0.094114 -0.15773 -0.12123 0.26167 0.27085 -0.059703 0.15606 -0.12121 0.03515 0.32689 0.34877 -0.065027 -0.03123 -0.022153 0.1182 0.025337 -0.31056 -0.094178 0.30498 0.079493 -0.09003 0.048621 0.30207 -0.25669 0.055994 0.060567 0.28158 0.1533 -0.08149 -0.047092 -0.21418 -0.31223 0.24142 -0.13226 -0.019006 -0.17217 -0.025846 -0.17563 0.18559 0.077243 -0.068085 -0.047212 0.088721 0.1389 -0.029491 0.21747 0.010138 0.097089 -0.16215 -0.014527 -0.034375 -0.01993 0.022934 -0.13505 -0.29372 -0.06686 -0.1403 -0.1295 -0.16065 0.045797 0.16074 0.0053075 -0.18149 0.089192 0.13589 -0.066385 0.52933 0.074243 0.095963 0.028548 0.0094341 0.037438 0.043063 -0.069155 -0.0633 -0.062121 0.065488 0.34128 -0.12404 0.092875 -0.073126 -0.23407 0.14393 -0.13159 -0.14078 -0.38254 0.072942 0.24852 0.12527 0.016439 0.074972 0.31371 0.066824 0.19243 -0.3443 -0.086009 -0.44379 -0.25525 0.083229 0.092771 -0.14959 0.00084144 0.28415 -0.41422 -0.15449 0.10742 0.20198 -0.0028823 0.13732 -0.077055 -0.2843 0.1259 0.082052 -0.21609 -0.27802 0.015646 -0.19796 0.030304 0.073547 -0.29028 -0.15397 -0.02327 -0.22936 0.0051698 -0.0067231 -0.055725 0.0029272 0.064524 -0.0032781 -0.0095906 0.082209 -0.017398 -0.077977 0.030366 -0.075151 -0.28482 0.021743 -0.092527 -0.017714 -0.20957 0.16744 
school 0.16512 -0.12175 0.053916 -0.07658 -0.27746 -0.018832 -0.21241 -0.37924 -0.0035543 0.12537 -0.13698 0.2148 -0.083847 0.039381 -0.069364 -0.07216 -0.093356 0.33524 0.14746 -0.16374 -0.033841 -0.093767 0.1692 0.071761 -0.018414 0.0095492 -0.086159 0.086867 0.031656 -0.086552 0.027616 -0.41067 0.07931 -0.13682 -0.16151 0.037194 0.13192 0.20026 0.24355 -0.20431 -0.24368 -0.15454 -0.083498 -0.080226 -0.1572 0.12276 -0.3 -0.062893 -0.027229 0.048151 0.23888 0.040044 -0.091437 -0.21343 -0.14389 -0.27591 0.20655 0.047024 -0.23199 -0.10976 0.38226 0.04379 -0.01549 0.044828 -0.087396 -0.013436 0.17186 -0.1908 0.30886 -0.13561 0.30939 -0.046846 0.046081 -0.039337 0.26985 0.090205 0.02127 0.069819 -0.2066 0.10427 0.26386 0.11386 -0.17392 -0.032578 0.12231 0.039297 -0.20223 -0.081183 0.018297 0.082116 0.10998 -0.057335 -0.014668 0.069873 -0.072797 -0.11528 -0.21874 0.18347 0.092959 0.11485 0.062247 -0.0051484 -0.085871 -0.059366 -0.1868 -0.1058 -0.24292 -0.15591 0.017481 -0.060078 0.19599 0.26665 0.070443 -0.36299 -0.0039708 -0.36538 -0.22279 -0.16581 -0.094566 0.10148 -0.030169 0.24713 -0.010396 -0.13704 -0.034177 0.23841 0.18935 0.041439 0.30108 0.06592 -0.064222 -0.17183 0.2613 -0.073181 -0.018349 -0.11838 -0.096742 -0.13687 0.13122 0.14328 -0.26946 0.15859 0.047703 0.18248 0.039796 -0.025563 -0.03149 0.16323 -0.054583 -0.13332 -0.18973 0.054983 0.053846 -0.052921 0.088622 -0.085182 0.23141 0.09626 0.16555 -0.068432 0.21369 -0.10667 -0.090684 -0.080033 0.034184 -0.089172 -0.075777 -0.16318 0.037635 0.025722 0.24693 0.090968 -0.10601 0.0078942 0.21328 -0.04934 0.00022733 -0.035787 0.26241 0.044919 -0.18556 0.22898 -0.025307 -0.10552 0.045774 -0.032612 -0.14051 -0.33498 0.26901 -0.15131 0.12714 0.10994 -0.027645 0.15724 -0.26662 0.043722 -0.33678 0.24678 0.01257 -0.22377 0.12247 0.26076 0.061392 0.23112 0.13389 -0.079928 0.010484 -0.14566 0.034323 0.18211 0.01265 -0.18462 -0.020296 -0.1262 -0.052227 -0.457 0.0047905 0.025072 0.072057 0.12819 -0.24469 -0.074375 -0.034826 -0.15431 -0.090708 0.14833 0.027289 0.050676 0.33085 0.27172 -0.0033651 -0.10259 0.21256 0.18081 0.11574 -0.27842 -0.17488 0.008393 0.15226 -0.18347 -0.10301 -0.034653 0.08902 -0.11049 0.12351 0.14683 0.099866 -0.078614 0.15095 0.0069758 -0.14706 -0.22782 -0.040991 0.22344 0.1099 -0.27989 -0.11355 -0.16804 -0.006085 0.22776 0.16952 0.24644 -0.38429 -0.082906 0.22353 -0.05115 0.13061 0.25347 0.29742 0.016231 -0.11088 0.10424 -0.28576 -0.043469 -0.10978 0.38381 -0.10018 0.054562 -0.045923 0.030814 -0.03354 0.040681 0.09207 0.020562 0.13872 0.20622 -0.18388 0.014904 0.089556 0.15051 -0.11721 -0.23047 -0.0057756 0.044068 -0.060023 0.085534 0.18671 -0.014453 -0.094683 -0.11196 
gender -0.14509 -0.161 0.076559 0.0010135 -0.3929 0.2996 0.085365 -0.40062 -0.12635 0.39252 -0.20387 -0.17112 -0.17387 -0.20788 0.14413 -0.051257 0.48867 -0.015693 0.27841 -0.29807 -0.19633 0.2368 -0.24324 0.16545 -0.012683 0.37506 -0.049568 0.10732 -0.23087 0.25568 0.12273 -0.15759 -0.19143 0.049865 0.32532 -0.26007 0.23101 0.13509 -0.029025 -0.51422 -0.19489 -0.22061 -0.12057 0.19678 -0.32458 -0.13038 -0.19249 -0.19177 -0.20574 0.41561 0.4347 -0.10364 0.14125 0.31899 -0.12548 0.14675 0.023261 -0.26309 -0.082476 0.063495 -0.10646 0.00066012 -0.2345 -0.096033 0.062912 -0.082458 -0.16982 0.3426 -0.23288 -0.028953 0.057964 0.047601 -0.38631 -0.14987 0.04096 0.29501 -0.24527 0.20985 -0.13648 -0.014804 0.39129 -0.12606 -0.00031287 0.033135 -0.022751 -0.10958 0.048336 -0.12738 0.081685 0.064376 -0.063334 0.090275 -0.36456 0.39726 0.30882 -0.15985 0.34632 0.0013011 -0.15638 0.29532 0.0075466 -0.045409 0.0031927 0.063634 0.053022 -0.020763 0.34664 0.22171 0.00065786 -0.012743 0.2505 -0.06658 0.14103 0.0055876 -0.218 -0.11745 0.15353 -0.28611 -0.13832 0.20306 0.083865 0.14016 0.11138 0.069671 -0.046299 -0.055013 -0.32193 -0.22554 0.16195 -0.22194 -0.076278 0.14164 0.26503 0.12351 -0.45267 0.020421 -0.22525 -0.081756 0.29683 -0.24963 -0.21417 -0.092325 -0.0031846 0.0027715 0.026943 -0.32947 -0.29006 -0.046204 0.15838 -0.10299 -0.045796 0.2333 -0.10728 -0.079763 -0.26145 -0.20587 0.45167 -0.02763 0.057913 -0.41088 0.24672 0.098618 -0.19324 0.069983 0.12561 0.021897 -0.088228 -0.10428 -0.086875 0.11768 -0.15668 0.096407 -0.074956 -0.14727 0.14137 0.011131 0.10571 0.016254 -0.095352 -0.14589 -0.064919 -0.36618 -0.12965 -0.053629 -0.019229 -0.067228 0.010373 -0.10413 0.0050899 -0.44616 0.20036 -0.057414 0.2888 -0.10869 -0.041333 0.0052605 0.30887 0.19847 -0.36487 0.18944 -0.09143 0.31656 0.21901 -0.050964 -0.14603 -0.020128 0.1041 -0.27295 0.22722 0.048945 0.41801 -0.15482 -0.028029 -0.39794 -0.35642 -0.26729 0.15455 0.18316 0.23662 0.21753 -0.10954 -0.34953 0.024409 -0.077146 0.26743 0.4286 -0.1124 0.22234 -0.25297 0.11682 0.037791 0.082301 -0.063615 0.15019 -0.1382 0.028785 0.25396 0.36363 -0.11561 0.039175 -0.15431 0.0045455 0.3523 -0.12843 0.10696 -0.032275 -0.25698 0.37357 -0.29415 -0.026314 -0.1028 0.069732 -0.20648 0.06754 0.45399 -0.036943 0.12772 0.037387 0.14715 0.55517 0.021524 -0.104 -0.20502 -0.26797 0.18002 -0.14831 0.12651 0.0065216 -0.11942 -0.17454 -0.15489 -0.037703 0.079612 -0.45965 -0.43288 -0.083545 0.24685 -0.24192 0.045182 0.19351 -0.17074 0.076852 0.059233 -0.25514 -0.033916 -0.25085 0.0039769 -0.031035 -0.36037 -0.13554 0.37833 0.055122 -0.016558 -0.058647 0.05782 0.00711 0.049552 0.1544 -0.16564 -0.43211 
brother -0.071805 -0.031024 0.24732 0.072653 -0.34341 0.1578 -0.056238 -0.024528 0.23141 -0.016258 0.11617 0.21198 0.14958 0.15998 -0.27587 -0.042038 -0.063968 -0.12211 -0.24169 0.09841 0.069413 0.14583 -0.04378 0.14083 0.13334 0.072933 0.10191 -0.024178 -0.10793 -0.29591 -0.10142 0.12622 0.10194 0.089188 0.10113 -0.089789 0.41709 0.099611 -0.32406 -0.14366 -0.28169 -0.05026 0.02532 0.24676 -0.12557 -0.29337 0.057617 0.1974 0.085066 -0.13728 -0.18407 0.1319 -0.3432 -0.16338 -0.10083 -0.53062 0.09583 0.093583 0.22427 -0.10032 -0.34933 -0.14207 -0.3314 0.0074643 0.096575 0.075676 -0.23546 0.08146 0.034084 -0.25126 0.17384 0.052237 -0.13958 -0.10738 -0.039758 0.18771 0.11498 0.090978 0.19727 0.070143 -0.16029 0.26421 -0.062211 0.29577 0.084022 0.07165 0.033586 -0.13191 -0.06928 0.036647 0.12779 -0.14586 0.19904 0.13516 0.28378 -0.027093 -5.1614e-05 0.16064 -0.03928 0.025071 -0.0058528 0.14792 0.13132 0.062782 0.12843 0.11097 -0.068421 -0.055146 0.053537 -0.26498 0.024669 -0.12995 0.052029 -0.17877 -0.41881 0.19788 0.15997 -0.045167 -0.11564 -0.081423 -0.11897 -0.30092 0.19359 -0.47204 0.025519 -0.14385 0.18126 -0.076959 0.26576 -0.14493 0.14156 -0.020785 -0.36144 -0.1339 0.063046 0.022835 0.11815 -0.09139 0.11792 0.22449 0.020684 0.054216 -0.089518 0.029188 -0.35037 -0.088128 -0.22678 -0.12071 -0.21364 -0.068867 0.10086 -0.13413 0.13076 -0.18015 0.1632 0.20141 -0.048831 -0.060509 -0.20798 0.10066 0.00083581 -0.061197 -0.0040009 -0.10041 0.39862 0.28193 -0.10506 -0.17069 -0.045603 -0.19786 0.11479 0.030733 0.1514 -0.20298 0.23755 0.23983 -0.1395 0.033567 0.20103 -0.068659 -0.36198 0.32911 0.049096 0.26487 0.027436 -0.3035 -0.21132 -0.084501 0.018429 -0.088334 0.012957 0.031381 -0.088848 -0.24364 -0.12815 0.055709 0.058429 -0.14017 -0.073423 0.17506 0.13631 0.1299 -0.038205 -0.05838 -0.0062965 0.072657 0.024989 -0.25627 -0.18506 0.16562 -0.11714 -0.08913 -0.0083838 -0.16294 0.020284 -0.02911 0.088284 -0.080216 0.34568 -0.047471 -0.06429 -0.044771 -0.28855 -0.037788 -0.0048827 0.31543 0.046246 -0.13821 0.07483 0.1218 0.2291 -0.29974 0.26298 -0.033951 -0.0070785 0.052012 -0.2551 -0.18291 0.066381 0.029307 0.15237 0.11879 0.15023 -0.11083 -0.043829 0.097665 -0.015226 -0.21415 -0.15172 -0.36374 0.14512 0.11218 -0.082943 0.091446 -0.10428 -0.060789 0.18766 0.021552 0.20411 0.2024 -0.043302 0.04251 -0.22362 -0.11985 0.13183 -0.018756 -0.38185 -0.0085536 -0.0022346 0.073102 -0.21867 0.071149 -0.1174 -0.13696 0.0078386 0.021922 -0.24641 -0.052265 0.16462 0.045987 -0.075109 0.2656 -0.32724 -0.24367 0.21282 0.014596 -0.071 0.25952 0.17898 0.16302 -0.038783 0.13945 -0.21596 -0.041778 -0.04651 -0.10358 0.010384 0.20996 -0.032023 -0.083634 
team -0.02103 -0.099189 0.14447 -0.24184 -0.13346 -0.013965 0.18552 0.10273 0.027421 0.021062 -0.21409 -0.11195 -0.06337 -0.038814 -0.08739 -0.18374 0.10044 -0.10447 -0.22002 -0.19982 -0.036083 0.059682 0.013464 -0.093589 0.14611 -0.16688 0.0024031 -0.027584 -0.2411 -0.29336 -0.21155 -0.085222 0.001422 -0.13807 0.14469 0.06708 0.11703 -0.013187 -0.14018 -0.016571 -0.0005853 0.076161 -0.35523 -0.13771 0.012831 -0.27587 -0.10381 0.03394 -0.0090055 -0.019142 -0.0065678 0.022583 -0.14729 -0.20554 -0.011727 -0.1225 0.09264 -0.091752 0.20518 -0.05895 0.073803 -0.067683 -0.24981 -0.04891 0.20923 0.094834 -0.056837 -0.039107 0.043085 -0.017575 0.0037895 0.10687 -0.15322 0.13228 -0.040808 -0.045012 0.19265 -0.069299 0.00058602 0.089111 -0.11939 0.088604 0.085688 0.040135 0.12301 0.01387 0.22458 0.011358 0.093813 0.11559 0.0071773 -0.13541 -0.0010054 -0.21168 -0.02584 -0.09761 0.097669 -0.024273 0.010743 0.14314 -0.19712 -0.025094 -0.1223 0.0032097 0.14066 -0.062689 -0.21005 0.066191 -0.073537 0.17964 -0.17483 0.10601 0.17815 -0.16836 0.13679 -0.018642 -0.12974 -0.10009 0.11801 0.025947 0.072682 0.13951 -0.1016 0.060493 -0.030944 -0.016753 -0.022864 0.14936 -0.088681 0.0093107 -0.02006 -0.074225 -0.012175 0.099426 -0.31471 0.023984 0.079853 0.064468 0.069049 0.025788 -0.19331 -0.10688 -0.11839 0.13424 0.034376 -0.12733 -0.097918 0.018697 -0.20353 -0.035592 -0.12073 -0.0070536 -0.064606 0.057155 0.047957 -0.12974 0.090701 -0.095642 0.030443 -0.0029845 0.21198 -0.10483 -0.045839 0.0915 -0.026644 -0.066158 -0.086287 -0.19776 0.023955 0.076545 -0.037767 -0.087134 -0.14529 0.054736 -0.071474 0.076476 0.011416 -0.029574 0.050495 -0.13412 0.0061358 0.18053 -0.040786 0.072062 0.0024384 0.10348 -0.092277 0.05439 0.14842 -0.10243 0.096117 -0.092396 0.038909 -0.0022659 -0.072519 -0.19909 -0.16074 0.030052 0.0014692 -0.087162 -0.19606 0.14831 0.042364 -0.1433 0.089019 -0.15844 0.057332 -0.017268 0.043728 0.11473 -0.13802 0.078819 -0.0047748 -0.04233 0.08064 -0.052952 0.045865 -0.10515 0.094409 0.022267 0.051308 -0.2006 0.14256 -0.15164 0.053219 0.26051 -0.092169 -0.031623 -0.070723 0.19158 -0.037333 -0.22916 0.041581 -0.024311 -0.14895 0.0041862 -0.15977 -0.097272 -0.12053 0.077184 -0.00809 0.1094 0.065311 -0.2188 -0.058992 0.058928 -0.18478 -0.14106 0.3203 -0.031283 0.10462 0.035618 -0.13704 0.029233 -0.22049 -0.15292 -0.10613 0.014625 0.065251 0.1682 0.062832 0.12793 -0.16632 0.026683 0.11168 -0.12832 0.13478 -0.13599 0.12561 0.023486 -0.004233 -0.098737 -0.18072 -0.17559 0.014307 -0.050167 0.022969 -0.24845 0.10888 0.0073544 0.037156 -0.21058 -0.010513 0.098385 0.10316 0.028748 -0.10483 -0.25452 -0.048627 -0.13796 -0.037315 -0.089973 0.084308 -0.031539 -0.064934 0.031192 0.13879 0.26029 -0.026848 0.033411 
mammal 0.031516 -0.3031 0.40419 0.18491 0.15357 -0.031629 -0.30535 -0.12121 -0.22298 0.15876 -0.40696 0.15746 -0.44157 0.021445 -0.2904 0.066926 0.26111 -0.12804 0.045219 0.10621 -0.28164 -0.027464 -0.14097 0.21371 -0.46213 -0.38969 -0.20019 -0.13442 0.13587 0.0011388 -0.53504 -0.34915 0.023061 0.12383 0.20722 0.022304 0.30684 0.0072201 -0.35028 0.20673 -0.27461 -0.13637 -0.14664 -0.073312 0.42211 -0.11957 -0.053694 0.3131 -0.16709 0.35652 0.34286 -0.26741 0.17411 -0.18915 -0.30114 -0.076062 0.083159 0.13909 -0.74525 0.22347 0.16015 0.53373 0.26787 -0.17848 -0.4119 -0.12374 -0.19284 0.35355 0.20644 0.10413 0.73792 -0.17292 0.098544 0.15383 -0.15541 0.20962 0.16989 0.0041716 0.065643 0.17288 0.1331 -0.25964 -0.063556 -0.12168 -0.15254 -0.27072 -0.24996 0.48137 0.11609 -0.26186 0.722 -0.0055388 0.10448 -0.23107 0.016458 -0.52893 -0.027759 0.14921 0.21995 -0.039057 -0.10315 0.087279 0.038753 0.21342 -0.098041 0.014249 0.42501 -0.21069 -0.010213 0.19249 -0.092044 -0.27068 -0.057574 0.11211 -0.081558 -0.048393 -0.22628 -0.0040177 -0.1234 0.13047 -0.0065394 -0.10507 0.009148 0.066063 0.076158 0.19115 -0.026308 0.15338 -0.15835 0.26721 -0.26375 0.27107 -0.25669 -0.15171 -0.23162 -0.28133 -0.091472 0.21778 -0.019009 -0.030234 -0.00045161 -0.047902 -0.26848 0.13053 0.059085 0.22098 -0.39832 0.06506 -0.014737 0.1518 -0.58041 0.15021 0.14171 0.1526 0.051556 -0.15486 0.13901 -0.25911 -0.056203 0.14207 0.43762 0.47765 -0.017289 0.013748 -0.081724 0.35424 -0.093521 -0.34016 -0.19956 0.076475 -0.094643 -0.025342 0.010274 -0.030175 0.058276 0.23666 0.068198 0.0070974 -0.028209 0.24039 0.14737 0.031965 0.13278 0.32666 -0.20454 -0.017342 -0.31618 -0.013646 0.16087 0.043357 0.44801 -0.18715 -0.039578 -0.24512 0.17781 0.044857 0.010834 -0.35459 -0.38116 -0.31708 0.26899 0.012976 0.2634 0.36674 0.19668 0.15739 0.013902 0.024831 -0.1501 -0.52919 0.28201 0.68394 -0.34772 0.1935 0.13504 0.36454 0.17811 0.20116 -0.24114 -0.18439 -0.16205 0.26497 0.050233 0.017727 -0.57046 0.30094 0.28468 0.19213 -0.068494 0.14913 -0.13217 -0.35316 0.42402 -0.57351 0.24901 0.13047 0.32367 -0.072348 0.16063 0.096085 0.024915 0.22964 0.2995 0.14028 0.36925 -0.11938 -0.10412 0.46242 -0.11596 -0.38207 -0.049226 0.07682 -0.13485 0.13035 0.25893 -0.12618 0.47144 0.073255 0.10532 -0.043784 0.1977 -0.2539 0.22376 -0.6125 0.2693 -0.028352 -0.36175 -0.023897 -0.01412 0.020135 0.075485 0.097691 -0.29651 -0.1472 0.36833 -0.32262 -0.045633 0.25178 -0.10424 0.35499 -0.069191 0.068344 -0.11179 -0.027972 0.020898 -0.065894 -0.13287 -0.12348 0.14392 -0.16695 -0.40771 -0.078326 0.20283 -0.29231 0.36743 -0.09163 0.26523 0.36774 0.093904 -0.030828 
round -0.22797 0.014462 0.081212 -0.51066 -0.23269 0.15767 -0.11784 -0.015477 0.14231 0.031876 -0.022072 -0.011983 -0.017377 0.2357 -0.17929 -0.047057 0.092087 -0.069661 0.074345 -0.21224 0.036152 0.039143 -0.17312 0.13168 0.080419 -0.09818 0.0066287 0.15771 -0.020295 -0.22879 -0.21189 -0.26839 -0.20498 -0.0080037 0.25704 -0.21808 0.32583 0.21237 0.18985 0.075584 -0.09165 0.15339 -0.098068 0.075389 -0.22372 -0.22747 -0.20925 0.035347 -0.13213 0.10287 -0.10938 -0.025035 0.19839 -0.20499 0.081255 0.12916 0.082984 -0.055597 -0.0079253 -0.0378 0.1554 0.16972 0.09911 0.058993 0.23101 0.03991 0.30831 0.29669 -0.20514 -0.16786 0.16014 -0.25949 -0.15112 -0.033283 0.0052599 0.078186 0.12693 -0.089886 0.24296 -0.034137 -0.057316 -0.10271 -0.028898 0.072972 0.0020291 0.047677 -0.062261 0.16234 -0.04856 0.22783 0.1478 -0.2478 0.13879 0.19325 0.20106 0.0034226 -0.029495 0.077232 -0.063165 0.35371 -0.089994 0.21749 -0.10858 -0.0048102 0.076845 -0.24208 0.081064 0.14219 -0.23783 -0.087722 0.065279 0.0053179 -0.10348 0.0018936 0.13093 -0.047596 -0.11993 -0.17574 0.15263 0.18654 -0.029964 0.17081 -0.077819 -0.069692 -0.23369 -0.28635 -0.15083 0.081233 0.12101 -0.1794 0.4021 -0.12106 -0.37137 0.19511 -0.040068 0.12034 0.11525 0.072945 0.15348 -0.2369 -0.070035 -0.1141 -0.3639 -0.14456 0.015676 0.023617 0.021651 0.14879 0.18641 -0.32158 0.018577 -0.2848 0.051058 0.018536 -0.01048 -0.15926 0.19691 -0.20516 -0.23726 -0.1656 0.286 -0.18118 0.31392 0.040587 0.11242 -0.021073 0.35451 -0.2556 -0.013699 -0.17136 0.26236 0.1857 -0.24543 0.1333 -0.26829 -0.11928 -0.060245 -0.0024976 -0.081344 -0.12544 0.16914 0.024108 -0.028942 -0.27286 -0.022793 0.15637 -0.12496 0.056689 -0.0048139 -0.085522 0.071377 -0.21665 0.1043 -0.046763 0.050725 -0.084071 0.060031 0.14958 -0.27388 -0.17302 -0.18828 0.05179 -0.20948 -0.065886 -0.23274 0.024954 0.12646 -0.10404 -0.004413 0.063722 -0.10098 0.014169 -0.0042487 0.21898 0.24275 -0.01936 -0.16711 -0.016677 0.15968 -0.18079 -0.19226 0.027103 -0.06542 0.11386 -0.24568 0.19632 -0.12772 -0.1267 0.020212 -0.15257 0.05641 -0.075393 0.068351 -0.14258 0.10817 0.048844 0.085737 0.010634 0.095009 -0.10053 0.0040361 0.029061 -0.087762 -0.10053 -0.10824 0.075803 0.14513 -0.15993 0.14166 0.11846 -0.05618 0.045103 0.3133 0.19929 -0.031848 -0.22128 0.1082 0.075194 0.045295 -0.090391 0.065159 -0.1131 -0.068274 0.0435 0.0462 0.06699 -0.1759 -0.0092109 0.25092 0.09175 -0.080863 -0.028865 0.12899 0.06659 0.31116 -0.035304 0.3553 -0.10959 0.10277 0.076086 0.11492 -0.11342 0.04118 -0.11504 -0.090846 -0.075105 0.14007 -0.038589 -0.021681 -0.0070013 -0.02912 0.1858 0.067425 0.21391 0.31649 0.1061 -0.097788 -0.17371 0.32989 -0.0023046 
clothes -0.10311 -0.10742 -0.013654 -0.1111 -0.14887 -0.20617 0.2693 -0.10956 -0.16661 -0.020055 -0.44853 -0.1454 -0.15987 -0.077859 -0.15925 -0.40214 0.074616 0.33119 -0.034863 -0.15933 -0.0391 0.14635 0.22536 0.094441 0.23577 -0.2845 -0.1385 -0.19289 0.11572 -0.2556 -0.22283 0.13544 0.15445 -0.034446 -0.33392 -0.16747 0.002272 -0.058209 0.39709 0.010592 0.0344 -0.22457 -0.37224 -0.0088306 -0.031234 -0.37655 -0.22632 -0.035659 -0.18534 -0.043725 -0.088977 -0.088377 0.098421 -0.0065915 -0.21277 0.19411 0.30209 -0.024432 0.098352 0.040994 0.06472 -0.11482 -0.1424 0.16478 -0.22332 0.026743 -0.157 -0.10271 0.11828 -0.23509 0.22024 0.017752 -0.2786 -0.075089 0.13165 0.089272 -0.068235 0.26619 -0.044194 0.34835 -0.028109 -0.10825 -0.11547 0.11252 -0.026888 0.11774 -0.22802 -0.24535 0.087672 -0.049976 -0.078561 0.22058 0.16526 0.13671 -0.016334 -0.12368 0.14431 -0.29996 -0.040833 -0.065899 -0.017607 0.38595 0.30111 0.13026 -0.09583 0.02857 -0.024019 -0.16155 -0.25309 -0.054301 0.093206 0.11874 -0.30438 -0.27762 -0.3924 0.013591 -0.094079 0.35394 -0.48109 -0.16535 -0.23897 -0.04671 0.061495 -0.062968 -0.062892 -0.054028 -0.067906 0.071932 -0.00097387 -0.29594 0.20772 -0.19462 -0.10303 -0.13552 0.096593 0.075889 -0.20505 0.1189 0.17244 0.070989 -0.015383 -0.15427 -0.003651 -0.36133 -0.16224 0.0069704 -0.46985 0.11104 -0.042897 -0.047108 -0.084241 0.017949 0.026286 -0.13877 0.12 0.019051 0.081055 0.13244 -0.099319 0.084387 0.020169 0.13209 -0.12787 -0.03763 0.15274 -0.07937 -0.016152 -0.38118 -0.041403 0.18314 0.013774 0.14371 0.064238 -0.081232 0.30744 0.12959 -0.033333 0.43432 0.026596 -0.12868 -0.025225 0.27071 -0.21092 0.091435 0.25356 0.12714 -0.31816 -0.039221 -0.1202 0.11728 -0.33897 -0.057255 0.0017414 -0.10517 0.21343 0.26259 -0.12585 0.047684 -0.055809 0.012046 0.15878 0.022996 -0.015967 -0.21867 0.02385 -0.2191 -0.13051 -0.20582 -0.021216 0.0068893 -0.18686 0.040172 -0.05915 0.055454 0.065121 0.10398 -0.11459 -0.077963 -0.15442 0.26836 -0.29631 -0.13113 0.14928 0.023917 0.057909 -0.0815 0.14587 0.042376 0.082072 -0.088654 0.13936 -0.0039114 -0.064524 -0.22974 0.041521 0.066569 0.35063 -0.11193 -0.013768 0.14719 0.19219 -0.19883 0.06627 -0.19048 -0.22924 -0.080373 0.22123 0.034809 -0.15963 0.020048 -0.37239 -0.1742 -0.3028 -0.1626 -0.028878 -0.2274 0.10134 -0.17842 0.19552 -0.052785 0.0042956 0.021767 -0.48814 -0.065189 0.27833 0.13151 0.089618 0.40702 0.091512 0.22989 -0.19092 0.33101 -0.069927 -0.17919 0.32311 -0.14351 0.22434 0.28991 0.08008 -0.38102 0.00070316 0.076641 -0.26431 0.16023 -0.086788 0.1493 0.048416 0.10634 0.12229 0.13419 0.16683 0.0044985 0.036759 -0.096305 -0.054108 -0.28 -0.043019 -0.034537 0.065764 -0.1341 
carnivore 0.13502 -0.20553 0.34488 0.30564 -0.30555 0.072998 -0.32465 -0.027201 -0.17413 0.058372 -0.11065 -0.014545 -0.10051 0.074924 0.022943 -0.14737 0.1531 -0.019281 -0.23241 -0.040817 -0.052196 0.27706 -0.055403 0.13222 -0.03265 -0.1524 -0.18356 -0.3543 -0.065734 0.041538 -0.33054 -0.35206 -0.0026447 -0.33655 0.042617 0.098601 0.15764 -0.10556 0.05489 0.03989 -0.23076 -0.17495 -0.16316 -0.089472 0.042476 -0.011237 0.28354 -0.03414 -0.25188 0.12247 0.13481 -0.17314 0.24026 0.020396 -0.11286 0.11638 0.017276 0.20915 0.10065 0.090224 0.049755 0.20363 0.0020362 -0.18866 -0.18289 -0.020599 -0.083377 0.044398 0.0048284 -0.060358 0.38448 -0.085423 -0.12271 -0.062308 -0.084499 0.18665 0.10456 -0.082903 -0.0035853 -0.032891 -0.12391 -0.079521 -0.0026478 -0.11435 0.044736 -0.36245 0.044658 0.051383 0.25617 -0.15787 0.11829 0.14672 0.0084364 0.037597 0.091047 -0.094673 0.29302 0.067362 0.12042 0.10073 -0.039444 -0.012894 0.09433 0.061403 0.071543 0.021373 0.15401 0.004594 0.13352 0.050511 -0.1776 -0.17157 -0.12591 0.024237 0.16039 0.23836 0.1427 0.17101 -0.23158 0.26259 0.24368 0.032284 -0.094356 0.12593 0.16898 0.14754 -0.031573 -0.20968 -0.06636 -0.034292 -0.039933 0.21426 -0.15578 0.083259 -0.32861 -0.04354 -0.080299 0.062561 -0.12164 0.15692 0.073395 0.13461 -0.25687 0.18648 0.26927 0.01367 -0.16481 -0.002821 -0.26199 0.22474 -0.19834 0.34485 0.098064 -0.11771 0.03621 0.0045462 0.30596 -0.030412 -0.19729 0.043148 0.20295 0.28414 -0.037413 0.27314 -0.1921 0.16411 0.018041 -0.16217 -0.01873 -0.16751 0.12329 -0.092604 -0.2639 -0.31431 -0.036106 0.070122 -0.20358 0.19788 -0.08166 0.0046657 -0.13996 -0.07911 0.10553 0.23334 -0.26874 0.073873 -0.085479 -0.09639 -0.0068407 -0.2952 0.073247 -0.29118 -0.15332 -0.21509 0.3684 -0.075675 -0.088695 -0.17567 -0.028413 -0.15598 -0.11728 0.40945 -0.10251 -0.0070811 -0.059754 0.2403 -0.053413 -0.12806 0.12479 -0.22203 0.074257 0.051672 -0.051799 0.095572 0.062738 0.061635 0.21762 0.21373 -0.21471 0.035284 0.014089 -0.15966 -0.0088422 -0.046776 0.33435 0.21937 0.034124 0.10413 -0.27297 0.099297 -0.082229 -0.31584 -0.041776 -0.25756 0.026798 0.17339 0.04006 -0.067146 0.063822 -0.042565 0.14606 0.20398 0.091698 -0.054356 0.17631 -0.12139 -0.22808 0.33728 -0.088425 -0.23667 -0.3423 -0.24432 -0.12372 -0.045007 0.11804 -0.045406 0.36463 -0.13928 0.079302 -0.047436 0.19137 0.024653 0.019961 -0.053284 -0.12208 -0.082626 -0.087856 0.2238 -0.10365 -0.16181 -0.020623 0.15028 -0.3001 -0.03195 0.10312 -0.16355 -0.074484 0.22741 -0.022674 0.34904 0.19593 0.21215 -0.023381 -0.056107 -0.1766 -0.019863 0.007529 -0.34513 0.26204 -0.00014545 -0.11576 -0.20446 -0.32792 -0.074554 0.3609 -0.53569 -0.28642 0.38581 -0.34991 -0.083995 
sign -0.11195 0.20382 -0.062126 -0.057462 -0.12852 -0.058935 -0.15499 0.019209 -0.14818 -0.14007 0.085137 -0.020907 0.031199 -0.097539 -0.059549 -0.30417 0.049389 0.18353 0.029844 -0.065453 -0.086313 0.21111 0.20008 0.13326 -0.054953 -0.17219 -0.11668 0.01189 -0.14527 -0.079882 0.11167 -0.1094 -0.30627 0.21381 0.038091 0.10548 0.19073 0.065295 0.058795 -0.11659 -0.19464 -0.01206 -0.29184 0.14839 -0.11438 -0.011916 -0.06403 -0.090634 -0.13124 0.17691 -0.046694 0.12656 0.054507 -0.10887 -0.071051 -0.15485 0.15629 0.14044 -0.25008 -0.11732 0.00045537 0.19136 -0.082389 0.092352 0.21857 -0.15515 0.063507 -0.092292 0.15014 -0.14632 -0.063739 -0.034522 0.018505 -0.05251 0.14198 -0.14079 -0.15206 0.018171 0.18858 0.015877 -0.32819 0.047219 -0.050214 0.11311 0.030439 -0.089286 -0.17939 -0.06521 -0.20272 -0.027868 0.093082 0.12919 -0.13431 -0.055316 -0.021916 0.10833 0.077067 -0.089444 0.17382 0.23957 -0.013235 0.25642 0.067984 -0.13116 0.13472 0.12708 -0.062873 -0.0063246 -0.19067 0.17781 -0.08194 -0.19024 -0.011765 0.20526 -0.16709 -0.0062685 0.10864 -0.056281 -0.22797 0.30628 -0.057667 0.15226 -0.059201 0.0069326 0.012503 -0.28993 -0.055488 -0.11152 -0.012154 -0.16191 -0.22425 0.11907 0.13297 0.16063 0.14935 0.0005693 0.14347 0.015138 0.067295 0.1425 0.008926 -0.012955 -0.25429 -0.20721 -0.022243 0.050668 -0.079445 -0.15841 -0.050688 0.002839 -0.40888 -0.20289 0.069213 0.1783 0.054718 -0.11311 0.085852 -0.062364 0.091841 -0.0063386 -0.023423 -0.054466 0.1261 0.1865 0.051637 0.21529 0.052089 -0.1152 -0.13245 0.0039009 -0.11139 0.1581 0.0626 -0.015391 0.074782 0.26555 0.22628 0.029248 0.016742 -0.036675 0.13523 0.11561 -0.10334 0.070924 0.11642 0.11695 0.13163 0.089075 -0.043281 -0.018643 0.044805 0.20122 -0.022645 0.02817 0.016817 0.02089 -0.075861 0.17637 -0.025953 0.00050031 0.049804 -0.075886 -0.021781 0.043176 -0.12684 0.25913 -0.075601 0.046993 -0.1476 0.019158 -0.25469 -0.12993 -0.0010907 -0.070894 0.0012715 -0.14824 -0.066201 0.1687 -0.32212 0.19167 0.14173 -0.024852 -0.04499 -0.078158 -0.096723 0.090978 0.28083 -0.11409 0.091076 0.089346 0.065527 -0.018251 -0.090786 0.032939 -0.0017575 0.063408 -0.0345 -0.090656 -0.31767 -0.083398 0.065889 -0.21011 0.067938 -0.020731 -0.16608 0.2341 -0.0036289 -0.01012 0.0045663 -0.11372 0.172 0.12854 0.14268 0.095396 0.057097 0.0688 -0.067431 0.12008 0.15931 0.018096 0.16291 0.0040672 -0.13875 0.11029 0.032403 -0.061585 -0.054157 0.065552 0.13146 0.22724 -0.10478 -0.052935 -0.17445 -0.20211 -0.17637 0.23546 -0.0071781 -0.23294 -0.10558 0.087746 0.067427 -0.11123 -0.081876 0.15965 -0.08953 -0.11736 0.2145 0.082346 -0.15456 0.11365 0.16222 -0.29835 -0.32543 -0.028865 -0.14031 -0.27059 -0.17484 0.055141 -0.047016 0.36971 
street 0.22248 -0.14438 -0.018005 -0.23409 -0.36704 0.11141 0.1096 -0.057116 -0.25605 0.16668 -0.091076 0.29187 -0.29747 0.18744 -0.31351 -0.13205 -0.32081 0.39635 0.18074 -0.046162 -0.21703 0.15787 0.12669 0.24155 0.017653 0.029338 0.22752 -0.032241 0.12981 -0.034782 -0.063002 -0.18655 -0.16195 0.044676 -0.077508 -0.18475 0.073898 0.020623 0.17115 0.033133 0.08058 -0.043741 -0.093816 0.24173 -0.30843 0.018299 0.21222 0.11066 0.13377 -0.21453 -0.070636 -0.11264 -0.21127 0.037139 -0.21129 0.10196 0.25093 -0.075551 -0.084772 -0.19596 0.17155 -0.06556 -0.062402 -0.08984 -0.079887 -0.17127 -0.028936 -0.012172 -0.17437 -0.24949 0.11894 -0.11883 -0.040164 -0.041992 -0.14004 0.13333 0.011908 -0.1561 -0.11491 0.11768 -0.17664 -0.087346 0.0043493 0.26406 -0.026257 0.053109 -0.065131 0.16282 -0.056057 -0.080035 0.12442 -0.038558 0.024988 0.15822 0.045498 -0.011993 -0.086988 0.14739 0.013581 0.058635 0.01606 0.059239 0.070672 -0.0033177 0.0064763 0.0031196 0.06377 -0.064242 0.039057 -0.018727 0.076299 -0.051368 0.067633 0.034042 -0.15984 -0.26961 -0.36802 -0.01465 -0.2175 -0.061294 -0.30959 0.016587 0.20678 -0.12344 -0.1643 -0.058718 0.099959 -0.13228 0.098787 -0.03799 0.15687 0.18602 -0.17428 0.13836 0.0403 -0.24286 -0.19957 0.13392 0.01211 0.094195 0.067999 -0.22166 -0.12939 -0.055927 0.058597 -0.11254 -0.083177 0.1378 0.16448 -0.087998 0.033361 0.23616 -0.17347 -0.11342 -0.12523 -0.22168 0.19892 0.016999 -0.098407 0.040518 -0.069214 0.079802 -0.088215 -0.026197 -0.12847 0.19422 -0.0003992 -0.16775 0.18375 0.04356 0.17809 0.099232 -0.17898 -0.031049 0.23342 -0.017085 0.30433 0.22297 0.12726 0.13426 -0.068684 0.20176 -0.059562 0.043057 0.06974 0.14173 -0.10351 -0.14726 -0.082366 -0.19044 -0.21302 0.081224 0.023703 -0.28906 0.11985 0.066608 0.046546 0.3384 0.25947 -0.044585 -0.27952 0.13339 -0.10826 -0.14046 -0.20268 0.17242 -0.29816 -0.0058604 -0.18606 -0.064074 -0.29351 -0.20701 -0.38145 -0.24868 0.030947 -0.41666 0.14673 0.059345 0.042742 0.13806 -0.13017 0.059798 0.0063151 -0.11786 -0.080044 -0.14764 -0.067927 0.025038 -0.031153 0.080142 0.11836 0.14101 -0.13028 -0.095841 0.20025 -0.066365 0.1397 -0.0058294 -0.16148 -0.14242 -0.012288 -0.12148 -0.075482 -0.18893 -0.0027967 -0.11607 0.1434 0.039044 0.031571 -0.16585 -0.052962 -0.098677 0.033843 0.2982 -0.010927 -0.34539 -0.018049 -0.03599 -0.14747 -0.070428 0.094253 -0.062642 -0.30697 -0.15292 0.063535 0.12697 -0.017971 -0.157 0.32474 0.04312 -0.1625 0.1888 0.022222 0.0076275 -0.11475 -0.24494 -0.083624 0.20665 -0.17613 0.15947 -0.12109 0.12501 -0.15858 0.10124 -0.18013 0.079015 -0.11625 -0.1076 0.11872 0.0025939 0.12577 0.14079 0.045687 0.059057 -0.24092 0.013497 -0.13479 0.11447 -0.015138 -0.19274 
video 0.032882 -0.13974 -0.011569 0.10563 -0.25477 -0.13346 0.16473 0.053227 0.015175 -0.087603 -0.33401 -0.057948 -0.31844 0.1455 0.094022 -0.1813 0.029539 0.0084915 -0.045471 -0.0053973 -0.015447 0.20868 0.12954 0.031029 0.2615 0.013256 -0.10163 -0.048549 -0.22035 0.00020661 -0.31646 -0.068737 -0.013636 -0.0031291 0.14421 0.14799 0.045934 0.036895 -0.0095162 0.31678 -0.059737 0.12077 -0.11991 -0.18326 -0.23811 -0.076966 0.0099551 -0.093977 -0.079804 0.16852 -0.19854 -0.10003 -0.16531 0.15744 -0.33238 -0.045832 0.11685 -0.039867 -0.056172 0.068443 0.015121 -0.21388 -0.11677 -0.2522 -0.13787 -0.0047526 -0.14096 -0.14498 -0.03103 0.02135 -0.040861 -0.2256 0.17829 -0.231 -0.099422 -0.096527 -0.13744 -0.12776 0.19492 0.31152 -0.064055 0.12904 0.094271 -0.09581 0.022529 -0.20507 0.016073 0.25569 -0.016313 -0.19814 0.030303 -0.00036731 0.17701 -0.20015 -0.19605 0.10203 0.32789 -0.032094 -0.18107 0.090184 -0.086127 -0.15457 0.057732 -0.2388 -0.10189 0.19412 -0.21079 -0.0688 -0.13299 -0.029607 -0.1757 0.073976 -0.035492 0.17809 -0.21278 -0.31825 -0.22371 -0.15133 -0.13943 0.23752 0.0073123 -0.3625 -0.017694 -0.083747 -0.059638 -0.04773 0.032721 0.094648 -0.042512 0.1582 0.027241 0.34801 -0.14082 0.2012 -0.069115 -0.032704 -0.017324 -0.050571 -0.082872 0.10471 -0.032562 -0.0099454 0.1586 -0.25427 -0.15171 0.17503 -0.24639 -0.016055 0.015372 0.1555 -0.18629 0.010506 0.027247 0.032784 -0.13265 0.093693 0.24816 -0.13412 -0.19719 0.27178 -0.13127 0.11687 -0.10228 0.25801 -0.16428 0.25877 0.22516 -0.30268 -0.0083398 0.097423 -0.23268 0.29116 -0.21881 0.10025 0.0037046 -0.206 -0.22859 -0.06952 0.34441 -0.092071 0.29159 0.36513 0.094681 -0.073327 0.28222 0.21012 -0.13938 -0.20466 -0.042082 -0.016834 0.078071 0.64598 0.047094 -0.11689 -0.13309 0.12775 0.13742 0.14256 0.078238 0.094309 0.14684 -0.15905 0.28475 -0.090254 0.09748 0.019466 0.041666 -0.0080455 -0.176 0.28688 0.10538 0.22131 -0.024081 -0.14364 -0.20621 0.011767 -0.10589 -0.26175 -0.036177 -0.11714 -0.29454 -0.25927 -0.22249 0.19688 -0.093137 0.21898 0.11783 -0.0019272 0.14616 0.26808 0.19592 0.00040729 0.34446 -0.25423 0.17774 0.0075779 -0.10299 0.028827 -0.03788 0.17509 0.18761 0.15374 -0.038288 -0.0239 0.11835 -0.073679 -0.12575 0.13935 -0.081503 0.18123 0.033245 -0.34236 0.46239 0.088856 0.35566 -0.010533 -0.11493 -0.23939 0.26821 0.17983 -0.087267 0.12661 -0.00036705 0.15221 -0.098229 0.12048 0.13904 0.15911 0.14503 0.22356 -0.15926 -0.25292 0.061277 -0.26187 0.19087 -0.14779 0.10938 -0.044049 -0.019696 -0.069875 0.26672 -0.12724 0.27938 -0.075276 0.01018 -0.0040608 -0.10195 -0.029316 -0.1054 0.04738 0.0079488 0.084637 -0.075501 0.12289 0.1449 0.14541 -0.30145 0.35583 -0.12177 -0.20981 
lawyer -0.092294 -0.056061 0.31405 -0.020863 -0.14332 0.12295 -0.22253 -0.077322 0.26549 -0.17527 -0.32658 -0.16179 0.071796 0.17857 -0.21941 -0.079396 -0.24239 -0.23462 0.038775 0.23705 -0.23303 -0.069475 0.28607 -0.33889 0.20705 0.12696 0.013479 0.16584 -0.2167 0.071738 0.10266 0.044146 -0.035889 -0.094543 -0.10918 0.17564 0.22816 -0.059682 -0.085357 -0.15944 0.25976 0.13188 -0.10026 0.13316 -0.17449 -0.24613 -0.026392 -0.06599 0.017691 -0.13248 -0.10017 0.043003 0.0013977 -0.10108 0.19548 -0.063153 0.0038635 -0.06708 -0.23762 -0.045645 0.1349 -0.00026268 0.011672 -0.34017 -0.1702 0.16825 -0.25471 0.20026 0.043247 0.16455 0.16043 -0.073944 -0.017115 -0.15076 -0.20262 -0.055441 0.20737 0.012261 0.042266 -0.15394 -0.028517 0.10506 0.16918 0.21731 0.15399 -0.19574 0.14444 -0.22565 0.038299 0.0017122 -0.056351 -0.0491 -0.039287 -0.16065 0.21964 -0.096661 0.1397 0.07619 0.046501 0.19672 0.31754 0.19301 -0.073575 0.0067559 0.040256 0.24555 0.14183 0.22555 0.015879 -0.12356 -0.167 0.14859 0.31452 -0.20488 -0.068575 0.10877 -0.14003 -0.15496 -0.16068 -0.066969 -0.22783 -0.19488 0.062921 -0.29786 -0.076634 0.18458 0.10126 0.13013 0.14206 -0.35918 0.053011 -0.40773 0.047944 0.021198 -0.16465 0.046361 0.079143 -0.052321 0.14618 0.41677 -0.31355 0.080047 -0.14217 0.0024599 -0.20972 -0.063416 -0.10089 -0.12591 -0.24301 -0.19823 -0.031502 0.042389 -0.19173 0.071729 0.056998 0.1438 0.020249 0.17049 -0.21415 -0.084331 -0.063195 -0.15029 -0.32726 -0.027657 0.4137 0.27522 -0.10111 0.03866 -0.10738 -0.037237 0.048287 0.024896 0.16837 -0.012236 0.38385 0.086334 -0.18781 0.017998 0.22605 0.28054 -0.054321 0.10713 -0.34447 -0.077578 0.020956 0.016826 0.038164 -0.028914 -0.05549 -0.27505 -0.034276 0.033236 -0.13611 -0.29765 0.071432 0.013133 -0.016111 -0.01252 -0.44249 0.28261 0.16663 -0.025879 -0.22405 -0.037377 0.098408 -0.059895 0.21086 0.20938 0.11712 0.15027 0.23744 0.0604 -0.047395 -0.21909 -0.036659 0.032999 0.028093 0.074497 -0.050842 -0.048486 0.034453 0.17438 -0.071443 0.061239 -0.13601 0.22627 0.047196 -0.23962 -0.091835 0.19206 0.048413 -0.023527 0.018323 -0.10084 -0.072798 -0.11955 -0.069786 -0.39842 -0.21421 -0.188 0.11954 0.049124 0.2525 -0.27434 0.28128 -0.014156 -0.0093745 -0.086001 -0.25795 -0.15182 0.11015 0.16435 0.062134 0.24075 -0.07881 -0.061404 -0.083187 0.085736 0.43065 0.013242 0.021364 -0.11125 -0.0049013 -0.18743 -0.093057 -0.028923 -0.061084 -0.24187 -0.15355 0.1508 -0.13779 -0.03184 -0.041379 0.038472 0.070309 -0.2597 -0.13165 -0.030523 0.07674 0.37702 -0.21157 0.11196 -0.058552 -0.16836 -0.088839 0.087116 -0.18456 0.033776 0.28194 -0.022146 -0.086654 -0.26668 -0.014202 0.13562 -0.12141 -0.19256 -0.024058 0.14258 -0.022894 0.017854 
depression 0.015158 0.36128 -0.30319 -0.22469 -0.25973 -0.040357 -0.42483 0.16444 -0.32158 -0.073321 -0.17368 -0.13586 0.34041 0.10094 0.046135 -0.15102 0.46835 0.085748 -0.065987 -0.56992 -0.072218 0.34557 0.034438 0.15348 0.39829 0.016781 0.14352 0.32813 -0.28445 0.49866 0.28627 -0.33834 -0.047735 -0.1208 0.099431 -0.027838 0.10117 0.36054 0.035906 0.054566 0.11058 0.39726 0.27548 -0.0016551 -0.19174 -0.18981 -0.14925 0.17036 -0.072784 0.034044 0.12375 -0.052056 0.3712 -0.20271 -0.38006 -0.27287 0.015513 -0.23732 -0.023784 0.27541 0.1452 -0.082635 0.088789 0.11816 0.012558 0.0052587 0.018615 -0.048643 -0.028538 0.049663 -0.016692 0.053852 -0.025089 -0.071354 -0.32359 0.36103 -0.13101 0.50153 -0.068998 0.2914 0.12931 -0.060281 -0.40896 0.1246 0.080958 -0.14676 -0.19238 -0.036291 -0.14863 -0.13557 0.075351 -0.20578 0.47092 0.25171 -0.021379 0.076383 0.13094 -0.0024803 -0.27971 0.17503 -0.063021 0.060428 0.30378 0.013772 0.014198 0.074226 -0.0048429 -0.037458 -0.21713 0.26994 0.15377 -0.1353 0.096969 -0.17558 0.016175 0.22899 0.3998 0.088836 0.034105 -0.091873 0.03592 -0.10558 0.15095 0.1147 0.080528 0.024623 0.12534 -0.21397 0.50861 0.37102 -0.023529 0.1884 0.60959 0.40951 -0.20459 0.17511 0.27952 0.081279 -0.11498 0.13832 0.027545 0.066395 -0.31305 -0.060705 0.24625 0.092619 0.047342 -0.18483 -0.1928 0.11719 -0.080487 0.030179 -0.043234 -0.20188 0.029772 -0.1285 -0.1327 -0.13212 0.1415 -0.10945 -0.060838 0.48721 -0.28714 0.046437 -0.06149 -0.1449 0.21835 0.19145 0.056645 0.028081 0.19863 -0.071096 0.12502 -0.41465 0.028509 0.10858 -0.0083799 -0.11995 -0.031821 -0.14554 -0.2533 -0.0054682 0.056814 -0.050029 0.37921 -0.018919 0.081033 -0.039311 -0.039918 0.06085 0.24874 -0.063812 -0.0047774 0.00064981 0.22322 0.055758 0.076968 0.083644 -0.47661 0.177 -0.2517 -0.12391 0.3156 -0.16005 -0.19672 0.23282 0.17981 -0.057347 0.064717 0.030146 0.40875 -0.16754 -0.27598 -0.29156 -0.19847 -0.18272 0.39025 -0.27441 0.014775 -0.50174 -0.031633 -0.21156 0.22227 -0.02668 -0.11577 -0.062055 -0.11622 -0.15855 0.14032 -0.063904 -0.079933 0.16408 0.016671 0.029448 0.099832 0.53488 0.017562 0.18038 -0.16475 0.031684 0.066523 -0.15377 0.14915 -0.22641 0.002269 0.058678 0.00057399 0.37174 0.14671 -0.24659 -0.098156 -0.44947 -0.13581 -0.31259 0.028709 0.036613 0.1137 -0.059915 0.2954 0.18315 0.1906 -0.17731 -0.11986 -0.12974 -0.035385 0.071183 -0.35393 -0.27188 0.10755 0.0047818 -0.15228 0.092685 -0.18805 0.072055 -0.15742 -0.024869 0.14171 0.17937 0.29919 0.21272 -0.12719 0.19995 -0.57854 -0.25426 -0.056576 0.12517 0.31055 0.10379 -0.23187 0.081628 -0.064152 0.042405 -0.0036749 -0.22607 -0.22691 0.0021935 0.18303 0.26708 -0.18882 0.09976 
index 0.19622 -0.18396 -0.1008 0.32 0.09616 -0.22325 -0.10889 0.004909 0.069997 -0.42571 -0.037096 0.42439 -0.41737 0.43219 -0.0066117 0.085007 -0.32481 -0.051093 -0.17198 0.14189 -0.57713 0.21026 -0.20863 -0.43074 0.077862 -0.52791 -0.12284 0.31606 -0.70413 -0.033583 -0.32418 -0.49847 -0.046336 0.43988 0.32082 -0.29452 0.0691 -0.04629 0.06027 0.76633 0.034492 -0.14245 0.077008 0.65322 -0.11687 -0.28236 0.16821 -0.056484 0.26937 0.28827 -0.097248 -0.15997 -0.28399 -0.013121 -0.26664 -0.016726 0.32502 -0.24324 -0.19298 0.18865 0.069868 0.8769 0.16061 0.13131 0.3875 0.013314 -0.040741 -0.11532 0.24471 -0.38907 0.071224 0.074778 -0.19055 -0.27336 -0.26941 -0.30855 -0.33249 0.50539 -0.60791 -0.24547 -0.014835 -0.33616 0.37496 -0.090198 -0.12046 -0.15512 0.10741 -0.43286 -0.007536 0.10695 -0.48297 0.26675 0.041029 0.218 -0.002812 0.37346 0.17831 -0.30255 0.36285 0.19733 -0.34722 0.39401 -0.44161 0.025977 0.087758 0.057134 -0.072174 -0.019768 -0.71917 -0.11252 -0.12085 0.0067673 0.11372 -0.50129 -0.21486 -0.37881 -0.031851 0.24615 0.073629 -0.012161 0.054384 -0.082909 0.058238 -0.17015 0.24001 -0.17953 0.17222 -0.009644 -0.075965 0.20559 -0.043146 -0.40742 -0.17101 -0.33067 0.14194 -0.30293 0.18878 0.093773 0.44427 0.098638 0.39392 -0.14161 -0.26153 0.080778 0.14877 0.15349 -0.01108 0.02839 -0.19659 0.51472 0.21294 0.52378 -0.74241 0.20918 -0.42276 -0.15981 0.046554 0.46831 0.73688 0.33939 -0.16261 -0.35096 -0.058001 0.30893 -0.33692 -0.043937 0.090456 0.053007 -0.40922 0.51914 0.067232 0.21488 -0.26319 -0.073051 0.18151 -0.40685 -0.070205 -0.070323 0.12593 -0.29585 0.10401 0.33117 -0.3372 0.32261 0.020554 -0.074615 -0.15203 0.2068 -0.34451 -0.28189 -0.051091 -0.24506 -0.25783 -0.041463 0.26571 0.26839 -0.21105 0.010158 -0.094207 0.57323 -0.33529 0.44924 -0.1095 -0.025045 -0.20393 -0.14442 0.089869 -0.18234 0.30242 -0.021708 -0.04055 0.41927 0.21227 -0.066615 -0.13493 0.12711 0.057397 -0.10136 -0.19546 -0.16065 0.14609 -0.20708 -0.020726 -0.065375 -0.18668 -0.098414 -0.21007 0.22152 -0.34335 0.098824 0.41053 0.23837 0.17948 -0.18379 0.34514 -0.30951 0.17457 0.23479 0.21122 -0.77498 -0.024584 -0.44517 -0.11975 0.3937 0.32547 -0.30107 -0.28314 -0.37045 -0.28353 -0.28531 0.29883 0.23605 0.10681 -0.066417 0.19594 -0.38044 0.22115 -0.25197 -0.03056 0.024139 -0.039128 -0.093717 0.026332 0.17482 -0.10744 0.48155 0.026562 -0.48943 0.15767 0.26919 0.10982 -0.52158 -0.43015 0.18248 -0.23384 0.18206 0.15292 0.042167 -0.051044 -0.27026 0.086786 -0.33362 -0.23898 0.53506 0.04421 -0.27773 1.0012 -0.38431 0.18369 -0.041352 0.19703 -0.10723 0.67684 -0.29604 -0.060663 -0.12195 0.47882 0.39468 0.27263 0.14492 
sun -0.17272 -0.17416 0.17039 -0.071683 0.08925 -0.11948 -0.098115 0.26643 -0.14179 -0.080696 -0.40277 -0.03663 -0.21593 0.070375 -0.35778 -0.17517 0.078578 0.035923 0.15506 0.27976 -0.27251 0.16276 0.044655 0.0084725 -0.091652 -0.18183 0.018373 -0.092768 -0.029787 0.22645 -0.22034 -0.087285 0.064392 0.11737 0.11146 -0.1254 0.13813 -0.0069229 -0.024503 0.24617 0.34407 0.11201 0.075533 -0.1826 -0.067 -0.058747 -0.34518 -0.1766 -0.19489 0.11288 0.097099 -0.40285 -0.19709 -0.038781 -0.20397 -0.059293 0.45911 -0.25042 -0.1365 0.018221 -0.26956 0.051933 0.21587 0.21742 -0.018242 -0.15328 -0.19224 0.21525 -0.070266 -0.19533 0.34797 0.21083 -0.062133 0.15601 0.34411 0.3054 -0.081729 0.19876 -0.33277 0.30289 0.12248 -0.019345 -0.16025 -0.057007 0.096913 -0.24422 0.0041062 0.20525 -0.098163 0.17589 -0.13267 0.12449 0.12775 -0.31295 0.2064 -0.080727 -0.0046146 0.37628 0.46513 -0.12275 -0.26859 0.28236 -0.27825 -0.07356 -0.082593 -0.19507 -0.066701 -0.4397 -0.12104 0.26948 0.16773 -0.03263 -0.19772 0.0057442 -0.23609 0.28817 0.01992 -0.061814 0.087589 -0.066399 -0.064464 0.14933 0.021254 0.050487 -0.1336 0.024262 -0.17216 0.014529 -0.22481 0.1248 0.17811 0.1808 -0.000187 -0.087943 -0.069646 -0.18729 0.14774 -0.15055 0.064335 0.10651 0.31813 0.1646 -0.3945 -0.0312 0.19001 0.047811 -0.16262 0.16004 0.069521 -0.22432 -0.23943 0.048778 -0.093577 0.2747 0.0016078 0.13579 0.29035 -0.17987 0.10913 -0.18118 0.097855 0.030647 -0.11845 0.28244 0.21721 -0.14257 0.0022517 -0.19068 -0.0029511 0.39185 0.08514 0.11897 -0.25008 -0.18355 -0.25969 -0.063933 -0.21222 -0.37915 -0.12172 -0.21407 0.077232 0.34308 -0.44127 -0.10439 -0.067424 0.47945 -0.026291 0.12267 0.05605 -0.22276 0.0091222 -0.20939 -0.25375 -0.22318 0.45144 -0.052607 0.61402 0.014999 0.21511 -0.21438 -0.293 0.23983 0.20398 0.17873 -0.044101 0.26801 0.051992 -0.24421 -0.13201 -0.13375 -0.1602 0.098805 0.19025 0.068753 0.24715 -0.20812 0.26698 0.30442 0.1013 0.21834 -0.19727 0.21506 -0.077294 -0.18878 0.22254 0.10275 -0.026155 0.17322 -0.072078 0.074876 0.030266 0.37756 -0.0028919 -0.068056 0.16398 0.33251 -0.1587 0.29747 0.097045 0.072315 0.16083 0.32192 0.050485 -0.19185 -0.071133 0.10992 -0.12472 0.032872 -0.23894 -0.1265 -0.3439 -0.34207 0.14734 -0.037715 -0.045679 -0.13609 0.26185 0.035402 0.019138 -0.068637 -0.080395 -0.069556 -0.059063 0.078582 0.17367 0.082993 -0.039234 0.27899 0.062815 -0.13871 -0.1107 -0.049464 -0.18716 -0.35335 -0.097808 -0.066612 -0.054599 -0.27605 -0.027844 0.1022 -0.20944 0.23642 -0.14274 -0.12787 -0.25757 -0.010526 -0.13221 0.19366 -0.001056 -0.35238 0.097591 0.29722 0.14397 0.097645 0.061373 -0.10954 -0.29425 -0.12218 -0.32634 -0.28372 
cell -0.38977 -0.4093 0.07558 -0.19403 -0.18499 -0.32325 0.10695 -0.16907 -0.021325 -0.15348 -0.21986 0.030847 0.063318 0.47889 0.11002 0.28656 -0.19599 -0.17953 -0.032193 0.06746 -0.12685 0.064278 0.19818 -0.26516 0.017146 -0.058748 -0.069976 0.0031394 -0.54383 0.22766 -0.04445 -0.13692 -0.31635 -0.030062 0.063593 -0.10862 0.094462 0.22724 -0.27895 0.059095 -0.10607 -0.11974 -0.11668 -0.12304 0.015959 0.24499 0.15938 0.31882 -0.095169 -0.24828 0.094884 -0.054771 -0.26546 -0.21979 -0.35487 -0.16232 -0.064467 0.066203 -0.23941 0.14095 0.18297 0.074201 -0.15764 -0.15452 -0.12451 0.10093 -0.2396 -0.01478 -0.099954 -0.19337 0.35302 -0.3875 0.017833 0.10127 -0.21773 0.12714 -0.23532 0.14924 0.23838 0.40884 -0.24528 -0.12403 0.11344 0.0091874 -0.19486 -0.34394 0.0061816 -0.23855 -0.22887 0.39246 0.062313 -0.18712 0.26391 -0.54716 -0.21014 -0.069481 0.2423 -0.33295 0.0092519 -0.050286 -0.34123 0.13158 0.23432 0.20346 -0.046024 -0.063426 0.095203 0.038493 -0.042301 -0.034731 0.21609 -0.090487 0.18797 -0.1625 -0.00086389 0.037976 -0.16562 0.29777 0.16826 0.038566 -0.28627 0.016471 0.11511 -0.23893 0.20607 -0.03309 0.1182 -0.043479 0.39191 -0.05726 -0.10344 0.31699 0.066572 0.37561 -0.1094 -0.10748 -0.37771 0.078412 -0.55511 0.1801 0.098506 -0.17138 0.094493 -0.15732 -0.10036 -0.019643 -0.53777 -0.32638 0.28666 0.0070093 -0.10001 0.037076 -0.0019863 0.078764 0.27376 -0.0030377 -0.09248 0.033991 -0.12544 0.11564 0.12519 0.54619 -0.39657 -0.028193 0.040049 0.12455 0.30256 -0.081813 -0.40517 0.07772 0.22463 -0.13428 -0.016494 -0.11507 -0.39953 -0.015218 -0.25672 -0.044147 0.0086257 0.29327 0.25111 -0.076233 0.065779 -0.14352 -0.24339 0.086593 0.084822 -0.2734 0.09522 0.42854 0.070365 0.23215 0.11571 -0.20412 0.23971 -0.22845 -0.12998 0.1691 0.11328 0.049692 -0.31898 0.26454 0.23024 0.058455 0.23469 -0.2548 -0.18028 0.29667 -0.13992 0.30287 -0.19119 0.40931 -0.02963 -0.037593 0.49999 0.061347 0.039612 0.15139 -0.27636 -0.12532 -0.3232 -0.263 -0.31382 0.30792 -0.36964 0.41926 -0.32749 0.10049 0.20762 0.20174 0.24226 0.25073 0.1559 -0.14875 0.031447 0.22984 0.25325 -0.12382 -0.21821 0.053544 -0.26369 0.027423 0.023838 -0.22064 -0.081488 -0.014205 0.23985 -0.35112 0.092189 0.25796 -0.098417 -0.23086 -0.085225 -0.081705 0.069925 0.012171 0.2448 -0.16175 0.25347 -0.0044894 0.024779 0.083806 0.20238 0.22123 0.10605 -0.0075014 -0.14446 -0.15076 0.10882 -0.051417 0.14589 0.2371 -0.10593 -0.068336 -0.095386 0.033116 0.18453 -0.23287 -0.12884 -0.2639 0.12767 0.44821 -0.22201 0.12279 0.17771 0.2376 0.25011 0.27294 0.1116 0.28473 0.38569 -0.019341 -0.1545 0.21105 -0.018232 -0.0066421 -0.052257 0.59253 -0.22152 -0.38316 
nurse -0.22409 -0.10777 0.17479 -0.097276 -0.071572 -0.16797 -0.1695 -0.009969 0.0082474 -0.74174 0.042468 -0.13672 0.083459 0.11913 -0.021414 0.15577 0.045421 0.13343 -0.11167 -0.1211 0.1289 -0.18147 -0.056725 -0.1996 0.26349 -0.16323 0.1497 -0.20786 -0.18419 -0.12881 -0.0041547 -0.22596 0.10923 -0.14659 -0.22238 -0.067882 0.17073 0.45288 0.25564 -0.38871 -0.06307 0.099258 -0.075525 -0.10275 -0.45316 -0.1036 -0.19771 -0.25251 0.28958 -0.029708 -0.12859 -0.019683 0.37951 -0.19034 0.067951 -0.080865 0.034656 0.18928 -0.077074 -0.043801 0.13378 0.27428 -0.14302 0.047518 0.04 0.009822 -0.32638 -0.090754 0.14992 -0.041163 0.034273 0.15876 0.20847 -0.037026 -0.2642 0.074776 0.037392 0.34797 -0.17671 -0.035416 0.15515 0.24645 -0.16369 0.37044 0.12633 -0.033148 -0.08968 -0.11188 0.0011996 0.29488 0.24781 -0.18394 0.082977 -0.25703 -0.061405 -0.18576 -0.071346 0.11652 -0.12088 0.086156 0.13553 0.067794 -0.022012 0.08804 0.13314 -0.094725 0.066552 0.24204 0.27347 -0.025407 0.11288 0.22897 -0.057377 -0.34405 0.084559 0.18161 -0.015452 0.087351 -0.18639 -0.10478 -0.040027 -0.084563 0.13257 -0.34536 0.089197 0.057989 -0.039299 0.20349 0.31547 0.071497 0.14781 -0.24283 0.29437 0.13913 -0.052372 0.2357 -0.033816 0.047467 0.31619 0.072644 -0.067597 -0.11054 -0.020525 0.16697 -0.21236 -0.24028 0.21925 -0.068519 -0.17859 0.025959 -0.30759 0.0089993 -0.08166 0.0068954 0.2135 0.14376 0.026601 0.0056669 0.031557 -0.059456 0.08219 0.12532 -0.35512 -0.075038 0.36409 0.044034 -0.045244 -0.10094 -0.15711 -0.084203 0.08995 -0.11755 0.13399 0.09365 0.09766 0.11297 -0.028734 0.015641 -0.16972 0.086182 -0.21781 0.061342 -0.19833 -0.036283 -0.18054 -0.098846 -0.028558 -0.093682 0.2366 0.19763 0.089574 0.17866 0.091575 0.064349 -0.08985 -0.052487 0.20808 0.29595 -0.14556 -0.04812 -0.083918 -0.018838 0.091381 0.11085 0.037722 0.34159 -0.1818 -0.1907 0.096416 -0.16879 0.0089896 -0.23195 0.20538 -0.29815 -0.076092 -0.092682 -0.014743 -0.23682 -0.012593 0.088621 -0.049356 -0.05077 0.12914 -0.20708 -0.30792 0.26478 0.19838 0.092116 -0.18248 0.3658 -0.21459 -0.095219 0.17106 0.088526 -0.083048 -0.32916 0.051435 0.14166 -0.0048086 -0.14304 0.089328 0.21483 0.22155 -0.3505 -0.015673 -0.0036805 -0.015097 0.068373 -0.42153 -0.16574 -0.44175 -0.19513 -0.0094215 -0.053135 0.13289 -0.14027 -0.38601 0.30033 0.3652 0.21552 0.25562 0.046987 -0.072064 -0.13152 0.11634 -0.017025 -0.082457 -0.055375 0.22346 0.22335 -0.36245 -0.15159 -0.13119 0.061782 0.019042 -0.085032 -0.26544 -0.010175 0.056272 0.21137 -0.17845 0.27847 -0.38492 -0.10892 0.15673 0.31261 0.20695 -0.029866 -0.18365 0.041153 -0.11133 0.029513 0.2243 -0.075846 0.28758 -0.020049 0.44534 -0.12269 0.16516 -0.10961 
bird 0.067696 -0.031647 0.17226 -0.20749 0.1672 0.091301 -0.022961 -0.14438 -0.02555 -0.14887 -0.2015 0.12821 -0.0065042 -0.20604 -0.13706 -0.01287 0.26438 -0.19239 -0.071786 0.14886 -0.10601 0.092282 -0.12621 0.27308 0.061315 -0.26515 -0.10564 -0.10244 0.23973 -0.12424 -0.19965 -0.45609 0.062136 -0.14994 -0.072842 0.27537 0.074183 0.23198 0.070987 -0.11818 -0.30451 0.018378 -0.12001 0.14893 -0.33554 0.14346 -0.10448 0.0068893 -0.147 -0.018881 0.069367 -0.23976 -0.075432 -0.076644 -0.37686 -0.1588 0.2469 -0.081859 -0.10506 0.13863 0.092955 0.39653 -0.088109 0.0019669 -0.22884 -0.075167 -0.10703 -0.11208 0.48297 0.075487 0.55419 -0.038523 -0.084454 0.33385 0.055101 0.24666 0.24123 0.011097 0.15383 0.059031 -0.19307 -0.22585 -0.03393 0.0030446 -0.17819 -0.045831 -0.18647 0.028416 0.14491 -0.27235 0.15872 0.011837 -0.11128 -0.070689 0.20959 -0.25655 0.040334 -0.057927 0.34114 -0.046538 0.27674 -0.12824 0.34539 0.17178 -0.16729 -0.22578 0.20508 -0.046735 0.073692 0.15705 0.074066 0.076135 -0.22443 -0.11834 -0.033791 0.19295 0.19219 -0.25994 -0.03479 0.019344 0.20795 -0.031524 0.24129 0.189 -0.36913 0.080426 0.0020219 -0.31331 -0.058136 0.47061 -0.080593 0.21849 -0.48729 0.13998 -0.17278 -0.12299 0.24196 0.11826 0.070049 0.26731 0.2206 -0.20396 -0.23745 -0.054713 0.31443 0.007509 -0.15982 0.20144 -0.00038489 0.2152 -0.4335 0.25627 0.052422 -0.044172 0.13598 -0.041669 0.090918 -0.37585 -0.21487 0.29963 0.083501 0.20266 0.086572 0.57671 -0.24058 0.077965 0.23076 -0.341 -0.42541 0.046759 -0.13035 -0.08045 -0.076837 -0.1514 -0.23078 0.16547 -0.16538 0.030525 0.14246 0.11808 -0.028821 0.22375 0.0464 -0.085914 -0.48 0.21524 0.047 0.021257 0.090753 -0.053419 0.51247 -0.15264 -0.34971 0.010601 0.28617 -0.012576 -0.076852 -0.37248 0.16697 -0.012543 -0.20181 0.065163 0.26982 0.17613 0.44429 0.0056956 -0.055552 -0.33406 -0.086655 -0.45068 0.051834 0.0052131 -0.32918 -0.0078078 -0.068866 0.26259 -0.04911 0.19989 -0.30902 -0.069708 0.0014897 -0.22104 -0.063716 0.027496 -0.19535 0.060856 0.054637 0.083944 -0.31419 -0.017817 0.0426 0.030187 0.10163 -0.27303 0.19927 -0.17118 0.35439 0.22912 0.031927 -0.022677 -0.037851 -0.039826 0.2704 0.0026742 -0.040767 -0.080222 -0.19702 0.21717 -0.22268 -0.099082 -0.1107 0.024219 0.15783 -0.11716 0.1726 -0.19965 0.11179 0.18648 0.08284 -0.26667 0.16859 -0.15444 -0.054071 -0.1939 0.073981 -0.098438 -0.32008 -0.02656 0.041121 -0.16069 0.18524 -0.093797 -0.41 -0.068933 0.3633 -0.46266 0.22639 0.13649 0.071408 0.27508 0.24867 0.16754 -0.31887 -0.15188 -0.2554 0.16604 0.067069 -0.24884 0.48799 -0.27965 -0.33128 -0.24119 -0.066174 -0.20694 0.43813 0.0088625 0.0040551 -0.13795 0.25883 0.0040123 
