437 300
similarity -0.34672 -0.10422 -0.23879 -0.20869 -0.24951 0.14176 -0.15586 -0.0092889 0.15342 -0.0075988 0.056611 0.47613 0.10679 0.16878 -0.20727 -0.17646 0.2249 -0.10952 0.091713 0.074255 -0.11862 0.072638 -0.26985 -0.011266 0.1493 -0.013815 0.20968 0.097748 -0.32156 0.17686 -0.054721 -0.29432 -0.24085 0.15121 -0.23709 0.10772 -0.28512 -0.41548 -0.19656 -0.18382 0.39166 0.062586 0.30061 -0.14134 -0.0071813 0.16686 -0.2696 0.04227 -0.053569 0.17906 -0.18058 -0.21453 -0.11693 0.27311 -0.095718 0.074861 0.44059 -0.12147 0.019653 -0.04398 0.26898 -0.20152 -0.17804 -0.060875 0.1091 0.2916 -0.038708 0.11115 -0.095254 0.011977 0.30749 -0.087661 -0.44622 0.33804 -0.042186 -0.35445 -0.12555 -0.17756 0.27799 -0.23658 0.069555 0.26734 -0.39384 0.22069 0.10206 0.2969 0.126 -0.040037 -0.094043 3.3598e-05 0.31332 0.041688 -0.026826 -0.41504 0.086559 0.1058 -0.061112 -0.020424 -0.18308 -0.15785 0.13882 0.51179 -0.44321 -0.076033 0.050626 -0.021277 0.050419 0.17022 0.13564 -0.29585 0.23619 -0.1135 0.20678 -0.21961 -0.1802 -0.032431 0.079656 -0.38659 0.2995 0.33051 0.12164 0.35453 -0.31082 -0.17569 -0.087881 0.016924 0.12031 0.1519 -0.17253 -0.16401 0.21569 -0.28958 0.18827 0.20538 0.38537 -0.095281 -0.16528 -0.21836 -0.033514 0.16618 0.10913 -0.2073 -0.21811 0.18583 0.22577 0.44218 -0.28299 -0.21608 0.12088 -0.094102 -0.034162 -0.023199 0.13474 -0.025342 0.07005 -0.089525 0.38401 0.48885 0.08478 -0.33114 -0.27122 0.0028885 -0.0024598 0.24828 0.091483 0.10391 -0.053395 0.20647 -0.30185 -0.27199 0.087048 0.00015084 -0.50638 -0.51455 -0.034229 -0.15897 -0.07942 -0.14706 -0.017304 -0.20412 -0.06987 -0.11967 0.32681 -0.37284 -0.17502 -0.26157 0.32487 0.16165 -0.036645 -0.3955 0.074203 -0.24894 -0.37711 0.090277 0.033824 0.45684 0.38158 0.078212 -0.030646 0.40528 0.040419 -0.10755 0.046194 -0.21753 -0.053313 -0.32126 -0.039897 -0.20655 -0.044896 0.028428 -0.2542 0.37886 -0.07799 -0.11845 -0.46468 0.10103 -0.19543 -0.14137 -0.30795 -0.30994 -0.091505 0.21274 -0.25246 -0.08144 -0.25583 -0.22011 -0.38042 -0.23819 -0.14426 0.17356 -0.052134 0.23313 0.32928 -0.13653 0.023798 -0.50086 -0.27395 0.20124 -0.37828 -0.056254 0.17901 0.081563 0.085997 0.34346 0.046785 -0.36176 -0.30144 0.076376 -0.082559 0.38798 -0.32143 0.15578 0.075404 0.019017 -0.21367 0.046941 -0.15173 -0.14496 0.18221 -0.13405 0.17459 -0.18989 0.060931 0.11989 -0.20034 0.28843 -0.33707 -0.12379 0.13064 -0.27692 0.60146 -0.17551 -0.29071 0.1495 0.090315 -0.022334 0.041226 0.025521 -0.09042 -0.035289 -0.044409 -0.20333 0.011904 -0.090634 -0.013957 0.11078 -0.34599 0.33517 -0.10853 0.076733 -0.10687 0.057307 0.08819 -0.28642 -0.37522 0.036066 -0.042709 -0.062204 0.047454 0.043436 
dollar -0.18998 0.33297 0.12005 -0.29064 0.27102 0.1573 -0.13798 0.22316 0.12326 -0.15489 -0.010683 0.13232 0.26145 0.28807 0.406 -0.24506 -0.09114 -0.26127 0.14298 0.22228 0.075362 -0.10605 -0.014358 -0.04169 -0.057152 -0.37281 -0.20627 -0.2511 -0.07993 -0.19051 0.10181 -0.36548 0.088502 -0.28785 -0.73832 0.49282 0.18237 0.044519 -0.33415 -0.30643 -0.020347 0.2584 0.63571 0.12628 0.091382 0.0387 -0.42412 0.30922 0.091769 -0.89135 -0.00452 0.31076 0.033694 -0.20081 -0.21134 0.076246 -0.085671 0.36042 0.21413 -0.093068 0.62022 -0.50672 -0.0405 -0.19109 -0.1969 -0.20192 0.22209 -0.29523 -0.015801 0.17013 0.042091 -0.043229 0.037404 -0.31695 -0.21909 0.43811 -0.4675 0.28176 -0.4736 -0.026143 0.32982 0.39495 -0.56912 0.59565 0.33611 -0.083514 -0.35178 0.16042 0.13566 0.018735 -0.28907 0.072283 0.10631 -0.27255 -0.36816 -0.12321 0.0098981 -0.30807 -0.021785 0.087824 -0.047425 -0.27392 0.019448 -0.64444 -0.5567 -0.29162 0.029188 -0.26524 0.093699 0.37941 0.53103 0.0075546 0.12877 -0.29331 0.13689 0.15521 -0.59843 0.03073 0.17454 -0.174 0.24654 -0.20368 0.24075 -0.28656 0.33766 -0.34763 0.29818 -0.028154 0.11229 0.26234 0.16899 -0.059041 0.06908 0.23634 0.14379 -0.46277 -0.26484 -0.056093 0.17131 -0.43516 0.3863 -0.36818 -0.27923 -0.021649 -0.012597 -0.57168 0.2516 0.15413 -0.15768 0.0092982 -0.025262 -0.22445 0.14135 -0.27093 -0.019469 0.097838 0.26197 -0.21213 0.081942 -0.26656 -0.31792 -0.14699 -0.2668 0.090271 -0.35536 0.016461 0.20254 0.51249 -0.43652 -0.0294 -0.28829 0.035046 -0.11022 -0.37271 -0.30986 -0.12244 0.078277 0.0046178 0.14338 -0.42661 -0.37077 0.07042 -0.021641 -0.33551 0.10923 -0.22356 0.12057 0.35468 0.053152 0.15269 0.0087021 0.08934 0.10085 -0.20676 0.23318 -0.28839 -0.23807 0.045897 -0.32167 -0.085909 -0.094303 -0.039852 -0.12876 -0.0048901 0.14203 -0.090504 0.2597 -0.3452 -0.53135 0.57784 0.38607 0.32751 0.05018 -0.058807 0.14873 0.66547 -0.0068183 0.10042 0.39382 0.62706 0.058005 0.28938 -0.27566 -0.084174 0.14078 0.17276 -0.089702 0.38475 0.26854 0.32755 -0.17319 0.35611 0.11361 0.0011523 0.0086524 -0.29009 -0.38122 -0.11347 0.41068 -0.14947 -0.080034 -0.097071 0.092978 0.21238 0.057203 -0.22703 -0.36766 -0.08478 0.53747 0.10767 -0.53408 0.16534 -0.078771 0.2973 0.57152 -0.14024 0.23957 -0.266 0.47478 -0.14591 -0.058558 0.021451 0.035076 -0.032218 0.073896 0.23579 -0.13177 -0.19051 -0.036428 0.27872 0.59124 -0.31297 -0.18997 -0.095535 0.25699 0.27434 0.04681 0.09827 -0.37365 -0.121 -0.12593 -0.20579 -0.24877 0.096679 0.11852 -0.096954 0.092022 0.15032 0.62417 0.20811 0.26945 0.41146 0.26709 0.037482 -0.42273 0.16178 -0.33608 0.30554 -0.37543 -0.30145 
focus 0.010664 -0.21955 -0.38513 -0.092509 -0.01933 0.10655 -0.28626 0.15695 0.0047964 0.026068 0.090386 0.32064 0.059213 0.029683 0.15861 0.065806 0.17233 -0.32633 0.098667 0.11665 0.17985 -0.090726 0.20531 -0.052722 -0.21769 0.39031 -0.090242 0.14915 -0.26552 -0.079856 -0.1174 0.14418 -0.29271 -0.25156 0.12772 0.27269 0.26763 -0.013672 -0.32278 0.10275 0.17589 -0.13032 0.22316 -0.16478 -0.16207 0.013248 -0.1705 -0.30303 0.088289 -0.076 0.24672 -0.11203 0.052298 0.20856 0.11212 -0.036415 0.035211 0.019326 0.16905 0.10523 0.26058 -0.20949 -0.20175 -0.011517 0.060005 0.20296 -0.010357 -0.15708 -0.04912 0.12688 0.14652 0.30131 -0.060392 0.21221 -0.16557 0.0568 -0.074878 0.38449 -0.018276 -0.27434 0.17101 0.36717 -0.34812 0.054159 0.41403 0.2111 -0.041784 -0.13419 -0.10566 -0.13042 0.097066 0.045734 -0.18116 -0.26153 0.24331 0.12828 -0.30533 0.061836 -0.11249 -0.17014 0.36073 0.12182 -0.015765 0.097344 0.093329 0.026874 -0.01452 0.2836 0.096899 -0.0054691 -0.018104 -0.13491 -0.13409 -0.10222 -0.061477 0.13326 0.081786 0.069587 -0.10661 0.49596 -0.031588 -0.030352 0.090162 0.14639 -0.085217 0.22758 0.082502 0.24121 -0.23162 -0.1945 -0.27342 0.13539 -0.058226 0.36757 0.031433 0.34854 -0.12823 -0.040258 -0.20515 0.036656 0.0088855 0.052402 -0.26168 -0.029146 0.18938 -0.10341 -0.11542 0.37288 0.07367 -0.062053 0.16928 0.089599 0.31571 0.062565 0.093629 -0.24871 0.42847 0.024441 0.12934 0.047955 -0.077599 0.11628 0.0095507 -0.042307 0.32446 -0.061554 0.18451 -0.1738 -0.395 0.088691 0.047702 0.3135 -0.32726 0.1362 -0.070067 -0.17097 0.091584 -0.10176 0.28245 0.10291 -0.019037 0.12814 -0.17048 -0.17472 -0.057041 -0.052933 -0.16013 -0.052923 -0.10718 0.12893 0.32852 0.12679 -0.0044749 -0.041701 -0.074568 -0.19178 -0.045488 0.05076 -0.1196 -0.18307 0.38682 0.14467 0.26741 -0.31854 0.048491 -0.30936 0.021821 0.054047 -0.13357 0.083336 0.22052 0.12442 0.26371 0.21434 -0.18969 0.43198 -0.047864 -0.056683 -0.19238 -0.11835 0.0026545 -0.39574 0.028894 -0.15597 -0.044004 -0.28885 -0.11817 0.16367 -0.19868 -0.18425 -0.26867 0.10823 -0.17031 -0.068429 -0.052758 -0.33558 -0.019825 -0.081814 -0.28759 -0.11087 -0.072544 0.20553 0.032339 0.035416 0.058249 -0.1434 -0.32603 -0.4162 -0.0043379 -0.086459 -0.28211 -0.085011 -0.231 0.21211 0.15286 0.23246 0.16111 0.38672 0.068925 -0.26273 0.12356 -0.067438 0.32666 0.27543 0.16731 0.059833 -0.048995 -0.23839 0.010255 0.22201 0.2873 0.29051 -0.0027353 -0.25838 -0.014446 -0.17921 -0.10865 0.21995 -0.050339 -0.07243 -0.069452 -0.0061261 -0.29839 0.020465 0.032421 -0.10584 0.22712 -0.19699 0.14396 0.36664 0.015743 0.25953 0.26572 0.023595 -0.34048 -0.12713 -0.34673 -0.22968 0.062929 -0.059563 
month 0.29506 0.11719 -0.00051018 -0.016545 0.18107 0.043207 -0.20174 0.10339 0.05805 -0.049232 -0.16746 0.12759 0.49554 0.020883 0.25628 -0.17572 -0.10303 -0.25097 -0.20696 -0.032567 0.30435 -0.37896 0.25726 -0.082322 -0.19114 0.1942 -0.080949 -0.072697 -0.2322 0.067 0.22198 -0.083689 0.37071 -0.1015 0.027938 0.07009 0.066207 0.11515 -0.14559 0.23691 -0.023161 0.11277 -0.050359 0.0073571 -0.21347 0.073161 0.23979 -0.067799 0.48153 -0.019204 -0.16237 0.051405 -0.27571 -0.25019 -0.12816 -0.09742 0.20154 0.022747 -0.073386 -0.17779 -0.0047168 -0.19734 -0.095854 0.011903 0.081892 -0.057625 0.22212 0.5271 -0.11771 0.27108 -0.051354 -0.1757 -0.016293 0.20526 0.015673 0.096928 0.056827 -0.086574 -0.10019 0.14848 0.10139 0.063167 0.16333 0.36291 -0.26218 0.3558 0.085872 0.1452 -0.22502 -0.14418 0.10135 -0.016345 -0.044128 -0.17805 -0.056424 -0.22376 0.13707 -0.11819 -0.3262 0.026588 -0.088948 -0.28178 -0.10326 -0.15526 0.16321 -0.21558 0.32839 -0.21104 0.048886 0.21167 0.17293 -0.082236 0.13191 0.04687 0.10366 -0.094866 -0.020683 0.087298 0.16636 0.065848 0.0085561 -0.094052 0.065951 -0.048809 0.1636 -0.16221 0.13636 -0.036178 -0.06299 0.077374 0.35883 -0.15565 0.099528 0.33542 0.1075 0.054302 -0.41401 -0.049616 0.19397 -0.16468 -0.010382 -0.25751 0.04722 -0.17356 0.093285 -0.10385 0.0098248 0.15516 0.10788 -0.18855 0.065158 0.14201 -0.12264 -0.1007 0.43189 0.17862 0.073534 0.30946 -0.088092 -0.036833 -0.22168 -0.33748 0.075425 0.43065 -0.10982 -0.10908 -0.084625 0.12682 0.013107 0.18533 0.152 -0.18706 0.036372 -0.13483 0.10842 -0.21322 0.17394 -0.083923 0.019158 0.2627 -0.33894 0.0515 -0.12068 0.19909 -0.12674 0.064703 -0.21851 -0.0056998 -0.17991 -0.28343 0.31019 0.040138 -0.00023946 0.019743 -0.16618 -0.050683 -0.2304 -0.21882 -0.12006 0.044077 0.29957 -0.051723 0.072871 -0.32006 -0.072493 -0.24934 0.023564 0.093702 0.059517 0.060147 -0.11498 0.13274 0.24781 0.064684 0.16432 0.31638 -0.14517 0.065455 -0.094001 0.093501 -0.048198 0.079521 -0.28542 0.019112 0.060679 -0.036673 -0.0053398 0.19172 0.11707 -0.017599 -0.28987 -0.20103 0.35605 0.095795 -0.028294 0.015691 0.13243 0.22719 0.074187 -0.29747 -0.098257 0.0079124 0.07848 0.27139 -0.27678 -0.27863 0.088817 -0.29934 -0.17272 -0.43116 0.20385 -0.059258 -0.3098 0.15758 0.10116 -0.069869 0.056919 0.077835 -0.052982 -0.09277 -0.015346 0.08464 -0.18173 -0.073131 0.15372 0.00013452 -0.22291 -0.3973 0.19936 -0.18395 0.080679 -0.068017 -0.12318 0.00034988 0.081353 0.0043222 -0.17938 0.23365 0.049571 0.022653 -0.25147 -0.17436 -0.16255 -0.090302 -0.063631 -0.1309 -0.068808 -0.013388 0.24917 -0.28239 0.060726 0.28108 0.1775 0.15611 -0.071869 -0.16404 -0.15668 0.14242 0.072542 -0.070982 
mile 0.081569 0.24435 -0.24127 0.036091 0.37114 -0.46732 -0.26269 0.0033908 0.5127 0.11991 0.14642 -0.093873 0.10564 -0.15241 -0.32906 -0.35428 0.22665 0.00054117 0.10193 0.19892 0.077968 -0.20179 0.20378 0.18534 0.27442 0.020999 0.20695 -0.062047 -0.21934 0.083359 -0.077602 0.017511 -0.20504 -0.19171 0.10709 -0.20582 -0.070898 -0.11763 -0.15557 -0.20504 -0.056943 -0.15454 0.061827 -0.33552 -0.12246 0.095862 0.032796 -0.070482 0.1152 -0.8371 -0.058598 0.23788 0.13906 -0.26189 0.12092 -0.098163 -0.083013 -0.20199 -0.37064 0.061088 0.48391 -0.17669 -0.11947 -0.085499 0.048729 -0.19634 0.096465 0.2257 0.20707 -0.00049762 0.044142 0.039703 -0.44392 -0.38088 0.22672 -0.1286 -0.18408 0.19816 0.11931 0.29975 0.26738 0.026102 -0.14264 0.13208 -0.12083 -0.10676 0.095346 -0.14611 -0.20097 0.42524 0.37012 -0.22217 0.032112 0.19378 -0.21686 0.061932 0.40127 -0.40986 -0.11778 -0.27684 0.01908 -0.43963 -0.18456 0.049869 -0.047343 -0.3222 -0.089887 -0.097183 -0.30849 0.40185 0.31541 -0.28702 0.22308 0.58563 0.01954 0.018286 -0.22746 0.10766 -0.11924 0.2541 -0.052674 -0.16304 -0.11892 -0.58234 0.092027 -0.096436 0.034525 -0.017597 -0.098051 -0.080944 0.086462 0.30165 0.22759 0.0088735 -0.090444 -0.37924 -0.12405 0.020484 0.63106 -0.024535 -0.03225 -0.11924 -0.17568 -0.037154 -0.58367 -0.015453 -0.25296 0.3004 0.41903 -0.12758 0.083196 0.080062 0.24324 -0.21105 0.35309 0.034424 0.025999 0.027326 0.10889 -0.04271 0.21903 -0.10272 -0.1477 -0.084433 -0.42356 0.012829 -0.27982 -0.0056126 -0.0096247 0.21383 0.22069 -0.22556 -0.60043 0.24063 -0.21347 0.16084 -0.0175 -0.53744 0.47526 -0.00020151 -0.52658 0.24648 0.58905 0.19102 -0.012984 0.39038 0.48858 0.11132 0.45402 -0.12256 0.49822 0.39147 0.022136 0.077827 -0.081773 -0.023056 0.066623 -0.28272 -0.27915 0.11365 -0.18186 -0.052159 -0.25042 -0.17998 -0.086337 -0.45454 -0.33951 -0.37901 0.19773 -0.33679 0.29069 0.20455 0.19553 0.21832 0.174 -0.19225 -0.017909 0.23269 -0.0032764 -0.48834 0.34107 -0.17312 -0.28171 -0.18277 0.5906 0.24095 0.092368 0.16605 -0.059332 0.31694 -0.6046 0.201 0.46135 0.22084 -0.0082975 0.099056 -0.092514 0.21363 -0.067982 -0.64626 0.052137 0.20984 0.61521 0.10467 -0.2579 0.11784 -0.21796 -0.13897 0.036657 0.072661 -0.14403 0.058947 -0.071829 0.20916 -0.1963 0.01925 -0.23586 -0.39696 -0.23302 -0.078509 0.13417 0.4628 -0.43604 0.1625 0.23646 0.045294 -0.33118 -0.18739 0.18928 -0.40785 0.31844 0.080755 0.26092 -0.57196 -0.042703 -0.11764 0.13762 0.22446 0.25852 -0.088486 -0.15249 -0.086118 -0.13794 -0.081236 0.057853 -0.11848 0.15959 0.10631 0.4056 -0.42763 0.24821 0.13789 -0.060427 -0.08742 -0.12138 0.029735 -0.17807 0.15667 0.34344 -0.18971 
computation -0.038143 0.095636 -0.21239 -0.0095046 0.11205 0.11506 -0.35181 0.29315 -0.030831 -0.14856 0.19863 0.037071 0.30544 0.21166 -0.23863 -0.2255 0.08299 0.22085 0.37784 -0.21661 0.021946 -0.19808 -0.45141 -0.063771 -0.31457 -0.076941 0.19737 -0.0080779 -0.44287 -0.21838 0.086129 -0.091441 -0.099642 -0.046179 0.1536 0.1914 -0.031645 -0.24399 -0.16049 0.012692 0.31711 0.33038 0.46795 -0.063277 -0.025513 0.31264 -0.38419 0.26172 -0.3522 -0.073107 -0.15392 0.15089 0.3099 0.026597 -0.10289 -0.13869 0.12098 0.48892 0.04708 0.51079 0.13008 -0.28346 -0.14587 -0.15135 -0.14729 0.25019 -0.23849 0.26475 -0.15065 -0.054588 0.039963 -0.0071166 -0.33066 0.060871 -0.18934 0.21436 -0.26955 -0.27757 0.2323 -0.2571 -0.050542 -0.19382 -0.13218 0.19792 -0.039442 0.0040479 0.25823 -0.18539 0.18698 -0.095384 0.010237 0.075717 0.025513 0.05488 0.063829 0.17284 0.012474 0.34467 -0.32766 0.2679 -0.082038 -0.16766 -0.17966 -0.10893 0.19761 -0.079222 0.18174 0.06529 -0.095896 -0.16321 0.09045 -0.2651 -0.23253 -0.095105 0.18687 -0.38546 0.036727 0.12748 0.071935 0.26142 0.16909 0.033953 0.054143 -0.33759 0.30518 0.27414 0.054583 -0.15858 0.02455 -0.040871 -0.46349 0.87282 0.14429 -0.1154 0.17648 0.30022 0.066245 -0.33217 0.012137 0.17859 -0.088562 -0.24326 -0.26276 -0.31541 0.18799 -0.13552 -0.10459 0.25117 0.1776 -0.18199 -0.51709 -0.044379 -0.0099903 0.12118 0.046544 -0.089491 -0.17419 0.031697 0.11983 -0.051503 0.080829 0.22446 -0.13596 0.11311 -0.088926 -0.043696 0.64752 0.036722 -0.22496 -0.12535 0.64292 0.017783 -0.63311 -0.26052 -0.23439 -0.41443 -0.38105 -0.1583 -0.11837 -0.044728 0.1514 0.27738 -0.017299 -0.3312 -0.27027 -0.03433 0.3909 0.028144 0.19563 0.031093 0.47175 0.095887 -0.19532 -0.096211 -0.3547 0.10604 0.23667 -0.097765 0.16443 -0.33045 -0.07199 -0.06488 -0.16685 -0.059645 -0.22543 -0.074789 0.078201 -0.08616 0.24049 -0.0077371 0.43709 0.73187 -0.1667 -0.42639 -0.10324 0.2759 0.16319 -0.56583 -0.58626 -0.29132 0.27318 0.1176 -0.26922 0.40274 0.046675 0.3761 -0.11773 0.19708 -0.048305 0.068273 -0.034621 -0.16834 0.061566 0.13972 -0.041564 -0.14408 0.002916 -0.4963 -0.50052 -0.35254 -0.016536 -0.28568 0.22064 0.69384 -0.089606 0.044064 0.043296 -0.30141 -0.17063 0.10364 -0.43707 0.20501 -0.096039 -0.22973 -0.075106 0.28877 -0.02074 0.014126 -0.082937 -0.081688 0.22854 -0.33359 0.20049 -0.24765 0.13825 -0.093956 -0.08941 0.2945 -0.17193 0.19355 0.57023 0.34808 -0.025734 0.066463 0.28867 -0.012126 -0.28149 0.15376 0.31251 -0.097328 -0.11465 -0.096273 -0.055955 -0.042492 0.15871 -0.3462 0.181 0.08274 -0.31132 0.22302 0.10336 0.019649 0.077766 0.052137 -0.40617 -0.019252 0.10663 0.048791 0.11057 -0.045437 
skin 0.16089 -0.26007 0.079485 0.19936 -0.048297 0.22208 -0.13874 0.12 -0.18278 -0.39619 0.12212 0.017538 0.47016 -0.27441 -0.062332 -0.11567 0.16382 -0.31233 -0.28619 0.095411 0.14012 -0.057797 -0.42163 0.11619 -0.4381 0.26959 0.35509 -0.25352 -0.22977 -0.44486 -0.019864 -0.55479 -0.10445 0.31939 0.025431 0.12577 -0.41156 0.21759 -0.12122 0.048509 -0.00047512 0.33546 0.25627 -0.0048918 -0.047826 -0.19832 -0.28878 -0.21855 -0.1119 -0.4455 0.48865 -0.23342 -0.10194 -0.28406 0.44028 -0.52104 0.16041 -0.10436 -0.057339 -0.068929 0.13141 -0.12015 -0.33797 -0.13334 -0.12443 -0.13179 -0.19204 -0.12669 0.10649 -0.31289 -0.16783 -0.078292 -0.018772 -0.23435 -0.13799 -0.18921 -0.3585 0.05028 0.25882 -0.29257 0.47541 0.57425 -0.10672 -0.23626 -0.034718 0.078923 -0.30071 -0.023373 -0.21459 0.0078334 0.16228 0.27228 -0.26117 -0.083687 0.46662 0.21158 -0.15182 0.67724 0.19675 -0.22287 0.53478 0.25804 -0.32277 0.33273 -0.56409 -0.3011 -0.50538 0.37292 -0.095245 -0.44777 0.26146 0.076138 0.074023 0.10349 0.11371 0.001158 0.087594 -0.081063 0.48634 0.27863 0.3394 -0.32244 -0.15134 -0.10826 0.033185 -0.020413 -0.011117 0.12092 -0.28055 0.046002 0.062091 0.28539 0.39257 -0.2032 -0.066123 -0.070005 -0.039797 -0.089621 0.27254 0.02617 0.044689 -0.11939 -0.04096 0.00023723 -0.0080857 0.051073 0.25268 0.20766 0.54046 0.15028 0.20376 -0.46174 0.30868 -0.47661 0.15557 -0.27165 -0.15294 -0.11696 0.51044 -0.085726 -0.34984 0.29384 -0.26397 -0.054312 -0.38882 -0.23251 -0.05344 0.098231 -0.35363 -0.32427 0.020085 -0.26309 -0.43775 -0.49959 0.16641 0.30556 0.34154 -0.46845 -0.092365 -0.16906 0.0078315 -0.14869 -0.11813 -0.12604 0.015872 0.34295 0.0062006 -0.27424 0.27812 0.04765 -0.06713 -0.006692 -0.17661 -0.25205 -0.049797 0.034911 -0.52049 -0.060031 -0.20596 -0.61699 -0.066542 0.10498 0.047293 0.064044 0.32767 -0.2462 0.12588 0.04946 -0.33701 0.33092 0.011713 0.51013 0.30072 0.079936 -0.12859 0.18741 -0.041242 -0.28467 -0.27438 -0.52475 0.14294 0.14579 -0.39516 0.10212 0.049665 -0.014566 0.12661 0.12202 0.056355 0.028956 -0.033559 -0.077136 0.26271 -0.2189 -0.29294 -0.2635 0.14622 0.048027 0.29868 -0.14896 -0.40001 -0.15622 0.054183 0.31962 -0.029537 0.23725 -0.044764 0.18848 -0.39055 0.16034 -0.19115 0.51236 0.0026703 0.28124 -0.13447 -0.048041 -0.31974 -0.037822 -0.28377 0.14101 0.45531 -0.34263 0.040934 -0.24646 -0.29786 0.10843 -0.25244 -0.45778 -0.042409 0.27885 0.30753 0.42895 -0.014295 -0.15303 -0.17236 0.090405 0.019554 0.25765 0.046939 -0.27707 -0.061808 0.3911 -0.027289 -0.22624 0.13692 0.20861 0.027994 0.069723 -0.18586 0.15796 0.16416 0.035935 0.2408 0.15437 -0.46878 -0.02458 -0.0059845 0.1787 -0.4428 -0.1956 
children -0.12971 -0.14181 -0.11374 -0.39098 0.3859 0.47118 0.23964 0.066303 0.21827 -0.00064444 -0.02901 0.32895 0.34144 0.070082 -0.40063 -0.055779 -0.0083976 -0.2028 -0.046045 0.29578 -0.21849 -0.23844 0.14063 0.16109 -0.27913 0.12864 0.0061574 0.17497 -0.35684 -0.32219 0.28521 -0.031087 0.48757 -0.11851 0.28088 -0.22689 0.062546 -0.0084443 0.0037148 0.13611 0.11674 -0.059792 0.28943 0.31461 -0.24514 0.13187 0.055892 -0.034502 -0.16767 -0.060365 -0.0081378 -0.18514 -0.21881 0.24751 -0.030892 0.037307 0.14105 -0.18082 0.049478 -0.086525 0.019392 -0.054339 0.18374 -0.64001 -0.11789 -0.02122 0.35292 -0.058265 0.052437 -0.04896 -0.073469 0.49912 -0.16868 0.38688 0.033375 0.31877 -0.21314 0.13488 -0.22993 -0.034427 0.27046 0.10865 -0.1723 -0.0018537 0.14827 0.037063 0.1904 -0.36406 -0.4037 -0.0070017 0.25694 -0.0060463 0.0557 0.41683 0.31125 0.13748 -0.084765 0.36696 -0.076137 0.050487 -0.23851 0.3087 -0.047524 0.069123 -0.49944 -0.10407 -0.25086 -0.22616 -0.048798 -0.20518 0.087586 -0.12981 0.21431 0.13856 0.050275 0.09782 -0.14571 -0.11889 0.078308 -0.19837 0.10845 0.24755 -0.11416 0.069931 0.15953 -0.049592 -0.028915 -0.14411 0.21088 0.24302 0.099801 0.16208 0.031255 0.078987 0.14346 0.17672 -0.27011 0.025197 -0.21404 0.25524 -0.20896 -0.093173 -0.15949 0.41499 -0.17852 -0.12594 0.10901 0.27085 0.52571 -0.082254 0.00891 0.028872 0.31558 0.10718 0.13059 -0.11391 -0.1982 0.16335 0.0078794 0.037476 -0.39617 -0.13825 -0.20263 -0.060775 -0.15693 0.099834 -0.13511 0.33318 -0.18069 -0.25254 -0.03839 0.17479 -0.058189 -0.12217 0.11014 0.035714 0.044101 0.088991 0.19068 -0.080456 -0.33781 -0.074643 0.29994 0.072543 -0.30078 0.16684 -0.063262 -0.11005 0.062248 0.10153 -0.14154 0.38713 0.16357 -0.16333 -0.67318 -0.093023 -0.15217 -0.22973 0.10009 -0.10593 -0.02417 0.11084 -0.38523 0.25815 0.18006 -0.12341 0.1593 0.078618 -0.24545 0.22317 0.0065418 0.081464 -0.21063 -0.088881 -0.31012 0.075607 0.1507 -0.056545 -0.28078 -0.30006 -0.084848 0.014655 -0.13055 0.077386 0.4259 0.11379 -0.25387 -0.082957 -0.023205 0.012217 -0.13507 0.19807 -0.24155 -0.042915 -0.29306 0.21343 -0.020187 0.10224 0.15829 0.061116 -0.17554 -0.18047 -0.14014 -0.060374 -0.10901 -0.19645 -0.064071 -0.43495 -0.024568 0.039446 -0.26745 0.21181 -0.022077 0.074476 -0.06459 0.095161 -0.1328 -0.18485 0.078443 -0.13604 -0.11591 0.19145 -0.050636 -0.15013 -0.23124 0.35199 0.06006 -0.15257 -0.17295 -0.31872 0.090232 -0.0053691 -0.11951 -0.254 -0.27741 -0.12962 -0.22195 0.17338 0.1412 -0.25278 -0.031354 0.42911 -0.21999 0.070796 -0.17057 0.022583 -0.089693 0.27248 0.0036864 0.0059156 0.16202 0.15209 0.21147 -0.31469 -0.31428 0.0078709 -0.33115 -0.12093 0.30356 0.15922 
row 0.11081 0.15651 -0.11528 0.2087 0.056844 0.46653 -0.50802 0.43407 0.13823 0.044538 -0.24468 0.11526 -0.026243 0.12864 0.01736 -0.10759 0.56152 -0.088681 -0.064681 -0.43107 0.028578 -0.33931 0.10949 -0.081639 0.067046 -0.22346 -0.1488 0.030018 -0.061894 0.21088 0.055063 -0.24658 0.39639 0.4389 -0.10009 0.0060396 -0.029833 -0.0118 -0.39674 0.19531 0.41845 -0.0041609 0.22252 -0.12981 -0.04864 0.010643 0.01571 0.15475 0.089743 0.0089771 -0.048769 -0.070093 0.074769 -0.059258 -0.257 0.049722 -0.051964 -0.16907 0.14925 -0.071704 -0.00082483 0.3016 -0.044993 0.13963 0.18051 0.12172 0.080473 -0.056053 0.47485 0.49432 -0.57694 -0.075087 0.027171 -0.03923 0.50514 0.070276 -0.35851 0.005754 -0.01153 0.47423 -0.074644 0.089932 0.1313 0.089134 -0.19858 0.2702 0.14595 -0.2414 -0.14782 -0.15059 -0.020528 -0.24432 -0.094428 -0.073621 0.099381 -0.11485 -0.177 -0.001144 -0.15275 -0.26075 0.18806 -0.034727 -0.067424 0.093757 -0.22483 -0.47948 0.16504 -0.092122 0.3039 0.024921 0.46699 0.026826 0.39164 -0.11768 0.24607 -0.16299 -0.23626 0.44131 -0.31204 0.067725 0.13543 -0.082832 -0.075652 -0.21281 0.020139 -0.18518 -0.068232 -0.41138 0.042649 0.018911 0.40594 0.25317 0.050715 0.13095 -0.19552 0.26879 -0.48024 -0.24115 -0.13004 0.07317 0.072874 0.0019333 -0.20325 -0.072131 -0.001786 -0.10522 -0.080769 -0.30049 -0.20939 -0.13936 0.30469 0.12565 -0.022625 -0.22966 -0.030113 -0.75849 -0.0051089 -0.095249 0.0082583 -0.16451 0.047489 0.46252 -0.16972 0.18283 -0.11679 0.092865 0.59867 -0.13748 -0.088174 -0.051307 -0.21047 0.21055 -0.023159 0.20678 0.23935 0.037915 0.081006 -0.033875 -0.10456 -0.1566 -0.19234 0.29366 -0.1174 0.10947 -0.16713 0.0187 -0.27951 0.39214 0.090637 -0.046694 0.053795 -0.10255 -0.18156 -0.21853 0.19324 -0.030177 -0.46137 0.0456 0.24029 0.22189 0.2181 0.29506 0.25436 -0.079348 -0.18609 -0.43577 0.4485 -0.15705 0.23278 -0.045446 -0.14225 -0.18056 0.15528 0.40248 -0.032722 0.087505 -0.0043096 0.079293 -0.16259 0.34184 -0.24662 0.26593 -0.31212 -0.05768 0.43542 -0.18674 -0.28824 -0.26639 0.0040172 0.26934 -0.48725 0.051474 0.16635 0.41692 -0.1043 -0.17907 -0.0032729 0.56957 -0.015652 -0.15174 -0.18379 0.0064711 0.203 0.20574 -0.15254 -0.29511 0.13728 -0.35817 -0.32122 -0.13049 -0.25122 0.41292 0.063424 -0.10953 -0.11681 -0.18253 0.31696 -0.27973 -0.41791 -0.35414 -0.094587 -0.023915 0.19481 -0.23267 0.45661 0.40405 -0.2236 -0.15125 0.1101 -0.070019 -0.3263 -0.36631 0.25108 -0.096289 0.064024 -0.28632 0.0072317 0.1263 0.175 -0.029844 -0.25359 0.051191 0.05098 -0.17345 -0.14877 -0.046051 0.056337 0.070239 0.27607 -0.14292 -0.16295 0.20924 0.45675 0.1473 -0.52866 0.019274 -0.22426 -0.16442 0.30423 0.35908 
wizard -0.0048792 0.18457 -0.078066 0.15972 0.31662 0.17497 0.39263 0.31644 0.12224 0.15189 -0.33279 0.26486 0.39757 0.083709 0.061048 -0.41816 0.088616 -0.10822 -0.11261 -0.48622 -0.21252 -0.69735 -0.27097 0.21686 -0.10739 -0.66727 0.094107 0.029415 0.015105 0.29844 0.20162 -0.43796 0.31545 0.049814 -0.32008 -0.47841 -0.16072 -0.18227 -0.051571 0.045249 0.40282 -0.24183 -0.25181 -0.062118 0.12873 -0.10677 -0.52919 0.36494 -0.30195 -0.15229 -0.18464 -0.082065 -0.15693 -0.28917 -0.05329 0.027349 0.29306 -0.081782 -0.22989 0.36763 -0.35712 -0.0053952 0.091643 0.1615 0.39281 0.2124 0.0053963 0.35695 0.29891 -0.066229 0.30028 -0.027003 -0.23436 0.071983 -0.28925 0.20141 0.28877 0.15476 0.23533 -0.33637 -0.048702 0.072056 0.10788 -0.14693 0.035573 -0.041814 -0.35458 -0.05472 -0.21168 -0.53691 0.18371 0.048281 -0.25441 -0.093206 0.09319 0.033435 0.26749 0.28824 -0.049905 0.31269 0.35167 0.21148 -0.3596 0.19093 -0.27513 -0.039007 0.10983 0.40252 0.23962 -0.15696 0.29868 -0.014998 -0.26452 -0.25914 0.14993 -0.071382 -0.33666 -0.13108 0.11262 -0.19628 0.0074138 0.057469 -0.30332 -0.054466 -0.039436 0.052747 0.06514 -0.1359 -0.090067 -0.13655 -0.40876 -0.011314 -0.13508 0.045541 0.36091 -0.034191 -0.32441 -0.3796 -0.55361 0.15388 -0.22548 0.048629 -0.44157 -0.15642 -0.037901 0.081769 -0.10068 0.32958 0.30213 -0.33129 0.29803 -0.2997 -0.02748 -0.19829 -0.21359 0.088578 -0.47856 0.21081 -0.03856 0.38097 -0.10688 -0.32047 -0.60813 -0.089576 -0.14769 0.11083 0.54033 0.31726 0.22315 -0.029278 0.53703 -0.1389 -0.40153 -0.44235 -0.52198 -0.43032 -0.19182 -0.50231 -0.15824 0.034076 -0.12498 0.027074 0.019029 0.28206 -0.28345 0.31971 0.34506 0.3598 -0.4496 -0.45914 0.13083 -0.30088 0.41381 -0.010174 -0.10189 -0.050389 0.087546 0.058933 0.012311 -0.066674 0.16694 0.020593 -0.089417 0.15384 -0.23028 0.075328 0.06071 -0.10703 -0.18745 -0.32106 -0.21069 0.53332 0.085858 -0.46101 -0.42589 0.052623 0.25237 -0.40506 -0.21374 0.29587 0.32043 -0.15592 -0.34045 0.0152 0.10456 0.23436 -0.10023 0.59453 0.006665 -0.51742 -0.31406 0.10239 -0.010303 -0.24467 -0.16703 -0.036498 0.25643 -0.32138 0.078807 0.10508 0.0336 0.016901 0.049424 -0.29045 -0.11469 -0.18774 -0.017379 -0.3434 0.074538 0.19879 -0.45461 0.47173 0.14619 0.24957 0.30615 0.0049419 0.39055 -0.46377 0.36044 -0.31989 -0.015089 0.14364 0.2993 0.11226 -0.37247 0.47827 -0.0095364 0.70311 0.5034 -0.11923 0.013224 0.35421 -0.055876 0.14062 -0.14098 -0.36969 -0.46768 0.085849 0.34802 -0.058489 -0.13503 -0.24999 0.38851 -0.019377 0.26647 -0.15297 -0.16883 0.19687 -0.11361 0.18384 0.003987 0.42021 -0.097747 -0.30535 0.031789 0.12106 -0.19616 -0.30413 0.25979 -0.20706 
disability -0.047146 -0.32288 -0.19053 -0.30084 0.38142 0.42297 -0.47705 0.27823 0.6184 -0.15294 0.035058 0.46668 0.35415 0.31479 -0.35413 -0.19761 0.22404 -0.12972 0.082693 0.33735 0.18603 -0.58914 -0.064414 0.26807 -0.2198 -0.0085754 0.70202 0.031667 -0.40584 -0.18785 0.18917 -0.11418 -0.12273 -0.054295 -0.19376 0.093829 -0.21151 0.038371 -0.17241 0.44519 0.32002 0.45826 -0.078304 -0.011532 -0.18708 0.18339 0.19561 0.19271 -0.076582 -0.24364 -0.11451 -0.045306 0.074075 -0.070975 0.12679 0.034791 -0.40792 -0.0020332 0.070089 0.27235 -0.36424 0.25491 -0.29662 -0.64296 0.21303 0.14552 0.39987 0.061542 -0.26926 0.2079 -0.50268 0.30083 -0.84154 0.39421 0.031291 0.6567 -0.20986 0.047449 -0.14383 -0.015439 -0.096575 -0.22038 -0.46239 0.27397 0.040818 0.13303 -0.25803 0.063211 -0.33006 -0.04145 0.050624 0.39112 0.066141 0.28944 0.66579 0.4226 -0.11141 0.39167 -0.060652 0.077034 0.19297 -0.056961 -0.30435 0.15524 -0.50689 -0.44326 0.14487 -0.059624 0.28146 0.111 -0.023907 0.11551 0.12876 0.31024 0.099479 0.15999 -0.47441 -0.13494 -0.021209 0.27959 -0.23765 0.0012704 -0.059452 0.30979 0.027316 -0.24992 -0.0014961 0.0043277 0.14414 0.25278 -0.12056 0.18191 0.51388 -0.13523 -0.13046 0.29263 -0.070491 -0.18643 0.25498 0.35222 -0.25669 -0.11789 -0.048158 0.1224 0.34117 -0.19997 0.26204 0.10619 0.37017 -0.15883 0.46521 -0.28127 0.11424 -0.13424 -0.026032 0.30263 -0.58993 0.061451 0.084144 -0.02371 -0.14 0.017797 0.10865 0.058184 -0.13153 -0.0052172 -0.23359 0.028625 -0.032739 -0.23008 0.039271 -0.12736 -0.17048 -0.00060706 -0.018056 -0.35186 0.39135 -0.043739 0.27234 0.062047 0.042698 0.37557 -0.087711 0.077849 0.39406 0.12554 0.28054 -0.041101 0.061166 0.37029 -0.1413 0.19258 -0.090587 -0.31325 -0.15285 0.33043 -0.023624 -0.2163 -0.14444 -0.092127 0.46442 0.19033 -0.24787 0.016658 0.5289 -0.49273 0.0063435 -0.31091 -0.34709 -0.0003995 0.25597 0.17485 -0.060911 0.1857 0.12288 0.24172 -0.050049 -0.3588 0.21273 -0.097522 -0.11684 -0.13183 0.32883 0.1299 -0.12278 0.20657 -0.19616 -0.12231 -0.17084 0.42072 -0.088559 -0.1411 -0.0081087 -0.19451 0.18457 0.24165 0.28297 -0.23737 -0.22115 -0.039321 -0.23899 -0.0056567 0.063978 0.25667 0.16956 -0.078898 0.026383 -0.057914 -0.44799 -0.083676 -0.43733 0.128 0.11484 -0.079583 -0.12209 -0.51204 0.0035331 0.18228 -0.13176 -0.017922 0.21203 -0.13723 -0.20224 -0.36073 -0.17447 -0.16431 0.088004 -0.54277 -0.085072 -0.042572 -0.022222 0.1039 -0.15034 -0.020576 0.27157 0.15742 -0.042449 0.35585 0.13687 -0.19763 0.071851 0.047084 0.0018722 -0.2884 0.040251 -0.16599 0.35254 -0.036408 -0.16203 -0.052866 0.25974 0.32074 -0.15777 0.10463 -0.077957 0.066389 -0.10409 0.024815 0.20873 0.21994 
environment -0.0028986 0.15326 -0.38633 -0.49469 0.25007 0.36621 -0.063419 0.28837 -0.14824 -0.21128 0.14225 0.34424 -0.052208 -0.082779 0.11255 0.23095 -0.22135 -0.030849 0.025077 0.019535 0.15321 0.11219 -0.12893 -0.051459 -0.01055 0.1771 -0.16394 -0.08155 0.10555 -0.080665 0.012781 0.017171 -0.12043 -0.058487 0.50456 0.16199 0.048836 0.33622 -0.54028 0.19207 0.065872 0.003346 0.29674 -0.29449 -0.17914 -0.29278 -0.28466 -0.1203 -0.27212 0.14737 0.077609 -0.07548 0.065521 -0.081976 -0.2393 0.025838 0.042031 -0.053294 0.18437 0.24985 0.1055 -0.068385 -0.17812 0.047943 -0.016853 0.30895 -0.17725 -0.21449 0.048185 -0.036574 0.12063 0.094819 -0.027707 0.147 -0.060522 0.099694 -0.06434 0.14833 -0.48614 -0.23283 0.25222 0.2829 0.060193 0.01467 0.28345 0.024257 0.021298 -0.015667 0.047157 -0.19483 -0.10297 -0.29789 -0.14684 0.24186 -0.18359 -0.13207 0.016705 0.17997 -0.10213 -0.11939 0.174 0.12464 -0.088334 -0.21364 -0.52034 -0.044702 0.079264 -0.2323 -0.17919 0.013183 -0.027139 -0.22923 0.072741 0.37929 0.33758 -0.034912 -0.00997 -0.071958 -0.34354 0.23017 0.12428 -0.21631 -0.16714 0.25842 0.016764 -0.28536 -0.075161 -0.18126 -0.17377 0.043077 0.21473 0.045721 0.11351 0.15218 0.37943 -0.10487 -0.2321 0.27211 0.15668 -0.30776 0.032559 -0.56728 -0.17569 0.26079 0.13872 0.093672 0.281 0.093343 0.20058 -0.20449 -0.16666 -0.38728 0.082379 0.20826 0.19404 -0.23106 -0.2155 0.047323 0.089554 0.21141 0.093303 0.14775 -0.35432 -0.19454 0.015219 0.17321 0.07162 -0.0091961 0.34586 0.013505 -0.30089 0.033369 -0.41478 -0.4122 -0.28207 -0.22826 -0.086246 -0.38283 -0.1592 -0.028293 -0.16718 0.16761 -0.14965 0.055627 0.328 0.38966 0.33815 -0.35062 0.16668 0.34076 0.047554 0.13185 0.046609 -0.006602 -0.64112 0.076509 0.027429 -0.059028 0.15677 0.029167 0.26895 0.3089 0.099443 -0.35677 0.21589 -0.25396 -0.27816 -0.37497 -0.40611 0.11243 0.25283 0.11805 -0.039775 0.36637 -0.11432 0.18435 0.07377 -0.1958 -0.11598 0.034995 -0.071766 0.10111 -0.32494 0.14264 -0.23696 0.20679 -0.34144 -0.024419 0.40167 0.20563 -0.021409 0.43471 0.3276 0.35966 -0.029627 0.17741 -0.25015 -0.13539 -0.053449 -0.088931 -0.26114 0.061984 -0.034205 0.35608 -0.0013455 0.14183 0.24005 -0.049102 -0.24463 -0.10141 -0.14228 0.10576 -0.36694 0.33073 -0.038268 0.42193 -0.19057 0.14295 0.072551 -0.36668 0.40657 -0.23481 0.27263 0.2642 -0.17517 0.19901 0.13165 -0.21525 -0.063842 0.067011 0.027409 0.51438 -0.061367 0.051852 0.20442 0.05197 0.138 0.13909 0.082618 0.032229 -0.14423 -0.20203 -0.067539 -0.034631 0.16971 -0.38905 0.24764 -0.26807 -0.10463 0.19039 0.24128 0.17861 0.1144 -0.002149 -0.51578 -0.066233 -0.10726 0.24774 0.035746 0.065962 
terror -0.24267 0.037706 -0.66907 0.32947 0.046356 0.17061 0.2566 0.40276 0.42271 -0.2109 0.40187 0.6716 0.069469 -0.13098 -0.39469 0.14695 0.17417 0.036444 -0.068044 -0.13402 0.44155 -0.28309 -0.030061 0.083441 -0.10951 -0.15775 -0.14335 -0.2263 -0.4204 0.47652 0.18927 -0.094597 0.51054 -0.14038 -0.15271 -0.14504 -0.22375 -0.055875 -0.37144 0.18528 0.44008 0.17993 -0.0093594 0.32686 -0.063023 -0.06666 -0.022369 -0.014831 -0.17115 -0.45356 -0.023734 -0.17429 -0.072631 -0.024561 0.06181 0.21264 0.052311 0.29868 0.32402 0.084526 0.15859 0.01016 0.44064 -0.37626 0.069785 0.1571 0.032936 -0.048671 0.22945 0.15923 0.23112 0.11873 -0.14426 -0.17944 -0.26574 -0.31159 0.01381 -0.03857 -0.1725 0.21726 0.00066113 0.03071 -0.21805 0.15435 0.15221 0.12867 -0.065211 -0.39668 -0.3047 -0.22289 0.2084 -0.035849 -0.4367 0.11597 0.5437 -0.13824 -0.19898 -0.20973 -0.20881 -0.46878 0.07799 0.00050859 -0.5197 -0.36018 -0.50728 -0.48529 0.33433 -0.049319 -0.0030473 -0.20917 0.10711 -0.076833 -0.20427 -0.12161 -0.23168 -0.032129 -0.049345 0.12993 0.33975 0.26342 -0.13329 0.052657 -0.077801 -0.16453 0.0087459 -0.18414 0.067805 0.098745 -0.41987 0.28475 0.16585 -0.095202 -0.18698 0.47802 -0.2806 -0.051989 -0.14597 -0.11022 -0.21318 -0.30386 -0.37298 -0.25124 -0.041457 0.2799 0.45548 -0.42603 -0.03079 0.28751 0.21167 -0.417 0.34241 -0.053011 0.48453 0.22149 0.095239 -0.14352 0.38794 -0.042791 0.49118 0.36151 0.14402 0.040614 -0.15845 0.020011 -0.39349 -0.058262 -0.18143 0.2247 0.080928 -0.12254 -0.13331 0.025136 -0.29089 0.0044763 0.17307 -0.089714 0.16364 0.17213 0.077247 0.11218 -0.27164 -0.10263 0.30085 0.038232 -0.29054 0.10428 0.40977 -0.053122 0.26059 0.19913 -0.069009 -0.21797 0.019786 0.20536 0.12324 0.36709 -0.27378 0.19526 -0.039402 0.0082162 0.54498 -0.23525 -0.022583 0.2102 -0.27232 -0.19982 0.039582 0.20856 -0.038608 -0.23257 0.37945 0.12041 -0.34296 -0.10301 0.099277 -0.1701 0.053027 0.60266 -0.37902 0.24754 -0.3992 -0.21331 -0.25835 -0.12879 -0.42084 -0.38139 -0.39931 0.21901 -0.13668 -0.33886 0.19355 0.36948 0.00088527 0.056778 0.27346 -0.36441 -0.26386 -0.19628 -0.28749 0.23819 -0.005697 -0.084396 0.010315 0.010365 0.015372 -0.13206 -0.056219 0.13376 -0.18595 -0.0083364 -0.079313 -0.25685 -0.25786 -0.34333 0.30568 -0.13431 0.21039 -0.15613 0.15716 -0.3591 0.14173 -0.061771 0.15277 -0.42628 -0.29407 0.28043 0.39405 -0.10007 0.34055 0.3299 0.24969 0.051996 -0.43721 -0.21611 -0.41637 0.15362 0.31708 0.46943 0.23503 -0.1378 -0.55067 -0.012835 0.11684 -0.15505 -0.026696 -0.17467 -0.62034 -0.078428 0.18768 -0.039355 -0.12251 -0.088339 0.00019682 0.12519 -0.33597 -0.12347 -0.0050298 -0.51886 -0.0062026 -0.19595 
smile -0.13811 -0.24974 -0.42887 -0.33689 -0.079704 0.06099 0.34095 -0.062401 -0.2109 0.073395 -0.20425 0.026478 0.33097 0.11519 0.095277 -0.063585 0.12071 -0.19561 0.13118 -0.22336 -0.12801 -0.15427 -0.23672 -0.24953 0.34544 -0.1061 0.39526 -0.11705 -0.27072 0.32887 0.16608 -0.55258 0.096852 -0.050667 -0.030382 0.15899 -0.15274 -0.19622 0.36396 -0.093059 0.25572 0.34705 0.2947 -0.17677 -0.10429 -0.22212 -0.075099 -0.23328 -0.27734 -0.49495 0.55133 -0.35068 0.13933 -0.58496 0.014157 -0.42973 -0.086229 -0.075605 0.042883 0.1839 0.26821 -0.25562 -0.3649 -0.11873 0.10548 -0.18585 0.49406 0.38708 0.15146 -0.063466 -0.11524 -0.035226 -0.47375 -0.042784 -0.53262 -0.2074 0.20478 0.02413 0.20385 0.051338 -0.1019 0.1097 0.58182 -0.25759 -0.099752 0.051599 -0.10532 -0.0020147 -0.23953 -0.18149 -0.025923 0.079482 -0.31054 -0.17066 0.1723 0.47408 0.25243 0.24209 -0.052928 -0.43459 0.092032 0.38923 -0.56847 0.051746 -0.32849 0.013449 -0.11718 0.44201 0.11403 0.032147 0.35544 0.094393 0.014187 0.11724 0.040868 -0.011402 0.03379 -0.052342 0.20632 0.082389 0.082266 0.29076 -0.098155 -0.36367 0.15387 -0.14247 -0.25931 -0.12057 -0.33586 0.18382 -0.016918 -0.045273 0.042291 -0.23747 -0.11041 0.29713 -0.26043 -0.17215 -0.13835 -0.54665 -0.018562 -0.068456 -0.44221 0.023389 -0.13045 0.13649 0.22737 0.15574 0.23973 -0.28926 0.5924 -0.3562 0.27173 -0.087992 -0.15667 -0.023743 0.022419 -0.0047517 -0.030563 0.19228 -0.25405 -0.22566 -0.23144 -0.31503 -0.017817 0.12625 -0.13816 -0.025662 0.16817 -0.13533 0.31031 -0.38949 0.10139 -0.024669 -0.15871 0.17985 0.31529 -0.051343 0.093689 0.020698 -0.56439 0.19653 -0.030526 0.21755 -0.099858 0.023784 0.054439 0.29983 -0.181 0.28927 0.011172 0.24665 -0.12586 -0.14148 0.065214 0.22772 -0.14805 0.16221 0.21777 -0.31745 0.066639 0.29335 -0.015694 -0.082883 0.087047 -0.18642 -0.065622 -0.35821 -0.31898 0.10104 -0.026708 0.16312 0.19389 -0.15771 -0.58244 0.0032687 -0.081424 -0.20333 -0.30694 -0.51766 -0.03405 0.15366 -0.1378 -0.25439 0.19126 -0.44154 0.64595 0.17261 0.18159 0.2248 -0.24733 -0.24012 0.17088 0.091977 -0.1945 -0.46088 -0.062865 -0.042671 0.24504 -0.0090906 0.35289 0.11863 0.22023 0.25082 0.01674 -0.24908 -0.17412 -0.45466 -0.0047633 0.25007 -0.28399 0.31946 -0.07262 -0.030607 0.12768 -0.15819 -0.14369 0.095369 -0.032626 -0.038775 0.58106 -0.24043 0.33705 -0.5172 0.044513 0.30973 0.22855 -0.43553 -0.26411 0.10616 0.2724 0.4174 0.21324 0.23917 0.13081 0.18983 0.23672 -0.031413 0.20059 0.022843 -0.15868 -0.35288 0.097587 -0.27022 -0.34529 -0.018759 -0.26924 0.19793 -0.21109 -0.10614 0.19673 0.10328 0.094805 -0.20303 -0.30507 0.20027 -0.16135 -0.15723 0.10973 -0.081375 
woman 0.13173 -0.085138 -0.36003 -0.11169 0.40058 0.47988 0.30677 0.34166 -0.15439 -0.38308 0.12523 0.035715 0.54219 -0.058143 -0.251 0.31081 0.17257 -0.099696 0.029344 0.047649 -0.023536 -0.1241 -0.054646 -0.029811 -0.11401 0.087563 0.14414 -0.20556 -0.40925 -0.056497 0.60197 -0.3283 0.17157 -0.31506 0.27841 -0.47063 -0.067537 -0.3687 -0.20066 -0.12118 -0.094367 0.42921 0.054235 -0.034157 -0.017238 0.02443 0.053943 -0.16569 -0.27439 -0.031602 -0.1863 -0.11425 -0.12963 0.17292 -0.17054 -0.10472 0.0089683 0.33885 0.17499 -0.11113 -0.022878 -0.24614 -0.57643 -0.32203 -0.10617 -0.12608 0.13817 0.24967 -0.017048 -0.022406 -0.15215 -0.1498 0.19392 0.32381 0.14806 0.063121 -0.14553 0.16744 0.15762 0.47195 0.17212 0.35323 0.044938 0.21432 -0.22514 -0.070088 0.051162 -0.2155 -0.10633 -0.10374 0.45261 0.054898 0.18299 -0.036017 0.025753 0.16856 -0.017429 -0.068881 -0.19636 -0.12708 0.33315 -0.075662 -0.41938 0.20561 -0.60292 0.043848 0.14338 -0.19824 0.32928 -0.15921 -0.059166 0.36224 0.13077 0.080173 -0.011908 -0.16359 -0.14095 0.10408 -0.10729 -0.21165 0.062671 -0.0094608 -0.038427 0.13597 0.22703 -0.13446 0.055274 0.19393 -0.13761 -0.036406 -0.049295 -0.0040247 0.016722 -0.0019398 -0.19321 -0.062309 -0.30058 -0.39508 -0.045018 -0.14447 0.20339 0.10753 0.16632 0.067833 -0.092638 -0.19413 -0.043417 0.043624 0.15312 -0.26029 0.19969 -0.36513 0.029777 -0.075007 0.24443 -0.50004 -0.060024 -0.097725 0.035791 0.2507 -0.16487 0.01157 -0.18536 0.076326 -0.17709 -0.040373 -0.045305 0.4357 -0.044662 -0.21332 0.22277 0.070025 -0.23004 0.11167 0.48872 0.37803 0.26201 0.060715 0.11849 -0.082556 -0.16153 0.29066 -0.063988 -0.054678 0.010742 0.10653 -0.026513 0.29612 0.041473 0.21323 0.0668 0.22704 0.091172 -0.070373 -0.096197 -0.035129 -0.14055 -0.24744 -0.23881 0.33225 -0.22986 0.086289 0.26819 0.23824 0.17659 0.03116 -0.0055662 -0.44249 0.048264 0.21727 -0.062315 0.037711 0.11154 -0.11309 -0.23516 0.17612 0.40745 -0.016709 0.39312 -0.19616 0.18821 -0.099804 -0.050345 0.10821 0.21716 0.0078835 -0.10375 0.0068491 -0.10266 -0.040083 0.051732 0.21374 0.55405 -0.16814 -0.21123 -0.054058 -0.0024814 0.083168 0.070747 -0.29923 0.098397 0.18583 0.46218 -0.0030118 -0.076671 -0.47264 -0.22147 -0.3018 -0.093793 0.074472 -0.15066 0.17621 -0.066883 0.18058 -0.14909 -0.25368 -0.019315 -0.58395 0.13754 -0.091599 -0.05602 -0.083766 0.12146 -0.15551 -0.51007 0.15587 -0.17489 -0.19038 -0.054668 -0.14127 0.023803 -0.19304 -0.21201 -0.047566 0.19578 0.2498 -0.019648 0.027159 0.55793 -0.07722 0.025579 -0.090703 0.051465 0.087388 -0.34503 0.028869 0.1188 -0.046731 -0.3275 -0.11179 0.34591 0.21316 -0.048529 0.086712 -0.19588 0.057369 -0.28066 -0.32486 0.14827 -0.086479 
string 0.16505 -0.064996 -0.0054054 -0.20353 -0.082327 -0.12223 -0.38946 0.3043 -0.20402 0.17076 0.30629 -0.11766 0.25966 -0.032301 0.22163 -0.20646 0.31169 -0.313 0.035767 0.12499 0.12184 -0.47406 0.1259 0.031186 -0.14277 -0.10067 0.11925 -0.079849 -0.31655 0.15043 0.025431 -0.19284 0.26538 0.29397 -0.44428 -0.015121 0.20986 -0.1635 -0.12209 -0.34392 0.39518 -0.051004 -0.050179 0.19825 0.041843 -0.071926 -0.15123 0.49342 -0.16011 0.2669 -0.12576 -0.14869 -0.32579 -0.011309 0.16229 0.10584 -0.088787 0.19292 -0.27432 0.14762 0.11885 0.19177 0.14256 -0.1185 -0.0059594 0.022966 0.17091 0.01599 0.095103 -0.032805 -0.068517 0.076735 -0.18326 0.10875 0.10138 -0.22629 0.18635 0.04507 0.021463 -0.021248 -0.052084 -0.00028974 -0.010722 0.35454 0.46247 0.11849 -0.34837 -0.14952 -0.36199 -0.29693 0.23709 -0.16354 0.36282 0.088762 -0.10132 -0.12834 0.17798 -0.097543 -0.14469 0.051136 0.28121 -0.055189 0.13271 0.16945 0.19154 -0.23632 0.15629 0.12743 0.39983 -0.20311 0.45846 -0.087719 0.2645 0.0026662 0.058208 -0.35044 -0.13014 -0.12867 -0.19161 0.32539 0.159 -0.0043235 -0.00023134 -0.13924 0.24384 -0.33156 -0.14864 -0.095 -0.06531 -0.0094619 0.038511 -0.23012 0.020907 0.39938 -0.25961 -0.0796 -0.13413 -0.40866 -0.21353 -0.01924 0.033262 0.025763 -0.12486 -0.010422 -0.16471 0.075992 0.083425 0.30085 0.084104 -0.28359 -0.14886 0.21984 -0.18822 -0.12942 0.022418 -0.24578 0.31084 -0.2436 0.076165 0.26152 0.078574 0.27564 -0.41108 0.24834 -0.13009 0.0099227 -0.049742 0.14867 0.089851 0.017433 -0.29083 -0.22694 -0.31851 0.11294 0.014867 0.2 0.21012 -0.35849 -0.22559 0.31549 -0.21037 -0.093763 0.011935 0.11738 -0.34193 0.11743 -0.21908 0.091392 -0.0065839 -0.044463 -0.088837 -0.14354 -0.11425 -0.18325 0.12213 0.35872 -0.23595 -0.20135 0.069081 0.46339 0.29723 0.22555 0.19574 0.14691 -0.55644 0.24293 0.15216 -0.27732 -0.019586 -0.067691 -0.11957 0.060457 -0.084595 -0.069576 -0.22647 0.27299 0.10486 0.23092 -0.23758 -0.24006 -0.014395 0.16104 -0.078613 -0.31097 -0.10642 -0.071812 -0.30712 0.0048132 0.10967 -0.16143 -0.13518 0.13336 0.32722 -0.19477 -0.40675 -0.46206 -0.088328 -0.11225 -0.10766 0.021427 -0.18593 0.12475 -0.045658 0.28999 -0.050757 -0.31536 -0.19721 -0.43661 -0.28282 0.17368 0.011949 0.22688 0.1221 -0.062988 0.33995 -0.10103 0.098399 -0.088014 -0.0043296 0.075556 0.10526 -0.09612 0.32441 0.1604 0.15764 0.30164 -0.14293 -0.0017521 -0.31701 -0.041395 -0.17201 -0.39176 0.057887 -0.067275 0.10637 -0.23965 0.21797 0.60491 0.19011 0.098055 -0.12433 -0.4011 0.040391 -0.40473 0.408 0.21228 0.234 -0.1403 0.0018634 0.268 0.31724 -0.030848 -0.068178 0.22124 -0.64629 0.023616 -0.34416 -0.017892 -0.27207 0.073242 
Maradona 0.060006 -0.11872 0.065363 -0.10483 0.2699 0.033704 0.55441 0.32625 0.22461 -0.66278 0.03452 0.29131 0.39722 -0.025556 -0.25424 0.085892 0.31278 0.23455 -0.16041 -0.19641 0.34565 -0.22696 -0.15592 -0.17157 -0.028841 -0.28587 -0.029478 0.24186 -0.048559 -0.29939 0.664 -0.1855 -0.0088594 -0.28393 0.22511 0.015048 0.098232 -0.26248 -0.47166 -0.41875 0.06848 0.22439 -0.48 -0.026972 0.27081 0.19747 -0.18196 -0.23738 0.12236 -0.32475 0.3818 0.27683 0.066161 0.079966 -0.081571 0.24654 0.36371 0.30183 -0.07107 0.029993 -0.16524 -0.55771 -0.16029 -0.49116 0.0095869 -0.23981 -0.47542 0.50372 -0.15074 -0.11591 -0.5026 0.1752 -0.25074 0.36193 0.26252 0.094458 0.48789 0.33746 0.22196 -0.30535 -0.050981 -0.17379 0.19332 -0.58176 0.51061 -0.23859 0.38021 -0.24237 -0.27666 -0.55633 0.15315 0.059957 -0.43619 -0.31704 0.16577 0.31625 -0.041204 0.13623 -0.37092 -0.70163 0.13446 -0.40601 -0.051889 0.027723 -0.2801 0.14006 -0.001451 0.37524 -0.53637 0.075171 0.29839 0.49277 0.3866 -0.027054 0.71301 -0.67136 -0.20878 0.15043 -0.11101 -0.13191 0.25862 -0.25094 0.2782 0.079056 0.17622 -0.15255 0.025829 -0.040216 -0.52992 0.093527 0.5537 -0.14258 0.14538 0.086946 -0.17283 0.33752 -0.31421 0.14776 -0.17171 -0.12041 0.0021832 0.21185 -0.23103 0.015199 0.47771 0.10642 -0.019782 0.38088 0.19869 -0.025148 0.40831 0.015677 0.19752 -0.043453 0.15865 0.44887 -0.093142 0.28984 -0.010683 0.046236 -0.48704 -0.040978 -0.15618 -0.42128 0.24207 0.021367 0.28031 0.18571 -0.30533 -0.57548 0.060432 -0.32204 -0.42101 -0.066252 -0.32175 0.070649 -0.25007 0.17775 -0.38003 -0.26595 -0.53175 -0.24798 -0.024383 -0.66665 -0.41189 -0.080634 0.0044065 0.45048 -0.0925 0.16449 -0.24154 -0.017105 0.033634 -0.61569 0.10634 -0.24051 -0.48591 0.32 -0.49847 0.19357 -0.034628 0.30403 0.41133 -0.32944 -0.26814 -0.17402 -0.10396 -0.36797 -0.015106 0.17771 -0.084772 -0.26037 -0.25648 -0.014779 -0.24259 -0.46038 -0.17261 -0.45367 -0.15155 0.31676 0.033383 0.15808 -0.25695 0.083654 0.16865 -0.13038 -0.28736 0.10455 -0.36244 -0.41847 0.0095491 -0.26397 0.37614 -0.35385 -0.076249 -0.3739 -0.17172 0.10784 -0.22077 0.083401 0.19233 -0.37992 -0.1866 -0.23851 -0.28507 -0.15445 -0.15358 -0.16157 -0.37951 -0.2684 -0.5135 0.31902 -0.29232 0.081569 0.44993 0.019394 0.11432 -0.19136 -0.20771 0.085641 0.7055 0.18283 -0.082773 -0.34953 0.082811 -0.084415 -0.36883 -0.022069 0.089982 -0.23892 0.090993 -0.36258 0.36409 -0.065118 -0.013038 0.44403 0.1375 -0.38082 0.6285 0.17687 0.4566 0.69144 0.071397 -0.19948 0.12197 -0.28395 -0.24283 0.36113 0.044236 0.020782 0.29058 0.021937 -0.28183 -0.082322 -0.81216 -0.46655 -0.28227 -0.081214 -0.64024 0.13399 
liability 0.0327 -0.15415 -0.14996 -0.092056 0.31015 0.18077 -0.36632 0.29561 0.16264 0.080956 -0.10266 0.17547 0.28436 0.09554 -0.34333 0.058871 0.22871 -0.12479 -0.16876 0.15514 -0.15798 -0.13253 0.1052 -0.25032 -0.13712 -0.12947 0.21733 0.17469 -0.045237 -0.036502 0.19623 -0.44352 -0.24697 -0.0011155 0.19314 0.41446 -0.36075 -0.40019 -0.37405 0.016542 0.36852 0.61621 0.37814 0.047792 -0.11794 0.070597 -0.55777 -0.010498 0.42144 -0.33783 0.0066958 0.17239 0.36978 -0.22283 -0.068079 -0.045041 -0.39255 -0.45643 -0.12087 0.076525 -0.11081 -0.19774 -0.28717 -0.17596 -0.1899 0.19475 0.35401 0.1616 -0.26617 -0.013446 -0.28231 0.20901 -0.45267 0.26479 0.22946 0.32118 0.18319 -0.22972 0.096047 -0.1271 -0.16666 0.064881 -0.29349 0.26097 0.79414 0.22125 -0.20099 0.41393 -0.19559 0.08089 0.066414 0.29934 0.21146 -0.083353 0.27631 -0.036866 0.1077 0.098201 0.010048 -0.15569 0.12143 -0.044385 -0.2237 -0.078429 0.11779 -0.36957 -0.076595 0.010793 0.28395 0.47738 -0.13722 -0.19694 0.033504 0.11229 0.12377 0.11288 -0.095422 0.069621 -0.038566 0.48443 0.077771 0.27895 -0.0050651 0.07795 0.064377 -0.068103 -0.38537 -0.28284 0.33206 -0.29146 -0.14071 0.47243 0.19186 -0.059487 0.22712 0.25384 -0.090203 -0.080442 0.19007 0.027393 0.045199 -0.26456 -0.0019458 0.48031 0.11491 -0.2934 0.08093 0.11364 -0.1592 -0.080154 -0.36264 -0.10318 -0.21749 -0.1602 0.20559 0.31205 -0.19426 0.2075 0.37013 0.12161 -0.22758 0.019845 -0.42871 0.06424 -0.046924 -0.099972 0.10279 -0.094685 -0.012397 -0.0070231 -0.23646 0.092052 -0.11364 0.061777 0.16503 -0.18905 0.42078 -0.42 0.18499 -0.12938 0.28222 0.13527 0.50624 -0.054032 -0.076911 0.39712 0.29325 -0.12334 -0.11167 -0.34785 0.16892 -0.24679 -0.20174 -0.26365 -0.18682 0.48051 -0.26583 0.19623 0.066405 0.37734 0.2188 -0.19182 0.1585 -0.047366 -0.092196 -0.47881 0.02932 -0.27503 -0.46147 0.042799 0.22599 -0.23549 0.37936 -0.0807 -0.17277 0.022296 -0.08342 0.054163 -0.041963 -0.14441 0.38793 0.14241 0.16077 -0.085492 -0.22838 0.026693 -0.1105 0.069368 0.14864 -0.26124 0.01737 0.21134 0.039274 0.031417 -0.092121 0.050976 -0.27286 -0.35093 0.080239 -0.059678 0.025761 -0.49412 -0.3069 -0.026152 0.26291 0.11273 -0.15649 -0.40797 0.013154 -0.065845 -0.62207 -0.19063 -0.17015 -0.17964 0.042834 -0.15338 0.0076838 0.10377 -0.11255 -0.083475 -0.019627 0.09358 -0.24338 -0.10185 -0.27824 0.13765 -0.21739 -0.14597 -0.016813 -0.010493 -0.013429 -0.013213 -0.44577 -0.074596 -0.10412 0.085528 0.12536 0.36183 0.22356 0.50675 -0.1528 -0.3008 -0.073486 -0.26897 0.3219 -0.16157 -0.17443 0.02103 -0.29058 -0.025242 -0.055786 0.020238 0.0028685 0.38072 0.16967 -0.1197 0.33161 0.26146 0.042336 -0.2906 
ticket 0.018775 -0.064305 -0.10673 -0.15417 0.4187 -0.10055 0.1953 0.0099637 -0.078297 0.30017 -0.012145 -0.02007 0.014517 -0.046051 0.25302 -0.47854 0.41033 0.089112 0.015637 0.13102 0.15967 -0.18988 -0.1042 -0.1331 0.33309 0.38451 0.27573 -0.17697 -0.060945 0.031727 0.40742 -0.49171 0.074814 -0.24539 0.12205 0.45462 -0.12952 -0.13756 -0.32828 0.069162 0.098458 -0.48261 0.038991 -0.052132 -0.36101 0.51951 -0.35733 -0.4479 -0.020617 -0.20195 -0.12906 0.39026 0.25313 -0.050716 0.43546 0.32445 -0.48317 0.035295 -0.052149 -0.007714 0.16516 -0.2544 -0.19103 -0.45798 0.12211 -0.43538 0.24977 0.0066489 0.018762 -0.015569 -0.099597 -0.047393 0.055471 0.29937 0.19212 0.32982 0.11737 -0.035907 0.31817 0.052131 0.14809 0.46987 -0.053566 0.17104 0.30628 0.049049 0.24967 0.23125 0.10322 0.36248 0.042085 0.3679 -0.27256 0.22682 -0.060501 -0.28869 0.33388 0.042873 -0.2173 -0.087458 0.13726 -0.52602 -0.21194 -0.45171 -0.6514 -0.25854 0.24803 -0.38462 0.19165 -0.14717 0.15476 0.24064 -0.10974 -0.1189 -0.21434 -0.16586 0.043019 -0.17322 0.25674 0.24281 -0.081134 0.32513 -0.413 -0.03032 0.06914 -0.1913 -0.057399 0.054871 -0.12623 -0.31826 -0.41456 -0.079148 0.10199 -0.23236 -0.044703 -0.15923 -0.12401 -0.097848 0.30367 -0.47791 -0.15895 -0.10539 -0.044101 0.12035 -0.35655 -0.30902 0.39478 0.22016 -0.14555 -0.33771 -0.0024218 -0.012786 0.29095 -0.08161 -0.14153 -0.19573 0.026545 -0.1352 0.17996 -0.32612 -0.052601 0.073597 -0.35424 0.061839 -0.56317 0.53824 -0.21421 0.14378 0.14266 -0.058485 0.54185 -0.060981 0.025242 0.12633 -0.028508 -0.23252 0.18708 -0.088765 -0.030513 -0.14942 0.056472 0.18879 -0.060366 0.25841 -0.2167 0.18905 -0.29686 0.14067 0.10993 0.1938 -0.083514 0.10792 -0.17956 0.37504 0.1531 -0.19654 0.20302 0.10079 -0.18729 0.0032686 -0.12651 -0.082722 0.17786 0.036046 -0.31134 -0.018439 -0.39433 0.44694 -0.16681 0.45411 0.38971 0.1043 0.61448 0.40205 -0.040929 0.3796 0.23503 -0.23139 0.36567 0.12226 -0.11091 0.24396 -0.29059 0.16844 0.29535 0.24586 -0.25099 -0.093198 0.1593 -0.49335 0.14373 -0.016187 0.39089 0.13221 0.15097 0.0095065 -0.015181 -0.15362 -0.26494 -0.13997 0.18769 -0.49873 -0.012908 0.15289 0.26046 -0.26934 -0.393 -0.10267 -0.48367 -0.21757 -0.23905 0.068783 -0.11228 -0.35608 0.53868 -0.14693 0.52789 -0.24933 -0.18158 -0.22916 0.40246 0.1185 -0.43062 -0.21543 -0.10429 0.32329 0.092997 -0.1189 0.53454 -0.38233 0.14066 0.13058 0.11272 0.27891 0.37914 0.0027836 0.023062 0.055839 -0.029258 -0.029143 0.024601 0.15815 0.14505 0.2371 0.20279 0.084284 -0.26561 0.14057 0.2343 -0.12825 0.41661 0.2496 0.11753 -0.36004 -0.015307 -0.20951 -0.11287 0.12271 -0.087393 0.060012 
school -0.16127 -0.0017299 -0.26231 -0.16168 0.071465 0.29343 -0.020864 -0.11269 0.50703 0.16494 -0.15438 -0.09276 0.030065 0.20724 -0.24939 -0.1579 0.11687 -0.071357 0.2035 -0.13308 0.35745 -0.3319 -0.12163 0.293 0.1252 0.31343 0.22284 0.02057 -0.21875 -0.37367 0.18081 -0.13485 0.17614 -0.15186 -0.12186 0.16248 0.026275 -0.14616 -0.1217 -0.22943 0.035531 -0.068125 -0.23098 -0.055596 -0.21956 0.14223 -0.071113 -0.082287 0.082893 -0.079665 -0.12293 -0.0052723 -0.15046 0.12724 -0.2004 0.1714 -0.31109 0.13695 0.10436 -0.12148 -0.022656 0.16463 0.14751 -0.67769 0.40726 -0.062844 0.34514 0.15405 -0.053245 -0.27533 0.1582 0.45881 -0.42359 0.12281 0.015522 -0.15593 -0.029009 0.082506 0.16236 -0.12804 0.12428 0.023604 0.02664 0.18472 0.18082 -0.0069946 0.1459 -0.023802 -0.47729 0.05448 0.049719 0.178 0.23578 0.1316 0.22882 -0.048448 0.08946 0.48704 -0.18462 0.34712 0.2959 -0.0045871 0.13677 0.314 -0.29113 -0.21478 0.036378 -0.14142 0.021418 0.071979 -0.095671 0.20053 -0.056503 0.13711 0.059325 -0.067856 -0.2659 0.10671 -0.094053 -0.23326 0.093907 -0.1207 -0.31362 -0.19865 -0.078893 0.010519 0.27571 -0.051232 -0.043479 -0.088858 0.25964 -0.088875 -0.25592 0.13931 0.02564 -0.1099 -0.215 0.045581 -0.29773 0.12315 -0.30166 -0.10003 -0.19348 0.37182 -0.011805 0.018043 0.09561 0.47282 0.17186 -0.35972 -0.050234 -0.068907 -0.15503 0.31339 0.20463 0.29093 -0.022616 0.1442 -0.04204 -0.058464 0.0058417 -0.14534 0.12917 -0.19754 0.1885 0.22425 -0.053356 0.10453 0.054947 -0.071642 0.41712 0.15752 -0.12662 -0.043738 0.18704 0.36389 -0.15882 -0.11329 -0.19014 -0.016876 -0.10567 0.21084 0.0076741 0.19832 -0.34942 0.018148 -0.19572 0.088592 0.14252 0.040132 0.16491 0.51754 -0.11518 -0.18561 -0.27983 -0.34432 -0.083445 0.16822 0.013181 0.15683 -0.10545 -0.0043411 -0.29748 0.094998 0.31776 -0.1345 0.030714 -0.17848 -0.049782 0.3489 0.047437 0.17852 -0.029313 0.11499 -0.30101 0.041651 0.1477 0.12085 -0.112 -0.22678 -0.057525 -0.069668 -0.17567 0.11212 0.27895 0.13212 -0.34696 0.24404 0.032699 0.024562 0.0099444 0.29872 -0.3309 -0.093525 -0.058749 0.40854 -0.12705 -0.080633 0.23768 -0.018379 -0.32718 0.054091 0.14056 0.33578 -0.18134 -0.50985 0.082035 -0.57783 -0.19345 -0.23946 -0.10975 0.35792 -0.028912 0.16072 0.12467 0.19463 -0.04002 -0.03717 -0.051936 -0.01268 -0.027674 0.094438 -0.052514 -0.1738 0.34331 0.50098 -0.13773 0.11675 -0.054683 -0.014722 0.41671 0.080769 0.15833 -0.40516 -0.35068 -0.43617 0.16636 0.15582 0.068713 -0.33455 -0.22775 0.14028 0.077734 -0.16371 0.22008 0.052665 -0.278 0.04405 -0.51154 0.16234 0.38135 0.26616 0.28971 0.07203 -0.093765 -0.25378 -0.26595 0.0064577 0.25601 -0.12619 
gender -0.15267 0.005692 -0.5074 -0.36498 0.1763 0.45253 -0.28161 0.35764 -0.1559 -0.49233 0.24658 0.31402 0.38309 0.10781 -0.49699 -0.066323 0.16565 0.067745 -0.014686 0.41662 -0.070251 -0.51802 -0.1525 0.301 -0.0093763 0.30728 0.83608 -0.21513 -0.57037 -0.31586 0.28063 -0.17083 -0.24954 0.11149 0.028899 0.60482 -0.14054 -0.20745 0.1196 0.29194 -0.071978 0.23672 -0.026082 -0.10401 -0.35011 0.27191 -0.35179 -0.018594 0.069057 -0.29774 -0.017974 0.28403 0.092394 0.10079 0.038098 -0.43968 0.1479 -0.0032058 0.47764 0.025019 -0.056469 -0.13066 -0.3966 -0.10866 0.33814 -0.13824 0.24845 0.086801 -0.14131 -0.002964 0.024991 -0.17615 -0.27334 0.80979 0.25463 0.18901 -0.34196 -0.0059328 0.18605 -0.26851 -0.092903 -0.051502 -0.20438 0.17749 0.10694 0.083861 -0.21114 -0.019622 0.02638 -0.11871 0.31027 0.40501 -0.076354 0.43597 0.17365 0.60585 -0.21077 0.26753 -0.041657 -0.15628 0.38384 -0.3359 -0.69107 -0.2252 -0.42866 -0.27079 0.073307 -0.2025 0.11671 -0.16401 -0.32563 -0.10276 -0.46743 -0.13855 0.16085 0.2376 -0.070415 -0.2342 -0.21224 -0.11977 -0.25894 -0.094023 -0.19139 0.065135 0.074624 -0.0741 0.037242 0.21745 -0.20142 0.079484 0.040654 -0.00088747 0.14853 0.0097352 0.25654 -0.019802 -0.48438 -0.42905 -0.057434 0.66985 -0.30209 -0.17207 0.26965 0.20537 0.024659 0.041395 -0.25048 -0.0027188 -0.00093629 -0.31453 0.45952 -0.35861 0.14902 0.15741 0.0756 -0.25125 0.003129 -0.22406 -0.094666 -0.30695 -0.2698 -0.089831 -0.37758 0.077453 0.29148 0.028339 -0.0057247 -0.041488 -0.18179 -0.44274 0.42235 0.15671 -0.38675 -0.42273 0.10376 -0.29475 0.46182 -0.21303 -0.28544 -0.3326 -0.057803 0.061658 -0.26594 -0.13724 0.0054993 0.15261 0.35878 0.13063 0.088409 0.4605 0.040245 -0.20826 -0.24602 -0.35137 -0.08509 0.23192 0.17554 -0.23536 -0.26416 0.084693 0.05281 0.0038102 -0.14387 -0.10775 0.0069239 -0.33605 0.010156 -0.34866 -0.017702 -0.11944 0.61857 0.27963 0.056973 0.10934 -0.12839 0.036649 -0.15268 0.10599 -0.32122 -0.010132 0.079018 -0.21199 0.10657 0.029755 0.032603 0.4148 -0.18857 -0.16012 0.072016 0.23579 0.21666 0.043846 0.075966 0.46291 0.15635 0.052661 -0.10469 -0.043695 0.038388 -0.26685 -0.43563 -0.055445 0.033927 0.2847 -0.14951 -0.067743 -0.43794 -0.17174 -0.51843 0.068301 -0.59883 0.28373 0.22451 0.085126 0.071757 -0.48514 -0.46399 0.20198 -0.19435 -0.25399 0.20494 -0.079717 0.033132 -0.132 -0.014606 -0.020011 0.074319 -0.37184 0.14065 -0.052924 0.22586 0.13333 -0.15503 -0.14112 0.015554 0.20408 0.144 0.0024276 0.5946 -0.21307 0.54306 -0.13935 -0.17309 -0.21673 -0.25144 -0.094271 0.23422 -0.036147 -0.017424 -0.11703 0.35213 0.060893 -0.20824 -0.024406 -0.41228 -0.14431 -0.16809 -0.038103 -0.29235 0.42633 
brother 0.50832 -0.25746 -0.060036 0.13364 0.40974 0.40288 0.082783 0.2656 -0.25771 -0.13895 -0.0067334 0.39309 0.24372 0.011575 -0.21672 -0.22506 0.084701 -0.22658 0.011666 -0.18772 -0.20151 -0.052194 -0.014338 -0.18051 -0.12351 0.25461 -0.21403 -0.096185 -0.12477 -0.12125 0.36886 0.15502 0.21904 0.34054 -0.094137 -0.10752 -0.14329 -0.13968 -0.29638 -0.0092832 0.028057 -0.019366 -0.12763 -0.29212 -0.40966 0.48983 0.33769 0.034176 -0.070489 -0.08423 0.13176 -0.21024 0.19632 -0.33947 -0.31681 0.26724 0.39439 -0.19444 -0.019809 0.0013415 -0.21323 -0.0039909 -0.1782 -0.11878 -0.098483 0.15237 0.15029 0.039962 0.19235 0.34088 -0.29678 0.43398 0.13589 0.39077 0.15476 -0.020357 0.16106 0.1828 0.36128 -0.050832 0.15349 -0.12277 0.1723 -0.25896 -0.10174 -0.015226 0.088589 -0.16409 -0.31861 -0.095201 0.22646 -0.1701 0.21728 -0.066973 -0.15265 0.10599 0.22791 0.059213 0.037205 -0.21404 0.066183 0.47474 -0.088742 0.19596 -0.43356 -0.023363 -0.070621 -0.036727 0.051148 0.099609 0.35705 0.28857 -0.24899 0.32706 -0.045432 0.23639 -0.16216 -0.3486 0.022283 0.27951 0.19815 -0.16949 0.077594 -0.11962 -0.048085 0.23911 0.50759 0.052217 0.19269 0.23299 0.05511 -0.31506 0.029981 -0.18488 0.13416 -0.17668 -0.45041 -0.0052524 -0.019436 -0.28867 -0.47454 0.42529 -0.36882 0.15374 0.36089 -0.090817 -0.30284 0.1837 0.1914 -0.67252 0.18682 -0.14759 0.18815 -0.2019 -0.099444 0.028152 -0.13436 0.19317 0.32672 0.15421 -0.38598 0.28346 -0.49921 -0.42348 -0.20719 0.25881 0.15332 0.33948 -0.16178 -0.14816 0.28129 0.12786 -0.07647 -0.13735 0.44174 0.5533 -0.21302 -0.40682 0.30406 0.23034 -0.38148 -0.02593 0.39565 0.36003 -0.44236 -0.077906 0.086241 0.12869 -0.30324 -0.17063 0.36551 0.26674 -0.057486 0.053688 -0.20412 0.63639 0.03539 0.060107 0.17281 0.093096 0.14129 -0.0035049 -0.18329 0.13895 -0.025955 -0.048801 -0.06734 0.078436 -0.20769 0.12087 0.3395 0.01624 -0.1258 -0.16076 0.063782 0.10793 0.17589 -0.17296 0.27491 -0.38209 -0.22907 0.30496 -0.0063147 0.12046 0.23271 0.2553 0.10964 -0.060475 -0.11874 -0.14351 -0.1727 -0.02206 -0.016891 -0.12212 -0.18005 0.010461 -0.18565 -0.15876 0.18672 0.047031 -0.14262 -0.052319 0.079306 0.099495 0.046817 -0.61453 0.034618 -0.37937 0.081011 -0.20209 -0.21434 0.29492 -0.037846 -0.11031 0.15508 -0.30349 -0.059303 -0.52692 -0.070917 -0.17017 -0.25893 0.0059329 -0.24372 0.071779 -0.087415 -0.018023 -0.14973 -0.34074 0.073498 0.051849 0.24834 0.29708 0.053477 -0.019096 -0.22592 -0.25319 0.1821 -0.11008 0.057495 0.2381 -0.24413 0.075249 0.19038 -0.23817 -0.29028 -0.089966 -0.16544 0.61566 -0.025432 -0.16671 0.47528 -0.0017906 -0.05368 0.0072116 -0.40608 -0.25644 -0.037784 -0.24986 0.029365 -0.21687 
team -0.039176 -0.16594 -0.15701 0.075702 0.22773 0.16839 0.14791 -0.011985 0.1754 -0.015186 -0.029162 -0.13579 0.15047 0.29413 0.094982 -0.23403 0.099542 -0.034446 0.064608 0.10009 0.19455 0.11589 0.31632 -0.12597 0.027869 -0.24082 0.1003 0.0083783 -0.00026811 -0.22754 0.087852 -0.31599 -0.28643 0.23382 -0.19628 -0.21919 -0.22297 -0.048509 -0.25396 0.013899 0.099601 0.14309 -0.092242 -0.18402 -0.15966 0.31759 -0.12031 0.15931 -0.036758 -0.069898 -0.10487 0.062204 0.36534 -0.064863 -0.10895 0.071093 -0.28491 0.19998 0.2985 0.051502 -0.39678 -0.30372 -0.081314 0.12105 0.058857 -0.18989 -0.13364 0.18313 0.10772 0.012959 0.099872 0.0015673 0.028087 0.35259 0.36563 -0.17612 0.09662 -0.081941 0.27127 0.072419 -0.008465 0.046265 0.09483 0.45548 0.2051 -0.066368 0.069954 0.029764 -0.36304 -0.22357 0.048374 0.039983 -0.10837 0.080691 -0.085248 -0.076256 -0.072401 0.066528 -0.46548 -0.16077 0.26601 -0.0073808 0.09668 -0.064244 -0.3883 -0.12365 0.087894 -0.26788 -0.15041 -0.10428 0.29523 0.29322 0.13198 -0.12171 0.057072 -0.2503 0.11788 0.066954 -0.17217 -0.037107 0.53384 -0.046637 -0.2304 -0.50209 0.04521 -0.087449 0.2182 -0.22942 -0.42482 0.023677 0.021112 0.21919 0.086561 0.39259 0.31529 0.25865 -0.19855 0.062151 -0.16082 -0.14202 0.0043175 0.069996 -0.18163 -0.088747 -0.11596 0.32554 -0.19308 0.36404 0.15542 -0.44421 -0.075396 -0.042442 0.29282 0.12161 0.097588 0.27074 0.20631 -0.021208 0.26089 -0.20312 -0.22387 -0.024658 -0.32202 -0.19089 -0.29335 -0.11693 0.17376 0.023204 0.14458 0.10917 0.33515 -0.12885 -0.37288 -0.25389 -0.26177 0.21096 -0.075027 0.029471 0.012083 -0.24831 0.10691 -0.15695 -3.2858e-05 -0.18157 -0.060435 0.050876 -0.080151 0.22122 -0.1022 -0.056902 0.19571 -0.0058659 0.04357 0.080359 -0.049543 -0.016733 -0.20914 0.28116 0.14074 0.07615 0.32876 0.32021 0.3402 -0.31427 -0.085883 -0.40536 -0.021948 0.068123 -0.26749 0.21459 -0.28373 -0.089538 -0.016099 0.09023 -0.029429 0.23265 -0.15587 -0.1055 -0.068616 0.10971 -0.24492 0.080161 -0.1635 0.10983 0.18964 0.20786 0.018474 0.027786 0.17808 0.005182 -0.024769 -0.12073 0.30929 -0.048551 -0.1401 -0.098667 0.15443 0.11147 0.2065 -0.087141 -0.027318 -0.11351 -0.11613 -0.0092142 0.066474 0.12779 -0.082971 -0.31831 -0.18326 -0.26049 -0.3534 -0.047809 0.086696 0.30497 0.21533 0.062546 -0.08477 0.058647 0.14198 -0.0064651 0.325 0.12147 0.43613 0.24754 -0.11411 0.044223 0.10585 0.14596 -0.034934 0.19189 0.24086 0.079849 -0.21715 -0.026119 -0.33166 -0.028356 0.0060215 -0.30833 -0.06704 0.0025738 0.033803 0.14947 0.26525 -0.39357 -0.057892 -0.22882 0.010699 -0.14947 -0.38456 0.013994 0.23226 0.25859 -0.046258 -0.093887 -0.094557 -0.12925 -0.3019 -0.17792 0.16944 -0.2379 
mammal -0.20311 -0.075475 -0.31587 0.029224 0.36328 0.30302 0.092349 -0.052716 -0.2345 0.3445 -0.021241 -0.13277 0.71177 0.64175 -0.26954 -0.043078 -0.21494 -0.45512 0.20242 -0.012 -0.15854 0.0028463 -0.28888 0.1221 -0.39655 0.060916 0.13411 -0.20212 0.29348 -0.14141 0.089796 0.23691 0.19231 0.50489 -0.035727 -0.20613 -0.65102 0.10516 -0.13049 -0.04368 0.52758 0.34452 0.031029 -0.16448 -0.17629 -0.0074244 -0.069157 -0.11759 -0.0036287 -0.056346 0.22001 -0.3231 -0.019538 0.42079 0.14684 -0.56699 -0.19789 0.21201 -0.039084 0.21792 0.25005 -0.26778 -0.37231 0.014738 0.058468 0.051322 -0.20493 0.21277 0.19956 0.088122 -0.052015 0.15563 0.17076 0.16457 -0.28149 -0.064127 -0.099565 0.076165 -0.25499 0.22645 -0.063669 0.21973 -0.394 0.34855 0.51874 -0.1177 -0.24784 -0.47563 0.078892 0.23037 0.41615 0.70761 -0.048478 0.15221 0.30149 0.027417 0.42204 0.029501 -0.41726 0.16498 0.2149 -0.061179 -0.25697 -0.37468 -0.39375 -0.4414 0.30638 -0.32336 -0.46532 -0.21166 0.32288 -0.28377 0.62038 -0.029354 0.651 0.10659 0.14705 -0.13067 -0.040902 -0.11826 0.12332 0.37825 -0.14638 -0.13366 0.36825 -0.1111 -0.6889 -0.10921 -0.28794 0.22849 0.63972 0.57884 0.10687 0.31543 -0.45403 -0.36341 -0.1038 -0.21339 0.46381 0.071367 -0.17911 -0.054327 0.26098 -0.14747 0.10942 0.31892 0.4801 0.36964 0.10909 -0.40192 0.14326 -0.55593 0.43038 0.11856 0.53949 -0.12008 -0.19845 -0.17111 0.47406 0.11715 -0.25472 0.095402 -0.16547 -0.059856 -0.17581 -0.12227 0.3057 0.31939 -0.016151 -0.36995 -0.11502 -0.013471 -0.59731 -0.015548 -0.062136 0.4644 0.1387 -0.034011 0.028287 -0.41712 -0.12243 0.056387 0.29753 -0.51171 -0.30392 -0.11912 0.88552 -0.076215 -0.015273 -0.1333 -0.077963 0.1792 -0.02763 -0.23363 -0.063857 0.083167 -0.43545 -0.080613 -0.3588 -0.12498 0.16241 -0.13184 0.10581 -0.14702 0.10425 -0.13811 0.25624 -0.25176 -0.11061 0.21432 -0.43817 0.6106 -0.25282 -0.0030655 -0.18649 -0.25433 -0.26133 -0.07644 -0.047363 -0.47417 0.21527 0.15773 -0.47116 0.28302 0.23798 0.2791 -0.20664 0.051401 -0.42491 0.13149 0.095655 -0.24897 0.50424 0.15988 -0.3073 0.39645 -0.20392 0.33381 -0.5725 -0.29386 -0.12371 -0.01116 0.47436 0.078422 -0.32984 -0.25394 -0.15212 0.1333 -0.099814 -0.084549 0.23095 0.36766 -0.08221 0.10096 0.099479 0.59433 -0.41024 -0.47495 0.28867 0.37717 0.30957 -0.27819 0.31358 -0.15322 -0.070919 0.04692 -0.13874 -0.33482 0.13331 -0.038427 0.35137 0.12684 -0.26368 -0.032535 -0.10672 0.3418 0.24295 0.066865 0.086664 -0.23435 0.028886 0.061984 0.75948 0.058313 0.076412 -0.78148 -0.069659 0.099196 -0.18654 0.20694 0.17769 -0.032731 0.24213 -0.15849 -0.24296 0.011493 -0.22719 0.414 0.14659 -0.14778 
round 0.61213 -0.0091851 0.13695 -0.027135 0.2109 0.075674 0.010708 0.27668 0.062756 -0.090108 0.18389 -0.032078 0.16414 0.020516 0.25741 0.027953 0.37478 -0.16465 0.10219 -0.13634 0.13505 -0.015763 0.1539 0.063388 -0.49988 -0.12467 0.12055 -0.089364 -0.11558 -0.1315 -0.18685 -0.32586 -0.0053413 0.16687 -0.38838 0.013219 0.19278 0.14564 0.18347 0.24971 0.30077 -0.17637 -0.082165 -0.056556 0.031724 -0.052044 -0.54422 0.038813 0.18742 0.074456 0.068749 -0.092054 -0.21181 -0.32332 0.22355 0.27395 0.046993 0.17197 -0.30261 0.131 0.2137 -0.097599 -0.073326 -0.038755 0.12951 -0.50776 -0.3129 0.1195 0.14213 0.012562 -0.34242 0.16374 -0.031336 0.32071 0.13098 -0.49068 0.19317 0.12791 0.59783 0.31275 -0.15029 -0.035826 0.085924 -0.092904 -0.010443 0.35694 -0.10818 -0.05419 0.094404 -0.31224 -0.012352 0.16257 -0.10372 -0.00052528 -0.098887 -0.03548 0.24522 -0.23839 -0.27545 -0.37637 0.10108 -0.1691 -0.19375 0.21337 -0.1101 -0.11683 0.1311 -0.017241 -0.052442 0.062302 -0.2439 -0.19528 0.33082 -0.068217 0.049496 -0.3626 -0.14413 0.23185 -0.040279 -0.01215 -0.16045 -0.12907 -0.22843 -0.35465 0.067832 -0.039259 0.019327 0.1337 -0.2276 0.11136 -0.10289 -0.018361 0.084034 0.40826 0.0076294 0.1074 -0.14435 -0.0036477 -0.13517 0.015614 -0.15227 -0.13843 -0.13077 -0.087242 0.27387 0.11695 -0.12626 0.15719 0.11626 -0.4873 -0.075392 -0.14709 -0.18574 -0.38226 -0.084594 -0.15977 -0.11578 -0.28563 -0.25514 0.22009 -0.16094 0.20579 -0.091008 0.084981 -0.17882 0.072628 0.10199 0.44462 -0.40868 -0.0016842 0.10115 -0.22213 0.089407 0.24999 0.45615 0.052177 -0.35732 0.17 0.12633 0.030775 -0.33067 0.44063 -0.098055 0.195 0.24983 -0.09004 0.16222 0.27931 0.027825 0.10578 0.26543 0.2109 -0.37121 0.022181 0.21525 -0.3093 -0.095389 -0.22088 -0.47535 -0.29583 0.16505 0.29612 0.22867 -0.17099 -0.01326 -0.15991 0.30852 -0.31823 -0.16319 -0.016144 0.27399 -0.11018 -0.093527 0.27597 -0.3729 -0.0036792 0.1216 0.20862 -0.046692 0.096301 -0.31828 0.30915 -0.24381 0.058685 0.17225 0.28454 0.19686 0.12347 0.37306 0.099823 -0.18788 -0.29477 0.6348 0.077191 -0.51215 0.088968 -0.13613 0.37061 0.27766 -0.0081301 0.27552 -0.14957 0.16042 0.25103 0.10551 0.21403 0.15031 -0.23584 -0.21017 0.038879 -0.21906 0.27082 0.11706 -0.038323 0.10811 0.037638 0.44542 0.27892 0.21836 -0.44595 0.058447 -0.19413 0.014585 0.2138 0.29707 0.39718 -0.010087 -0.064624 -0.061626 -0.043981 0.20524 0.10793 0.07268 -0.16054 -0.15254 -0.33304 -0.068539 0.11888 0.18209 -0.14835 -0.50528 -0.1171 0.13529 -0.24308 0.066191 0.23989 -0.11468 -0.019632 0.11617 0.13522 -0.045116 -0.21333 0.31882 0.10115 -0.09657 0.14213 -0.52957 0.21158 -0.27423 0.21841 
clothes 0.20767 -0.099966 -0.094822 -0.22585 0.036079 0.13219 -0.053429 0.12265 0.19243 -0.022807 -0.11202 0.23927 0.097686 -0.39856 -0.12086 0.19889 0.15533 -0.19489 0.27282 -0.0050838 0.01282 -0.321 -0.017664 0.18238 0.093613 0.10682 -0.072123 0.3644 -0.089263 -0.063501 0.093049 -0.47021 0.38263 0.050282 0.097038 -0.29557 0.055371 0.034269 -0.039539 0.20778 -0.1023 0.35663 0.39077 -0.2345 -0.10386 -0.38516 -0.12666 -0.12974 0.092457 -0.21033 0.20608 0.068388 0.021339 0.11191 -0.17605 -0.2166 -0.015458 -0.12147 -0.1231 0.061469 0.09076 -0.089857 -0.14065 -0.32246 -0.008142 -0.3084 0.1374 0.12123 0.28404 -0.31833 0.28541 -0.076544 0.21245 0.059668 0.091314 0.04807 -0.17919 0.11061 -0.14901 -0.30411 0.70168 -0.059833 -0.092249 -0.034054 0.2485 0.20726 -0.19065 -0.14049 -0.34414 0.043231 0.10388 -0.12437 -0.057028 -0.19587 0.28475 0.084879 0.20569 0.59667 -0.11798 -0.10737 0.13621 -0.11352 -0.37927 0.12264 -0.31675 0.11175 -0.46537 0.024498 0.17281 0.098603 0.010847 -0.094491 0.38904 -0.26897 -0.0047049 -0.079335 0.38376 -0.050501 0.40878 0.042472 0.19071 -0.098394 -0.33523 -0.17163 0.25808 0.069065 0.14542 0.15571 -0.11816 0.15647 0.12622 0.0021003 0.16541 -0.039337 0.21198 0.070534 0.14327 0.17748 0.065679 0.10433 0.010649 0.099184 -0.06285 0.39707 -0.4853 -0.015521 0.17707 0.22136 0.2193 -0.17463 0.53678 -0.2255 -0.027671 -0.19593 -0.034567 -0.31409 -0.2969 0.32779 0.40402 -0.0070121 -0.038077 0.023351 0.03986 -0.13994 -0.081555 -0.3291 0.21877 0.1116 -0.032386 0.030923 0.49373 -0.058693 -0.010745 -0.22496 -0.085774 0.022003 0.43186 -0.05272 -0.16401 0.20838 0.31328 -0.2168 0.076501 -0.11717 -0.17427 0.21803 -0.37326 0.21566 -0.093322 0.18998 0.2435 0.21733 -0.058721 0.095771 0.11996 0.097118 -0.26086 0.17309 -0.035629 -0.049165 -0.1732 0.35851 0.0014163 0.16568 -0.12499 -0.16889 0.10713 -0.18229 -0.26066 0.40133 0.56236 0.21102 0.23303 -0.20653 -0.14386 0.16909 0.27063 0.029488 -0.076126 -0.30047 0.33037 0.45019 0.11666 0.12498 0.095347 -0.057808 0.21228 -0.039014 0.22379 -0.15607 0.0081766 0.16317 0.19068 0.1708 -0.37825 0.21518 -0.089833 0.10184 -0.086305 -0.20739 -0.11957 -0.16147 0.26473 0.60485 -0.079513 -0.24003 -0.22575 -0.2006 -0.30398 -0.16713 -0.18137 0.30981 0.095007 0.025839 0.45084 0.19396 0.015942 -0.0070219 0.33177 -0.26186 0.39034 -0.17153 -0.070043 -0.10964 -0.58147 0.32527 -0.31952 -0.1372 -0.39038 -0.013989 0.13315 0.063014 0.26907 -0.10327 0.059851 -0.017551 -0.051329 0.015348 0.31157 0.12847 -0.047155 -0.11366 0.11279 0.17306 -0.29064 0.083362 0.022052 0.25815 0.04059 -0.43439 0.10221 -0.16695 0.54473 -0.12136 -0.40025 -0.13859 -0.28346 -0.53316 -0.050811 -0.072052 
carnivore 0.10811 0.25061 -0.44856 0.15077 0.036484 0.25907 -0.067068 -0.29567 -0.063861 0.26022 0.08205 0.042438 0.43744 0.48265 -0.025266 0.029099 0.017264 -0.03868 0.096662 0.14629 0.070198 0.021897 -0.19777 -0.0015655 -0.10699 -0.20061 0.0038173 0.078576 0.033232 -0.094703 0.25011 0.19662 0.38044 0.23089 -0.032966 -0.0046434 -0.66741 -0.30601 -0.21569 -0.10555 0.37606 0.049292 -0.077554 -0.13239 -0.25176 0.2262 -0.30953 -0.22002 0.26948 -0.51387 0.32123 -0.27001 -0.20724 -0.16431 -0.16698 -0.055841 -0.0099172 -0.11282 -0.014904 0.1065 0.44146 -0.031989 -0.28695 -0.22063 0.3034 0.063968 -0.2743 0.42068 0.396 0.39304 -0.10063 -0.033939 -0.13843 0.090949 -0.23578 -0.10858 -0.2245 0.14817 0.35274 0.21864 -0.13569 0.2662 -0.23718 -0.36965 0.50851 -0.014648 -0.16171 -0.27075 0.31631 0.054277 0.12415 0.72991 0.16072 0.27119 0.16932 0.19927 0.051788 -0.31784 -0.29534 0.53614 -0.010529 -0.0073476 -0.41025 -0.12744 -0.3395 -0.37123 -0.1036 -0.25063 -0.21846 -0.34925 -0.11252 -0.29765 0.16847 0.23822 0.039502 0.090255 0.13517 0.061169 -0.13745 0.14155 0.20304 0.22854 -0.064422 0.083813 0.18888 0.042354 -0.39175 -0.14109 -0.50843 0.013108 0.35054 0.40292 0.22321 -0.063801 -0.069628 -0.32267 -0.50894 -0.10994 0.18586 -0.16735 -0.27974 -0.051567 -0.34973 0.053615 0.32995 0.272 0.077701 -0.08494 -0.019491 -0.75663 0.18932 -0.26852 0.56183 -0.10442 0.21351 0.0095058 -0.17344 0.12051 0.46332 0.098318 -0.45627 0.015272 0.25602 -0.12725 0.075019 0.31088 0.31993 0.45923 0.017063 -0.17993 0.075215 -0.25271 -0.64831 0.31844 -0.29247 -0.055756 -0.015351 0.1677 0.12692 -0.35562 -0.14621 -0.14948 -0.15037 -0.49913 -0.21974 -0.34048 0.87302 -0.093487 0.028703 -0.15989 0.11698 0.16028 0.25656 -0.53229 -0.4408 0.096866 -0.3213 -0.49086 -0.20837 0.045478 0.34115 -0.038136 -0.10398 -0.093032 -0.010856 0.27601 0.094712 -0.048482 -0.26106 0.38639 -0.28191 0.52955 -0.27352 -0.12692 -0.22904 -0.21536 0.013787 -0.37662 -0.37242 -0.47682 0.41969 0.34584 -0.37199 -0.29908 -0.0095075 0.20537 0.085971 -0.14323 -0.38123 -0.45327 0.19825 -0.13219 0.28962 0.23802 -0.28699 -0.080277 -0.14489 0.39724 -0.69882 -0.084444 -0.2573 -0.15844 0.26726 -0.18308 -0.23367 0.21456 -0.38972 0.71078 -0.48434 -0.099524 0.10751 0.19944 -0.068209 0.50387 0.053128 0.23092 -0.42661 -0.46899 0.36713 0.44109 0.42299 -0.19223 0.14348 0.29341 -0.33921 0.05526 -0.097108 -0.26605 0.23947 -0.13806 0.33016 0.40529 -0.063336 0.20203 0.12453 0.10413 0.28745 0.36292 0.15024 -0.092122 -0.029028 0.046731 0.67955 0.16102 -0.35885 -0.24824 -0.20478 -0.38344 -0.218 -0.078032 0.19794 -0.10069 0.08393 -0.10922 -0.20954 0.060422 -0.49867 0.033648 0.32151 0.10424 
sign 0.021586 0.079213 -0.2914 -0.52206 0.030836 -0.060117 0.0086348 0.083382 0.32449 0.13218 -0.32267 0.27596 0.12303 0.45598 0.36001 -0.2434 0.235 -0.14057 -0.12729 0.10588 0.12684 -0.11796 0.1332 0.052388 0.055448 -0.0059406 0.0061423 -0.024284 -0.29233 -0.19657 -0.28793 -0.14315 -0.087496 0.20563 -0.045894 0.10204 -0.13557 0.011348 0.0017716 0.12959 0.21016 0.10093 0.26903 0.10217 -0.18686 0.23 -0.00095491 -0.32042 0.23414 -0.3143 0.047177 -0.55287 -0.13767 -0.061161 0.005126 0.18842 0.10579 -0.096582 -0.17167 -0.1705 -0.0011997 -0.12606 0.093791 0.17297 0.45471 -0.33509 0.30116 0.10227 -0.070145 0.32485 0.022731 0.17035 0.039697 0.1701 -0.43512 0.16371 0.12436 -0.011902 0.0010636 0.25952 0.09553 0.085876 -0.18696 -0.018279 -0.022293 0.10253 0.16348 -0.059905 -0.029837 -0.052484 -0.24104 -0.24622 0.0071358 -0.26566 0.10109 -0.17038 0.043369 0.20596 -0.051239 -0.44041 0.065587 0.20757 -0.24164 -0.388 -0.11966 -0.1982 0.30085 0.049594 -0.1781 -0.18165 0.18579 0.25457 0.17248 0.0043751 0.23887 0.046668 0.18869 0.194 0.1076 -0.074412 -0.11917 -0.23983 0.30588 -0.31783 -0.11706 -0.077036 -0.024934 0.27873 -0.40393 -0.344 0.17033 -0.2491 0.027148 -0.14719 0.084988 0.29659 0.018775 -0.23376 -0.21626 -0.14085 -0.11206 -0.0071806 -0.18436 0.13139 -0.028935 -0.23606 0.52806 -0.060689 -0.0023545 0.16109 0.061228 0.047506 -0.40145 -0.19314 0.21631 -0.03197 0.022557 0.29818 -0.014942 -0.14692 -0.34575 0.069373 0.081736 0.16406 -0.27316 -0.1544 0.12062 -0.0055654 0.25224 0.085908 0.081532 -0.25484 -0.49977 0.14985 0.10833 -0.016712 0.033057 -0.50419 -0.22536 -0.094835 -0.42231 -0.0053056 0.037055 0.34188 0.24659 -0.050966 -0.47765 0.3008 -0.11562 0.022105 0.16904 -0.2203 -0.27637 0.16896 0.14445 -0.014943 0.033286 0.062312 -0.023734 0.19312 0.29645 0.10773 0.48575 -0.1365 0.18407 -0.024426 -0.094242 -0.38238 -0.1213 0.20639 0.011234 0.075409 -0.091399 0.019462 -0.34698 0.53551 0.15404 0.44033 0.07481 -0.080459 -0.21135 0.14256 -0.030864 -0.15696 0.22844 0.25011 -0.26989 -0.092121 -0.024338 -0.055539 0.46087 0.3154 0.089159 0.36043 0.17963 -0.028964 -0.047032 0.080855 0.052805 0.22479 0.23938 -0.16498 -0.19713 0.073747 0.26652 -0.079712 -0.088747 0.014379 -0.08566 -0.20744 -0.46538 -0.030086 -0.15789 0.24243 0.040021 0.13108 0.0010777 -0.2729 -0.036912 -0.13009 -0.28943 0.14248 0.11274 0.13714 -0.16278 0.13522 -0.179 -0.041738 -0.1761 -0.13352 0.18906 0.012493 0.094484 -0.1951 -0.022442 0.011361 0.077315 0.086506 0.21134 0.17792 0.001789 -0.19831 -0.11084 -0.1044 -0.0012631 0.43625 -0.10623 -0.09182 -0.051608 -0.04969 0.15507 0.025298 0.08787 -0.28551 -0.24595 0.088883 -0.27683 -0.099885 -0.085236 0.28931 
street -0.18355 0.089977 -0.61157 -0.15153 0.22889 0.36706 -0.11887 0.057363 -0.047683 -0.19634 0.045783 -0.083326 0.029094 -0.031172 0.040723 0.06488 -0.051638 -0.25902 -0.069661 -0.0293 0.29266 -0.10028 -0.15699 0.14269 0.51812 0.073884 0.16487 0.17544 -0.27186 -0.45612 0.10044 -0.15475 0.023268 -0.049686 -0.20646 -0.14586 0.47766 -0.24819 -0.11904 -0.38613 -0.12498 -0.31983 0.25046 0.056985 0.05178 0.093433 0.062269 -0.35155 0.095781 -0.033027 0.093486 -0.26982 -0.46759 -0.2056 -0.18271 0.093836 -0.065307 0.16094 0.098316 0.1303 0.1595 0.21831 0.14315 -0.28559 0.066319 -0.1955 0.054984 0.30427 0.28633 -0.1048 -0.014438 -0.054549 -0.18421 -0.043937 0.037282 -0.088511 -0.076939 0.25508 0.0024616 0.097301 0.097938 -0.010948 -0.14295 0.38011 0.2916 0.25246 -0.11538 0.087753 -0.092713 -0.017099 0.14783 -0.40547 -0.26631 -0.21212 0.14053 -0.081622 0.002552 0.071994 -0.061709 -0.023176 0.1048 -0.22831 -0.47008 0.079566 -0.10137 0.20448 -0.10929 0.39332 0.13873 0.45856 -0.25987 0.13682 0.30562 0.5253 0.017723 -0.079204 -0.16768 0.2941 0.31956 -0.04411 -0.14847 -0.13607 -0.27558 0.0017287 -0.00088213 -0.10411 0.31163 -0.29077 -0.32989 0.14519 0.28399 0.15355 0.37974 0.15037 0.15534 0.021554 -0.1825 -0.16506 0.1432 0.19934 -0.17171 -0.27389 0.33395 0.15861 -0.31335 -0.0021365 0.20246 -0.34527 0.29302 -0.31491 0.09813 -0.030936 -0.074505 -0.055021 -0.22433 -0.18443 0.12041 0.33982 0.32956 -0.057602 -0.14559 -0.095776 0.045075 -0.39581 0.054056 -0.055473 0.13916 0.06683 0.11889 -0.021672 0.3411 -0.16037 -0.2903 0.090408 -0.08119 0.22514 0.17464 -0.16018 0.33129 0.16548 -0.065748 0.25351 0.015015 0.098388 0.072447 0.107 -0.46832 0.21625 0.074314 0.034094 0.21599 -0.1097 0.024815 0.117 -0.154 -0.21632 -0.15311 0.0076696 0.23529 0.19028 0.282 -0.21896 0.046926 0.072402 -0.16101 -0.34637 0.36883 -0.01241 -0.11648 -0.0023923 0.39332 0.053004 0.07913 0.27212 0.17608 -0.16828 0.14028 0.21864 0.098865 -0.039726 0.48579 -0.20472 0.049971 -0.1562 0.58487 -0.147 0.017817 -0.059725 0.30924 -0.21712 -0.04502 -0.028025 0.14652 0.007818 -0.32996 0.082664 -0.02676 0.32018 -0.067373 -0.30962 0.04908 0.031058 -0.090663 0.67656 -0.12662 -0.31791 -0.18685 -0.24164 -0.15077 0.18215 -0.038574 0.10845 -0.26322 0.013454 0.10181 0.32066 0.20074 -0.3575 -0.093002 -0.48116 -0.11925 -0.064137 -0.12681 -0.19402 -0.20107 0.39009 -0.10139 -0.084893 -0.1552 -0.017991 0.53262 -0.018518 0.28485 -0.28028 0.16606 0.037588 0.18679 -0.050953 0.17151 -0.19822 -0.19125 -0.13655 0.15074 0.16315 -0.23581 0.048281 -0.0029321 0.035797 0.21855 -0.067255 0.23658 0.029419 0.26269 0.053331 0.078793 -0.011031 -0.44206 0.029421 0.06117 0.17674 
video -0.011674 -0.14679 0.06337 0.011819 0.17385 0.223 0.25423 0.14274 0.25294 0.093989 0.059917 -0.15713 0.07777 0.19356 0.076333 -0.10159 -0.10484 -0.075664 -0.016797 -0.45072 0.090371 -0.4415 0.36977 -0.20838 -0.050858 0.30263 0.062875 -0.060242 -0.29919 0.2728 -0.11461 0.019688 0.12707 0.22211 -0.047561 0.31344 0.20866 -0.17565 -0.34741 -0.018665 0.16875 -0.12701 0.062608 -0.037348 -0.1469 0.50384 0.096976 -0.19678 0.24547 -0.27271 0.25602 -0.21995 0.12158 0.089906 -0.0083574 0.32394 0.00077602 -0.17959 -0.031792 0.24073 -0.092876 0.01713 -0.18707 -0.43614 -0.073064 0.1877 -0.14186 0.087129 -0.025888 -0.36401 0.19453 -0.26565 0.030767 -0.053921 -0.36573 0.37733 -0.058151 0.057469 -0.14604 0.18103 0.41008 -0.20309 0.13359 0.38931 0.15832 -0.28222 0.079773 0.29968 0.098742 -0.30585 -0.021564 -0.17541 -0.38704 -0.43672 0.23136 0.096693 -0.011587 0.048754 -0.38341 -0.04125 0.46393 -0.040606 -0.45639 0.13124 -0.33024 0.10447 0.16202 -0.4793 0.060375 0.1157 0.26201 -0.18391 0.36335 -0.081374 0.14392 -0.38851 -0.054891 -0.084644 0.49206 0.28001 0.19732 0.28482 -0.31733 -0.0068496 0.30384 -0.49988 0.072369 -0.29995 0.12119 -0.18415 -0.074652 -0.097345 0.28661 0.17164 0.19496 0.092701 -0.065764 -0.25304 0.093645 -0.18256 -0.013489 -0.13783 -0.042789 -0.020104 -0.16792 -0.21955 0.054468 0.13608 0.090774 -0.11239 0.34428 0.30463 0.021417 0.35674 0.10534 -0.21529 0.022551 0.18718 0.46089 -0.03123 0.23777 0.098568 0.0067153 0.20162 -0.11971 0.13895 0.12369 0.35808 0.073667 -0.51933 0.27204 -0.16576 0.30291 0.21331 -0.047302 0.026938 -0.46142 -0.1887 0.0033586 -0.052369 -0.30092 -0.10423 0.14246 -0.11343 0.24325 -0.12426 -0.15232 -0.1649 -0.054316 -0.32572 0.14886 -0.28141 -0.26156 0.23781 -0.27996 0.27802 0.13183 -0.18777 0.12513 -0.22644 -0.12867 0.093383 -0.19139 0.079521 -0.26549 -0.18793 -0.071146 -0.1922 -0.27719 0.075232 0.31424 0.1736 0.16114 -0.031272 0.11043 0.13446 0.099309 -0.14446 -0.44908 -0.28647 0.33883 -0.16452 -0.21966 -0.042764 0.077235 0.3061 -0.082303 0.30584 -0.054347 -0.11866 0.17092 -0.2428 -0.12585 -0.010142 0.22141 -0.24637 -0.085078 -0.053812 -0.097466 -0.17798 -0.07197 0.1185 -0.16591 0.22521 0.011662 -0.55396 -0.26565 0.06498 0.058555 -0.161 0.24331 0.30574 -0.49201 -0.31548 0.1504 0.045977 0.10217 0.139 0.33913 -0.20402 0.34023 0.17384 0.33693 0.042976 -0.29124 0.3299 -0.44925 0.23321 -0.027624 -0.0025303 0.0053113 -0.041453 -0.2445 0.090431 0.13759 -0.17607 0.19679 0.052138 0.32208 -0.43406 0.18112 -0.18315 0.039489 -0.23768 -0.38134 -0.0022046 0.1579 0.049525 -0.21153 0.081663 0.043184 0.23333 0.0027011 -0.0025414 -0.45395 -0.17468 -0.3623 -0.19147 0.11749 -0.19938 
lawyer 0.20734 -0.21649 0.23168 0.18043 0.43542 0.37015 -0.017955 0.40558 -0.14183 0.20656 0.041168 0.19115 0.32797 -0.32708 0.26314 -0.16241 0.28397 0.085486 0.10176 0.032406 0.40136 -0.17866 -0.13989 -0.060683 0.15509 -0.26744 -0.039298 -0.15868 -0.43925 -0.13799 0.18049 -0.07185 0.30381 -0.1644 0.36655 0.064317 -0.2011 -0.46477 -0.35146 0.16198 0.0048075 0.17932 0.10368 -0.21605 -0.11441 0.29728 -0.21683 0.040239 0.23144 -0.062551 0.12715 -0.30364 0.14399 -0.18292 -0.36883 -0.15611 0.11486 -0.076469 -0.013514 0.23623 0.043411 -0.15086 0.23581 -0.21121 -0.17083 0.20572 0.096899 0.48039 0.26006 0.35079 -0.12474 0.19984 -0.12265 0.47273 -0.38573 -0.018007 0.3569 0.25111 -0.20539 0.087121 0.31044 0.0010022 0.069806 -0.03201 0.36672 -0.43663 -0.44209 0.51643 -0.60056 0.038517 -0.066583 0.011034 0.33057 0.24445 0.24139 -0.12172 -0.29673 0.26369 -0.044497 -0.43034 0.28117 0.32854 0.030754 0.19498 -0.20079 -0.38638 -0.12751 0.028539 0.091059 -0.10959 0.022038 0.1168 0.4679 0.069007 -0.27131 0.23486 -0.06832 0.27588 -0.088217 0.20537 0.20409 0.052453 -0.054783 0.05611 -0.10292 0.41357 0.26539 -0.21855 0.080829 -0.059816 0.17945 -0.13302 0.30255 0.1946 0.61735 -0.037972 -0.33067 0.19444 0.010384 -0.008982 -0.10655 0.044083 0.058546 0.056016 0.22038 -0.57242 -0.26044 0.12522 -0.33853 -0.28567 -0.41088 -0.083025 0.043691 -0.21036 0.11113 -0.12276 -0.28558 -0.22042 0.29336 0.36585 -0.17918 -0.051555 -0.011474 -0.13583 -0.097287 0.18466 -0.23918 0.41 -0.061813 -0.12759 0.21022 0.092513 0.0044276 0.20872 0.16892 0.23776 0.040525 -0.24081 0.27596 -0.17405 0.44623 0.43861 0.36049 0.45779 -0.27272 0.0072602 -0.046229 0.18851 -0.18552 -0.10877 0.61693 -0.32014 0.067785 -0.053401 0.016659 0.19863 -0.029855 -0.30923 -0.035981 -0.24304 0.16668 -0.074962 0.17007 0.1506 0.070419 -0.20653 0.033967 -0.20334 0.2355 -0.0038552 -0.10163 0.002774 -0.23747 0.08294 -0.090137 0.039186 0.15644 0.31626 0.27497 0.05886 0.061211 0.32195 0.24705 -0.047431 0.10395 0.26673 0.097225 0.13062 0.34333 -0.31563 -0.38311 0.031777 0.043499 0.14633 -0.54714 -0.007684 0.0060584 -0.096383 0.37036 0.017732 0.37234 0.060741 -0.074811 0.21511 -0.075078 -0.25672 0.093059 -0.022719 0.00028946 -0.17714 -0.091229 -0.37645 0.11414 0.21327 0.019368 -0.109 -0.37518 -0.15554 -0.34942 -0.30629 0.30727 0.28483 0.061673 0.037237 -0.50231 0.58538 -0.034511 -0.38738 0.15499 -0.095201 0.087344 0.29942 -0.13042 0.25321 -0.0036265 -0.06183 0.13072 -0.13758 0.41936 -0.21293 0.018107 -0.21732 0.29076 -0.1636 -0.16452 -0.51585 -0.024186 0.097593 -0.29115 0.018605 0.33236 -0.088654 0.042407 -0.1402 -0.075473 0.25775 0.22123 -0.28497 0.078041 -0.24961 
depression -0.092339 -0.3083 -0.50747 -0.2802 0.24845 0.43472 -0.18971 0.23758 0.39817 -0.040459 -0.35318 0.26003 0.28666 -0.10807 0.10264 -0.37028 0.24394 -0.3777 -0.041482 0.18972 0.3473 -0.22273 -0.10119 0.23549 -0.047957 -0.1024 0.30768 0.10613 0.13685 -0.14071 -0.26997 -0.17762 0.025947 0.16318 -0.12251 0.10852 0.31773 0.27534 0.070092 0.65794 -0.010565 0.46477 -0.10887 0.32156 -0.023309 0.015347 0.15667 0.29805 0.21951 -0.17048 0.024717 0.047762 0.046954 -0.095583 -0.14448 -0.0044716 -0.12885 0.15805 0.30394 -0.17046 0.26772 -0.1159 -0.18165 -0.41322 0.16266 0.25943 -0.30949 0.29782 0.097116 0.049426 -0.02199 0.15959 -0.54457 0.56517 -0.024735 0.29506 -0.5074 0.36094 -0.1577 -0.32316 -0.24903 0.21918 -0.19173 0.3672 -0.080071 -0.096584 -0.37338 -0.042394 -0.13125 -0.027983 -0.34988 0.16595 0.15805 0.20701 0.21384 0.33144 0.34233 -0.14365 -0.04214 0.36108 0.12091 0.23187 -0.029175 -0.076737 -0.21521 0.025955 0.23541 0.22888 -0.15946 -0.08049 -0.004958 -0.61452 0.035806 0.26039 0.44763 -0.25699 -0.37072 0.15102 0.23636 -0.065603 0.078697 -0.33885 0.21008 0.0080886 0.33158 0.10448 0.30996 0.27394 -0.36026 0.31555 -0.21775 0.37706 -0.14118 -0.12579 0.14314 0.26724 0.046749 -0.342 0.096363 -0.11013 0.031042 -0.24447 0.045142 0.041335 0.10211 0.00083974 0.61683 0.23758 0.57713 -0.083607 -0.086279 -0.1427 0.090502 -0.065351 0.32716 -0.19441 -0.075247 0.12042 0.65888 -0.17075 -0.54506 0.13516 0.0051975 0.2139 -0.093456 -0.087015 -0.037699 0.3586 -0.54764 -0.36442 0.27658 0.24196 -0.50223 0.25703 0.26113 0.0097267 0.057143 0.13064 0.29275 -0.5123 -0.19911 -0.28679 0.015424 0.043518 0.094516 -0.031733 0.1589 0.54769 0.099268 0.45509 -0.13967 0.3034 0.041556 -0.073084 0.33883 0.49071 -0.16969 -0.46979 -0.19549 0.15813 0.23264 -0.37695 -0.34652 0.086046 -0.10303 -0.63606 -0.25127 -0.082275 -0.17719 0.052841 0.15188 -0.23971 -0.22755 -0.087104 -0.1212 -0.18241 0.0084488 -0.10712 -0.10247 -0.007492 0.0015582 -0.17739 -0.059935 -0.063938 0.083027 -0.069519 -0.21625 -0.49672 -0.085631 0.44006 -0.24155 -0.17474 0.15832 -0.35249 -0.10542 -0.12681 0.0011949 -0.46234 -0.067825 -0.023439 -0.024945 0.1586 -0.41498 -0.16093 0.013748 -0.24092 0.05902 -0.29645 -0.58183 0.10395 -0.47695 0.25175 0.03127 0.44372 -0.33398 -0.18338 0.061342 -0.19098 -0.18805 -0.12603 0.25427 -0.26437 -0.069642 -0.13841 -0.39435 0.11126 0.28313 -0.42436 -0.00060876 -0.02969 -0.005991 0.065138 -0.11627 -0.30454 0.0045715 0.19417 0.19624 0.21689 0.070917 -0.27403 0.020239 0.21738 0.13735 0.051679 0.24971 0.12493 -0.32589 0.04579 -0.095635 0.050232 0.37191 0.44691 0.33457 0.066782 -0.12981 -0.24859 0.057839 -0.23686 0.051975 -0.037905 
index 0.089518 0.021804 -0.27724 -0.37251 0.24724 -0.065516 0.19856 0.37127 0.73461 0.070076 0.11726 0.21284 0.84983 0.17695 0.046529 -0.64151 -0.5128 -0.002874 0.077082 -0.015654 0.65669 0.14354 -0.43228 0.20059 0.33671 0.15592 0.2994 -0.19831 -0.12522 -0.30102 -0.39218 0.07167 0.62404 -0.32899 -0.31179 0.39898 -0.065294 -0.11267 -0.42923 0.30711 0.55946 0.42454 0.0046066 0.19288 -0.13083 -0.21721 -0.48419 0.23215 -0.49523 -0.43502 0.45017 -0.35631 0.027314 -0.19297 -0.17769 0.21515 0.19597 -0.20346 0.059496 0.16035 0.18036 0.3932 -0.44416 0.071681 0.4842 -0.30144 0.1038 0.26005 0.34412 0.51854 -0.073883 0.043075 -0.29933 -0.17486 -0.074585 -0.037896 0.33138 -0.20598 -0.53554 0.13408 0.30328 0.17347 -0.21778 -0.14842 0.13354 0.58638 -0.69046 0.2557 -0.24183 0.35331 -0.10983 0.43838 0.2692 0.018902 -0.074232 0.13473 0.08053 0.0084994 -0.36637 0.13948 -0.37857 -0.16736 -0.39539 0.13914 -0.17103 -0.27564 -0.22289 -0.22755 -0.13378 0.041248 0.64246 -0.23409 -0.2636 -0.23653 0.58213 0.4126 -0.5196 0.45247 0.017462 -0.21117 0.13644 -0.48822 0.094261 -0.49448 0.12861 -0.0066935 -0.24342 -0.3227 -0.29168 0.37308 0.16024 -0.064473 -0.17222 0.38665 -0.050411 0.2164 -0.10551 -0.32069 -0.1615 0.31755 -0.026619 -0.035029 0.017261 -0.014094 0.0096778 0.10381 -0.30323 0.2677 0.0073459 -0.15142 -0.10351 0.51247 0.56488 -0.25502 0.19876 0.031967 0.17881 -0.21126 0.37017 -1.2748 -0.07651 -0.40104 -0.36014 0.096605 -0.11008 -0.63767 0.35842 0.80646 -1.0865 0.7358 -0.13543 -0.033341 -0.07575 -0.084385 0.10886 -0.36773 -0.023929 0.13709 0.30615 -0.014986 -0.42168 0.98564 0.073963 -0.51804 0.23873 0.02917 -0.24035 0.61107 0.3833 -0.083805 -0.32505 0.047717 0.32989 -0.088415 0.15364 0.36518 -0.42747 0.20313 -0.53376 -0.095017 -0.12486 -0.46105 -0.07025 -0.086796 -0.558 0.0038172 0.62534 0.29671 0.22597 0.69973 0.35653 0.19248 -0.57983 -0.46689 -0.33681 0.38127 0.49319 -0.049061 -0.22258 0.47331 -0.631 -0.15687 -0.3384 0.21946 0.49598 0.7108 -0.050186 -0.16416 0.21898 -0.27197 0.1304 0.34424 0.085258 0.2495 0.3019 -0.029502 0.14903 -0.30456 0.19111 -0.46469 -0.68939 -0.50743 -0.52746 0.37787 -0.59568 0.01176 -0.42288 0.24133 -0.38179 -0.059501 -0.35458 0.31116 -0.1436 0.47644 0.56548 0.076043 -0.41104 0.37471 0.027272 -0.32138 -0.41453 -0.32215 0.18098 -0.31766 0.074579 -0.37783 -0.47534 -0.038313 0.38542 -0.64054 0.50528 0.21839 0.086209 0.65874 0.80695 0.2353 0.079624 0.29188 0.017832 0.16074 -0.21324 -0.46994 -0.10225 -0.36759 0.17074 -0.25582 0.32881 0.028076 0.45024 -0.026279 -0.093711 0.21816 -0.0011926 -0.63909 -0.72927 0.18942 -0.032844 0.21011 -0.41063 -0.63079 
sun 0.010638 0.21068 -0.035006 0.022127 -0.0070546 0.13409 0.11612 0.077134 0.12197 -0.028465 0.030324 0.086102 -0.074973 -0.043813 -0.095794 -0.03856 0.037806 -0.37473 0.14076 0.21092 -0.076199 -0.092442 -0.302 0.13395 -0.26651 -0.19292 -0.29591 -0.087916 -0.14142 0.20757 0.10148 -0.45046 0.4553 -0.10053 -0.13387 0.31293 0.022228 -0.19042 0.0051937 -0.10911 0.12833 0.0049472 0.17163 -0.012561 -0.030686 -0.27359 -0.26336 -0.34669 -0.023455 -0.36724 0.39088 -0.034076 0.064008 -0.18966 0.24199 0.00847 -0.055012 -0.6369 0.059976 -0.23644 0.13707 -0.044327 -0.31186 -0.24834 0.34712 0.034104 0.29036 0.0291 0.28084 -0.54886 -0.1382 -0.12549 0.027884 -0.23723 -0.34088 -0.20328 0.050433 0.23995 0.057318 -0.5343 -0.19284 -0.00079539 0.3442 -0.17986 -0.020298 0.14874 0.14104 -0.2559 0.013113 -0.028888 0.53028 0.028385 -0.039171 -0.045431 0.13663 0.15169 -0.0882 -0.059493 0.16358 -0.24908 0.049501 0.36992 -0.37412 0.29139 -0.23132 -0.1428 -0.063738 0.075819 -0.37099 -0.0090993 0.13123 -0.16769 -0.20046 0.31018 0.093089 -0.33383 -0.099074 0.44861 0.051182 0.15843 0.17797 0.088501 0.010601 -0.43686 0.33912 -0.17261 -0.23401 0.094551 -0.7379 0.008939 -0.26766 0.66606 0.20738 -0.26458 0.41576 -0.041004 -0.095718 0.18448 0.54464 -0.39653 -0.21019 -0.45238 -0.10204 0.28629 -0.060606 -0.063199 0.15722 0.1609 0.19219 -0.0013581 0.047683 -0.27355 0.30923 -0.41373 0.1215 0.01101 -0.30963 0.021696 0.41505 -0.064 -0.014206 -0.12779 0.13492 -0.27299 -0.62788 -0.013308 0.137 0.097079 -0.38602 0.010182 0.11153 -0.46393 -0.75106 -0.3342 -0.0021611 0.27133 -0.3131 -0.14016 -0.027085 -0.015708 -0.29932 0.20193 0.53999 -0.026551 -0.0077945 0.036333 -0.096516 -0.035276 0.42833 -0.028665 -0.12967 0.026302 -0.097366 -0.39117 0.15032 -0.06066 -0.45821 0.029385 -0.51839 -0.49679 -0.11869 0.25216 -0.30618 -0.15415 0.2008 -0.07436 0.105 0.4056 -0.23229 0.47781 0.26763 0.26158 0.16412 -0.0042072 -0.28972 0.10675 -0.25929 -0.22484 -0.18809 0.036546 -0.060067 0.39412 0.063092 -0.1712 0.53042 0.17414 -0.090389 0.10518 0.012888 0.10817 0.020469 0.023274 0.34822 -0.083543 0.097704 -0.37966 -0.41723 0.093815 0.32699 -0.53113 0.12551 0.18993 -0.12234 0.28827 0.088984 -0.050337 -0.13341 -0.57309 0.035579 0.34962 -0.3013 0.62413 -0.18134 0.52974 -0.06163 0.078804 -0.16572 -0.32274 0.38743 -0.28239 -0.21481 -0.085645 0.16688 0.14442 -0.16333 0.28929 -0.074129 -0.16394 -0.52338 -0.12112 -0.055503 0.50518 0.27449 -0.11942 0.045327 0.0045633 -0.39417 0.18511 -0.16518 0.078211 -0.039803 0.093506 -0.068403 0.078502 -0.02282 0.13835 -0.054367 0.014194 -0.0089016 -0.41536 -0.039637 0.25989 0.45775 0.47558 -0.26517 -0.28514 -0.33669 -0.15964 -0.18244 -0.091757 
cell 0.22894 -0.14417 -0.18392 -0.044752 0.39466 0.11043 -0.1329 0.2573 -0.024331 -0.14042 0.054013 0.02504 0.23844 0.20642 0.0846 0.0090569 0.050596 -0.12898 0.12365 -0.31751 0.34981 -0.2107 0.10242 0.095308 -0.3923 0.23376 0.23942 -0.19145 -0.13332 -0.016732 -0.013987 0.076246 0.24153 0.24343 0.29908 -0.12174 -0.46444 0.21596 -0.39161 0.49239 0.18099 0.11911 0.17258 0.23946 -0.16526 0.26612 -0.20756 -0.20005 0.0016109 -0.26997 0.2393 -0.27643 0.27975 -0.090316 0.18154 0.23119 0.21568 0.015061 0.36423 -0.027629 0.18141 -0.29181 0.16725 -0.0038642 -0.17481 0.45124 -0.57156 0.059989 -0.0068878 0.15459 -0.11601 0.22113 0.37697 -0.60346 0.11764 0.043049 0.041687 -0.37871 -0.21422 0.11064 -0.020451 -0.0014789 0.0086614 0.05112 0.26898 0.11591 -0.096819 0.23468 -0.20772 0.15146 0.067216 -0.35665 -0.21536 -0.13711 0.35785 0.21821 0.25442 0.43156 -0.022346 -0.069427 0.055607 0.12703 -0.41324 -0.40334 -0.6767 -0.14288 0.17921 0.06903 -0.029862 -0.53112 0.21949 -0.19672 -0.26025 0.40547 -0.1785 -0.62511 0.0094769 0.47931 0.08238 -0.21562 0.046828 -0.067465 -0.33666 -0.27081 0.18351 0.055317 0.711 0.43032 0.15223 0.30673 0.015227 0.071269 -0.091671 0.43043 0.1802 0.16188 0.068549 0.11726 0.42641 -0.073027 0.15298 -0.15408 -0.0008688 0.20381 0.16852 0.051487 0.25022 0.30164 0.35311 -0.058926 0.29019 0.13934 -0.10938 0.14027 0.22699 -0.18161 0.21672 -0.028377 0.29863 -0.028193 0.18278 0.41812 -0.10968 -0.26483 -0.52043 -0.3464 -0.080121 0.23545 -0.022634 -0.21343 0.03495 -0.47201 0.31649 0.37483 0.32218 0.11408 -0.052499 -0.15985 -0.34549 -0.003127 0.11436 0.1379 0.28583 0.011762 -0.55984 -0.031385 -0.061119 0.16227 0.31066 0.059716 -0.032481 -0.039135 -0.32104 0.12746 -0.024275 0.11493 -0.021079 -0.035141 -0.41448 0.046685 -0.15176 0.12676 -0.16378 0.11267 0.050065 -0.46567 0.12502 0.14497 -0.12609 0.11012 0.44052 0.30214 -0.006154 -0.1399 -0.13255 0.30968 0.03626 0.083154 -0.35333 -0.36338 -0.12948 -0.31652 -0.022695 0.27293 0.19465 0.029858 -0.53345 0.3729 -0.29332 -0.49067 0.37891 -0.31942 -0.019138 -0.10186 0.022548 -0.35237 -0.10409 0.34941 -0.082294 -0.25152 -0.15961 0.11124 0.21838 0.71543 0.029658 -0.72925 -0.23539 0.10217 -0.27284 0.091374 -0.26729 -0.24127 0.025966 -0.03032 -0.011953 0.35148 -0.23728 -0.48985 -0.10555 0.13161 0.48432 -0.27269 0.31477 0.19409 -0.49839 0.027886 -0.19881 -0.0080337 -0.17217 0.35439 0.37039 0.28926 -0.1373 -0.18366 -0.19294 -0.11686 -0.26872 0.23432 -0.043108 0.013853 0.14566 0.10365 0.40484 0.045671 0.31122 0.16143 -0.096469 0.052597 -0.026678 0.31698 0.3148 -0.092327 0.013084 0.43122 -0.40426 -0.021005 -0.024092 0.20231 -0.11153 -0.15988 
nurse -0.15365 -0.34242 -0.21993 0.059797 0.21304 0.48348 0.18656 -0.16581 0.4194 -0.35093 -0.031011 0.078093 0.56031 0.15248 -0.053603 0.35415 -0.20801 -0.15518 0.2189 -0.27065 0.23838 -0.27422 -0.43199 -0.17773 -0.11322 -0.54472 0.30657 -0.032816 -0.47836 -0.34045 0.34924 -0.29558 0.18357 -0.11783 0.10732 -0.22837 0.11373 -0.2147 -0.037282 -0.2207 -0.20897 0.50174 0.17441 -0.095062 0.1667 0.012892 0.20065 0.24231 0.21171 -0.05634 0.010269 -0.20751 -0.041384 0.13371 -0.03947 -0.19743 -0.054422 -0.15397 0.12332 0.21585 -0.17704 -0.33959 -0.059272 -0.4538 0.22756 -0.039539 -0.048043 0.24237 -0.067065 -0.12326 0.074311 0.0091986 -0.059288 0.22042 -0.16158 0.41326 -0.12111 0.15896 0.18665 0.12542 0.38235 0.21437 0.10124 -0.16914 0.040872 -0.19182 0.18093 -0.37144 -0.37779 -0.0027579 -0.027296 0.1312 0.27067 0.16081 -0.016063 -0.10198 0.15149 0.40427 0.077131 -0.24104 0.38909 0.21057 0.014556 0.2543 -0.29847 -0.25576 0.05707 -0.14692 -0.10313 0.01735 0.28853 0.084929 0.035802 -0.023545 0.11511 0.057638 -0.22551 -0.035476 0.088952 -0.34013 0.28861 -0.15961 0.11091 -0.16395 0.035433 0.11345 0.22292 0.47061 0.070837 0.24473 0.028197 0.14528 -0.025998 0.127 -0.013688 0.0088027 -0.27211 -0.039404 0.19558 -0.227 0.28421 -0.071454 0.45307 0.033396 -0.13264 -0.31765 0.26273 0.30951 0.2391 -0.28694 0.35741 -0.32115 0.34278 -0.098528 0.089091 -0.27598 -0.062618 -0.05921 0.3044 0.42277 -0.4493 0.10812 -0.23986 -0.10276 0.093674 -0.11885 -0.25168 0.20039 -0.088853 -0.16372 0.12937 -0.035671 -0.35664 0.47351 0.14353 0.26176 0.010861 0.29129 -0.052392 0.14451 0.1897 0.24312 0.33192 -0.01466 0.1256 -0.21453 0.08794 0.22146 -0.15272 -0.07448 0.36462 0.20024 0.10639 0.082082 -0.4385 -0.12171 0.20597 -0.23796 -0.23862 0.19585 0.03678 0.38782 0.30327 0.32638 0.31679 -0.24668 -0.050446 -0.42052 -0.10691 0.26333 -0.013866 -0.25726 0.13914 0.028131 -0.50335 0.13597 -0.16973 0.098347 0.13887 -0.080867 0.49162 -0.0070023 0.043971 0.095279 0.48433 0.17472 0.1872 -0.0030726 -0.45494 -0.021692 -0.1967 0.053954 0.006303 0.029066 -0.041834 0.41745 0.10039 0.018257 0.082807 -0.058653 0.40329 0.46578 0.10638 0.17137 -0.029686 -0.23581 0.26026 -0.65476 -0.50318 -0.2756 -0.42118 0.21736 -0.078641 0.15759 -0.034361 -0.088743 -0.22017 0.017995 -0.36976 -0.0036572 0.0092328 -0.19023 0.12352 -0.16175 -0.10542 0.34784 -0.13297 -0.25107 0.00094305 -0.47515 -0.12053 0.096325 -0.11904 -0.30817 -0.14942 -0.24663 0.074998 0.40472 0.07732 -0.28937 -0.10802 -0.31734 0.12055 -0.16516 0.24253 -0.158 0.10182 -0.15558 -0.58776 0.032739 0.18476 0.25419 0.33677 -0.19916 0.070734 -0.06337 0.19939 -0.0075745 -0.0069409 -0.35377 
bird -0.27681 -0.177 -0.47122 -0.16635 0.1953 0.28085 0.34337 0.0036724 -0.10616 0.29409 0.052152 0.028764 0.61707 0.093262 -0.29844 -0.089274 -0.088504 -0.18703 0.03674 -0.32729 -0.073173 -0.099168 -0.32595 0.14259 -0.10536 0.41768 0.29222 0.0064433 -0.23179 -0.2194 0.16301 0.078063 0.22675 0.38612 -0.72263 -0.051254 -0.3349 0.032604 -0.25984 0.16271 0.26909 0.28749 0.39202 0.049446 -0.35724 0.046679 0.072709 0.32702 -0.2234 0.1871 0.18142 -0.38329 -0.27256 0.19653 -0.14219 -0.28546 -0.23066 0.086418 -0.39446 -0.08027 0.16139 -0.17496 -0.0038586 -0.52239 0.21551 0.0012323 -0.05012 0.019628 0.10797 0.11863 -0.25001 -0.019545 0.35176 0.071069 -0.61725 -0.012624 -0.33968 0.054796 -0.12101 0.046719 -0.060216 0.31173 -0.25951 -0.30635 0.28949 -0.067085 -0.1529 -0.0060631 0.11727 -0.049683 0.50672 0.17978 -0.17532 -0.062786 0.11251 -0.19183 -0.054797 -0.30205 -0.40549 0.12505 -0.030689 -0.3662 -0.43719 0.094526 -0.26003 -0.1137 -0.0031453 -0.24349 -0.17515 -0.45121 0.2463 -0.45411 0.19117 0.27121 0.32024 0.24384 0.12969 -0.14742 0.36433 -0.06604 -0.16497 -0.039775 -0.076723 -0.0015923 0.34947 -0.20703 -0.45036 -0.1088 -0.34892 0.030391 0.35137 0.26436 0.34276 -0.12941 0.36596 -0.20732 -0.15625 -0.06462 -0.20174 -0.46363 -0.053021 -0.18858 0.21041 -0.19976 -0.13578 0.139 -0.098133 0.45816 0.055487 -0.23887 0.060534 -0.26366 0.22869 -0.051406 -0.16548 -0.34141 -0.048916 -0.31084 0.43822 0.12468 -0.26811 -0.063853 0.076468 0.0092575 -0.094821 0.18945 0.063907 0.038364 -0.078471 -0.23328 -0.23843 -0.24666 -0.80391 0.044677 0.11865 0.25188 0.21405 0.1039 -0.012099 -0.11133 -0.1059 0.29598 -0.24598 -0.29183 -0.36116 -0.18536 0.47132 -0.11377 0.26744 -0.39713 -0.31075 0.53877 -0.32241 -0.41302 -0.1411 -0.20503 -0.41539 -0.046171 -0.29702 -0.039703 -0.018567 0.04656 0.31173 -0.19802 -0.18119 0.0089803 0.27805 0.15382 -0.14578 0.18076 0.031659 0.2886 -0.1047 0.12001 -0.25594 -0.18153 0.27173 -0.41818 -0.089598 -0.28194 0.22206 0.26911 -0.13107 0.023404 0.33648 0.16373 -0.28594 -0.096255 -0.34372 0.10176 -0.097559 0.12238 0.3821 -0.060371 -0.12618 -0.024594 -0.19048 0.29373 -0.19405 0.083649 0.23298 -0.15009 0.094673 0.035918 -0.080014 -0.17766 -0.21418 0.24075 -0.032548 -0.16051 -0.087436 0.22942 -0.22811 0.052892 0.25655 0.50289 -0.16536 -0.54285 0.1052 0.13777 -0.065842 -0.22044 -0.12215 -0.015371 -0.19443 0.31945 -0.072863 -0.054036 -0.11767 0.035759 -0.014399 -0.34571 -0.046966 0.11983 -0.30103 0.1522 -0.04597 0.47337 -0.11872 -0.36599 0.033753 0.037256 0.58919 -0.48979 -0.042916 -0.29908 -0.095831 -0.14941 0.0061927 0.32558 0.027244 -0.060649 0.48717 -0.13812 -0.022404 0.091007 -0.42847 0.2528 -0.10024 -0.27228 
