437 300
similarity -0.20793 -0.095319 -0.02086 -0.044916 -0.42304 0.006723 0.094686 0.09244 -0.086079 0.041061 -0.30298 -0.06691 0.083318 0.098793 0.052906 0.014971 0.4347 -0.13644 -0.17464 -0.1854 -0.043189 -0.1544 0.25386 0.20459 0.0049131 -0.20318 -0.051252 0.59871 -0.29752 -0.35449 0.42546 -0.074716 0.23818 0.035862 -0.43927 -0.10738 -0.26768 -0.23272 -0.083536 -0.07007 0.44068 -0.02239 -0.11099 0.049892 0.20835 -0.14854 -0.11163 0.17161 0.14786 0.1115 -0.19425 -0.036777 -0.11412 0.033523 0.042947 -0.22857 -0.074033 -0.20526 0.041658 -0.20411 0.05878 0.54629 0.15312 0.064997 0.23298 -0.057354 -0.19706 -0.16653 -0.11288 0.095343 0.11025 -0.18678 0.15875 0.2776 -0.28241 -0.1692 -0.36441 -0.2244 0.201 -0.31791 0.38457 -0.025937 0.071042 0.06269 -0.29298 0.13412 0.19598 -0.12868 0.096665 -0.62145 -0.22 0.028256 -0.15893 0.025913 -0.078749 0.11912 -0.0094532 -0.30006 -0.15174 -0.068216 0.21458 0.40572 0.075201 0.40971 -0.18767 -0.22314 -0.033197 0.39976 0.40501 -0.13475 -0.38994 -0.19363 -0.11369 0.034968 -0.14317 0.050119 -0.089608 0.18596 0.23797 0.1837 0.060399 0.42298 0.21613 -0.43285 0.37006 0.023133 0.17645 0.010815 -0.057643 -0.076411 -0.028024 -0.082808 0.63233 -0.26278 0.39621 0.017848 -0.48603 0.35812 -0.2218 -0.079636 0.14269 0.33461 -0.3019 -0.16306 0.13425 -0.31131 -0.38936 -0.020078 -0.052127 -0.42324 0.37749 -0.26301 -0.040718 0.22737 -0.22809 0.040615 0.40894 -0.22048 -0.083115 -0.34344 0.081305 -0.026168 0.063437 -0.057989 -0.057213 0.21809 0.36525 0.26431 -0.0098992 -0.3275 0.15565 -0.27395 -0.12401 0.095938 0.05173 -0.25694 0.21366 0.10038 -0.10201 -0.010764 -0.171 -0.20249 -0.11452 -0.15809 -0.17885 0.14585 -0.11356 0.1748 -0.053104 0.060832 0.056102 -0.34608 0.15048 0.028279 0.2053 0.23318 -0.21058 -0.11043 -0.15735 0.27015 0.025746 0.009863 -0.37386 -0.5208 -0.03788 -0.21675 -0.15255 0.062146 -0.12093 -0.09436 -0.099792 0.64818 0.042967 0.12272 -0.75975 -0.12198 0.48703 -0.20466 -0.30875 0.1742 -0.037386 -0.27314 0.051005 0.14342 0.01857 0.055426 -0.41801 0.10567 0.16443 -0.00087277 0.0044933 -0.19766 0.11782 -0.16304 0.0054713 -0.078364 -0.31682 0.21684 -0.024458 0.2851 0.029031 -0.17263 -0.14393 0.30495 -0.034407 -0.25345 -0.13782 0.17198 0.082328 0.48842 0.34775 -0.052197 0.51017 0.3256 -0.078052 -0.064232 -0.4621 0.023424 -0.18079 -0.41961 0.17875 0.23267 -0.0084717 0.080112 -0.032649 -0.12981 0.092753 0.32714 -0.053747 -0.11222 0.14574 0.26651 0.43309 0.56731 -0.27349 0.10595 0.24987 -0.07369 -0.032739 0.17042 -0.067088 0.28201 0.032159 -0.16628 0.12363 -0.057504 0.26061 0.35619 0.034118 -0.054899 0.22798 0.32069 -0.14001 -0.045732 -0.039163 0.21927 0.093682 0.0068344 -0.18573 0.24171 
dollar -0.076048 0.31848 0.20069 0.27475 0.49229 -0.23137 0.11636 0.18817 -0.47936 -0.018547 0.31624 -0.18189 -0.29455 0.18303 0.11752 -0.46663 0.14319 -0.53393 -0.18195 -0.046155 -0.46016 -0.28602 -0.020005 -0.10683 -0.47055 0.0072074 -0.32434 0.2723 -0.13039 -0.13962 0.42923 -0.38775 0.42334 0.36313 0.06028 -0.15414 0.128 0.18907 0.14779 0.13479 0.23609 0.059915 0.32721 -0.12278 0.39998 -0.20384 0.15868 0.11287 -0.074162 -0.67245 0.3848 0.22833 0.1988 -0.017193 0.20743 0.31109 0.34179 -0.24272 0.2182 -0.30333 0.52454 -0.072703 -0.038058 -0.094978 0.19359 -0.23359 0.23493 -0.13714 0.55048 -0.37738 0.26293 0.29457 -0.074123 -0.19072 -0.17798 -0.055624 -0.033765 0.07772 0.20147 0.054894 -0.0052602 0.84486 -0.8547 -0.027353 0.12459 -0.23455 -0.47297 0.048405 0.042257 -0.045346 0.28551 -0.49154 -0.088825 0.44754 0.15882 0.49515 0.29658 -0.35589 -0.037068 -0.011897 -0.24739 0.18391 -0.071664 0.26301 -0.095343 0.28903 0.19772 0.044634 -0.082798 0.19164 0.017342 -0.40391 -0.023066 -0.034693 0.53306 0.090278 -0.072118 -0.028208 0.021991 0.0037211 0.21252 -0.20317 0.2213 -0.17149 0.20492 -0.20657 0.20344 -0.38963 -0.20018 -0.27497 0.13528 -0.072269 -0.092106 -0.07644 0.0048139 -0.45396 0.18395 0.11196 0.23072 -0.0055244 0.2516 0.043817 -0.32011 0.30571 0.089986 -0.010285 -0.19149 0.38803 0.2261 0.062153 0.13929 -0.14699 0.28841 -0.46945 -0.43963 -0.13519 0.061417 -0.70721 0.44954 -0.53221 -0.43284 -0.17938 -0.29876 0.19824 -0.16639 -0.58216 -0.0069406 0.017386 -0.54016 0.22734 0.45583 -0.27751 0.0025244 -0.058055 -0.29603 -0.026078 0.2181 -0.021747 0.26564 -0.18552 -0.31103 -0.45206 0.21969 -0.19085 0.13994 0.32091 0.23565 -0.14034 -0.10295 -0.079011 0.053012 -0.16214 -0.38852 -0.51037 0.07655 0.27677 -0.26892 0.084326 0.29859 0.14416 0.0022822 0.59979 -0.045482 0.10097 -0.016441 0.19877 -0.013188 -0.12831 0.087267 0.091583 0.0069722 -0.16931 -0.13766 0.035085 -0.53784 0.25293 -0.26682 0.091299 0.062153 0.31658 -0.10213 0.34238 -0.020037 -0.53396 -0.13305 -0.19938 0.036828 -0.47473 0.5932 -0.10499 0.035314 0.19919 -0.34727 -0.26181 0.19535 -0.21624 -0.20858 -0.36382 -0.21331 0.28586 -0.075682 -0.23225 -0.11402 0.14326 0.32808 0.16695 0.028579 0.63794 0.43702 0.67459 -0.16944 -0.20458 -0.053911 0.47896 0.11608 0.025669 0.21229 -0.17895 0.24771 0.17715 0.33495 -0.00063395 -0.20142 0.47856 0.12886 -0.3357 -0.20102 -0.13683 0.31163 -0.20429 0.16046 -0.050684 -0.14638 0.52371 0.21427 0.39549 0.15296 -0.014614 -0.084719 -0.015159 -0.44023 0.27827 -0.32671 -0.18838 0.09734 -0.093387 0.25556 0.16553 0.50385 0.21918 -0.038543 0.14293 0.19793 -0.31243 0.041913 0.097251 0.47177 0.11538 0.086015 -0.11399 
focus 0.1444 -0.12891 -0.20387 0.027656 -0.20816 0.085493 0.23316 0.090965 -0.31378 0.13452 0.25845 0.32728 -0.042141 0.05526 0.27409 0.00011058 0.018891 -0.32227 0.21988 -0.24979 0.29756 -0.27932 0.058003 -0.18449 -0.28415 -0.091559 0.19643 -0.039471 -0.20862 -0.14648 0.11542 -0.2256 -0.1318 -0.1514 -0.11727 -0.005196 0.29835 -0.072921 0.22093 0.0592 0.36109 -0.064907 -0.023464 -0.20256 0.14885 -0.16435 0.064292 -0.043158 -0.15292 -0.039758 0.017333 -0.16936 -0.32278 -0.1692 0.056233 -0.12771 -0.012104 0.096523 0.17263 0.11471 -0.12603 0.20606 -0.40163 -0.23695 -0.12441 0.0033331 -0.17645 0.024499 -0.22386 0.029311 0.2125 0.23793 0.012863 0.19402 -0.028035 -0.013321 -0.048678 0.28953 0.30569 -0.019438 -0.0027499 0.067649 -0.081279 -0.4563 0.20468 -0.1213 -0.30866 -0.030932 -0.039788 -0.0076489 -0.31077 -0.14856 -0.11065 -0.064929 -0.29769 0.15286 -0.13568 0.088136 0.074338 -0.21765 0.14281 -0.044232 -0.35087 0.018012 -0.15853 0.20217 -0.18217 -0.11067 0.17384 0.02358 0.26878 -0.22093 -0.3213 0.14679 -0.1694 -0.44791 0.41094 0.34651 0.070205 0.26853 -0.30712 -0.21593 -0.048114 -0.11735 0.18796 0.070659 0.063509 -0.25116 -0.16979 0.17903 0.03508 -0.076693 0.054383 -0.3127 0.25479 -0.10687 -0.058493 -0.26241 0.018759 0.11321 0.27487 0.45528 0.12105 -0.18043 0.30941 -0.25238 -0.12254 -0.096505 0.060512 0.10586 0.48506 -0.26116 0.36029 -0.17251 -0.15369 -0.095841 0.45397 -0.078808 0.07303 0.02669 -0.19153 -0.17781 0.27048 0.03334 -0.42917 0.091889 0.031354 0.12874 -0.45627 -0.23053 0.18631 -0.16819 -0.21156 -0.28045 -0.24506 -0.11759 0.39452 0.012956 -0.10329 -0.18112 0.013918 -0.11335 0.15039 0.076295 0.28555 -0.21451 -0.022628 -0.10146 0.17219 0.043523 0.41345 -0.3938 -0.11392 -0.079364 -0.081474 0.037134 0.00089718 0.022643 -0.17392 -0.044278 0.21971 -0.30425 0.20626 -0.0028674 -0.048403 -0.17258 -0.19889 -0.086269 0.073527 -0.1584 0.0409 0.27879 -0.076532 -0.00084003 -0.35727 0.069112 -0.023183 -0.061984 -0.16756 -0.065326 -0.33508 0.069945 0.19075 -0.28898 0.11697 -0.013717 0.061228 -0.07727 0.10429 -0.1498 0.092369 0.068182 0.42518 -0.17289 -0.11556 -0.24671 0.18527 0.029413 -0.003577 0.1266 0.014766 -0.12003 0.0076889 0.22992 -0.032125 -0.11577 -0.029629 0.035799 -0.26663 0.18371 -0.19155 0.017109 0.17615 0.13451 0.23087 0.018204 -0.0061014 -0.13781 0.29059 -0.56074 -0.017584 0.045382 0.15367 0.063099 -0.21746 0.30713 -0.030787 -0.21493 0.061832 -0.023372 -0.20224 0.071058 0.11556 0.0174 0.10415 -0.019963 -0.14282 0.31726 -0.032164 0.24885 0.17973 0.29708 0.11723 -0.25823 0.011654 0.0044079 -0.020143 0.013272 0.24152 0.0039068 -0.11238 -0.068045 0.063994 -0.11624 0.13571 -0.022125 -0.092486 0.083186 -0.12692 0.18303 
month 0.32735 0.024508 -0.030475 -0.38143 -0.21784 -0.17969 -0.023819 0.087863 -0.18392 0.060669 -0.074885 0.15948 0.043414 0.1104 0.29846 -0.20493 0.43386 -0.051296 -0.25492 -0.21949 -0.037376 -0.022604 -0.19023 0.12328 0.040474 0.061829 -0.08306 -0.034425 -0.27331 0.21776 0.22834 0.045669 0.27523 -0.019467 -0.090672 0.19055 0.011031 -0.046637 0.14638 0.13408 -0.20879 0.1007 -0.10694 -0.17359 0.14039 0.27443 0.35355 -0.16663 0.19927 0.030022 0.22541 0.20049 0.21714 -0.034631 0.18873 -0.32542 -0.16793 0.069187 0.04241 -0.24119 0.080266 0.10403 0.10777 0.033764 -0.16997 -0.21839 -0.11021 0.051554 -0.017807 -0.10954 -0.17907 -0.18631 0.39141 -0.10891 -0.25035 0.042731 -0.013922 0.11278 0.27856 0.28501 0.015738 0.37441 0.016046 0.16592 -0.11667 0.1559 -0.43869 0.36935 0.19319 -0.34937 0.15756 -0.17885 -0.076953 -0.061091 0.12861 -0.25783 -0.15654 -0.020709 -0.096377 -0.19494 -0.14984 -0.1385 -0.40515 -0.1417 -0.043784 0.018266 -0.16976 -0.053896 -0.17862 -0.012319 0.089507 0.05503 0.0084815 -0.14097 0.16263 -0.1046 -0.045842 -0.095513 0.12799 0.11944 -0.045144 0.22655 -0.12939 -0.16318 -0.021607 -0.019372 0.046518 -0.20586 -0.15286 0.063277 0.24095 0.029307 -0.013113 0.32381 -0.18298 0.056531 -0.097214 -0.064642 -0.014333 -0.28733 -0.23004 -0.039569 0.15353 0.016768 0.37902 -0.023418 -0.1321 0.003711 0.027582 -0.17624 0.11816 -0.18939 -0.13377 -0.21064 -0.098619 -0.052662 0.20256 0.008227 -0.26342 -0.056472 -0.30886 -0.19989 -0.021455 0.18248 -0.12133 -0.10767 0.012894 0.076256 -0.27085 -0.052904 0.3219 -0.18209 -0.048384 -0.0022962 -0.10277 -0.042144 0.31204 -0.20402 -0.028437 -0.13657 -0.34368 0.037814 0.012334 -0.020562 -0.14008 0.041294 0.13257 -0.03949 -0.29951 -0.1439 -0.054983 -0.027432 -0.1959 -0.22983 0.0098761 0.13723 -0.1884 -0.50124 0.15039 0.22717 0.13289 0.28348 0.1721 0.0076974 -0.18797 0.016887 -0.29702 0.14272 -0.10783 0.21209 -0.15233 -0.29368 -0.061599 -0.059314 -0.22835 -0.15138 -0.10781 0.00088262 0.20771 0.079184 0.085686 0.0057003 -0.6227 -0.24803 -0.1877 0.14786 0.18762 -0.24746 -0.27035 0.10723 -0.095568 -0.011658 0.27441 -0.19538 -0.066675 -0.16725 0.015491 0.24475 0.015907 -0.3271 0.16606 0.033434 0.0075583 -0.0010733 -0.10356 0.27444 -0.058451 -0.10092 -0.0028512 0.18392 -0.15494 0.2578 0.12382 -0.0021706 0.18779 0.040687 -0.016836 -0.081065 0.020597 0.063345 0.20826 0.21784 -0.13816 -0.064924 0.12483 0.26891 -0.39589 -0.16981 0.24556 -0.24762 -0.07028 -0.36652 0.059707 -0.0095631 0.23748 -0.040906 0.14034 -0.097987 0.28376 0.10776 -0.10329 0.15823 0.35018 -0.10019 0.0035949 0.13175 0.030563 -0.15268 0.096966 -0.26893 0.15838 0.025265 0.10342 -0.24788 0.16671 -0.058721 -0.1552 -0.022291 -0.075043 0.036845 
mile -0.23999 -0.0075436 -0.12221 -0.2941 0.15518 -0.020253 0.30698 0.56145 0.020922 0.20569 -0.59375 -0.084911 -0.083134 0.18264 -0.07102 0.12552 -0.012223 -0.054683 -0.39268 0.1225 0.4047 -0.29953 0.47985 0.49771 -0.092706 -0.084967 0.0037945 0.27387 0.24277 -0.21342 -0.033469 -0.23222 0.33081 -0.048509 -0.31144 0.7265 -0.025415 0.00058858 0.48374 -0.16936 -0.078476 0.37156 0.23405 0.10967 0.13238 -0.36346 0.094069 -0.064917 0.31869 -0.1652 -0.080358 0.076207 0.39719 -0.19051 0.0070494 -0.097587 -0.10843 0.11165 0.16682 0.046091 0.31617 0.031829 -0.25484 -0.12258 0.07291 -0.82744 -0.50048 -0.3119 0.4562 -0.61282 -0.58049 -0.46626 0.076532 0.037814 -0.46522 -0.19577 0.0061465 0.17634 0.28969 0.71027 -0.041362 0.26112 0.29723 0.047793 0.041637 0.11875 0.1907 -0.16235 0.033481 -0.17395 0.57537 -0.11499 0.14126 0.29616 -0.22979 -0.015209 0.15101 -0.21166 -0.14522 -0.0010302 -0.19251 -0.45502 0.25787 0.073635 -0.088154 0.024292 0.063712 -0.23481 -0.53924 -0.44044 0.066251 -0.042422 0.095003 -0.097952 0.13848 0.037218 0.010382 0.085103 0.08614 0.13106 -0.18705 0.016078 0.021897 -0.11662 0.031624 -0.22404 -0.17043 0.0046536 -0.4974 0.025237 0.11622 0.41742 -0.089862 0.04498 0.01871 0.098523 0.41029 0.25283 0.4145 -0.10223 -0.10463 0.099719 -0.062972 -0.1167 -0.05906 0.19121 0.22584 0.0070685 0.56796 -0.17942 -0.073329 -0.4159 0.23652 -0.50279 -0.42049 0.22437 0.094863 -0.016941 -0.036443 0.08765 -0.099979 0.038282 0.10634 0.13078 -0.1097 0.27926 0.01531 0.21365 -0.42513 0.28173 0.085356 0.11831 -0.18853 0.069712 -0.49184 -0.061265 0.1587 0.2162 -0.16874 -0.24566 0.10724 0.0078943 0.33565 -0.053453 0.084393 0.36206 0.16101 0.014474 0.33961 0.26239 0.14485 -0.068818 0.25627 -0.50271 -0.011553 -0.22132 0.059579 -0.3725 -0.43104 -0.039542 -0.26209 0.14693 -0.17868 -0.11825 0.019262 -0.0026202 -0.27373 -0.039879 -0.074774 0.03118 -0.17022 -0.01257 -0.41606 0.090997 0.019217 -0.62761 0.084568 0.15005 0.16835 0.20193 0.26602 -0.25682 0.16851 -0.44048 0.50831 0.17161 0.38107 -0.078293 -0.092541 -0.58703 -0.080716 0.14699 0.48686 -0.4415 -0.21623 -0.089123 -0.2911 0.17083 -0.3516 -0.079881 -0.078553 -0.021023 0.21385 -0.11025 0.020873 0.27616 -0.13613 0.019314 0.14172 0.22775 -0.089915 0.035152 0.24987 0.10472 -0.28147 -0.041229 0.10784 -0.37305 -0.077346 0.06826 0.083549 -0.034926 -0.73114 0.29782 0.067558 0.21076 -0.38929 -0.028916 -0.17216 -0.12072 0.11818 0.33987 0.33406 0.16108 -0.34437 0.0061466 0.053596 -0.41694 -0.26231 -0.22857 -0.11269 0.26536 0.40599 -0.34216 0.15427 -0.17053 -0.052191 0.0095601 0.010762 -0.10767 -0.041979 -0.14801 0.2567 0.15457 -0.23581 0.20645 0.30248 -0.25079 -0.35773 0.18226 
computation 0.13183 0.11789 -0.064941 -0.27012 0.0018055 0.25771 -0.13305 0.32642 0.088693 -0.064548 -0.44082 -0.014482 0.1637 0.33011 -0.1999 0.17182 -0.20548 -0.52484 0.2395 0.03861 -0.19615 0.02125 0.017453 0.17108 0.011369 -0.04828 -0.16969 0.045714 -0.42342 -0.13287 0.31019 -0.4631 -0.094512 -0.062583 0.34499 0.50736 -0.11386 -0.077062 0.21488 0.068396 0.067715 -0.17909 -0.016625 0.33629 -0.055109 -0.43035 -0.1882 0.12034 -0.094844 -0.45726 0.21058 -0.054629 -0.061118 -0.26582 -0.17391 -0.066894 -0.19324 0.45446 0.5451 0.26729 0.26792 0.13518 -0.11213 0.10436 -0.013445 -0.11786 -0.2649 -0.24335 -0.21619 -0.10334 -0.090118 0.093106 -0.15197 -0.048562 -0.3709 -0.010143 -0.13455 -0.28282 -0.088318 -0.035453 0.079872 0.19337 -0.05042 0.19733 0.23261 -0.083451 0.3629 -0.12127 0.23888 0.36476 -0.11413 0.049643 -0.56935 -0.33701 0.272 -0.0066241 0.16075 -0.19425 -0.35622 0.46131 -0.068641 0.27158 0.10772 0.14371 -0.61361 -0.39775 0.48817 -0.0050385 0.26811 0.20725 0.028701 -0.20711 -0.11213 -0.54535 0.22198 -0.37768 0.17055 0.16947 -0.024914 0.19625 0.095969 0.013473 -0.1214 0.11271 0.42953 0.13814 0.10547 -0.032387 0.33961 0.27912 -0.27896 0.34132 -0.081402 -0.16535 0.55957 0.084537 0.11688 -0.052551 0.16276 -0.0052608 0.047215 0.25406 -0.051245 -0.35463 0.07995 -0.16317 0.029871 0.50062 -0.058644 -0.34424 -0.017582 -0.086558 0.078012 0.28108 -0.24844 0.063489 0.12594 0.27716 0.25194 0.15248 0.07684 -0.20488 0.34489 0.23194 0.14259 0.079665 -0.051198 0.35764 -0.35063 -0.0020663 0.72543 -0.10248 -0.29285 -0.12922 0.045566 -0.18934 -0.29825 0.17577 -0.39052 -0.33933 -0.16605 -0.13452 -0.22277 -0.062166 -0.11345 0.056898 0.70303 0.21595 0.0082398 0.1221 0.60387 -0.44718 -0.65888 -0.15681 -0.23315 -0.19322 -0.0017208 0.18497 0.12692 -0.32145 -0.13583 -0.24497 0.36224 0.078931 -0.24125 -0.24012 -0.10141 0.20978 -0.5773 0.075959 0.18392 0.65715 -0.25698 0.38183 -0.50313 -0.0095227 0.099064 -0.092471 -0.28448 0.62081 0.1151 -0.34403 -0.33398 -0.028552 -0.28892 0.066237 -0.22269 0.035573 -0.21357 -0.1901 -0.15328 0.015232 0.37916 0.12307 0.12062 -0.2527 0.016166 -0.15913 -0.67572 -0.1954 -0.62324 0.20339 -0.40559 0.35552 -0.21823 0.14754 0.29121 0.010802 -0.19736 0.58077 -0.59233 0.22275 0.33233 -0.15663 -0.094279 0.33655 0.32829 0.023587 0.16117 -0.010124 -0.010069 0.026367 0.26825 0.23735 -0.14802 -0.11763 0.18985 0.031879 0.02109 0.16622 0.040428 0.39487 -0.068139 0.24273 -0.14375 -0.10092 0.2109 0.24441 0.1607 0.29661 0.028601 -0.073556 0.013517 -0.26925 0.070803 -0.3125 0.082554 0.061185 -0.23388 0.10303 0.098624 0.034598 0.21146 0.11319 0.022096 0.41457 -0.13755 -0.091444 0.14292 0.086762 
skin -0.025676 0.35783 -0.2494 -0.13149 0.011281 0.36995 -0.013923 0.29335 -0.22168 0.24875 -0.076476 -0.4114 0.035665 0.27416 -0.5808 -0.16915 0.18788 -0.70772 -0.26387 -0.21128 -0.12286 -0.040749 -0.10426 -0.20331 -0.43347 -0.0038823 0.34539 0.2034 -0.035528 -0.64814 -0.097888 -0.32502 -0.058216 0.32782 -0.1918 -0.20217 -0.22391 -0.049276 0.059699 0.080901 0.38269 -0.10897 0.16029 -0.21182 0.28259 -0.36015 -0.13828 -0.015494 -0.18608 0.037828 -0.31259 -0.036668 -0.022095 -0.16018 -0.20255 0.026004 0.40159 -0.058345 0.12545 0.11353 0.24065 -0.050091 -0.52976 0.08242 -0.16148 0.37425 -0.16836 -0.28309 -0.31026 -0.37644 -0.2731 -0.11468 -0.028134 0.032357 0.015144 -0.27883 0.043157 0.35728 0.0081203 -0.20374 0.40204 0.17336 0.16183 -0.13048 0.092118 0.041565 -0.41092 -0.41321 -0.12209 -0.12953 -0.12572 0.33387 0.5435 -0.12367 0.18589 0.011857 0.014441 0.35883 0.35493 0.18241 0.13665 -0.13316 -0.1929 0.0095714 -0.27246 -0.036766 -0.33772 0.25367 0.057929 -0.21137 -0.33898 -0.024513 0.38303 0.13555 -0.21553 0.020191 0.17151 0.035793 0.24699 -0.098838 0.44005 0.19618 -0.13346 -0.10865 0.61558 -0.074646 -0.19197 0.21682 -0.3725 0.042681 -0.25831 0.54674 0.41419 -0.37135 0.12789 -0.24453 0.25463 -0.10449 0.31066 0.08143 0.32052 0.20723 -0.17195 0.35194 -0.017615 -0.20754 -0.072862 -0.010956 0.054914 -0.088739 0.0040802 -0.18892 0.37203 0.0039653 -0.083733 -0.27447 -0.12578 0.25751 0.43547 -0.066209 -0.0025741 -0.088248 0.066352 -0.45024 -0.033314 0.20966 -0.17199 0.073413 -0.53712 0.040824 0.070676 -0.21745 -0.56179 -0.15758 0.13033 0.12409 0.59868 -0.0054398 -0.43335 0.025136 -0.093618 -0.16538 0.21115 0.27905 -0.11917 0.013865 0.45501 0.15762 -0.12673 0.057204 0.1597 0.089901 -0.42029 -0.46959 -0.013415 -0.021183 -0.077578 -0.12489 0.0085206 0.33225 -0.016536 0.096732 0.17605 0.10491 0.1374 0.090011 -0.085196 -0.10545 0.10475 0.065524 0.070861 -0.093395 -0.089315 -0.11031 -0.53781 -0.18177 0.31591 -0.28664 -0.59118 -0.39699 0.17067 0.26149 -0.047937 0.19356 0.13833 0.076559 -0.034544 0.2582 -0.69942 0.34511 0.1602 -0.12597 0.25805 -0.2864 -0.19967 -0.1777 -0.30076 -0.11631 -0.1386 -0.25158 -0.25874 -0.0071439 -0.42759 0.19342 0.042535 0.036672 0.22365 0.68141 0.079373 0.34126 -0.08554 0.17789 0.11919 0.3253 0.17004 0.35563 0.2188 -0.21789 -0.074259 0.3065 0.34566 -0.33092 -0.24925 -0.43201 -0.51647 -0.18823 -0.20721 -0.049017 -0.21769 0.0083177 0.11773 0.14482 0.3778 -0.17868 0.018218 -0.1577 0.28268 0.16963 0.45126 -0.2659 0.1264 0.10871 -0.18554 -0.30247 0.25863 0.53838 0.40434 -0.2537 -0.0626 -0.099068 -0.12671 0.067116 0.60177 -0.14804 0.057344 0.084804 0.19091 -0.10274 -0.6928 -0.10217 
children -0.13076 0.26457 -0.36546 0.10322 0.18978 0.19891 0.20854 -0.045548 0.18359 -0.23468 -0.039159 0.38663 -0.22161 0.084854 -0.17725 -0.035569 -0.29548 -0.43663 0.14246 -0.26714 -0.26883 0.076252 0.16616 0.11458 0.045261 -0.2008 0.086702 0.23293 -0.097467 -0.043854 0.14297 0.031479 0.40117 0.23336 0.15306 -0.1635 0.22438 -0.1824 0.18021 0.012469 0.058886 0.38485 -0.09224 0.11527 -0.12397 -0.114 -0.18961 0.19355 -0.013748 -0.13838 -0.095732 -0.154 -0.076011 -0.1525 -0.21469 -0.21026 0.1935 0.30249 0.10452 -0.074526 0.17139 0.1975 0.23664 -0.1817 0.049447 0.23369 -0.09211 -0.10277 0.078337 0.0046444 0.084068 0.22505 -0.16605 0.28571 -0.16586 -0.19741 0.15417 0.30218 -0.10848 0.08129 0.30941 -0.077455 -0.13388 -0.0064895 -0.3707 0.01869 -0.25752 -0.24575 0.085866 0.0037531 0.25256 0.17513 -0.00636 0.28805 0.18126 0.1852 0.22575 -0.21481 -0.11422 -0.17277 -0.14269 0.04478 -0.38288 -0.0096945 -0.31733 0.037097 0.040211 -0.23384 -0.043826 0.044529 -0.25629 -0.13453 0.1604 -0.18742 0.17135 -0.37656 0.18474 -0.031681 0.038534 -0.17356 0.22386 0.13714 0.21824 0.38178 0.070835 0.21349 0.01774 0.023878 0.2695 0.22451 -0.045735 0.15354 0.42521 0.003802 0.26185 -0.33679 -0.1588 -0.034768 -0.12401 0.20892 0.19037 -0.1372 -0.0052124 -0.10928 -0.0049218 -0.022958 -0.084938 0.00067269 0.46913 -0.3921 0.49162 -0.40092 -0.16118 0.031499 -0.0099673 -0.093915 -0.33028 -0.29527 0.15418 -0.13671 0.020531 -0.030767 0.1276 0.04527 0.043452 0.016811 -0.23084 0.16961 -0.33389 -0.30472 0.24103 0.068473 -0.015547 0.15378 0.17273 0.25019 0.14103 -0.077233 -0.27736 0.28259 -0.015095 0.16679 0.086287 -0.061144 0.10535 0.12389 0.38981 0.22295 0.46821 -0.039005 -0.056311 -0.017467 -0.016914 -0.41763 -0.23476 0.1307 0.087729 -0.25185 -0.064203 0.072645 -0.05182 0.18087 -0.11148 0.31165 0.012045 -0.27957 0.03281 -0.034993 -0.020059 0.0713 0.20323 -0.096443 0.17741 -0.18582 -0.047893 -0.06487 0.095129 -0.11914 0.14781 -0.058272 0.23909 0.23569 0.076051 -0.074618 0.11816 -0.25285 0.016853 -0.2176 -0.024089 -0.049936 0.05201 -0.045301 0.15412 -0.22596 -0.14233 -0.20942 -0.11357 0.071712 0.26174 0.12185 0.043882 0.00031473 0.27999 0.12395 -0.08459 -0.097838 0.045052 0.20354 -0.1945 0.23476 -0.01928 0.4381 -0.15007 -0.19384 0.14057 -0.22994 0.19907 -0.099475 -0.044267 -0.10427 0.11688 0.21051 0.050573 -0.14636 -0.25475 0.67836 -0.048328 -0.16224 -0.034294 -0.27227 -0.19949 -0.026145 0.26289 0.17663 -0.41348 -0.13049 0.42095 0.18909 0.2826 -0.20576 0.39178 0.61943 0.14378 -0.24695 -0.18985 0.64569 -0.40993 0.30135 -0.14183 -0.030644 0.21413 0.1766 0.25164 -0.050294 -0.21705 0.090798 0.10158 -0.24019 -0.12217 0.32785 
row 0.36537 0.41524 -0.74186 -0.1098 -0.025559 0.19627 -0.21244 0.25626 -0.0019216 0.14809 -0.036381 -0.10818 -0.43156 0.20974 0.18871 -0.017678 0.33798 -0.21919 0.028908 -0.34441 -0.16912 0.10075 -0.39331 0.036807 -0.0091501 -0.15171 0.23496 0.5374 -0.31409 -0.12813 -0.088234 0.12825 0.042276 -0.043332 -0.14265 -0.39916 -0.18875 -0.047153 0.25868 0.14818 -0.073274 0.30708 -0.010591 -0.32507 0.39768 0.0017179 0.16564 -0.07074 -0.15844 -0.26745 0.16642 -0.24234 0.048512 -0.23674 0.3528 0.15839 -0.065294 0.059927 0.13126 -0.12359 -0.16347 -0.1387 0.20384 0.093653 -0.019085 -0.36436 0.13405 0.11628 0.1936 -0.2276 -0.44862 0.16748 0.23304 -0.10482 -0.1285 0.34478 -0.11234 -0.15637 0.014417 0.38753 0.088931 0.29613 0.1537 0.11984 -0.077562 -0.12767 -0.20996 0.35573 0.40576 -0.35113 -0.062098 -0.32231 -0.3804 -0.26735 0.11713 -0.0080912 0.17364 0.064752 -0.21085 0.15028 -0.22714 0.20196 -0.027598 0.27455 -0.013727 0.38127 -0.020168 -0.27442 -0.097932 0.0016634 0.15542 0.065663 0.089739 -0.10492 0.11545 -0.35876 -0.042209 -0.27917 -0.17493 -0.13148 -0.21385 0.19203 0.14541 0.11155 0.2896 -0.16405 -0.50217 -0.033233 -0.28055 0.00984 -0.097984 0.19942 0.0062007 0.42865 -0.053929 0.28044 -0.55811 -0.21959 0.12419 -0.061611 -0.024785 -0.33662 -0.047271 -0.13999 -0.012041 0.031812 -0.049341 0.18241 -0.29568 -0.077654 0.22153 -0.089648 0.46051 0.043773 -0.11061 0.20499 0.040243 -0.088592 -0.12066 -0.0074705 -0.15219 -0.058185 0.053126 -0.064684 -0.09173 0.10949 -0.027699 0.042846 0.33644 -0.081704 0.066999 -0.19249 0.10039 -0.2845 0.25088 -0.0012998 0.25508 -0.12084 -0.11432 -0.11085 -0.066977 -0.15418 -0.29431 0.081326 -0.26407 -0.20055 -0.19709 0.22301 -0.046898 0.4357 0.19508 -0.3186 0.37891 -0.70787 -0.031039 0.28156 -0.20066 -0.10656 0.39565 -0.04062 -0.066254 0.31593 -0.013042 0.58505 -0.11928 0.25168 -0.37503 0.58541 0.22645 -0.23333 0.024616 0.010653 -0.22109 0.50752 -0.4354 -0.22667 0.034614 -0.33214 0.23523 0.011122 -0.29341 0.17485 0.22922 0.21469 0.10667 -0.30564 0.44992 -0.33929 -0.005314 0.22344 -0.18634 -0.020613 0.32004 -0.30732 0.43846 0.049186 0.35873 0.2056 0.21845 0.2669 -0.2292 -0.18042 -0.20324 -0.29179 -0.33001 0.089921 0.048157 -0.037381 -0.053567 -0.0037308 -0.031785 0.036136 0.097286 -0.075873 0.044337 -0.10302 -0.0063318 0.094601 -0.12088 0.019162 -0.12064 0.19591 -0.11129 0.19422 0.25135 0.20685 -0.15047 -0.15808 -0.099898 -0.16048 0.16322 0.10996 0.11557 -0.034897 0.21575 0.015981 0.67327 -0.20069 -0.0010982 0.41776 -0.39798 0.11265 -0.024126 0.15105 -0.49606 0.23898 -0.29949 0.043858 0.13179 -0.073987 0.068961 -0.13462 0.39122 -0.15633 0.1917 -0.038515 -0.037611 -0.12585 -0.11892 0.086028 
wizard -0.30147 -0.018858 0.14514 0.053965 0.041151 0.41984 0.22601 0.50179 0.76084 0.00042098 -0.11878 -0.21062 0.33827 0.35966 -0.097576 -0.31887 0.32973 -0.40904 0.22675 -0.14708 -0.24571 0.074448 -0.18563 0.3099 -0.036722 -0.34098 -0.21045 0.23789 -0.038513 -0.082788 0.21954 -0.20503 -0.53392 0.20313 -0.14976 -0.53883 0.2053 -0.29061 0.25156 0.077021 -0.0076733 0.17124 -0.3319 0.21233 0.65261 0.088812 -0.50506 0.59464 -0.50613 -0.48147 0.068919 -0.19582 0.0098882 -0.051379 -0.07527 -0.59864 0.22153 0.036576 0.24945 0.16764 -0.23843 0.27383 0.27505 0.0093271 0.25414 -0.26082 -0.41177 0.15778 0.037354 0.13476 0.086451 0.014234 0.10943 -0.12466 -0.50493 -0.018122 -0.10433 -0.28347 -0.27181 -0.12883 -0.34221 -0.057543 -0.31869 -0.18473 0.11901 -0.13361 -0.18718 0.044242 -0.077588 -0.52903 -0.19523 0.24127 -0.36037 0.02831 -0.02346 0.47719 0.15177 -0.11325 -0.1116 -0.086342 -0.13897 0.23503 0.078142 0.24767 -0.62088 0.23436 0.52425 0.21315 0.14069 -0.18897 0.10024 -0.041003 -0.31638 -0.90877 -0.1246 -0.37925 -0.072594 0.14533 0.18777 -0.28468 0.20861 0.23412 -0.17642 0.29128 -0.081752 -0.10836 0.00096015 0.29646 0.012454 -0.35735 -0.077576 -0.083959 0.23612 -0.44645 0.25235 -0.023496 -0.20429 0.18597 -0.40738 0.13414 -0.28164 0.16456 -0.23434 -0.10267 -0.25305 0.062921 -0.22025 -0.30362 0.24192 -0.46048 -0.20987 -0.18664 0.33134 0.31129 -0.07409 0.04865 -0.11771 0.16618 -0.1682 -0.26248 0.1021 0.26695 0.10073 -0.042949 0.47668 0.019555 0.24721 0.6586 0.22598 -0.67077 0.15044 0.26919 -0.2161 0.30537 -0.1171 -0.2771 0.076436 -0.05389 -0.24981 -0.001639 -0.25206 0.079279 0.19589 0.55289 -0.053116 0.11025 0.53484 0.089544 -0.25706 0.10166 0.26199 -0.12094 -0.16168 -0.37034 -0.37505 -0.033925 -0.42535 0.031862 0.33412 0.53153 -0.14495 -0.28476 0.46009 0.20986 -0.13669 0.15057 -0.53513 -0.008641 -0.30509 -0.063243 0.26576 0.18382 -0.12605 -0.3256 -0.54081 -0.10175 0.0086225 -0.034174 0.055036 0.31172 0.56285 -0.27505 -0.42066 0.0036681 -0.21118 0.091233 -0.012823 0.34312 -0.097597 0.20081 -0.08455 -0.16914 0.089181 -0.27875 0.17587 -0.11818 -0.4356 0.035093 0.20082 0.32877 -0.14983 0.040276 0.11913 0.35998 -0.3367 -0.039556 -0.065037 -0.10759 0.049252 -0.20426 0.2045 0.19036 -0.20019 -0.44539 0.41997 0.52731 0.21884 -0.31554 0.22866 0.011032 0.26558 0.09403 -0.43892 0.026706 -0.29293 0.076799 -0.060789 -0.082175 0.15445 -0.28786 -0.21022 0.060947 0.2582 0.44757 0.21342 0.20445 0.066441 -0.17713 -0.19465 0.13996 -0.040361 0.06898 0.13584 -0.18706 -0.13776 -0.1761 0.10274 -0.0035733 -0.22793 0.33851 0.0056247 0.19751 -0.28577 0.30468 0.21123 -0.010511 -0.262 -0.4265 -0.090527 -0.2925 
disability 0.13059 -0.042186 -0.21065 -0.2928 -0.18875 0.26927 -0.21395 0.34927 -0.32634 -0.26029 -0.028137 0.23433 0.22678 0.18593 -0.14485 -0.46785 -0.11342 -0.28459 -0.2062 0.0696 0.23843 0.097593 -0.11224 0.14576 -0.12846 0.22025 0.58919 0.36712 0.28329 -0.3574 0.062973 0.00095457 0.69636 0.19122 0.2344 -0.12427 0.147 -0.052697 -0.093271 0.19489 -0.074808 -0.04805 -0.054955 0.040292 -0.26385 -0.077788 -0.1134 0.0048654 0.30881 -0.31602 -0.30221 -0.2413 0.39691 0.023457 0.066643 -0.026758 0.39542 -0.50844 0.31319 0.24422 0.033869 0.038849 0.17283 -0.027098 0.15117 -0.24584 -0.042271 -0.017043 -0.24734 -0.084279 -0.2945 -0.079216 -0.41678 0.13795 0.15381 -0.001945 0.20413 -0.077375 -0.046588 -0.28488 0.19594 0.15167 -0.020773 0.073541 -0.1475 -0.050068 -0.12771 -0.33523 -0.2168 -0.30455 0.0199 0.3162 0.176 0.58553 0.41975 0.13545 0.27149 -0.30912 -0.40369 0.057802 0.20178 -0.21236 -0.70577 0.13535 -0.28793 -0.083067 0.090084 -0.41543 0.12628 -0.075499 -0.7957 0.233 0.43136 -0.25924 0.070624 0.084164 0.11195 0.10473 -0.023707 0.26701 -0.15306 0.025795 -0.14047 0.10338 0.037126 0.17595 -0.24501 -0.26349 -0.02822 0.22614 0.23326 0.51784 0.32951 -0.12116 0.33078 0.36644 -0.3149 -0.32914 0.17766 0.45244 0.089468 -0.20037 0.048064 0.058538 0.23202 -0.27388 0.21323 0.4473 0.16559 -0.1514 0.27638 -0.20427 0.26711 0.099743 0.049395 -0.2941 0.013212 0.042481 0.032722 0.52942 -0.15762 -0.036686 -0.18539 0.14774 0.0087501 0.09291 -0.0068626 0.20553 -0.38351 -0.10837 0.22453 -0.1309 -0.33365 -0.12217 -0.0017777 -0.039422 -0.13748 -0.26535 0.034472 -0.018637 0.19463 0.049004 -0.090677 0.20618 0.0096153 0.22878 0.62899 -0.2262 -0.17575 0.50267 -0.02436 -0.2142 -0.073674 -0.43115 -0.20787 0.56816 -0.21555 -0.3036 -0.38413 0.13524 0.24263 0.28805 0.41084 0.066049 0.36108 -0.46392 0.0015501 -0.38605 -0.10012 0.44717 0.16038 0.036323 -0.37694 0.33512 -0.60875 0.16306 -0.15056 -0.29812 -0.15761 -0.68199 0.38744 0.08443 -0.0046316 -0.061547 -0.25685 -0.19431 -0.10773 -0.47548 0.013247 0.14605 0.032436 -0.31733 0.050671 -0.17747 0.0020283 0.21535 0.075111 0.22486 -0.16922 0.050022 -0.12415 -0.017695 -0.25476 0.18556 -0.066641 -0.063192 0.18576 0.22223 -0.17466 0.31441 -0.16622 0.31133 0.087722 -0.059887 0.03408 0.14088 0.29992 0.1292 0.042887 0.078844 -0.038985 0.043878 0.12549 0.072441 -0.11408 0.68323 0.29856 -0.38402 0.043525 0.28199 -0.22433 -0.17403 -0.1057 -0.10863 -0.54794 -0.16163 0.4205 -0.06738 0.28169 -0.078327 0.5968 0.086122 0.070105 -0.50274 0.072825 -0.39386 0.014179 -0.010658 -0.030681 0.040415 -0.0096582 -0.10261 0.24531 -0.67536 -0.15401 0.11243 -0.2311 -0.051865 0.21728 0.39665 
environment 0.17226 -0.094856 -0.35378 -0.16609 0.30457 0.059835 0.067484 0.28381 -0.4055 0.1617 -0.28909 0.023204 -0.063897 0.069979 0.115 0.073383 -0.17046 -0.36272 0.050097 0.1877 0.29561 -0.18066 -0.18806 0.42907 -0.26733 -0.11464 0.2157 0.00090324 -0.19106 -0.19581 0.13365 0.12713 0.2424 -0.20564 0.25212 0.037753 0.13871 0.1865 -0.074212 0.010864 0.15731 -0.0075861 0.10811 -0.013669 0.59611 -0.72272 -0.36865 0.038022 -0.12229 -0.56162 0.055143 -0.19746 -0.38555 -0.040698 -0.0094817 0.077133 0.18911 -0.14782 0.14059 0.14735 0.24845 0.23124 0.10101 -0.47664 -0.20852 0.18921 -0.43952 -0.082538 0.089789 0.073538 -0.10024 0.065306 -0.23104 0.24857 0.0015734 -0.069317 -0.16834 -0.073929 0.21501 0.10943 0.093302 0.07832 0.17959 0.23644 -0.023125 -0.058329 -0.22532 -0.12025 -0.13788 0.023823 -0.25162 -0.032122 -0.08294 -0.028631 -0.066763 0.042172 0.31223 -0.24466 -0.07928 0.0065851 0.34457 8.3247e-05 -0.1928 -0.22589 -0.22222 -0.1687 -0.31454 -0.2362 -0.15281 0.11083 -0.15209 -0.13188 -0.47289 0.1979 -0.040712 -0.36864 0.10469 -0.072869 0.21826 0.22272 0.1165 0.033517 0.018632 0.027111 0.52187 -0.26171 0.20183 -0.059784 -0.34825 0.15491 0.43615 -0.32048 0.16395 -0.079218 0.16825 -0.05478 -0.08986 0.029836 -0.026785 -0.3539 0.14273 0.1228 0.19026 0.159 0.18534 0.22336 0.33924 0.13067 -0.11978 -0.43019 0.20765 -0.38666 0.18764 -0.22942 -0.015338 -0.1581 -0.30004 -0.21929 0.072416 0.16808 0.13895 -0.21927 0.12702 -0.29538 0.019202 0.053168 0.16392 -0.25762 -0.11855 -0.19184 0.092206 0.11337 -0.09712 -0.24859 0.17381 -0.26027 0.10789 -0.23117 0.062208 0.16409 -0.15636 -0.1286 -0.032931 -0.29973 -0.22721 0.28873 0.43268 -0.23893 -0.13896 -0.098929 0.098429 -0.0010791 -0.20922 -0.31252 -0.13882 0.19762 0.12253 -0.048444 0.03113 0.039747 -0.038493 -0.11268 -0.046073 0.23058 -0.018108 -0.2549 -0.22943 -0.44192 0.043573 -0.1362 0.32591 -0.15429 0.11483 -0.12301 -0.15347 0.3479 -0.052606 -0.20335 0.0050518 0.12056 -0.40279 0.46542 -0.36731 0.17648 -0.4902 0.11438 -0.17468 -0.26644 0.0011862 -0.043257 0.256 0.18517 0.56205 -0.18689 -0.22521 -0.35814 -0.043349 0.0063671 -0.076847 -0.25641 -0.18027 -0.42524 0.30368 0.12821 -0.21643 -0.050526 -0.10623 -0.16648 -0.20298 0.22257 -0.64134 0.21379 -0.057387 0.25905 -0.35365 0.40602 0.065228 -0.10994 0.064735 -0.068466 0.0478 -0.38936 -0.20552 0.20271 -0.14168 -0.29694 -0.02824 -0.17777 0.15479 0.05209 0.087094 0.14851 0.14182 0.17164 -0.24073 -0.060669 0.2042 0.30973 -0.099668 -0.12686 0.28504 -0.14289 0.019168 0.022639 -0.26759 0.3295 0.29231 -0.10493 -0.087228 0.12345 0.011558 0.24548 0.02246 -0.056978 -0.20528 -0.23731 -0.12075 -0.30204 0.1066 -0.15912 
terror -0.18323 -0.13401 -0.258 -0.20057 0.44927 0.53002 0.056377 0.44486 -0.1344 0.06928 -0.13198 0.10114 0.17085 -0.30068 0.50342 -0.26201 -0.01162 -0.13294 -0.18868 -0.31474 0.020448 0.17626 -0.14465 -0.034613 -0.45926 0.16766 0.096604 -0.09071 -0.45768 0.13114 0.48437 0.12112 0.0014732 0.066396 0.047642 0.0034254 0.25393 -0.024967 -0.18625 0.0066761 0.41003 -0.018317 -0.24482 -0.0082307 0.17849 -0.29931 0.45851 -0.15481 0.084222 -0.40054 -0.23969 -0.15416 -0.41818 -0.23218 0.17191 -0.108 0.28299 0.3694 0.16976 -0.35085 -0.27598 0.28678 0.34793 0.22554 -0.38363 -0.38599 0.013905 0.012382 -0.22431 -0.14123 -0.305 0.081379 -0.32529 0.41083 -0.13043 -0.29001 0.019913 -0.208 0.46182 -0.12222 -0.079704 -0.03573 -0.16557 -0.072897 -0.3971 0.15675 0.26374 -0.25928 -0.048937 -0.16909 0.096285 -0.28159 0.4768 0.18201 0.2338 0.46434 -0.37491 -0.1508 0.21013 -0.37732 -0.11066 0.17161 -0.26875 0.042556 -0.13135 0.092538 -0.13321 0.19608 0.011358 0.057745 0.18183 0.24343 -0.16658 -0.36046 -0.75432 0.30603 -0.3228 -0.10942 0.9287 0.15271 -0.19439 0.29857 -0.22279 0.0073999 0.1416 0.094899 -0.28788 0.42947 -0.21889 -0.12336 -0.083494 -0.026568 0.4709 -0.29454 0.43664 0.083833 0.00077109 -0.13825 0.1057 0.025806 -0.042084 -0.20867 -0.41674 0.41296 -0.035495 -0.46958 0.13046 -0.14538 0.31632 -0.31008 0.61781 -0.16757 0.39958 -0.023186 -0.14896 -0.19905 -0.06907 -0.24028 0.53118 -0.048233 0.14233 -0.056709 0.094647 -0.36811 0.27732 0.071355 -0.21768 0.30807 0.070297 -0.23336 0.30559 0.0049289 -0.14131 -0.19313 -0.052272 0.24087 0.35219 0.047648 0.67881 -0.11797 -0.12068 -0.31682 0.050725 -0.26779 -0.15789 0.21558 0.36248 -0.013929 0.19961 -0.081833 0.16286 -0.41907 -0.3002 -0.085873 0.058772 0.17194 0.49836 -0.10127 -0.11946 0.13955 0.10027 -0.012502 -0.23117 0.066754 -0.33193 0.40771 -0.60339 -0.033988 -0.037033 -0.46863 0.029195 0.28878 -0.24025 0.27947 -0.13828 -0.1318 -0.082162 0.25784 0.18207 0.46498 -0.18368 0.14394 0.10842 -0.37762 -0.31219 -0.029611 0.039779 -0.3298 0.39653 -0.22918 0.13134 -0.26073 0.086298 -0.16833 -0.011256 0.30061 0.34656 0.018852 0.26282 0.014204 0.27655 -0.020831 -0.059644 0.037481 -0.30941 -0.1326 0.098321 0.47405 -0.03325 0.058378 0.046094 0.34811 -0.43952 -0.039671 0.25041 0.080972 -0.088132 -0.49822 -0.10272 -0.040582 -0.039285 0.064507 0.043877 -0.1894 0.034734 0.13758 0.15778 -0.024407 -0.19043 -0.13863 -0.25934 0.074138 0.13514 0.017118 -0.11925 -0.14568 0.12307 -0.13983 0.1233 -0.1867 -0.3289 0.01358 0.71267 -0.17595 0.062948 -0.051454 -0.21735 0.36502 0.60748 0.10082 -0.14353 0.33649 -0.14057 -0.39827 -0.10402 -0.0073223 -0.31519 -0.28691 0.23725 0.29387 
smile -0.12638 -0.1613 -0.10146 0.18886 0.28936 0.50902 0.091281 0.031453 0.0046653 -0.046348 -0.32736 -0.11454 -0.13216 0.27542 -0.037193 0.042965 0.074953 -0.27768 -0.31632 0.010603 -0.13654 -0.086946 -0.037909 -0.13509 0.070899 0.078515 0.13604 -0.18567 -0.21472 -0.076371 -0.032907 -0.17585 -0.030063 -0.32789 0.047075 -0.14859 -0.30522 -0.21742 0.11545 -0.26697 0.51583 -0.54818 -0.21049 -0.03377 0.077129 -0.4893 -0.23212 0.048173 -0.19427 -0.13957 0.07237 -0.33502 -0.052419 -0.075851 0.040813 -0.22878 0.54504 -0.22979 0.49262 0.14274 0.090661 0.079003 -0.15389 -0.056513 0.063175 0.0013425 -0.0048438 -0.2932 0.040847 0.23047 -0.30492 -0.11467 0.097264 0.35295 0.029397 -0.15764 -0.068517 -0.022231 0.14388 -0.1423 0.38613 -0.342 0.01148 0.05354 0.3075 -0.079354 -0.19985 -0.337 -0.099138 -0.24477 -0.35869 -0.28354 0.33658 -0.037924 0.080441 0.35255 0.11289 -0.12817 -0.011562 0.15708 0.095404 -0.062545 0.15289 0.13869 -0.45719 -0.26468 -0.48078 0.3289 0.13261 0.10324 -0.053999 0.012703 0.36067 -0.31782 -0.23432 0.19276 -0.020952 0.08274 0.19372 -0.083465 0.24354 0.20918 0.23345 0.029992 0.53549 0.28511 -0.013987 -0.049117 -0.61697 0.16698 -0.33331 0.25037 0.19123 -0.021536 -0.15139 -0.028776 -0.2993 -0.31032 0.10636 -0.01255 -0.37334 -0.025118 -0.08939 -0.0012848 -0.3029 0.26053 0.011139 0.15551 -0.25609 -0.22907 0.24298 -0.57968 0.02163 -0.19712 -0.37748 -0.2903 -0.23314 -0.039514 -0.043703 0.054904 0.26048 0.12724 0.63866 -0.28699 -0.017778 -0.18052 0.24335 0.3348 -0.10549 -0.17875 0.3982 -0.15563 -0.039367 0.32277 -0.44696 0.36038 0.64056 -0.19456 -0.15807 -0.090473 -0.16514 -0.025156 -0.08125 0.467 -0.009843 -0.064087 0.47271 -0.097067 -0.1087 0.68461 0.018855 0.34757 0.082787 -0.24512 -0.2758 0.048608 -0.073949 0.21252 0.22465 0.3068 -0.18477 0.51467 0.28293 -0.30353 -0.068317 0.18272 -0.073554 -0.15533 -0.55133 0.022466 -0.1185 -0.014774 0.14512 -0.071048 -0.29329 -0.050009 0.23548 0.055979 -0.21422 -0.23126 0.27741 0.12786 0.05369 -0.095656 0.31993 -0.4778 0.08682 0.16719 -0.14561 0.26248 -0.11179 -0.40029 0.33109 0.046656 0.18498 0.2088 -0.13442 0.33892 -0.42867 -0.1817 0.16209 0.075162 -0.31979 -0.30861 -0.17761 0.14918 -0.15794 0.27952 0.039638 0.25135 -0.13991 0.14062 0.11173 -0.13675 0.36322 0.22973 -0.22129 0.18735 0.29423 0.060641 0.048072 -0.19108 -0.075742 -0.056139 -0.010751 0.27875 -0.024276 -0.16906 0.099787 -0.27541 0.10089 0.34198 0.35562 0.54723 0.076617 -0.23023 0.34819 -0.26522 0.03827 0.13369 -0.17602 0.59515 0.26126 -0.086814 0.026446 0.1063 -0.033107 -0.30947 -0.11776 0.06775 0.13633 0.36275 0.16168 -0.00010231 0.14918 0.3829 0.097153 -0.21751 -0.29505 -0.21063 
woman -0.051108 -0.072918 -0.25554 0.15523 0.30718 0.15459 0.07653 0.29476 -0.2067 0.086234 -0.10847 0.078432 -0.31873 0.17341 -0.35217 -0.14137 0.021779 0.021166 -0.2026 -0.12323 -0.13107 0.11056 -0.12682 -0.024276 0.045197 0.17909 0.036919 -0.10447 -0.080065 -0.39288 -0.0047793 -0.047624 0.19476 0.092454 0.14535 -0.44292 -0.44467 -0.19813 0.045026 -0.11634 -0.24237 0.18836 0.10659 -0.36313 -0.010478 -0.19047 -0.044373 0.07476 0.070588 -0.19741 -0.050039 -0.1652 0.092445 -0.063981 0.33049 0.1687 0.23386 0.098464 -0.010942 -0.11194 -0.33503 -0.10331 0.35246 -0.039315 0.12517 -0.14636 0.18605 -0.113 0.19892 0.23855 -0.12211 0.076918 0.068711 0.10525 -0.18743 -0.0028023 -0.14325 0.053569 0.043299 0.1998 0.080964 0.058619 -0.31085 -0.036951 -0.39438 0.21277 -0.27978 -0.20884 -0.15584 -0.021056 0.3426 -0.03825 0.046968 0.16886 0.20157 0.26127 0.13615 0.088298 -0.13616 -0.27052 0.26394 -0.037813 -0.26951 0.37564 -0.37182 -0.23332 -0.072052 0.24408 -0.032867 0.024747 0.092612 0.02694 0.14046 -0.18669 0.024922 0.14143 0.32922 0.029555 -0.040406 -0.09083 -0.15626 0.15103 -0.30655 -0.10589 0.091154 0.010563 -0.08946 -0.040048 -0.21519 0.604 0.19713 0.13132 -0.031228 -0.41486 -0.034492 0.077115 -0.097458 -0.2275 0.21878 -0.53206 -0.22617 0.23548 -0.14538 -0.27407 -0.12553 -0.070099 -0.1434 0.065411 -0.071981 -0.18135 0.061662 -0.502 0.19895 0.037801 -0.34357 -0.10982 -0.21219 -0.16953 0.12268 -0.34728 0.2003 -0.28093 -0.20934 -0.07089 -0.044833 0.16326 -0.14591 0.1587 -0.22415 0.0099542 0.55894 0.17256 0.49341 0.2611 0.41117 0.30702 0.20155 -0.14691 -0.338 0.081716 0.023787 0.065506 0.0066489 0.36673 0.062589 0.10636 -0.089385 0.27073 0.14634 0.074674 -0.087358 0.11854 -0.52461 -0.13216 -0.13147 -0.031257 0.20271 -0.18867 -0.28958 0.17733 -0.085927 0.10972 0.10784 0.18762 0.14135 -0.11606 -0.47205 -0.24184 0.393 -0.11146 -0.15177 0.14334 -0.14942 -0.098033 -0.33653 -0.20033 0.037578 0.023355 0.24637 -0.0093102 0.3761 -0.15083 0.022438 -0.056775 -0.039733 -0.098535 0.28668 0.14024 -0.020775 0.20204 -0.13368 -0.35929 -0.15384 -0.54321 0.064916 0.12659 -0.25629 0.1984 -0.1374 -0.055076 -0.16233 -0.080885 0.059514 0.14079 -0.065355 0.09751 0.3798 0.10174 0.58024 0.33049 -0.21148 0.25467 0.13913 -0.12246 -0.17437 -0.13487 -0.35532 -0.29679 0.36587 0.11806 0.097081 0.13353 0.14971 -0.17799 -0.15784 0.35169 -0.34614 -0.32025 0.016847 -0.08872 0.23436 0.038363 0.032234 -0.022255 -0.16987 0.22464 0.69214 -0.18424 0.25399 -0.034915 0.27268 0.20961 0.17765 0.010706 -0.43838 0.058974 -0.38561 -0.23522 -0.22013 -0.19232 0.20288 0.3445 0.49822 -0.10124 -0.090918 0.2101 0.0058322 -0.06648 -0.062375 0.35118 
string 0.29076 0.045732 -0.24699 0.034822 -0.29603 0.31966 -0.12292 0.34622 0.15599 0.055171 0.064723 0.0055331 0.2054 -0.10773 0.46429 0.057819 0.10543 -0.32761 -0.065445 -0.27731 -0.11427 -0.19802 -0.53272 0.024299 0.0019365 -0.092691 0.25476 0.07932 0.061522 -0.49982 0.18622 -0.13518 0.018664 0.23741 -0.29429 -0.50762 -0.17641 0.10959 0.33352 0.017129 0.18832 0.14246 -0.043466 0.12055 0.60838 -0.068114 0.1629 -0.00034322 -0.17287 -0.22177 -0.0084619 -0.52528 0.084729 -0.0032491 0.086401 0.14653 0.16881 -0.041126 -0.041681 -0.0086241 -0.17333 0.045019 0.25062 0.18642 0.0313 -0.23607 0.321 0.020848 0.23448 -0.05968 -0.068997 -0.12049 0.20777 0.32145 -0.47477 -0.20098 -0.25218 0.0406 0.26993 -0.013538 0.010906 0.3064 0.56927 -0.12175 0.24158 -0.084829 0.055172 0.1344 0.15672 -0.028958 -0.030695 -0.035864 -0.48794 0.025578 -0.008633 -0.023985 -0.10527 0.29033 0.093877 -0.37109 -0.24296 -0.063094 0.036549 0.24531 0.12122 0.43128 0.011949 0.15982 -0.30381 -0.16939 0.1024 -0.22626 -0.027051 -0.39186 -0.2712 0.025291 0.1623 -0.10903 0.052906 0.0071343 0.14917 0.36445 -0.49649 -0.015598 0.01561 -0.0279 -0.18296 -0.025985 -0.11087 -0.13163 0.086934 -0.06338 0.19862 0.16698 -0.18191 -0.096596 -0.29409 -0.15474 -0.5129 0.2992 0.23184 0.34819 0.040992 0.082702 -0.041114 -0.16446 -0.013438 0.18278 -0.082074 -0.33974 -0.12021 0.0094791 -0.10565 0.073223 0.074844 -0.055588 0.059897 -0.12763 0.097708 0.061123 -0.099611 -0.25303 -0.17916 0.14478 0.3101 0.091162 -0.10021 0.13582 -0.15371 -0.17554 0.47305 -0.10384 -0.16781 -0.32508 -0.015243 -0.049208 0.35964 -0.032139 0.15134 -0.063745 0.0047566 -0.226 -0.085992 0.2247 -0.024833 -0.056983 0.040775 -0.082148 0.18263 0.30514 -0.11002 -0.24846 -0.18152 -0.012326 -0.081055 0.82008 0.19068 -0.044737 0.20723 0.33463 -0.085303 0.15856 0.12695 -0.065881 -0.32343 0.02954 -0.35351 -0.00996 0.09368 0.01166 -0.46553 -0.071312 0.1435 0.053453 -0.27188 -0.3328 -0.16793 -0.022589 -0.10573 0.40469 -0.31474 -0.0073309 -0.1155 -0.12475 -0.10462 -0.24318 0.30922 0.17238 0.24214 0.10983 -0.075598 0.10785 0.28109 0.020573 0.50797 -0.34061 -0.077831 0.15028 0.065023 0.54176 0.031279 0.18245 -0.0058694 0.11615 -0.15796 -0.014033 0.10052 -0.40941 0.35088 0.3101 0.012386 0.17013 0.065667 0.27644 0.027898 -0.016864 0.11077 -0.15933 0.076969 -0.065507 -0.18365 -0.039892 -0.16345 0.0067022 0.022549 0.085282 -0.12779 0.1637 -0.23876 0.038734 0.16002 -0.14453 -0.00092612 0.24348 -0.099009 0.091587 0.4778 -0.24093 0.33696 0.21338 -0.017005 -0.028213 0.3015 0.33616 -0.064041 0.048833 -0.2922 0.095113 -0.0095829 -0.13613 0.1024 0.51992 0.15921 -0.25413 -0.066656 0.44753 0.3369 0.075163 -0.33444 -0.24889 
Maradona -0.0045849 -0.44187 0.53203 -0.043235 0.054602 0.050248 0.32408 0.099119 0.31329 -0.47352 0.20221 0.1281 -0.50909 0.11075 0.1197 -0.47942 -0.064576 -0.47368 -0.14795 -0.063089 0.024842 0.0019808 -0.4728 0.21856 0.46113 -0.27056 0.032149 -0.10611 -0.13566 -0.18847 0.16063 -0.31376 -0.068282 0.054338 0.26796 -0.19228 -0.21191 -0.1023 0.020069 -0.057783 0.35982 0.37187 -0.21754 -0.70855 0.22141 -0.17649 0.062713 -0.30801 -0.24799 -0.369 0.13206 0.057209 -0.17234 -0.24896 0.19524 -0.1489 0.11643 0.19127 0.075129 -0.049888 -0.6008 -0.11882 0.20955 0.041561 0.1466 0.40101 -0.010847 -0.010412 -0.30697 0.41756 -0.029058 0.35379 -0.33244 0.62535 -0.2208 -0.090066 -0.090402 0.64704 -0.096117 -0.36436 -0.23527 0.50863 0.14326 -0.46601 0.094238 -0.37453 0.33631 0.028884 0.23237 -0.44864 -0.20273 -0.51393 0.27342 0.17147 -0.3826 0.38973 0.17924 -0.072722 0.41424 -0.10177 -0.10998 0.12086 0.027965 0.044608 -0.017213 -0.19006 0.15748 0.4515 0.16952 -0.30464 0.12516 0.01302 0.50953 -0.37145 0.26755 0.082781 -0.14011 -0.058175 0.25808 -0.21552 0.031446 -0.080067 -0.075742 0.1718 0.37307 -0.065001 0.039674 -0.10364 -0.29333 -0.037664 0.074993 -0.20254 0.11385 -0.16954 0.5563 0.042088 0.19077 -0.29398 0.34281 -0.041203 -0.41428 0.20669 -0.38424 0.43531 0.017381 0.33181 -0.31308 0.59247 0.31169 0.027774 0.13306 0.15987 -0.48299 -0.14257 -0.012417 0.029842 -0.18445 -0.25369 0.22778 0.064862 0.54547 -0.68689 0.45789 -0.426 0.2347 0.37058 -0.20801 -0.0073782 -0.064026 -0.28289 0.1469 -0.36801 0.027242 0.49069 0.37033 0.26922 -0.012992 -0.055242 -0.4377 -0.022021 0.059962 -0.20998 -0.6066 0.24546 -0.36163 -0.088032 -0.030031 0.47254 -0.27582 0.46224 0.33858 -0.23805 -0.020177 -0.42953 0.0069658 -0.63981 -0.53025 0.27368 -0.22753 0.51331 -0.066799 0.63063 0.44459 -0.076672 -0.26517 0.26476 -0.42786 -0.17172 -0.033361 0.054198 -0.093152 -0.14827 -0.35165 0.71587 -0.19494 -0.54424 0.15953 -0.1046 0.4232 -0.11557 -0.28658 -0.025011 -0.2921 -0.2999 -0.026722 0.40773 0.12436 0.39703 -0.20863 0.5197 -0.36605 0.23824 -0.32697 -0.36366 0.34871 -0.244 0.34087 0.60844 -0.27785 0.25512 0.071746 0.11721 -0.15328 0.061697 0.052106 -0.28579 0.030163 0.19739 -0.23023 0.72454 -0.24193 0.32518 0.17312 0.057143 0.30307 -0.25788 -0.30043 -0.2805 -0.032817 -0.36876 0.36431 0.036804 -0.33768 -0.64096 -0.0028962 -0.52407 -0.23395 -0.24754 0.022875 -0.0991 -0.12482 -0.20453 0.50455 0.23334 -0.32257 0.36205 0.18717 -0.20951 0.43897 -0.00079718 0.73372 0.56451 -0.34302 -0.47571 -0.43394 -0.010746 0.099734 0.34919 -0.15995 0.36224 0.43296 0.10285 -0.035966 -0.32784 -0.28356 -0.072738 0.0019514 -0.098622 -0.33005 -0.041893 
liability 0.40929 0.30562 -0.033204 -0.08133 0.11064 0.56302 -0.38705 0.077043 -0.17405 0.17642 -0.19374 0.27435 0.037925 -0.10286 -0.3075 0.02132 0.3569 -0.18537 -0.36066 -0.039774 0.29624 -0.19993 0.22377 0.09749 -0.092122 0.15471 0.19144 0.20743 0.23638 -0.3243 0.28724 -0.048891 -0.029412 0.11827 -0.11526 0.2986 0.024923 0.014973 -0.044652 0.011651 0.23765 -0.10402 -0.36179 -0.30738 -0.0045195 -0.21402 -0.27424 0.11016 0.35511 -0.31535 -0.12262 0.26312 -0.17726 -0.28163 -0.13255 0.041481 -0.17226 -0.048434 0.29215 -0.51197 -0.098153 0.12703 0.21613 0.27506 0.08346 0.057202 -0.084828 0.24572 -0.040096 -0.39684 -0.14059 -0.25428 -0.027172 0.023236 -0.088503 0.30056 -0.016155 -0.25487 0.10564 -0.043346 0.29035 0.084667 0.29075 -0.0044393 0.32731 -0.18805 -0.2537 0.11554 -0.051321 0.016928 -0.31292 -0.14688 -0.48151 -0.2928 0.44587 0.19898 0.33696 -0.32123 0.14164 0.092922 0.063184 -0.1882 -0.48189 0.17497 -0.25609 -0.33749 0.15935 -0.072451 -0.1691 0.23891 -0.19008 -0.13472 -0.13811 0.389 0.083618 0.0671 -0.03409 0.10774 0.17041 0.30971 -0.31043 0.015358 -0.14339 -0.091993 0.43096 -0.036121 0.051466 -0.0050935 0.036156 -0.091153 0.2531 0.25318 0.10076 -0.17303 -0.039702 0.026013 -0.0365 -0.11789 -0.46592 0.042563 -0.12815 -0.018692 0.071988 0.42825 -0.040676 -0.28758 0.013694 0.65482 0.23854 -0.42185 0.15934 -0.036365 -0.5119 -0.37981 0.20087 0.10456 -0.048019 0.33552 0.39617 -0.029225 -0.32794 0.036267 -0.2468 -0.1918 0.088072 -0.019285 0.31691 0.59398 -0.62202 -0.16081 0.28125 0.14575 -0.56113 0.17406 -0.043235 -0.38918 0.1055 -0.14742 -0.0039056 0.00026716 -0.12374 0.14178 -0.19066 0.15325 -0.28983 0.020335 0.1699 0.046757 0.19519 0.31261 -0.34579 -0.41846 0.22672 0.10928 0.068016 0.12955 -0.088204 -0.1669 -0.33761 0.33831 -0.094168 0.086921 0.11503 -0.18234 0.23745 -0.05941 -0.40862 -0.44785 -0.016752 0.44357 0.21246 0.053986 -0.20707 0.030272 -0.46084 -0.16268 -0.21304 -0.050446 0.27491 -0.10461 -0.14838 0.26479 0.2106 0.16829 -0.41503 -0.092636 0.037053 -0.32844 0.31231 0.15867 0.24901 -0.33445 0.34395 0.068552 -0.028587 -0.065722 -0.6218 -0.23345 -0.18285 0.36148 -0.19065 -0.20645 -0.043156 0.17281 0.36096 0.30082 -0.14398 0.26196 0.26569 0.16292 -0.34883 -0.12743 -0.064621 -0.045356 0.48089 -0.094497 0.040669 0.12418 -0.37279 -0.27654 -0.18659 0.2745 -0.35073 0.28262 -0.17012 0.038289 0.0042529 -0.067718 -0.10693 0.053042 0.13321 -0.08012 0.0048438 0.17108 -0.40853 0.18984 0.045544 0.0028585 0.052835 0.030837 0.3096 0.23236 -0.024967 -0.52542 -0.042458 -0.33607 -0.065766 -0.053052 -0.060433 0.21454 0.0086183 -0.32038 0.16672 -0.014773 0.22254 -0.13521 -0.22195 -0.10514 0.26096 0.22665 
ticket -0.24587 -0.16233 0.27009 -0.039852 0.23028 0.56692 -0.21129 0.47112 -0.035254 -0.31859 0.0029498 0.28322 -0.13943 -0.068271 0.712 -0.22312 -0.32676 -0.35286 -0.26159 -0.10184 -0.04416 -0.086961 0.10587 0.07935 0.030996 0.13696 -0.036761 0.13609 -0.21021 -0.014394 0.18097 -0.1175 0.035628 -0.022447 -0.1292 -0.16211 0.31903 -0.33014 0.033157 0.10637 -0.10177 -0.025003 0.11883 -0.055244 -0.12023 0.042689 -0.17796 -0.018826 0.051047 -0.3308 0.059085 0.12259 -0.041545 -0.20289 0.47862 0.33387 -0.17845 0.058094 0.12657 0.2272 -0.045545 0.085286 -0.12223 -0.12606 -0.24026 -0.377 0.15188 -0.49369 0.46527 0.13935 -0.19154 -0.37546 0.56093 0.098574 -0.090105 -0.14734 -0.071198 0.17431 -0.11713 -0.019984 -0.084313 0.16123 -0.57815 0.24825 -0.083376 -0.28007 -0.086231 -0.29044 -0.20222 -0.038395 0.040623 -0.20404 0.12005 -0.081187 0.52762 0.17249 0.77375 0.087406 -0.49617 -0.17977 0.34497 -0.64078 -0.22886 -0.058058 -0.2025 0.17648 -0.033522 -0.25323 -0.20595 0.062927 -0.048646 0.26037 -0.17883 -0.048688 0.39636 0.12845 -0.10061 0.075662 0.1072 0.086494 -0.54399 -0.25769 -0.31291 0.032914 -0.055332 -0.18559 0.31727 0.12531 -0.19272 0.50309 0.17876 -0.01453 0.12791 -0.45701 -0.097908 0.12107 0.60449 0.073233 0.39321 -0.17158 -0.2229 0.092295 -0.082746 0.2278 -0.12191 -0.13065 0.038114 0.17138 -0.20806 -0.77804 0.25488 -0.087367 -0.33708 -0.15635 -0.12556 0.34958 -0.0048596 0.1171 -0.070534 -0.19788 0.067597 -0.2224 0.11974 -0.055847 0.070463 -0.16239 -0.17685 0.33101 0.061067 -0.23854 0.75793 0.11286 -0.20786 -0.42829 0.10083 -0.29139 0.11641 0.22656 0.049938 -0.14138 -0.3141 -0.18437 -0.14871 0.11005 -0.19793 0.027676 0.10947 0.020906 -0.090862 -0.031989 -0.16033 -0.094587 0.15745 -0.25407 0.66759 0.09285 -0.12383 0.15125 -0.13637 0.066968 -0.16438 -0.036831 0.34892 -0.12357 0.05051 0.63208 -0.073738 -0.052894 -0.016154 -0.2097 -0.23349 0.022207 0.23227 0.058262 -0.33122 -0.0063106 -0.14181 -0.36022 0.11078 0.14996 0.032763 -0.18211 0.073119 -0.19226 0.066957 -0.013543 0.21847 -0.45454 0.011765 -0.15661 0.19086 0.096146 0.10511 -0.22384 -0.35104 0.09996 -0.054433 -0.023489 -0.021719 0.0088961 -0.36117 -0.60673 -0.13429 -0.60069 -0.061732 -0.20411 0.20562 0.46215 0.051702 0.28061 -0.021846 0.52406 -0.61309 -0.2271 0.23854 0.18534 0.71109 0.1391 0.070646 0.10058 0.26154 -0.084648 -0.30183 0.054328 0.2705 0.24842 -0.27853 0.2886 0.31724 -0.17731 -0.11374 -0.10874 0.24206 0.15259 -0.026649 0.43681 0.0030665 -0.41064 0.063539 -0.30046 0.089223 -0.099739 -0.26666 0.21262 0.1533 -0.22021 -0.15131 -0.0032041 -0.2196 -0.13195 0.23486 0.01198 0.2886 0.0086337 0.16948 0.40875 0.29694 -0.19323 -0.21772 0.085966 
school 0.12575 -0.26216 -0.39492 -0.046065 0.4607 0.27805 -0.10792 0.075648 0.36182 -0.47643 -0.05256 0.21973 -0.10645 0.17842 0.17863 -0.018905 -0.095307 -0.33544 0.15267 -0.034243 0.022858 0.14874 0.38608 0.2331 0.045069 -0.21584 0.40316 0.17053 -0.47114 -0.23792 0.23741 0.032885 0.039705 0.34919 0.17488 -0.16162 0.13584 -0.34689 0.18312 -0.12353 -0.29703 0.31491 -0.021289 0.10081 0.0073535 -0.13077 0.24338 -0.1801 0.3036 -0.19608 0.15482 -0.14315 -0.14682 0.0041851 -0.19185 0.030006 0.16231 -0.0084957 0.13076 -0.0031225 0.054569 -0.010025 0.34666 -0.27058 0.19477 0.092036 0.22455 -0.31787 -0.005623 -0.26202 -0.034937 0.11701 0.085837 0.35998 -0.11185 -0.31466 0.0036451 0.079698 0.17842 -0.19729 -0.1368 0.2373 0.17282 -0.21295 0.19815 0.048699 -0.25049 -0.20561 0.14033 0.21236 0.031076 0.36052 -0.16059 0.30329 0.048133 0.23511 0.13748 -0.18677 -0.01782 -0.061315 -0.25026 0.17582 -0.11066 0.23254 0.016986 0.21155 -0.15653 -0.3219 -0.074912 0.078449 -0.086233 -0.0038493 -0.020262 -0.29198 0.10052 -0.2699 -0.21638 0.014486 -0.015196 -0.10172 -0.13255 -0.055089 -0.022282 0.035887 0.036813 0.25225 0.23628 -0.18745 -0.22321 0.013863 0.31441 0.16221 0.13027 0.039367 0.14455 -0.018101 -0.15275 0.46966 -0.047301 0.16473 -0.088893 0.10902 0.15363 0.072891 -0.36187 -0.25183 0.053253 0.1922 0.1758 -0.58355 0.38198 -0.40358 0.017089 0.10266 0.3376 0.093667 0.17342 -0.32968 -0.12241 -0.057006 -0.14835 -0.15792 0.16566 -0.044662 0.30756 0.070128 0.093267 -0.12806 -0.38388 0.08442 0.41125 0.071001 -0.27324 0.034523 -0.11229 0.21511 -0.081031 0.12737 -0.27394 -0.00095818 -0.16565 0.17986 0.1326 -0.021753 0.21761 -0.011473 0.25663 0.33026 0.014569 0.43213 0.2479 0.13209 0.14409 -0.24851 -0.2777 -0.16224 -0.01087 0.0099467 0.3583 -0.0065824 -0.056827 -0.10496 -0.037199 -0.026187 -0.058915 -0.53506 -0.083928 -0.061799 0.23734 0.35069 0.10965 0.021421 -0.21592 0.0075167 -0.3092 0.021489 -0.019821 -0.099405 -0.024597 0.11362 0.26939 0.19376 -0.082891 -0.68269 0.17159 0.072273 0.26919 0.0036503 -0.088369 -0.041536 -0.081106 -0.13733 0.35663 -0.048646 -0.19193 0.15381 -0.12797 0.11244 0.022889 0.081851 -0.061167 0.041218 0.16388 0.075713 -0.1223 -0.32376 -0.0011652 -0.080465 -0.52153 0.12428 0.20618 -0.022867 -0.50256 -0.058354 -0.12271 -0.2753 -0.037138 0.014231 -0.029867 0.15029 -0.029119 0.2362 0.19829 -0.21446 -0.07649 0.39203 -0.43326 -0.11276 0.19408 0.041364 -0.16914 -0.39974 0.090551 0.067685 -0.27705 -0.037015 0.37991 0.097069 -0.047982 -0.15714 0.13987 -0.027796 0.2815 -0.30061 0.23232 0.25777 -0.11896 -0.067789 -0.34091 -0.03269 0.353 0.18689 0.4907 0.086841 0.11058 0.088113 0.33502 -0.070242 -0.1113 0.31835 
gender 0.12263 -0.21497 -0.066434 0.034743 -0.11522 0.16775 -0.15963 0.19958 -0.34907 -0.32724 -0.048567 -0.053431 -0.2011 0.14444 -0.33644 -0.24679 -0.31871 0.10134 -0.15179 -0.42917 -0.017199 -0.18284 -0.2387 0.42573 -0.12407 -0.2073 0.11804 0.042406 -0.079198 -0.57897 -0.067714 0.080638 0.59163 0.028657 0.09159 0.1623 -0.30314 -0.26341 -0.10722 0.26106 -0.20256 0.0054949 -0.05101 -0.18742 0.032103 -0.31689 0.13712 -0.034198 -0.045014 -0.2354 -0.25427 -0.21296 -0.13294 -0.35945 0.071479 -0.28458 0.25095 -0.072685 0.51233 -0.36347 0.21159 0.47924 -0.11003 -0.22055 -0.075251 -0.15387 0.10125 -0.39527 -0.19446 0.094034 0.022984 -0.085662 0.16187 -0.039188 -0.49196 -0.027085 -0.50011 0.19439 0.076073 -0.47782 0.24257 0.31273 0.11171 0.067414 -0.11348 0.099272 0.23578 -0.57553 0.19334 0.25197 -0.018122 0.37903 -0.067398 0.11583 0.26928 0.24719 -0.013462 -0.175 -0.15252 0.33311 0.30202 0.26945 -0.53597 -0.02904 -0.40578 0.12397 -0.20848 -0.4626 -0.0046175 -0.36251 -0.70891 0.16635 0.11976 0.092552 -0.099625 0.090318 0.18754 0.075636 0.51214 0.13114 -0.55057 -0.076849 -0.3847 0.24707 0.058839 -0.19479 -0.1166 -0.065416 -0.10993 0.40165 0.077679 0.00484 0.33749 -0.72757 0.050647 0.1856 -0.35472 -0.29235 0.5439 0.45983 -0.27423 -0.21376 -0.0072243 -0.040903 0.45073 -0.39308 -0.012494 0.28186 -0.022851 -0.23278 0.32656 -0.31973 0.07306 -0.1236 -0.24594 0.063023 -0.25348 -0.36788 -0.10084 -0.20608 0.036321 -0.48211 -0.34921 0.043758 0.1274 -0.020396 -0.247 0.19746 -0.25591 -0.35299 0.2772 -0.13312 -0.094154 -0.10274 0.11955 -0.22397 0.014684 -0.29808 -0.32389 -0.33444 0.064075 -0.27358 -0.074798 0.11672 0.43976 0.39784 0.10561 0.19305 -0.18502 0.45352 0.33515 -0.042475 -0.41043 -0.46293 0.033623 0.2816 0.15183 -0.38945 -0.045651 -0.083773 0.24046 0.25187 0.10806 -0.058749 0.46 -0.064309 -0.097701 -0.13941 0.13653 -0.089248 -0.1062 0.37679 -0.3627 0.18403 -0.59966 -0.08669 0.23786 -0.33062 -0.23504 -0.042073 0.27174 0.14504 0.17807 0.26022 -0.38022 0.015336 -0.13793 0.098916 -0.11278 0.35646 -0.12996 -0.033694 -0.045358 -0.20627 -0.34352 0.15818 -0.048163 0.1237 -0.20705 -0.11849 -0.5067 0.24386 -0.23679 0.26011 0.051178 -0.3991 -0.17278 0.19893 -0.01827 0.52727 -0.20442 -0.25704 0.23803 0.22978 0.01859 0.21816 -0.13418 0.36665 0.49108 -0.019155 0.045261 -0.063893 -0.084479 0.028898 0.021365 0.107 0.16717 0.0030861 0.15879 0.23917 -0.21737 0.050376 -0.41115 -0.064468 -0.20482 -0.049305 0.58542 -0.11895 0.41447 -0.069724 0.33773 0.35388 -0.13738 -0.46063 -0.32017 0.068107 0.25413 0.0070607 -0.33891 -0.0078077 0.070392 -0.38591 0.27253 -0.446 0.10841 0.3506 0.031461 -0.63209 -0.23909 0.33896 
brother 0.12514 -0.3788 0.16126 -0.18915 0.032512 0.38558 0.075919 0.40285 -0.23379 0.2642 -0.08138 0.24548 -0.065799 0.12023 -0.01674 0.014554 0.19582 -0.23927 0.021695 -0.40449 -0.026316 0.27206 0.14784 0.074612 -0.12709 -0.42302 -0.027049 -0.061364 -0.094257 0.13212 0.070678 -0.0035042 0.2322 0.36361 -0.15882 -0.47216 0.025163 -0.42326 -0.19647 0.049817 -0.25971 0.077375 -0.16889 -0.013652 -0.22022 0.21402 -0.20314 -0.11379 -0.069877 -0.26856 -0.33334 -0.15046 0.25288 0.1163 -0.3589 0.077146 0.43135 -0.37268 0.24386 0.28898 -0.041423 0.36921 0.29753 -0.16957 -0.24512 -0.074019 0.011418 0.21758 0.017061 -0.097061 -0.14311 0.2405 -0.033704 0.34055 -0.41744 -0.073632 0.24447 -0.039591 -0.11761 0.3373 0.49224 0.23558 -0.054792 -0.3565 -0.02481 -0.20374 -0.39417 0.012355 -0.078951 -0.24802 0.058525 -0.17584 0.02827 0.012118 0.13422 0.27708 0.093518 0.11987 0.13516 0.056663 0.056892 0.16201 0.053298 0.39398 -0.5721 -0.081754 -0.016082 0.23036 0.10191 -0.18924 0.44384 0.27544 -0.43383 -0.095712 -0.10243 0.091052 -0.15131 -0.3542 0.11856 -0.13065 0.30157 -0.34176 0.44262 0.088384 0.044707 0.21307 0.092026 -0.055059 -0.18671 0.23598 -0.31347 0.060376 -0.1256 0.11259 -0.10184 0.10076 -0.18849 0.061917 0.011169 -0.33152 -0.22667 0.16827 -0.191 -0.042837 -0.026351 0.17268 -0.10241 0.11054 -0.3643 -0.57748 0.2907 -0.086052 0.22778 0.015095 -0.40366 0.019092 -0.10574 0.12165 -0.026326 -0.40781 -0.25866 0.17321 0.092108 -0.19218 0.030997 -0.11298 -0.28663 0.31045 0.19634 -0.29378 0.42067 0.17676 0.22042 0.33577 -0.039322 0.2115 0.099587 0.24521 -0.029339 0.31344 -0.22566 0.43249 0.27412 0.18641 -0.13579 0.33918 0.30597 0.42491 -0.14763 0.27096 0.1882 0.15223 -0.15949 -0.10432 -0.15049 0.42328 -0.1638 -0.01054 -0.12619 0.38656 0.22852 0.10515 0.12986 0.25491 -0.24938 0.010298 -0.2172 -0.082534 0.049984 -0.32565 -0.091616 -0.13347 -0.19813 0.049033 -0.1396 -0.031944 0.18694 -0.35414 0.25427 0.039994 0.20429 0.17936 0.37809 -0.11502 0.056685 0.040991 -0.21303 0.10723 -0.37457 -0.11831 -0.058698 0.16001 0.18111 -0.26614 0.10191 -0.26131 -0.66293 -0.028663 -0.05972 0.24224 0.14543 0.016868 -0.16719 0.12712 -0.09461 -0.011438 0.17235 0.13224 -0.052167 -0.11634 -0.14357 0.25937 0.013074 -0.33789 0.096494 -0.51758 0.13806 -0.41699 0.11926 0.11259 0.08747 0.087039 -0.07937 0.0045452 -0.10979 0.53967 -0.31214 0.18698 0.38632 0.24522 0.26648 -0.14104 0.53656 -0.0095829 -0.39656 -0.18308 0.14386 -0.046331 0.26197 0.20341 -0.17479 0.47007 0.65576 -0.24381 0.10495 0.10451 -0.37979 0.3023 -0.42757 -0.12884 0.33641 -0.11919 0.044469 0.080194 0.088697 -0.10827 0.10278 -0.13799 -0.15095 0.32384 
team -0.077969 -0.022859 -0.025208 0.06197 0.18029 0.29558 0.14427 0.35015 0.23192 -0.16288 0.21315 0.18906 -0.5308 0.24848 -0.038675 -0.437 0.13601 -0.28891 0.20679 -0.057588 -0.12031 -0.18857 -0.1464 0.28413 -0.15018 -0.26225 0.33456 -0.11273 -0.33778 0.039147 0.29095 -0.15254 0.10727 0.35242 -0.25104 -0.24986 -0.052735 -0.091994 0.1321 0.16129 -0.014772 0.052158 -0.28113 -0.25078 0.23893 -0.39063 -0.30499 -0.072181 0.25854 0.016224 -0.29783 -0.044516 -0.25899 -0.059744 0.21617 0.085196 0.17532 0.27243 -0.10705 -0.066735 -0.011279 0.10589 -0.17351 0.19625 0.054667 -0.33697 0.21398 -0.081007 0.14414 -0.2427 0.0016895 -0.037978 0.14301 0.29513 0.13172 -0.10808 -0.03612 0.28395 -0.025587 0.077379 -0.16384 -0.054824 0.066962 0.035393 0.19492 0.089881 -0.03728 0.027466 0.0014003 -0.090423 -0.13175 -0.30873 -0.43697 -0.18662 -0.060338 0.45137 -0.067104 -0.31885 -0.083956 0.33109 0.45558 -0.022021 -0.0070241 -0.055876 -0.10911 0.18371 -0.21218 0.11421 -0.08397 -0.11026 0.22968 0.15853 0.18132 0.20555 0.29949 -0.042163 0.044079 0.1248 -0.049803 -0.14989 0.12525 -0.0735 0.1597 -0.016196 0.090899 0.088549 0.26861 0.13247 -0.018629 -0.010525 0.070885 -0.2641 -0.23374 -0.00010814 0.11541 0.2589 0.027462 0.51409 -0.27398 -0.12321 0.1064 0.11735 -0.21242 0.23684 -0.060869 0.25279 -0.16909 0.30295 -0.13205 -0.21551 0.07836 0.2664 -0.018854 -0.054487 -0.16491 0.13801 -0.10544 -0.11333 -0.079349 -0.02305 -0.38493 -0.027906 -0.1449 -0.10409 0.13668 0.32734 0.048517 0.22309 -0.11614 0.081026 0.16259 0.021219 -0.11858 0.2844 -0.015841 0.25318 0.0058702 0.29769 -0.23838 -0.25652 -0.13967 -0.17077 0.0078221 0.19504 -0.023142 0.19565 0.14168 0.078997 -0.084306 0.33943 0.62627 0.071121 -0.18201 -0.093393 0.14472 -0.23868 0.12753 0.11278 -0.10701 0.54892 0.074449 -0.17289 0.44908 -0.12815 0.058603 -0.11832 -0.15654 0.030616 -0.21964 -0.079654 0.0717 -0.059716 -0.18283 0.25535 -0.37758 0.094356 0.13186 -0.23253 0.1075 -0.12785 -0.18967 0.074495 -0.23463 -0.27286 -0.11738 0.2379 0.10478 -0.17876 -0.054039 0.014646 -0.1687 -0.084588 0.3644 -0.076407 -0.05072 -0.034151 0.11285 0.50059 0.0029697 -0.18885 0.15588 -0.19342 0.1056 0.2458 -0.15068 -0.11432 0.13134 0.19345 -0.0025417 0.26236 -0.16971 0.32615 0.042512 0.24759 0.37238 0.039466 -0.2193 0.059721 0.24447 0.058694 0.051669 -0.084734 0.13885 0.069333 0.25224 -0.024432 -0.29598 0.10511 0.11413 0.096714 0.014865 -0.30433 0.28057 0.13561 0.10539 -0.11716 0.25594 -0.014105 0.22242 0.12482 0.096607 0.13809 -0.10383 -0.12109 -0.035685 -0.016015 0.034233 0.11677 -0.3671 0.21785 0.039676 0.19958 -0.04462 -0.027351 -0.014219 -0.2184 -0.36141 0.10066 -0.27651 -0.02947 
mammal -0.13221 -0.15772 0.048519 -0.088381 -0.17943 0.26054 0.48576 0.051645 -0.05454 0.39112 0.10912 -0.078799 0.10622 0.20507 0.075141 -0.083174 0.37367 -0.14293 0.043514 -0.13748 -0.1633 -0.20431 -0.09341 0.32327 -0.39044 0.13791 0.036846 0.38565 -0.25779 -0.4132 0.47043 -0.43954 0.57256 0.28174 -0.39255 -0.13497 -0.70358 0.13514 0.11493 -0.17461 0.35169 0.40534 -0.0012282 -0.29008 0.28045 -0.16823 -0.092046 0.085416 -0.048263 0.1973 -0.17951 0.27792 -0.6648 -0.38398 -0.18298 0.14771 0.16107 0.517 -0.13441 -0.68199 -0.01903 0.10965 0.0032672 0.24941 -0.028086 0.094557 -0.54216 0.12589 0.045323 -0.1122 -0.30051 -0.16868 -0.12102 0.3306 -0.34572 0.01764 -0.25746 0.027204 -0.56659 -0.058533 0.24083 -0.069845 -0.47447 0.33236 -0.13636 0.31515 0.21418 -0.28035 0.15256 0.27816 0.67928 -0.024686 -0.049378 -0.075189 0.2625 0.24246 -0.045506 -0.17283 0.045868 0.52038 0.31319 0.12061 -0.22688 -0.10679 0.40037 -0.3206 0.088629 -0.03231 -0.22723 0.22858 0.12323 0.23322 0.05669 -0.57863 0.49378 0.34605 0.23854 -0.20588 -0.04197 -0.069838 0.049239 0.30822 0.029423 0.36677 0.80998 -0.11066 -0.17432 0.45666 -0.063 0.47376 -0.013423 0.47226 0.30572 0.038017 0.029866 -0.71129 -0.075592 0.12128 -0.33645 -0.078378 -0.25388 0.28259 -0.26463 0.34792 -0.21055 -0.10588 0.049299 -0.11416 0.15334 -0.23086 0.031037 -0.3106 0.38634 -0.19731 -0.33681 -0.1367 -0.19165 -0.49709 -0.0034083 0.14399 0.40849 -0.51116 0.25252 -0.070488 -0.020324 0.59071 -0.036772 0.028172 -0.10418 -0.13691 0.29373 -0.51385 0.052693 -0.011655 -0.063391 0.24986 0.010967 0.34691 0.060909 -0.16402 0.25274 -0.2533 -0.045975 0.2427 -0.03209 -0.3097 0.5313 0.085871 -0.417 0.40805 0.23819 0.1909 -0.49854 -0.48394 -0.23903 0.14678 -0.033434 -0.19494 -0.11283 0.35336 -0.28344 0.27029 -0.22577 -0.10046 0.28851 -0.67581 0.20655 -0.10668 0.27583 0.12811 0.36812 0.10206 -0.39097 0.39867 -0.48076 -0.62553 0.72216 -0.25562 0.085748 -0.0011406 0.22039 0.19076 -0.22738 -0.012452 0.20009 0.22541 0.10706 -0.49307 0.17797 0.059691 0.0015855 -0.46187 0.41818 -0.40315 -0.37378 -0.27394 -0.24895 -0.059238 -0.049979 -0.19673 -0.26619 -0.086859 0.33308 0.0031789 -0.25633 0.10226 0.15376 0.07807 0.030222 0.36543 -0.35188 0.54738 0.027173 0.0025617 0.019775 0.48757 -0.28089 -0.26112 0.16891 0.12574 -0.036315 0.06097 -0.050706 -0.077534 -0.46909 -0.28046 0.13011 0.18993 -0.20141 -0.47922 0.076234 0.33794 0.19137 0.11515 -0.32023 -0.0031548 0.36883 0.26538 0.40635 -0.24698 0.37379 -0.44762 0.23366 -0.31135 0.74702 -0.22966 -0.21559 -0.20394 -0.0032069 -0.13189 -0.12515 0.11559 0.49292 -0.20176 -0.34576 -0.052916 0.21845 0.41689 0.096484 -0.17972 
round 0.12507 -0.26776 -0.039459 -0.36183 0.095587 -0.056101 -0.0049784 0.13815 -0.20996 0.0572 0.057917 -0.21686 -0.2644 -0.040935 -0.12936 0.23019 0.096567 -0.24608 0.20868 -0.046696 0.078303 0.063874 -0.16687 0.10253 -0.18373 -0.12767 0.18873 0.2528 -0.10599 -0.15121 0.079679 -0.05358 -0.25141 -0.089107 -0.3167 -0.19175 0.31466 -0.1435 -0.12464 0.33678 0.076398 0.11395 -0.26401 -0.060193 0.17928 0.039449 -0.42739 -0.21298 -0.43923 0.17614 -0.24953 0.030573 0.30582 -0.10797 0.30849 0.30373 -0.15668 0.19058 0.18955 -0.083994 -0.2325 -0.0093656 0.10311 0.18474 0.12958 -0.021779 0.013841 -0.16516 0.059751 -0.049495 0.038287 -0.29373 0.026655 0.21324 0.0069135 -0.38508 -0.13661 -0.017572 0.40256 0.052234 -0.15998 0.047586 0.010481 0.1261 0.0050964 -0.11993 -0.19363 0.27252 0.37822 -0.35681 -0.023427 0.11041 0.16401 0.18436 -0.14672 0.073011 0.0019923 0.11287 -0.038837 -0.11021 -0.074459 -0.0051262 -0.16044 0.57141 0.093571 0.32672 0.16133 0.14193 -0.409 -0.26898 -0.038986 -0.10058 0.33667 -0.22026 -0.0064071 -0.13543 0.0078435 -0.1977 -0.16193 -0.0094787 0.24726 -0.011494 -0.44181 -0.066469 0.54669 0.066554 -0.40875 0.10023 -0.39701 0.039094 0.0042921 -0.31245 -0.078527 0.25423 0.34506 -0.089647 0.13543 0.033061 -0.13144 -0.44995 -0.37833 0.21848 0.25653 -0.046036 0.38297 0.33131 -0.42023 0.059753 0.077905 -0.16504 0.067749 -0.22032 0.20247 -0.20509 0.057871 -0.21447 0.39181 -0.017388 -0.18225 -0.15603 0.17313 0.35499 -0.013619 0.038838 0.36826 -0.29196 0.068225 -0.035569 0.10275 0.28188 0.48749 0.012886 -0.097017 -0.042934 0.12714 0.040372 -0.044849 0.25916 -0.44084 -0.092914 -0.090869 -0.69809 -0.024161 0.43139 -0.036657 0.04201 0.23003 -0.44342 -0.70855 0.33835 0.36781 0.043119 -0.44336 -0.22872 -0.21158 0.36941 -0.1609 -0.13919 0.28051 0.11211 -0.0396 0.31454 0.28097 0.36682 -0.30975 0.34956 -0.24035 0.22012 -0.32268 -0.10197 -0.31038 0.15475 -0.063093 0.1011 -0.047302 -0.45153 -0.27873 -0.32039 -0.11274 0.33748 0.10689 0.27722 -0.041918 -0.17033 0.22757 -0.068473 0.035302 -0.13571 0.14693 0.19456 -0.32311 -0.0028505 0.27691 -0.13772 -0.12663 -0.17246 0.099981 0.16622 -0.061796 0.12613 -0.18079 -0.31009 -0.3388 -0.57134 -0.31812 0.11564 0.031874 -0.33191 0.18645 0.32448 -0.015766 0.25124 0.01783 0.26266 0.02523 -0.44432 -0.074695 0.12529 0.072766 0.33934 -0.12793 -0.18179 -0.028128 -0.10379 0.22301 0.29841 -0.19274 0.20459 -0.0072077 -0.17862 0.089866 0.31829 -0.015465 -0.012759 0.057967 0.015855 0.20387 0.211 0.10688 -0.33889 -0.064904 0.12202 0.058107 -0.014665 -0.049231 0.114 -0.34683 0.15502 0.1411 0.16048 -0.079439 -0.026326 0.17973 0.039556 0.2247 0.23063 0.091328 0.0065507 -0.42194 0.028547 
clothes 0.40715 0.16258 -0.27387 -0.23395 -0.019699 -0.029307 0.1061 -0.065421 0.072145 0.41009 -0.35661 0.059968 -0.32386 0.17752 -0.16265 -0.018916 -0.14521 -0.87114 -0.067745 -0.2234 -0.026533 -0.063791 0.15887 0.17953 -0.042485 -0.2148 0.05395 0.28919 -0.33627 -0.020408 0.071513 -0.22772 -0.17247 -0.46275 0.29358 -0.087559 -0.05794 -0.18136 0.25857 -0.12155 0.23399 0.017822 0.46047 -0.30893 -0.010192 -0.36295 -0.52074 -0.32351 -0.31111 -0.30112 0.17956 0.13542 0.22435 0.048682 -0.13865 0.035789 0.36248 -0.15893 -0.043528 -0.071794 0.27435 0.36781 0.15933 -0.29204 0.18171 -0.16646 -0.1076 0.049984 -0.10221 -0.22655 0.087974 0.22776 0.24556 0.13863 0.010874 0.068426 0.16957 0.1814 0.0015344 -0.24626 -0.22344 -0.11551 0.28443 -0.060905 -0.098423 -0.029375 -0.47112 0.061095 -0.15933 0.28864 -0.1294 -0.11398 0.11126 -0.079938 0.30078 0.18644 0.47781 0.40181 -0.045005 0.16776 -0.1109 -0.091699 -0.26427 -0.12556 -0.67956 -0.074579 -0.44625 -0.049864 0.12771 0.1564 0.28255 -0.087867 0.072187 0.016128 -0.18778 0.48425 0.077067 -0.047571 0.035603 0.039688 -0.11044 0.1316 -0.11994 0.369 -0.048802 0.09891 -0.0071195 0.043966 -0.39519 0.14844 0.19329 0.31921 0.42001 -0.053996 -0.0029421 -0.059209 -0.21679 0.31704 0.1293 -0.22958 0.21929 0.061911 0.15964 0.07905 -0.41735 -0.12216 -0.11308 0.058598 0.17824 -0.30232 0.098882 -0.47361 0.19728 0.0359 -0.08005 0.021664 -0.038412 -0.069993 0.32915 -0.059354 0.045214 -0.31987 0.25378 -0.023552 -0.1862 -0.028497 0.19486 0.36829 -0.025221 -0.0026716 0.27755 -0.06375 -0.37229 -0.19335 0.23526 0.19316 0.073561 -0.22547 -0.44557 -0.1943 -0.078237 -0.20013 0.23348 0.12239 -0.32397 0.072685 -0.11507 0.33949 -0.15612 0.18415 0.011702 0.13921 -0.099419 0.12285 -0.11529 -0.34263 0.095923 -0.14311 -0.2464 0.18081 -0.32653 0.063602 0.061117 0.061741 0.011078 -0.097308 -0.13809 0.15353 -0.17189 -0.039963 0.15824 -0.079952 0.077375 -0.063688 0.18896 -0.26565 0.029552 -0.088825 -0.10356 0.068692 0.18078 0.17415 0.094037 0.10426 0.18223 -0.44545 0.11442 -0.05298 -0.12719 0.11475 -0.31922 0.092866 -0.028385 -0.10338 -0.36284 0.21582 -0.20101 0.24909 -0.1266 -0.19292 -0.27905 0.016577 -0.33705 0.269 0.30877 -0.22193 0.19546 0.20142 0.29838 0.46259 0.19456 0.4116 0.14326 0.12558 0.32283 0.47065 0.12931 -0.26881 0.36909 0.085253 0.2048 0.29785 -0.26884 -0.18132 -0.2394 0.47562 -0.1967 -0.13186 -0.14173 0.13346 -0.070949 -0.20467 0.2057 0.23925 0.2895 0.37875 0.18651 -0.095637 0.45742 -0.18594 0.21125 0.25279 0.23232 -0.31697 -0.070568 0.43617 0.12782 0.2399 -0.08577 -0.013618 -0.052351 0.10192 0.06784 -0.069092 0.14477 0.040027 0.42624 -0.506 -0.53051 -0.095108 
carnivore -0.040165 -0.16311 0.39399 0.08542 -0.087848 0.34294 0.43067 0.24977 0.081594 0.26989 -0.35787 -0.2409 0.26208 0.1406 0.41938 -0.087189 0.15364 -0.0060656 -0.33622 0.16932 -0.40195 -0.41634 0.055254 0.20575 0.018399 0.31989 0.17975 0.35132 0.00030677 0.0018919 0.28578 -0.52739 0.43055 0.37719 0.17635 -0.045367 -0.76769 -0.26997 -0.16819 0.43011 0.31984 0.4564 0.39541 -0.34634 0.1796 -0.60839 0.25381 -0.34606 0.33572 0.37786 -0.014294 -0.051614 -0.66464 -0.54269 0.0089982 -0.056063 0.36146 0.092445 -0.18599 -0.5605 0.0013531 0.20466 0.19185 0.12523 -0.38773 -0.024131 -0.56555 -0.096936 -0.13401 0.053716 -0.049968 -0.24927 0.045913 0.27341 -0.016199 -0.53687 -0.32442 0.035288 -0.13443 0.10331 0.36884 0.0036962 0.0099706 0.013615 -0.14424 0.092037 0.14517 -0.32567 0.17187 -0.18237 0.38569 0.2311 -0.077019 0.28617 0.090379 0.18885 0.048682 0.12615 -0.16031 0.47996 0.34752 0.13722 -0.079482 -0.06787 0.14895 -0.10373 0.1992 -0.019252 -0.052983 -0.077628 0.064136 0.14146 -0.29332 -0.50026 0.36695 0.14366 0.041923 0.25402 0.31636 -0.037456 0.33759 0.12614 0.089592 0.40861 0.44093 -0.090912 -0.39173 0.31072 -0.57599 0.54174 -0.13144 -0.087224 0.19675 -0.11519 -0.052883 -0.69384 0.13676 0.015753 -0.18195 0.24247 -0.47183 0.47591 -0.26499 0.0019143 -0.057794 0.28875 0.14453 0.058113 0.096707 -0.50666 0.13482 -0.15302 0.39113 0.022409 -0.12332 -0.31654 -0.20126 0.040281 0.15341 0.14879 0.55728 -0.16913 0.20495 -0.47517 0.27489 0.26911 0.1985 0.097032 0.18079 -0.16538 0.61289 -0.50014 0.16281 0.23321 -0.16617 0.025318 -0.046417 0.062704 0.10521 -0.12049 -0.020385 0.24275 -0.24201 0.087232 -0.068384 -0.73958 0.18584 0.33785 -0.29789 0.27039 0.078562 -0.10983 0.0428 -0.087365 -0.046667 -0.23342 0.09563 0.22105 -0.069806 0.33234 -0.0425 0.14574 0.023274 0.15485 -0.17478 -0.20597 0.036715 -0.21088 -0.0069283 0.15988 0.12999 0.31005 -0.45154 0.27397 -0.56165 -0.39617 0.93525 -0.5399 0.17521 0.086899 0.56672 0.11699 0.072036 0.11472 -0.24943 0.08197 0.35259 -0.38115 -0.17333 -0.19556 0.20311 -0.30598 0.46235 -0.36085 -0.22837 0.13144 -0.27872 -0.03847 -0.19036 -0.27718 -0.2769 0.05494 -0.036028 0.18384 -0.48386 -0.071736 0.25313 0.20308 -0.060428 0.030135 -0.18195 0.63841 0.32701 0.22527 -0.0034093 0.3253 -0.12507 -0.17536 0.24215 -0.19211 0.12094 -0.41973 0.17799 -0.15804 -0.25982 -0.30062 -0.03372 0.32402 -0.21492 -0.22675 0.61636 0.53069 -0.20954 0.25474 -0.32431 0.1445 0.16434 0.22443 0.17181 -0.28397 -0.034897 0.14942 0.24943 -0.28289 0.60568 0.2753 -0.35557 0.13895 0.039911 -0.13556 -0.24875 -0.40211 0.096417 -0.492 -0.11029 -0.24179 -0.062537 0.22639 0.14743 0.28294 
sign -0.051024 -0.00061237 -0.19747 0.11644 -0.02702 0.069197 -0.15601 0.17149 -0.23618 -0.011137 -0.25467 0.27248 0.030138 0.23105 -0.13924 -0.26769 0.40352 -0.10479 -0.32456 0.34521 0.068006 0.016906 -0.19058 0.14999 0.013682 -0.096543 0.18946 0.22105 -0.097767 -0.14684 0.24835 0.23393 0.055175 -0.052148 -0.035086 0.18357 0.44371 -0.39321 0.1149 0.15018 0.1575 -0.054092 -0.15887 -0.11989 0.019642 -0.1704 0.14227 0.05381 0.0080347 -0.061539 -0.10268 -0.44245 0.19661 0.36255 0.066165 -0.19424 -0.31631 0.071192 0.55726 0.067358 0.10572 -0.10038 0.08795 0.18072 -0.10823 0.0057717 0.06458 -0.37558 0.16154 -0.17316 0.22352 -0.27722 0.299 0.37636 -0.054826 0.18746 -0.091571 -0.09662 0.44623 -0.317 -0.17992 0.22506 0.010008 -0.17484 0.13895 -0.4382 -0.2086 0.055573 -0.34531 -0.48968 -0.13603 -0.29024 -0.22906 -0.068847 0.24684 0.10864 0.073984 0.044283 -0.35103 -0.1042 -0.16006 0.17664 -0.12282 -0.0024528 0.36536 0.23428 0.013576 0.21975 -0.13728 0.13194 0.019542 -0.27802 -0.067582 -0.020287 0.48636 -0.13743 0.21784 -0.21077 0.054144 -0.0036394 -0.30269 0.059127 0.33264 0.016642 0.26155 -0.093995 0.19104 0.22054 -0.44903 -0.14173 0.29519 -0.11242 0.016582 -0.19534 -0.1012 -0.39721 -0.10769 0.03117 -0.16179 0.0044857 -0.10845 0.32732 0.15922 0.23183 0.09479 -0.035734 0.10123 0.12807 0.067729 0.076017 0.53419 -0.26698 0.20655 -0.14658 -0.23196 0.038685 0.09469 -0.055184 0.15155 -0.44726 -0.26941 -0.16382 0.22664 -0.0065944 -5.8467e-06 -0.023618 0.080517 0.14662 0.33565 0.0061178 0.17153 -0.053688 0.095427 0.094567 0.31737 -0.11875 0.26127 -0.036092 0.26546 -0.27188 -0.16686 0.10663 -0.28432 -0.20753 0.11601 0.31536 0.073533 -0.30857 -0.18983 -0.037484 -0.31454 0.24011 -0.25266 -0.067338 0.30294 0.14884 -0.20576 -0.2106 0.20716 -0.11838 -0.37591 0.044415 0.45248 -0.28306 0.047829 -0.17621 -0.21988 0.2212 -0.46063 0.10357 0.11417 -0.17525 -0.11935 0.024683 -0.23879 -0.028568 -0.19892 -0.017271 0.13187 -0.23356 -0.0035439 -0.095751 0.1657 -0.092853 -0.0025219 -0.11385 -0.03772 0.22448 -0.0076199 0.25863 -0.06494 0.073844 -0.025039 -0.27553 0.13047 0.32628 -0.0043093 0.059564 0.13321 0.16345 -0.028545 -0.11624 0.011402 -0.35791 0.31994 -0.61827 -0.11003 0.049088 0.072987 0.32157 -0.00061556 0.25711 -0.072335 -0.035744 0.18365 -0.09526 -0.097798 -0.21871 0.18124 -0.3797 0.25 -0.20156 -0.14132 -0.17398 -0.36482 0.086087 -0.51889 0.3114 0.017113 -0.20278 0.023962 -0.10879 0.10453 -0.10392 0.14878 0.048062 0.33823 0.0047148 0.207 -0.18713 -0.30507 0.046599 0.26183 0.024823 -0.10435 0.22556 -0.24053 0.089927 -0.0069745 -0.10669 -0.032438 0.18151 0.00079584 -0.031103 -0.0022029 0.077471 0.079634 -0.30061 0.051325 -0.018189 
street 0.035415 -0.13116 -0.40154 -0.13252 0.29815 0.26888 -0.063571 0.27268 -0.015545 0.19334 -0.18108 -0.13381 -0.014705 0.22132 -0.11301 0.018778 0.29426 -0.55276 -0.098988 0.16903 0.40489 -0.20801 -0.17391 0.2198 0.23867 -0.028532 0.20263 0.24016 -0.13192 -0.031053 -0.08994 0.023126 0.010952 -0.13305 -0.013928 -0.015354 0.53708 -0.25255 0.05061 -0.57403 -0.26954 0.25498 -0.08614 0.0084902 0.0040904 -0.1566 -0.045098 -0.037049 -0.44959 0.12577 0.22839 -0.048852 0.034478 -0.13377 0.20219 -0.24027 -0.12411 -0.090963 0.34285 -0.09274 0.35372 0.071526 0.31242 -0.17148 -0.057211 -0.50668 0.026454 -0.18128 0.22161 -0.1058 0.12798 0.30387 -0.10093 -0.082621 0.13327 -0.36599 -0.082673 0.2324 0.37033 -0.070466 -0.50487 0.0016502 -0.23778 -0.069301 -0.05863 0.17375 -0.24077 -0.27999 0.16935 -0.20489 0.40394 -0.23011 -0.2542 0.20807 0.090635 -0.017602 0.16131 -0.088091 -0.205 0.079322 -0.24702 0.022124 -0.063 -0.10178 0.024503 -0.19276 -0.41573 -0.26265 0.059374 0.071561 0.0076712 -0.05578 0.076616 -0.045065 -0.19201 0.091647 -0.017776 0.41294 0.1369 -0.13582 -0.24947 0.34216 -0.095941 -0.1259 0.00041434 -0.082209 -0.15385 -0.14055 -0.31437 -0.068407 0.34848 -0.094009 0.17037 0.082606 0.06714 0.040918 -0.066324 0.27594 0.08897 -0.29666 -0.072154 0.11452 0.3595 -0.090193 -0.18234 -0.045846 0.072229 -0.0037535 0.19613 -0.11007 0.078503 -0.63752 0.13601 0.11021 -0.1277 -0.11152 0.058745 0.088812 0.17144 -0.074888 0.15477 -0.19954 0.42956 -0.33487 -0.19109 -0.013017 -0.0041371 0.0014229 -0.16996 -0.15386 0.12151 -0.13901 0.009239 0.1452 -0.010365 0.25143 0.074935 0.36163 -0.13727 0.12345 -0.13841 -0.10291 0.096179 -0.12128 -0.13036 -0.0024686 -0.3752 0.21158 0.036903 -0.011126 0.34015 -0.37213 0.31814 0.13437 -0.16163 0.27992 -0.23975 -0.19632 0.25165 0.22391 -0.12233 0.35243 0.063061 0.099023 -0.25537 0.11854 -0.27011 -0.023978 -0.054984 0.21953 -0.35588 -0.021208 0.01843 0.083928 0.14608 -0.32325 0.040519 -0.11875 -0.099285 -0.037576 0.051837 0.0024362 0.30725 -0.081121 0.14275 -0.20407 0.25207 -0.10605 -0.019892 -0.32 0.074077 0.2784 0.023133 -0.50457 -0.030518 0.063208 -0.24987 0.05778 -0.042314 -0.081104 -0.15786 -0.36733 -0.23771 0.2253 -0.073636 -0.086943 -0.041897 -0.22749 -0.094213 0.68207 -0.0021816 -0.16211 -0.1119 -0.13855 0.036301 0.069751 -0.18968 -0.4081 0.1158 -0.0097973 0.030873 0.020459 -0.23418 0.21605 -0.27246 0.46202 -0.37721 -0.090556 0.032507 0.23265 0.11783 -0.35196 0.43674 0.22275 0.049799 -0.025807 0.40812 -0.422 0.37402 -0.14356 0.057663 0.1392 0.17322 -0.011108 -0.23403 -0.049826 -0.041188 -0.32465 -0.25091 -0.040379 -0.28775 -0.31478 0.37148 -0.46676 0.033529 -0.13217 0.18592 -0.16171 -0.22456 -0.21145 
video 0.29062 -0.081408 -0.17095 0.10229 0.077979 0.060055 0.066466 0.46016 0.37739 0.0074744 -0.13838 0.31432 0.054292 0.27341 0.18586 -0.41055 -0.16109 -0.17121 0.29272 -0.0041227 0.22903 -0.28879 0.28291 -0.041879 -0.45312 0.2325 -0.19774 -0.036926 -0.21833 -0.034627 0.43715 -0.33253 0.43738 0.044042 0.089407 0.051868 -0.017863 -0.053541 0.14133 -0.047448 -0.10864 -0.014111 -0.21298 -0.047944 0.29045 0.07618 -0.20747 0.24446 0.043748 -0.32143 0.45313 -0.095577 -0.006032 0.03069 0.23331 0.14981 -0.1541 -0.51092 0.17999 0.23547 -0.0074268 -0.15539 -0.051695 -0.21602 -0.13365 -0.10165 -0.26199 0.095466 0.09102 -0.60524 -0.38596 -0.075217 0.23988 0.0040157 -0.63129 0.0020196 0.048794 0.028045 0.25445 0.050514 -0.040727 0.1477 -0.075549 0.19263 0.16996 0.06358 -0.10809 0.10966 -0.10694 -0.10409 -0.064643 -0.29761 -0.029737 -0.34594 0.29356 -0.053623 0.2447 0.016994 -0.31891 -0.30775 0.11007 -0.0947 -0.15827 -0.094691 -0.39692 -0.042277 -0.13317 0.011594 -0.079494 -0.035956 0.35052 -0.17844 0.31606 0.0089287 0.0091443 0.40532 -0.10042 0.20866 0.47897 0.074888 -0.11465 0.045067 0.29961 -0.15905 0.20869 0.2337 0.10938 -0.32704 -0.082185 -0.13181 0.11958 -0.19783 0.18179 0.15791 0.27269 0.35233 -0.099819 -0.19863 0.054474 -0.14196 -0.10382 0.18999 -0.23345 0.13489 -0.3637 -0.27655 -0.054324 -0.28981 -0.027946 -0.22109 0.46332 -0.26306 0.17351 0.15308 -0.10433 -0.30184 -0.07977 -0.11391 0.20927 0.24094 0.41971 -0.23367 -0.093035 0.1027 0.31777 0.16665 -0.24468 0.29343 -0.20444 -0.26012 0.07986 0.024723 -0.25583 0.1875 0.036692 -0.20145 0.10188 -0.071512 -0.33708 0.35744 -0.12519 -0.50639 0.31144 0.12043 -0.28703 -0.10581 -0.29528 0.055443 -0.20748 -0.082317 0.078922 -0.35765 -0.36609 -0.047063 -0.32774 -0.25348 -0.065074 -0.0096066 0.44419 0.055306 -0.051256 0.18853 0.35456 0.2479 -0.17149 -0.01203 -0.34186 0.0082418 0.082289 0.084821 -0.020157 0.25542 0.098606 0.056109 -0.15184 0.012148 0.29436 0.11464 -0.18963 0.10942 -0.23799 -0.14051 -0.050095 0.10874 0.25792 0.072548 -0.20773 0.027297 -0.21203 -0.49761 -0.089106 -0.029989 -0.13467 -0.25854 0.18976 -0.0098949 -0.068252 0.29613 -0.0052374 -0.051888 -0.26683 -0.060018 -0.20131 0.14787 0.2719 0.055363 -0.13754 0.31469 -0.46995 0.2881 -0.087402 0.52404 -0.077056 -0.32103 0.50705 0.04577 0.10241 0.076209 -0.054936 -0.1228 0.033779 0.11585 0.29983 -0.063664 -0.4237 0.36909 -0.26054 0.21331 0.33793 -0.1561 0.25202 -0.07516 -0.29352 0.027327 0.014643 -0.055801 0.1191 -0.12171 0.39568 0.20132 0.052479 -0.08511 0.14732 0.083988 -0.0081462 0.51583 0.13927 0.17092 0.019393 -0.3151 0.029419 0.17285 -0.19473 -0.086597 -0.3443 0.29858 -0.0040555 0.082764 0.03115 -0.20905 
lawyer -0.038969 0.029034 -0.07612 -0.27653 0.47242 0.4883 -0.10895 0.60868 -0.041075 0.088887 -0.38128 -0.041549 0.082918 -0.20981 -0.14077 0.12516 0.39627 0.16822 -0.29912 -0.63528 0.42712 -0.20814 0.16527 -0.12015 -0.28244 0.080491 -0.2897 -0.047672 -0.0098984 0.38792 0.44636 0.018414 0.10195 -0.04843 -0.35265 -0.49899 -0.1724 -0.51752 -0.39721 0.16337 0.083085 0.22799 -0.12967 -0.19945 0.1342 0.087034 -0.23894 -0.15462 0.26726 0.032816 -0.13139 -0.15156 -0.33767 0.12342 -0.26145 0.25738 0.37412 -0.021717 0.37543 0.071577 -0.1347 -0.17587 0.43732 -0.052996 -0.0017484 0.030743 -0.10391 -0.007101 -0.0033874 0.20465 -0.13433 0.25616 0.30434 -0.21865 -0.0084101 0.28222 -0.1041 0.074058 0.035513 0.14221 0.043735 0.16116 0.08984 -0.05277 0.22578 -0.11837 -0.49882 0.43535 0.072591 -0.24391 0.12116 -0.10356 -0.1512 0.2078 0.4418 0.17144 -0.085877 -0.11231 -0.18528 -0.0040368 0.21117 0.16679 -0.11352 0.031171 -0.53163 -0.49801 -0.038322 -0.16686 -0.099378 -0.049349 -0.12828 0.18973 0.27633 0.24745 -0.44188 -0.35653 -0.01551 -0.084456 -0.68719 0.083957 0.18721 -0.11823 0.19174 0.3609 0.45524 0.45235 0.017048 -0.28908 0.32903 0.1564 0.17952 -0.065693 0.0067735 -0.1488 -0.0053097 0.053354 -0.15677 0.23904 -0.10669 -0.37941 -0.22482 0.37884 0.19154 0.04663 -0.32986 -0.068119 -0.22839 0.51727 -0.22846 -0.48044 0.1319 0.20117 -0.019375 0.00608 0.11759 -0.19762 0.067948 0.037626 -0.1869 -0.038736 0.070567 -0.02741 0.056833 0.044237 0.25969 0.32132 0.32635 0.367 -0.14674 -0.45789 -0.022111 0.54166 0.18258 0.29875 -0.089424 -0.0029621 0.30025 -0.15467 -0.013865 0.41915 0.0012174 0.30931 0.089968 0.17403 -0.20031 0.29567 0.24162 0.092695 -0.088901 0.41096 0.28906 -0.13782 -0.25212 -0.21404 0.060069 0.1429 0.032535 -0.16929 -0.34799 0.48639 0.031142 0.15207 0.44693 -0.047456 -0.10054 -0.20477 -0.35658 0.21124 -0.070831 0.035091 0.051292 0.16318 -0.30597 0.28219 0.047724 0.15741 -0.13683 0.071596 0.23782 -0.073764 0.089647 0.12203 0.1885 0.026215 0.17792 0.049804 0.18939 -0.28691 -0.016158 -0.62632 0.47841 -0.28382 0.10875 -0.26954 -0.22068 0.11445 -0.20423 -0.20191 0.014265 -0.11877 -0.067752 -0.19813 -0.29683 0.21486 0.11086 -0.30915 -0.20409 0.11829 0.13232 -0.27373 -0.098739 -0.19053 -0.12588 0.31697 0.22619 -0.070482 0.20883 -0.0045489 0.26214 -0.23394 0.29233 -0.11421 -0.18084 -0.21286 -0.05375 0.4387 -0.13093 0.036385 0.052523 -0.1649 0.20923 0.065658 -0.0826 -0.13672 -0.096896 0.14423 0.63168 -0.090728 0.3058 -0.22533 0.068806 0.44402 0.60223 -0.30018 -0.11188 -0.30056 -0.34289 -8.2773e-05 0.19856 -0.064175 -0.22534 0.083168 0.3116 0.012198 0.2937 -0.22906 0.077305 -0.19398 -0.09306 -0.077322 
depression -0.013317 -0.23671 -0.11954 -0.33293 0.28745 0.29334 -0.14848 -0.034578 -0.034606 0.022873 -0.065795 0.038478 -0.61507 0.30102 -0.13192 -0.17945 0.14391 -0.48534 -0.79132 0.15365 -0.048324 0.070079 0.0024241 -0.33473 -0.13199 -0.00059794 0.25294 0.51021 0.6736 -0.20404 0.038457 -0.1949 0.1409 0.56749 -0.18195 -0.46942 -0.017444 -0.084252 -0.064931 0.20593 0.15077 -0.16721 -0.40435 0.015271 -0.095503 -0.33871 -0.025315 -0.26055 0.29 0.23494 0.068608 -0.17908 -0.040246 0.29547 0.28667 -0.28628 0.41101 0.12326 0.18806 -0.53591 0.081084 0.037991 0.23557 -0.19646 -0.028827 -0.30046 -0.32526 -0.029636 -0.11584 0.25228 0.39954 -0.08948 -0.29855 0.017998 -0.40216 -0.0062593 -0.13323 -0.24318 -0.22888 -0.30859 0.070946 0.30108 0.15316 -0.053503 0.031042 -0.022328 0.091854 -0.24359 -0.30431 0.1016 0.056319 0.047164 0.23165 0.26063 0.015187 0.32699 0.068664 -0.43778 -0.57083 -0.2704 -0.23279 0.28239 0.29098 0.074861 -0.13827 -0.14369 -0.042204 0.29066 0.044932 -0.39021 -0.16314 -0.25971 -0.18196 -0.13598 0.18312 0.26245 -0.062019 0.21564 0.16144 -0.42153 0.088664 0.093722 0.079648 0.067318 -0.19968 0.40581 -0.37066 -0.025297 -0.17797 0.20916 -0.01151 0.33431 0.022744 -0.0025621 0.48596 0.27913 -0.29542 -0.34785 0.11937 0.40952 0.23848 0.36107 -0.009466 -0.13934 0.27583 0.1705 0.095252 0.40666 0.31546 0.014933 0.14496 -0.066844 0.34933 -0.51194 -0.071654 0.19559 -0.0089692 -0.07963 0.54557 0.0030145 -0.42963 -0.37288 0.072028 -0.013473 -0.081634 0.13671 0.077947 0.23908 -0.4962 -0.50059 0.23456 -0.055428 -0.26307 0.0067398 0.1244 0.068576 0.17206 0.11726 -0.049266 -0.053749 -0.16169 -0.015687 -0.075619 -0.19674 -0.0064352 0.15009 0.41274 -0.19634 -0.30288 -0.15494 0.045042 -0.012462 -0.064138 -0.42631 -0.11678 -0.0040143 0.058243 -0.419 0.20324 -0.33116 0.094883 0.33821 0.16363 0.39525 -0.24096 -0.15654 0.052171 -0.28844 -0.014341 0.24809 -0.11503 0.14508 -0.24524 0.088797 0.0054401 -0.38717 -0.038231 -0.26536 -0.27832 -0.40873 0.044599 0.25766 0.27068 -0.37769 -0.51841 0.27437 -0.17829 -0.71047 0.27823 0.2174 0.16991 -0.55977 0.34774 -0.35297 -0.024989 -0.093251 0.60771 -0.036488 -0.026978 0.068469 -0.20201 -0.26324 -0.51258 0.37712 -0.12147 -0.08075 0.067361 0.37225 -0.10382 0.25238 0.032828 0.28065 0.0061103 0.38042 -0.31039 0.21655 0.096626 -0.070426 0.11895 -0.082493 0.33886 0.0078861 0.070911 -0.14769 -0.28283 0.71698 -0.01563 -0.40064 0.03426 0.17622 0.19165 -0.10481 0.10446 -0.14493 -0.30118 -0.27018 0.23657 0.18367 -0.089819 -0.0076656 0.61713 0.49791 -0.092813 -0.1076 0.33342 0.10996 0.061944 -0.11975 -0.29204 -0.32162 0.16648 0.25549 0.283 -0.23644 0.093866 0.0046235 -0.074352 -0.20341 -0.092833 0.49163 
index 0.44461 0.1132 0.32562 -0.033508 -0.20988 0.025007 0.13329 0.30234 0.17566 0.089195 -0.055209 0.46602 0.57336 0.17237 0.030821 -0.7634 0.056948 -0.71622 -0.21219 0.036084 0.28974 0.67831 0.15363 0.45196 0.50698 0.080923 -0.99226 0.38254 0.16201 -0.21302 0.20401 -0.46977 0.21447 0.057751 -0.38876 -0.066643 0.12175 -0.56134 0.1091 0.86568 0.54809 0.58888 -0.18364 -0.62624 0.74316 -0.20278 0.22636 -0.7317 -0.66838 0.12884 -0.067593 0.28457 -0.33593 -0.281 0.25088 -0.44865 0.21355 0.23613 0.31946 -0.4893 0.31707 0.65577 0.15911 0.37917 0.36821 -0.40363 -0.20006 -0.60123 0.22291 0.21139 0.79071 -0.53649 -0.026615 -0.10443 0.11481 -0.09652 -0.19257 -0.45126 -0.26039 0.47217 0.21772 0.66926 -0.48462 0.22254 -0.041807 0.70644 0.5971 0.1868 0.31724 -0.024633 -0.013972 -0.14842 0.22239 0.22709 0.9865 0.14699 -0.16208 -0.26338 -0.40282 0.22293 -0.40224 0.37893 -0.8269 -0.10902 -0.40007 0.066936 0.44702 -0.69272 -0.1662 -0.16801 0.26728 -0.43405 -0.0039374 -0.2108 -0.14706 0.18078 -0.70524 -0.17624 -0.00076765 0.028722 -0.072435 0.31238 0.014002 0.32375 0.3711 0.062312 -0.45033 -0.20144 -0.0034244 0.1526 -0.0089489 0.35914 0.61442 -0.0028167 0.21862 -0.048859 -0.049405 -0.047477 0.11701 0.43648 0.037479 0.06643 0.14058 0.24457 -0.17558 -0.108 -0.078852 0.46264 0.05762 0.059402 0.26584 0.22705 0.28307 -0.17618 -0.65792 0.10645 0.27743 -0.2509 -0.01707 -1.1719 -0.24672 -0.2941 -0.091518 0.23343 0.24931 -0.56251 0.056883 0.3733 -0.14016 0.52802 0.38776 -0.24729 -0.49121 0.063671 -0.53282 0.23589 0.19378 -0.36922 -0.13633 -0.446 0.14629 -0.39861 -0.10872 0.02709 0.84544 0.37762 0.34005 -0.30664 0.6981 0.03635 -0.1335 -0.37518 -0.23454 -0.68815 -0.032337 0.43124 -0.4773 0.50471 -0.024313 0.33476 0.20691 0.039562 0.183 0.26403 0.077706 -0.24735 0.40666 0.46158 -0.59532 0.50755 0.28434 -0.60389 -0.3969 0.81432 -0.60522 0.14983 -0.28253 -0.28647 -0.54216 0.27829 -0.19251 0.2624 -0.22943 -0.16377 -0.1203 0.06794 -0.35964 -0.13893 -0.28161 -0.40654 0.090878 0.29699 -0.097373 -0.48877 0.53206 -0.22562 -0.17154 0.13845 -0.27019 -0.11484 -0.52491 0.014869 -0.28374 -0.28045 0.07074 0.087878 -0.0074203 0.87856 0.032475 0.081842 -0.18688 0.26312 -0.65125 0.34852 -0.2456 0.33996 -0.39649 -0.23563 0.36601 -0.0045235 0.23927 -0.16999 -0.082293 0.4989 -0.22682 -0.024609 0.1355 -0.14635 0.11406 -0.12665 0.21643 0.0035929 -0.39309 0.16329 0.7839 -0.33947 -0.057765 -0.10875 -0.3123 0.14151 -0.41368 0.10401 -0.12908 -0.053151 0.3243 0.46417 -0.40104 -0.032625 0.31005 0.40383 0.077519 0.4934 0.21863 -0.43808 -0.3983 0.059167 0.14422 -0.22279 -0.27475 -0.14869 
sun 0.13649 0.20534 -0.20968 -0.03971 0.24818 -0.17701 0.16849 0.13689 0.15515 0.5817 -0.13145 -0.20374 -0.01378 0.56897 -0.39263 0.024476 -0.27604 -0.28623 0.13156 0.078343 -0.087534 0.43489 0.037334 -0.20073 -0.62764 -0.0081397 -0.24442 0.41411 -0.2253 -0.19298 0.066725 -0.060957 -0.29647 -0.28586 -0.19907 -0.062301 0.13774 -0.39979 0.3332 0.11219 -0.022408 0.19497 0.32158 -0.75355 -0.00077888 -0.52692 -0.28233 -0.031732 -0.44544 -0.013371 -0.10469 0.1084 -0.36201 0.012538 0.23826 -0.067593 0.27726 -0.24262 0.21529 -0.25424 0.022102 0.12886 -0.18046 0.15441 -0.3065 0.12452 -0.061686 -0.074684 -0.013095 -0.4578 -0.052649 -0.046298 0.048697 -0.13738 0.17678 -0.25351 0.32576 0.036145 -0.027994 0.033435 0.42103 -0.10135 -0.14205 -0.16819 -0.047561 0.072836 -0.031934 0.05662 0.13749 -0.21101 -0.08379 -0.12502 0.092115 0.051243 -0.0046881 0.038006 0.26088 -0.44897 0.042393 0.19939 -0.23124 -0.15938 0.4531 0.39316 0.10261 0.24488 -0.26101 0.70847 -0.29083 -0.32495 -0.41077 -0.19732 -0.18758 0.031839 0.02565 0.11866 -0.38224 0.46093 0.0037946 -0.034882 0.21397 -0.023853 -0.0699 -0.15159 0.20315 0.11101 -0.32817 -0.193 -0.3106 0.17255 -0.11263 0.26786 0.12737 -0.28217 -0.041267 -0.6814 0.037546 -0.094724 0.38308 0.023351 0.25599 0.17385 -0.24031 0.23781 -0.12127 0.2241 0.12532 -0.23363 0.24056 -0.04056 -0.0092567 -0.75028 -0.038362 -0.16144 -0.35087 -0.31468 -0.18671 0.029735 0.53419 -0.21899 0.34108 0.26688 0.16568 -0.0069746 0.11696 -0.29039 0.12814 0.34928 -0.61097 0.0022375 0.2185 -0.37005 -0.27987 0.0055788 -0.25358 0.14009 0.28608 0.19735 -0.47597 -0.020353 0.062321 0.032117 0.072795 0.38312 -0.35551 0.22478 0.3075 0.019841 -0.19944 0.28077 -0.10866 -0.15418 -0.11999 -0.41831 -0.32762 -0.36084 0.02864 0.47161 0.069799 0.081047 -0.18207 0.093514 -0.24567 -0.22521 0.16881 0.23287 0.073491 -0.041113 -0.15554 0.18574 -0.070917 -0.19888 -0.088986 -0.0392 -0.067268 0.21226 -0.40839 -0.26566 -0.2447 0.15391 -0.16245 -0.056004 -0.2543 -0.35209 0.0010489 0.17689 0.080056 0.073289 -0.028628 0.1822 0.24686 0.0051608 0.29803 -0.26874 -0.27333 -0.17512 -0.17369 0.30392 -0.38984 0.054378 -0.43656 0.040977 0.017106 -0.020712 -0.23975 0.21062 0.21667 0.40836 -0.59808 0.47663 -0.16926 0.3418 0.1086 0.18324 0.28368 0.23897 0.15276 -0.53813 0.1089 0.19625 0.067467 -0.22902 -0.19403 -0.09483 -0.21845 -0.15965 -0.10281 0.28192 -0.048062 -0.1861 0.15875 0.087893 0.49276 0.19127 0.062145 -0.26773 0.29457 -0.20131 0.060942 0.029833 0.10864 0.58058 0.038491 -0.25407 0.26513 0.46836 -0.17278 0.048868 0.099571 -0.42347 -0.018228 -0.098413 0.60192 0.04783 -0.11586 0.0037077 0.021656 -0.45754 -0.38942 0.25472 
cell 0.15398 0.2987 0.049526 -0.41458 0.58315 0.53582 -0.11199 0.3373 -0.10503 -0.16207 0.053596 0.15649 0.20386 0.20069 -0.22343 0.35868 -0.17037 -0.57818 0.17573 -0.32132 0.10022 -0.059672 0.049504 -0.28954 -0.27467 0.26855 0.0028085 0.14065 -0.38159 -0.31023 0.14337 -0.20006 0.21754 0.022209 -0.10498 -0.40654 0.25696 -0.14537 0.22656 -0.084659 -0.087845 0.36033 -0.25357 -0.17811 0.04614 -0.47624 -0.072204 -0.052139 0.3931 -0.011857 -0.077005 0.0067688 -0.1139 -0.44959 -0.27354 -0.0052278 0.14598 -0.2389 0.18785 -0.34389 -0.088608 0.43371 0.15381 0.20513 -0.36598 0.18786 -0.23663 -0.042139 -0.12642 -0.2619 -0.68083 -0.097631 -0.069505 0.45851 -0.6674 0.049353 0.03905 0.12637 0.21375 -0.24458 -0.0381 0.32804 -0.01035 -0.083931 -0.29294 0.19229 -0.33119 -0.14309 0.29222 0.16729 0.27451 -0.042794 0.042831 -0.32582 -0.047712 -0.051366 0.18039 0.31862 -0.074833 0.067171 -0.054171 0.10718 0.080864 0.40287 0.19034 0.060337 -0.14398 0.14585 -0.25034 -0.010861 0.13286 0.091804 0.072553 0.079115 -0.029284 0.61692 0.081993 -0.046551 -0.044592 -0.22151 -0.0081275 -0.080008 -0.19984 -0.10735 0.71222 -0.066521 0.0296 0.27215 0.058882 0.31604 0.11498 0.37636 0.044421 -0.089182 0.32457 0.23897 0.1753 -0.00083659 0.076619 -0.14495 -0.10539 0.078713 -0.10638 0.37722 -0.22528 -0.50438 -0.094818 -0.0029313 0.14476 0.1619 0.24507 0.34689 0.18749 -0.0081796 -0.27762 0.14718 0.10757 0.39008 0.77954 0.087162 -0.10307 -0.44846 0.11209 0.26086 -0.094225 -0.032183 -0.039518 0.080879 0.66699 -0.35058 0.54206 -0.43531 0.07044 0.33288 -0.41554 -0.25958 0.01322 0.21089 -0.2343 -0.034582 0.035574 -0.12462 0.15736 0.05573 -0.01253 0.035965 0.36485 -0.065745 0.17061 -0.15139 0.22885 -0.26683 -0.36087 0.11413 0.18076 0.065538 0.031729 -0.58444 0.004069 0.22489 0.27094 0.039973 0.2111 0.03622 0.040036 -0.10224 -0.33712 0.040286 -0.073589 0.028338 0.38151 -0.0486 0.1542 0.11672 0.39358 0.041059 0.13602 0.32509 -0.52994 -0.080876 -0.24412 -0.13943 -0.1218 0.046861 -0.0014088 0.1682 -0.21466 0.12493 -0.047775 -0.024734 0.072178 0.041435 -0.039316 -0.56948 -0.26551 -0.013725 0.09478 0.21868 -0.18142 -0.055432 -0.10976 -0.13234 -0.23312 0.062866 -0.052125 -0.59344 0.75237 0.27447 -0.30514 0.42499 -0.42128 0.51113 -0.42886 0.09932 0.031834 -0.056789 0.26264 -0.69484 0.23151 0.25444 0.28065 0.26877 0.22335 -0.34736 -0.45162 0.43603 -0.42723 0.26258 0.026478 0.27336 0.0056853 0.12407 0.1194 -0.0030727 -0.0090319 0.19109 0.23983 0.093509 0.072302 0.23118 -0.31618 -0.14394 0.35076 -0.00041139 0.16836 0.48042 0.31243 -0.29265 0.36245 0.18751 -0.0063174 0.22486 0.19039 -0.0036424 -0.16794 0.05503 -0.21285 -0.0020644 -0.1548 0.022944 
nurse -0.24086 -0.085907 -0.10138 -0.16295 0.39649 0.27021 0.19583 0.024777 0.02951 0.086303 0.014362 0.1047 -0.071751 0.53637 -0.3433 -0.31408 0.33509 -0.1436 -0.13062 0.041348 0.30535 0.049077 -0.080726 0.21398 0.043268 0.013892 0.098496 0.086477 -0.033767 -0.32095 0.074335 -0.11143 -0.080421 0.30701 0.036003 -0.21579 -0.21866 0.061079 0.16027 -0.043852 0.16833 -0.054763 -0.25348 0.1005 -0.057609 -0.28292 -0.15804 0.17085 0.30354 0.00064892 0.2011 -0.21832 -0.36276 0.40963 0.26492 0.16215 0.12937 0.17759 0.16253 -0.12813 -0.47082 -0.46988 0.10138 -0.4575 0.2036 0.047798 0.18271 -0.073563 -0.17052 0.015708 -0.13318 0.32183 0.1866 0.44139 0.38811 0.12928 -0.10843 0.38178 -0.21983 0.26227 0.19844 0.099804 0.042611 -0.31012 -0.12991 0.19417 -0.34692 -0.22672 -0.32409 -0.092152 0.25559 -0.012986 -0.24869 0.52543 0.22513 0.40139 -0.15341 0.1321 -0.12625 0.078452 0.29546 -0.045469 0.040387 0.23821 -0.35422 -0.38134 0.19621 0.21127 -0.11204 0.24537 0.0059828 -0.071475 0.10368 -0.043698 0.019825 0.16364 -0.15313 0.02219 -0.42626 -0.20743 0.015179 0.019506 -0.1762 0.12188 0.33061 0.1989 0.042758 0.12945 0.15265 0.26316 0.017966 0.30279 -0.21401 -0.028206 -0.031959 0.019531 -0.01197 -0.039454 0.32241 -0.13627 -0.045924 0.39117 0.052761 0.14142 -0.28313 -0.020901 0.089904 0.27611 -0.086144 -0.32331 0.19689 -0.62493 0.28014 0.039546 -0.34262 -0.12248 -0.17746 -0.12831 -0.089506 -0.18394 0.022559 -0.36125 -0.18799 -0.15328 -0.13959 0.1508 0.064 0.32206 -0.28096 0.0091207 0.32764 0.079547 -0.15719 0.055795 0.022085 -0.017442 -0.093514 -0.0041424 -0.41118 0.15048 -0.042504 0.26404 -0.17236 0.38376 0.18623 0.046264 0.32259 0.18222 -0.22192 0.29285 -0.13991 0.34546 -0.075213 0.062842 -0.29084 -0.053639 -0.14234 -0.42058 -0.18632 0.10454 0.10706 0.20824 0.064473 0.17792 -0.088714 -0.19492 -0.52238 0.049492 -0.24971 0.26361 0.0049438 0.4376 -0.27803 -0.17541 -0.37922 -0.15293 -0.088659 0.29741 -0.10729 -0.20012 -0.1981 0.16984 0.29744 -0.31578 0.15172 -0.057679 0.025555 -0.271 -0.30224 -0.12489 -0.080148 -0.23436 0.27789 -0.095038 -0.082175 -0.19003 0.1541 0.070667 -0.099718 -0.33451 -0.11176 0.002388 0.01586 0.34004 0.03244 -0.17983 0.058967 -0.051023 0.046548 -0.20054 -0.31907 0.22622 0.22834 -0.21672 0.097543 -0.31241 -0.052504 -0.30433 -0.10269 0.028561 0.20907 0.34993 0.17572 -0.25888 -0.14203 0.5486 0.045733 -0.59075 0.12499 -0.33723 -0.2567 0.0049682 -0.18073 -0.088137 0.050747 -0.43139 0.7886 0.4776 0.098825 -0.31887 0.15485 -0.12905 0.41056 -0.55544 0.086445 0.33852 -0.23628 -0.13504 -0.49621 -0.22758 0.27592 0.25029 0.35989 -0.41352 0.3079 0.64934 0.20388 -0.19752 0.13509 0.20806 
bird -0.25907 -0.16766 -0.21878 0.18885 -0.037006 0.45522 0.18173 -0.037259 0.17277 0.44661 0.025813 -0.076405 0.01317 0.20072 0.17733 -0.1351 0.35828 -0.30886 -0.0021514 -0.21315 -0.22831 0.092957 -0.12845 0.16035 -0.18062 0.10151 -0.048124 0.20499 -0.19193 -0.2162 0.42045 -0.34879 0.37526 0.072815 0.026576 -0.52507 -0.32776 -0.22004 0.037609 -0.27537 -0.1357 0.39296 0.10067 0.25497 0.27206 0.24218 -0.033111 -0.068642 -0.11226 0.1509 -0.34461 0.15713 -0.43187 -0.2681 -0.12338 -0.0677 -0.20181 0.16432 -0.21709 -0.53312 0.071508 -0.071089 0.31973 0.19985 -0.20322 -0.10952 -0.6412 -0.017042 0.1969 -0.16775 -0.20231 -0.2803 -0.12072 0.3279 -0.24308 -0.53556 -0.10908 0.056002 -0.03446 0.021051 0.075312 0.019647 -0.11199 0.024017 -0.21238 0.42465 -0.13329 -0.074601 0.22576 0.14282 0.58736 -0.12207 -0.017329 0.19256 -0.050923 -0.1252 0.55657 -0.20251 -0.31961 0.057182 0.097716 0.18542 -0.31454 0.18776 0.038158 -0.1167 -0.13725 0.45386 0.0035031 0.17922 -0.18614 -0.17169 -0.25301 -0.22704 0.0017923 0.2354 0.12844 -0.13685 0.052853 -0.014715 -0.069167 0.17802 0.090819 0.54028 0.70062 -0.030765 -0.4879 0.17231 -0.50468 0.42611 -0.039479 -0.089087 -0.032894 0.00071055 0.33933 -0.76741 -0.14682 -0.034919 0.025709 0.13161 0.083433 0.40378 -0.14189 0.45766 -0.38118 -0.021746 -0.053256 -0.14202 -0.44404 -0.11443 -0.017596 -0.1504 0.26965 0.11755 -0.15804 -0.36804 -0.30469 -0.50047 0.11387 -0.24642 0.31995 -0.25156 0.22747 -0.29139 -0.22391 0.12605 -0.077626 0.024814 -0.087777 0.24122 0.59959 -0.45026 -0.098532 -0.26459 0.32059 0.26238 0.3142 0.16246 -0.040972 0.28376 -0.15669 -0.22933 -0.010659 0.17726 0.25138 -0.24425 0.20566 0.24281 -0.11917 -0.039675 -0.13557 -0.1691 -0.35589 -0.33029 -0.19386 -0.16987 -0.2503 -0.10043 0.10487 -0.084738 -0.47732 0.18934 -0.061125 -0.12312 -0.22157 -0.20491 -0.019736 -0.58221 0.00037452 0.0069604 -0.2938 0.42549 -0.23991 0.26424 -0.50482 -0.18332 0.19828 -0.30162 -0.28511 0.13241 -0.097849 0.25486 -0.16089 -0.057341 0.2617 0.035394 0.02482 -0.46381 -0.12992 -0.2872 0.19037 0.079852 0.14415 -0.045931 0.17177 -0.15259 -0.057974 -0.072508 0.10153 -0.17972 0.20791 -0.28015 0.25635 0.025451 -0.50039 0.052271 0.21173 0.2868 0.13863 0.21115 0.020471 0.20734 -0.076444 0.020448 -0.17463 0.42174 -0.057231 0.07288 -0.18312 -0.11069 0.13498 -0.35275 0.090991 -0.35993 -0.31243 -0.10946 0.080649 0.066586 -0.1023 -0.52118 -0.1382 0.5411 -0.085389 0.16922 -0.095528 -0.017933 0.36079 -0.44115 0.10141 -0.12231 0.27153 -0.13597 0.084251 -0.53269 0.21151 0.065466 -0.25308 0.07762 -0.22507 -0.0041918 0.057353 -0.029944 0.67207 -0.34569 -0.22012 0.11253 0.0088325 0.1098 0.20794 -0.074584 
